{"learner":{"attributes":{"best_iteration":"28","best_score":"0.33925727145238355","scikit_learn":"{\"_estimator_type\": \"classifier\"}"},"feature_names":["yardline_100","game_seconds_remaining","score_differential","timeouts_pos","timeouts_def","leverage","cpoe_by_filter","target_share_by_filter","carry_share_by_filter"],"feature_types":["float","float","float","float","float","float","float","float","float"],"gradient_booster":{"model":{"gbtree_model_param":{"num_parallel_tree":"1","num_trees":"59"},"iteration_indptr":[0,1,2,3,4,5,6,7,8,9,10,11,12,13,14,15,16,17,18,19,20,21,22,23,24,25,26,27,28,29,30,31,32,33,34,35,36,37,38,39,40,41,42,43,44,45,46,47,48,49,50,51,52,53,54,55,56,57,58,59],"tree_info":[0,0,0,0,0,0,0,0,0,0,0,0,0,0,0,0,0,0,0,0,0,0,0,0,0,0,0,0,0,0,0,0,0,0,0,0,0,0,0,0,0,0,0,0,0,0,0,0,0,0,0,0,0,0,0,0,0,0,0],"trees":[{"base_weights":[3.69365E-1,-1.104749E0,4.485345E-1,-6.61527E-2,-1.7383134E-2,3.3363167E-2,6.400273E-1,4.8371714E-2,-2.847804E-1,7.8699976E-1,2.6214364E-1,-6.343939E-2,1.0914095E-2,-8.5244793E-4,4.3545667E-2,-7.335028E-3,3.98756E-2],"categories":[],"categories_nodes":[],"categories_segments":[],"categories_sizes":[],"default_left":[0,0,0,0,0,0,0,0,0,0,0,0,0,0,0,0,0],"id":0,"left_children":[1,3,5,-1,-1,7,9,-1,11,13,15,-1,-1,-1,-1,-1,-1],"loss_changes":[6.9345517E0,5.253005E-2,4.1980543E0,0E0,0E0,5.567293E0,1.8078203E0,0E0,7.234767E0,1.7428198E0,2.667993E0,0E0,0E0,0E0,0E0,0E0,0E0],"parents":[2147483647,0,0,1,1,2,2,5,5,6,6,8,8,9,9,10,10],"right_children":[2,4,6,-1,-1,8,10,-1,12,14,16,-1,-1,-1,-1,-1,-1],"split_conditions":[1E0,1.29E2,-4.688E3,-6.61527E-2,-1.7383134E-2,-1.4E1,4.659E-1,4.8371714E-2,1.355E3,9E-3,1.872E3,-6.343939E-2,1.0914095E-2,-8.5244793E-4,4.3545667E-2,-7.335028E-3,3.98756E-2],"split_indices":[4,1,5,0,0,2,8,0,1,7,1,0,0,0,0,0,0],"split_type":[0,0,0,0,0,0,0,0,0,0,0,0,0,0,0,0,0],"sum_hessian":[5.4173683E1,2.1009183E0,5.2072765E1,1.0504591E0,1.0504591E0,1.6807346E1,3.5265415E1,3.75164E0,1.3055707E1,2.4610758E1,1.0654657E1,3.9017057E0,9.154001E0,2.4010496E0,2.220971E1,6.452821E0,4.2018366E0],"tree_param":{"num_deleted":"0","num_feature":"9","num_nodes":"17","size_leaf_vector":"1"}},{"base_weights":[3.553001E-1,-1.0569628E0,4.336417E-1,-1.596765E-2,-6.4354375E-2,3.195254E-2,6.2225664E-1,4.7636785E-2,-2.720782E-1,7.6806706E-1,2.5366515E-1,-5.8972556E-2,1.048903E-2,-8.220194E-4,4.260923E-2,-6.988674E-3,3.907853E-2],"categories":[],"categories_nodes":[],"categories_segments":[],"categories_sizes":[],"default_left":[0,0,0,0,0,0,0,0,0,0,0,0,0,0,0,0,0],"id":1,"left_children":[1,3,5,-1,-1,7,9,-1,11,13,15,-1,-1,-1,-1,-1,-1],"loss_changes":[6.491002E0,1.2477589E-1,3.947834E0,0E0,0E0,5.238672E0,1.7174959E0,0E0,6.4340763E0,1.6639681E0,2.5141869E0,0E0,0E0,0E0,0E0,0E0,0E0],"parents":[2147483647,0,0,1,1,2,2,5,5,6,6,8,8,9,9,10,10],"right_children":[2,4,6,-1,-1,8,10,-1,12,14,16,-1,-1,-1,-1,-1,-1],"split_conditions":[1E0,1E0,-4.688E3,-1.596765E-2,-6.4354375E-2,-1.4E1,4.659E-1,4.7636785E-2,1.355E3,9E-3,1.872E3,-5.8972556E-2,1.048903E-2,-8.220194E-4,4.260923E-2,-6.988674E-3,3.907853E-2],"split_indices":[4,2,5,0,0,2,8,0,1,7,1,0,0,0,0,0,0],"split_type":[0,0,0,0,0,0,0,0,0,0,0,0,0,0,0,0,0],"sum_hessian":[5.3525635E1,2.156617E0,5.136902E1,1.0806354E0,1.0759815E0,1.6787167E1,3.4581852E1,3.6373768E0,1.314979E1,2.400283E1,1.0579022E1,4.0588975E0,9.090892E0,2.4023445E0,2.1600487E1,6.4827633E0,4.0962596E0],"tree_param":{"num_deleted":"0","num_feature":"9","num_nodes":"17","size_leaf_vector":"1"}},{"base_weights":[3.4181494E-1,-1.0118524E0,4.1929188E-1,-6.2010475E-2,-1.5039562E-2,3.0761363E-2,6.049242E-1,6.64665E-1,-3.9916822E-1,7.4952507E-1,2.4550748E-1,-1.2377257E-2,4.3714326E-2,4.090057E-2,-3.8615327E-2,-7.927036E-4,4.1691553E-2,-6.659832E-3,3.8299505E-2],"categories":[],"categories_nodes":[],"categories_segments":[],"categories_sizes":[],"default_left":[0,0,0,0,0,0,0,0,0,0,0,0,0,0,0,0,0,0,0],"id":2,"left_children":[1,3,5,-1,-1,7,9,11,13,15,17,-1,-1,-1,-1,-1,-1,-1,-1],"loss_changes":[6.076176E0,1.482482E-1,3.7087498E0,0E0,0E0,5.1061172E0,1.6307306E0,1.6607971E0,5.7224827E0,1.5884867E0,2.3697429E0,0E0,0E0,0E0,0E0,0E0,0E0,0E0,0E0],"parents":[2147483647,0,0,1,1,2,2,5,5,6,6,7,7,8,8,9,9,10,10],"right_children":[2,4,6,-1,-1,8,10,12,14,16,18,-1,-1,-1,-1,-1,-1,-1,-1],"split_conditions":[1E0,2.35E-2,-4.688E3,-6.2010475E-2,-1.5039562E-2,-2.3537E0,4.659E-1,1.47E-2,-1.4E1,9E-3,1.872E3,-1.2377257E-2,4.3714326E-2,4.090057E-2,-3.8615327E-2,-7.927036E-4,4.1691553E-2,-6.659832E-3,3.8299505E-2],"split_indices":[4,7,5,0,0,6,8,7,2,7,1,0,0,0,0,0,0,0,0],"split_type":[0,0,0,0,0,0,0,0,0,0,0,0,0,0,0,0,0,0,0],"sum_hessian":[5.2890377E1,2.2104053E0,5.0679974E1,1.10982E0,1.1005853E0,1.6762205E1,3.3917767E1,6.553501E0,1.0208703E1,2.3412882E1,1.0504886E1,1.1907588E0,5.3627424E0,2.1155424E0,8.093162E0,2.4035926E0,2.1009289E1,6.5113244E0,3.9935615E0],"tree_param":{"num_deleted":"0","num_feature":"9","num_nodes":"19","size_leaf_vector":"1"}},{"base_weights":[3.29327E-1,-9.6920455E-1,4.0587667E-1,-5.9755083E-2,-1.4173107E-2,3.158086E-2,5.880063E-1,4.6408307E-2,-2.4892911E-1,7.313439E-1,2.3765521E-1,-5.378231E-2,1.0345989E-2,1.878939E-2,4.8294827E-2,-6.3475417E-3,3.7537377E-2],"categories":[],"categories_nodes":[],"categories_segments":[],"categories_sizes":[],"default_left":[0,0,0,0,0,0,0,0,0,0,0,0,0,0,0,0,0],"id":3,"left_children":[1,3,5,-1,-1,7,9,-1,11,13,15,-1,-1,-1,-1,-1,-1],"loss_changes":[5.691231E0,1.6656828E-1,3.4605036E0,0E0,0E0,4.698103E0,1.5473518E0,0E0,5.6181955E0,1.6252937E0,2.2340295E0,0E0,0E0,0E0,0E0,0E0,0E0],"parents":[2147483647,0,0,1,1,2,2,5,5,6,6,8,8,9,9,10,10],"right_children":[2,4,6,-1,-1,8,10,-1,12,14,16,-1,-1,-1,-1,-1,-1],"split_conditions":[1E0,1.29E2,-4.688E3,-5.9755083E-2,-1.4173107E-2,-1.4E1,4.659E-1,4.6408307E-2,1.355E3,1.429E-1,1.872E3,-5.378231E-2,1.0345989E-2,1.878939E-2,4.8294827E-2,-6.3475417E-3,3.7537377E-2],"split_indices":[4,1,5,0,0,2,8,0,1,8,1,0,0,0,0,0,0],"split_type":[0,0,0,0,0,0,0,0,0,0,0,0,0,0,0,0,0],"sum_hessian":[5.2297165E1,2.262176E0,5.003499E1,1.1428978E0,1.1192783E0,1.6761572E1,3.3273415E1,3.4441836E0,1.3317389E1,2.2841084E1,1.0432331E1,4.2500114E0,9.067378E0,1.0113012E1,1.2728072E1,6.538568E0,3.8937628E0],"tree_param":{"num_deleted":"0","num_feature":"9","num_nodes":"17","size_leaf_vector":"1"}},{"base_weights":[3.1724983E-1,-9.2885715E-1,3.9284146E-1,-6.760725E-2,-7.816267E-3,3.0583732E-2,5.719372E-1,6.458464E-1,-3.7289733E-1,7.140318E-1,2.3009428E-1,-1.21621555E-2,4.2830307E-2,3.9552134E-2,-3.529764E-2,1.8144459E-2,4.7504183E-2,-6.05087E-3,3.6791105E-2],"categories":[],"categories_nodes":[],"categories_segments":[],"categories_sizes":[],"default_left":[0,0,0,0,0,0,0,0,0,0,0,0,0,0,0,0,0,0,0],"id":4,"left_children":[1,3,5,-1,-1,7,9,11,13,15,17,-1,-1,-1,-1,-1,-1,-1,-1],"loss_changes":[5.3300114E0,8.716302E-1,3.2523355E0,0E0,0E0,4.6422443E0,1.4711456E0,1.5927818E0,4.95518E0,1.587142E0,2.1064606E0,0E0,0E0,0E0,0E0,0E0,0E0,0E0,0E0],"parents":[2147483647,0,0,1,1,2,2,5,5,6,6,7,7,8,8,9,9,10,10],"right_children":[2,4,6,-1,-1,8,10,12,14,16,18,-1,-1,-1,-1,-1,-1,-1,-1],"split_conditions":[1E0,1.12E2,-4.688E3,-6.760725E-2,-7.816267E-3,-2.3537E0,4.659E-1,1.47E-2,-1.4E1,1.429E-1,1.872E3,-1.21621555E-2,4.2830307E-2,3.9552134E-2,-3.529764E-2,1.8144459E-2,4.7504183E-2,-6.05087E-3,3.6791105E-2],"split_indices":[4,1,5,0,0,6,8,7,2,8,1,0,0,0,0,0,0,0,0],"split_type":[0,0,0,0,0,0,0,0,0,0,0,0,0,0,0,0,0,0,0],"sum_hessian":[5.1710903E1,2.3119082E0,4.9398994E1,1.0088558E0,1.3030524E0,1.6729973E1,3.266902E1,6.3881245E0,1.0341848E1,2.2307598E1,1.03614235E1,1.1945963E0,5.1935277E0,1.9949437E0,8.346905E0,9.987645E0,1.2319953E1,6.5645556E0,3.796868E0],"tree_param":{"num_deleted":"0","num_feature":"9","num_nodes":"19","size_leaf_vector":"1"}},{"base_weights":[3.0603945E-1,-8.9266616E-1,3.8068902E-1,-6.462379E-2,-7.574892E-3,3.1455137E-2,5.5624473E-1,6.2957233E-1,-3.49652E-1,3.735981E-1,8.412991E-1,-1.178066E-2,4.2032983E-2,3.895041E-2,-3.3072554E-2,2.7275518E-2,-1.0572829E-2,2.3802642E-3,5.3023256E-2],"categories":[],"categories_nodes":[],"categories_segments":[],"categories_sizes":[],"default_left":[0,0,0,0,0,0,0,0,0,0,0,0,0,0,0,0,0,0,0],"id":5,"left_children":[1,3,5,-1,-1,7,9,11,13,15,17,-1,-1,-1,-1,-1,-1,-1,-1],"loss_changes":[5.007335E0,7.9891896E-1,3.0359907E0,0E0,0E0,4.2595034E0,1.4081516E0,1.5228362E0,4.5506344E0,2.3242922E0,2.0579596E0,0E0,0E0,0E0,0E0,0E0,0E0,0E0,0E0],"parents":[2147483647,0,0,1,1,2,2,5,5,6,6,7,7,8,8,9,9,10,10],"right_children":[2,4,6,-1,-1,8,10,12,14,16,18,-1,-1,-1,-1,-1,-1,-1,-1],"split_conditions":[1E0,1.12E2,-4.688E3,-6.462379E-2,-7.574892E-3,-2.3537E0,2.125E3,1.47E-2,-1.4E1,5.395E-1,-6.7618E0,-1.178066E-2,4.2032983E-2,3.895041E-2,-3.3072554E-2,2.7275518E-2,-1.0572829E-2,2.3802642E-3,5.3023256E-2],"split_indices":[4,1,5,0,0,6,1,7,2,8,6,0,0,0,0,0,0,0,0],"split_type":[0,0,0,0,0,0,0,0,0,0,0,0,0,0,0,0,0,0,0],"sum_hessian":[5.116092E1,2.3568628E0,4.8804058E1,1.0478069E0,1.3090558E0,1.6720686E1,3.208337E1,6.253835E0,1.0466851E1,2.0962446E1,1.1120924E1,1.2037648E0,5.0500703E0,1.9412873E0,8.525564E0,1.6253975E1,4.708471E0,2.6697662E0,8.451158E0],"tree_param":{"num_deleted":"0","num_feature":"9","num_nodes":"19","size_leaf_vector":"1"}},{"base_weights":[2.9491976E-1,-8.582253E-1,3.6858824E-1,-6.1823647E-2,-7.34119E-3,3.2331187E-2,5.403999E-1,4.4782232E-2,-2.1873309E-1,3.6025017E-1,8.2554865E-1,-4.8307914E-2,1.04227215E-2,2.6459748E-2,-1.0080301E-2,2.2964776E-3,5.2386533E-2],"categories":[],"categories_nodes":[],"categories_segments":[],"categories_sizes":[],"default_left":[0,0,0,0,0,0,0,0,0,0,0,0,0,0,0,0,0],"id":6,"left_children":[1,3,5,-1,-1,7,9,-1,11,13,15,-1,-1,-1,-1,-1,-1],"loss_changes":[4.7008305E0,7.3326826E-1,2.8256888E0,0E0,0E0,4.033571E0,1.3724651E0,0E0,4.837633E0,2.166084E0,1.9978371E0,0E0,0E0,0E0,0E0,0E0,0E0],"parents":[2147483647,0,0,1,1,2,2,5,5,6,6,8,8,9,9,10,10],"right_children":[2,4,6,-1,-1,8,10,-1,12,14,16,-1,-1,-1,-1,-1,-1],"split_conditions":[1E0,1.12E2,-4.688E3,-6.1823647E-2,-7.34119E-3,-1.4E1,2.125E3,4.4782232E-2,1.355E3,5.395E-1,-6.7618E0,-4.8307914E-2,1.04227215E-2,2.6459748E-2,-1.0080301E-2,2.2964776E-3,5.2386533E-2],"split_indices":[4,1,5,0,0,2,1,0,1,8,6,0,0,0,0,0,0],"split_type":[0,0,0,0,0,0,0,0,0,0,0,0,0,0,0,0,0],"sum_hessian":[5.061243E1,2.3997002E0,4.821273E1,1.0848249E0,1.3148751E0,1.6705717E1,3.1507015E1,3.1853008E0,1.3520415E1,2.0695501E1,1.0811513E1,4.4583054E0,9.06211E0,1.5955858E1,4.7396436E0,2.6654346E0,8.146079E0],"tree_param":{"num_deleted":"0","num_feature":"9","num_nodes":"17","size_leaf_vector":"1"}},{"base_weights":[2.8375348E-1,-8.25452E-1,3.5641122E-1,-5.919384E-2,-7.114908E-3,3.1480163E-2,5.249292E-1,6.1161727E-1,-3.269856E-1,3.4729162E-1,8.101576E-1,-1.1591446E-2,4.1189615E-2,3.7693102E-2,-3.0371143E-2,2.5660245E-2,-9.612964E-3,2.2155622E-3,5.1772356E-2],"categories":[],"categories_nodes":[],"categories_segments":[],"categories_sizes":[],"default_left":[0,0,0,0,0,0,0,0,0,0,0,0,0,0,0,0,0,0,0],"id":7,"left_children":[1,3,5,-1,-1,7,9,11,13,15,17,-1,-1,-1,-1,-1,-1,-1,-1],"loss_changes":[4.4089813E0,6.73949E-1,2.6455455E0,0E0,0E0,3.8739595E0,1.3374357E0,1.4607892E0,3.9652612E0,2.0177982E0,1.9402299E0,0E0,0E0,0E0,0E0,0E0,0E0,0E0,0E0],"parents":[2147483647,0,0,1,1,2,2,5,5,6,6,7,7,8,8,9,9,10,10],"right_children":[2,4,6,-1,-1,8,10,12,14,16,18,-1,-1,-1,-1,-1,-1,-1,-1],"split_conditions":[1E0,1.12E2,-4.688E3,-5.919384E-2,-7.114908E-3,-2.3537E0,2.125E3,1.47E-2,-1.4E1,5.395E-1,-6.7618E0,-1.1591446E-2,4.1189615E-2,3.7693102E-2,-3.0371143E-2,2.5660245E-2,-9.612964E-3,2.2155622E-3,5.1772356E-2],"split_indices":[4,1,5,0,0,6,1,7,2,8,6,0,0,0,0,0,0,0,0],"split_type":[0,0,0,0,0,0,0,0,0,0,0,0,0,0,0,0,0,0,0],"sum_hessian":[5.0056705E1,2.4403954E0,4.761631E1,1.1198794E0,1.3205159E0,1.6666775E1,3.0949535E1,6.0955667E0,1.0571208E1,2.0438324E1,1.0511212E1,1.2065626E0,4.889004E0,1.8299886E0,8.7412195E0,1.56689205E1,4.769403E0,2.6612568E0,7.8499556E0],"tree_param":{"num_deleted":"0","num_feature":"9","num_nodes":"19","size_leaf_vector":"1"}},{"base_weights":[2.7351207E-1,-7.9426223E-1,3.4511995E-1,-5.672195E-2,-6.8958066E-3,3.2379307E-2,5.098201E-1,4.370951E-2,-2.0089096E-1,3.3471343E-1,7.95095E-1,-4.448523E-2,1.0232504E-2,2.4876792E-2,-9.169257E-3,2.1374577E-3,5.1178522E-2],"categories":[],"categories_nodes":[],"categories_segments":[],"categories_sizes":[],"default_left":[0,0,0,0,0,0,0,0,0,0,0,0,0,0,0,0,0],"id":8,"left_children":[1,3,5,-1,-1,7,9,-1,11,13,15,-1,-1,-1,-1,-1,-1],"loss_changes":[4.1381016E0,6.2029934E-1,2.4588017E0,0E0,0E0,3.640667E0,1.3029518E0,0E0,4.2688494E0,1.8788471E0,1.8848963E0,0E0,0E0,0E0,0E0,0E0,0E0],"parents":[2147483647,0,0,1,1,2,2,5,5,6,6,8,8,9,9,10,10],"right_children":[2,4,6,-1,-1,8,10,-1,12,14,16,-1,-1,-1,-1,-1,-1],"split_conditions":[1E0,1.12E2,-4.688E3,-5.672195E-2,-6.8958066E-3,-1.4E1,2.125E3,4.370951E-2,1.355E3,5.395E-1,-6.7618E0,-4.448523E-2,1.0232504E-2,2.4876792E-2,-9.169257E-3,2.1374577E-3,5.1178522E-2],"split_indices":[4,1,5,0,0,2,1,0,1,8,6,0,0,0,0,0,0],"split_type":[0,0,0,0,0,0,0,0,0,0,0,0,0,0,0,0,0],"sum_hessian":[4.9535324E1,2.4789453E0,4.7056377E1,1.1529621E0,1.3259832E0,1.6645565E1,3.0410812E1,3.0155826E0,1.3629983E1,2.0190706E1,1.0220106E1,4.608519E0,9.021464E0,1.5392886E1,4.79782E0,2.6572297E0,7.562876E0],"tree_param":{"num_deleted":"0","num_feature":"9","num_nodes":"17","size_leaf_vector":"1"}},{"base_weights":[2.6319614E-1,-7.645714E-1,3.3372808E-1,-5.439627E-2,-6.683626E-3,4.565141E-1,-7.600922E-2,1.17518865E-1,5.96518E-1,-4.157424E-1,4.2262547E-2,4.1951913E-2,-6.708459E-3,5.1051963E-2,2.1135096E-2,-5.689437E-2,8.943213E-3],"categories":[],"categories_nodes":[],"categories_segments":[],"categories_sizes":[],"default_left":[0,0,0,0,0,0,0,0,0,0,0,0,0,0,0,0,0],"id":9,"left_children":[1,3,5,-1,-1,7,9,11,13,15,-1,-1,-1,-1,-1,-1,-1],"loss_changes":[3.880298E0,5.7172203E-1,2.42408E0,0E0,0E0,1.6710019E0,4.0470896E0,2.2859082E0,1.466052E0,4.1955824E0,0E0,0E0,0E0,0E0,0E0,0E0,0E0],"parents":[2147483647,0,0,1,1,2,2,5,5,6,6,7,7,8,8,9,9],"right_children":[2,4,6,-1,-1,8,10,12,14,16,-1,-1,-1,-1,-1,-1,-1],"split_conditions":[1E0,1.12E2,8.5376E0,-5.439627E-2,-6.683626E-3,-6.375E3,2.227E3,1.023E-1,3E0,1.08186E1,4.2262547E-2,4.1951913E-2,-6.708459E-3,5.1051963E-2,2.1135096E-2,-5.689437E-2,8.943213E-3],"split_indices":[4,1,6,0,0,5,1,8,4,6,0,0,0,0,0,0,0],"split_type":[0,0,0,0,0,0,0,0,0,0,0,0,0,0,0,0,0],"sum_hessian":[4.900852E1,2.5153663E0,4.6493153E1,1.1840839E0,1.3312825E0,3.5685204E1,1.0807949E1,1.096785E1,2.4717352E1,8.296991E0,2.510958E0,2.2329528E0,8.734897E0,5.764391E0,1.8952963E1,3.334088E0,4.9629035E0],"tree_param":{"num_deleted":"0","num_feature":"9","num_nodes":"17","size_leaf_vector":"1"}},{"base_weights":[2.5338295E-1,-7.3629725E-1,3.2270935E-1,-5.220583E-2,-6.478153E-3,4.4284984E-1,-7.212231E-2,1.14927135E-1,5.804627E-1,-3.957001E-1,4.164121E-2,4.041725E-2,-6.834354E-3,5.037455E-2,2.042101E-2,-5.3157896E-2,8.613127E-3],"categories":[],"categories_nodes":[],"categories_segments":[],"categories_sizes":[],"default_left":[0,0,0,0,0,0,0,0,0,0,0,0,0,0,0,0,0],"id":10,"left_children":[1,3,5,-1,-1,7,9,11,13,15,-1,-1,-1,-1,-1,-1,-1],"loss_changes":[3.638583E0,5.276773E-1,2.262311E0,0E0,0E0,1.5664105E0,3.793415E0,2.1945205E0,1.4432163E0,3.7433872E0,0E0,0E0,0E0,0E0,0E0,0E0,0E0],"parents":[2147483647,0,0,1,1,2,2,5,5,6,6,7,7,8,8,9,9],"right_children":[2,4,6,-1,-1,8,10,12,14,16,-1,-1,-1,-1,-1,-1,-1],"split_conditions":[1E0,1.12E2,8.5376E0,-5.220583E-2,-6.478153E-3,-6.375E3,2.227E3,-1.4E1,3E0,1.08186E1,4.164121E-2,4.041725E-2,-6.834354E-3,5.037455E-2,2.042101E-2,-5.3157896E-2,8.613127E-3],"split_indices":[4,1,6,0,0,5,1,2,4,6,0,0,0,0,0,0,0],"split_type":[0,0,0,0,0,0,0,0,0,0,0,0,0,0,0,0,0],"sum_hessian":[4.8568947E1,2.54969E0,4.6019257E1,1.2132714E0,1.3364186E0,3.518994E1,1.0829313E1,1.0944659E1,2.4245283E1,8.391528E0,2.4377856E0,2.3248954E0,8.619764E0,5.5682425E0,1.867704E1,3.4570246E0,4.934503E0],"tree_param":{"num_deleted":"0","num_feature":"9","num_nodes":"17","size_leaf_vector":"1"}},{"base_weights":[2.4402049E-1,-7.093596E-1,3.1214E-1,-5.067512E-2,-5.1060366E-3,4.2962304E-1,-6.826473E-2,1.12416804E-1,5.647278E-1,-3.7676236E-1,4.103417E-2,4.113446E-2,-6.415604E-3,4.971858E-2,1.9724127E-2,-4.976729E-2,8.294193E-3],"categories":[],"categories_nodes":[],"categories_segments":[],"categories_sizes":[],"default_left":[0,0,0,0,0,0,0,0,0,0,0,0,0,0,0,0,0],"id":11,"left_children":[1,3,5,-1,-1,7,9,11,13,15,-1,-1,-1,-1,-1,-1,-1],"loss_changes":[3.4122217E0,5.580431E-1,2.1096897E0,0E0,0E0,1.4666E0,3.5580819E0,2.142473E0,1.4209929E0,3.3473353E0,0E0,0E0,0E0,0E0,0E0,0E0,0E0],"parents":[2147483647,0,0,1,1,2,2,5,5,6,6,7,7,8,8,9,9],"right_children":[2,4,6,-1,-1,8,10,12,14,16,-1,-1,-1,-1,-1,-1,-1],"split_conditions":[1E0,2.35E-2,8.5376E0,-5.067512E-2,-5.1060366E-3,-6.375E3,2.227E3,1.023E-1,3E0,1.08186E1,4.103417E-2,4.113446E-2,-6.415604E-3,4.971858E-2,1.9724127E-2,-4.976729E-2,8.294193E-3],"split_indices":[4,7,6,0,0,5,1,8,4,6,0,0,0,0,0,0,0],"split_type":[0,0,0,0,0,0,0,0,0,0,0,0,0,0,0,0,0],"sum_hessian":[4.8131756E1,2.5819607E0,4.5549793E1,1.2745517E0,1.3074088E0,3.470288E1,1.0846916E1,1.0912945E1,2.3789934E1,8.48016E0,2.3667562E0,2.1504707E0,8.762474E0,5.377657E0,1.8412277E1,3.5729601E0,4.9071994E0],"tree_param":{"num_deleted":"0","num_feature":"9","num_nodes":"17","size_leaf_vector":"1"}},{"base_weights":[2.3503909E-1,-6.8239355E-1,3.0193576E-1,-5.2742388E-2,7.062717E-3,4.166822E-1,-6.445362E-2,1.100297E-1,5.4930574E-1,-3.5885867E-1,4.0440544E-2,3.407054E-2,-8.779096E-3,4.9082067E-2,1.904433E-2,-4.667815E-2,7.986094E-3],"categories":[],"categories_nodes":[],"categories_segments":[],"categories_sizes":[],"default_left":[0,0,0,0,0,0,0,0,0,0,0,0,0,0,0,0,0],"id":12,"left_children":[1,3,5,-1,-1,7,9,11,13,15,-1,-1,-1,-1,-1,-1,-1],"loss_changes":[3.1961539E0,1.2588533E0,1.9650865E0,0E0,0E0,1.3728013E0,3.3396406E0,2.060062E0,1.3991895E0,2.999226E0,0E0,0E0,0E0,0E0,0E0,0E0,0E0],"parents":[2147483647,0,0,1,1,2,2,5,5,6,6,7,7,8,8,9,9],"right_children":[2,4,6,-1,-1,8,10,12,14,16,-1,-1,-1,-1,-1,-1,-1],"split_conditions":[1E0,1.45E2,8.5376E0,-5.2742388E-2,7.062717E-3,-6.375E3,2.227E3,3E0,3E0,1.08186E1,4.0440544E-2,3.407054E-2,-8.779096E-3,4.9082067E-2,1.904433E-2,-4.667815E-2,7.986094E-3],"split_indices":[4,1,6,0,0,5,1,3,4,6,0,0,0,0,0,0,0],"split_type":[0,0,0,0,0,0,0,0,0,0,0,0,0,0,0,0,0],"sum_hessian":[4.77202E1,2.6178493E0,4.5102352E1,1.6093831E0,1.0084664E0,3.4241325E1,1.0861024E1,1.0890325E1,2.3351002E1,8.5631695E0,2.2978542E0,3.1675928E0,7.7227316E0,5.192691E0,1.8158312E1,3.682216E0,4.880954E0],"tree_param":{"num_deleted":"0","num_feature":"9","num_nodes":"17","size_leaf_vector":"1"}},{"base_weights":[2.2645967E-1,-6.5478516E-1,2.9194358E-1,-5.039515E-2,6.8997475E-3,1.6535969E-1,6.43464E-1,5.457092E-1,-5.505347E-2,-1.5897708E-2,7.755859E-1,3.491154E-2,-7.410131E-3,-9.4679175E-3,4.05714E-2,7.876217E-3,4.1551523E-2],"categories":[],"categories_nodes":[],"categories_segments":[],"categories_sizes":[],"default_left":[0,0,0,0,0,0,0,0,0,0,0,0,0,0,0,0,0],"id":13,"left_children":[1,3,5,-1,-1,7,9,11,13,-1,15,-1,-1,-1,-1,-1,-1],"loss_changes":[2.9791996E0,1.1609238E0,1.9254675E0,0E0,0E0,2.9574625E0,1.738379E0,1.4691017E0,2.8320968E0,0E0,2.3287868E-1,0E0,0E0,0E0,0E0,0E0,0E0],"parents":[2147483647,0,0,1,1,2,2,5,5,6,6,7,7,8,8,10,10],"right_children":[2,4,6,-1,-1,8,10,12,14,-1,16,-1,-1,-1,-1,-1,-1],"split_conditions":[1E0,1.45E2,2.506E3,-5.039515E-2,6.8997475E-3,-2.3537E0,-1.0478E1,6.56E-2,1.078E4,-1.5897708E-2,-6E0,3.491154E-2,-7.410131E-3,-9.4679175E-3,4.05714E-2,7.876217E-3,4.1551523E-2],"split_indices":[4,1,1,0,0,6,6,7,5,0,2,0,0,0,0,0,0],"split_type":[0,0,0,0,0,0,0,0,0,0,0,0,0,0,0,0,0],"sum_hessian":[4.7313404E1,2.6501422E0,4.466326E1,1.6457461E0,1.0043962E0,3.3919228E1,1.0744036E1,1.1903116E1,2.201611E1,1.1281618E0,9.615874E0,9.753151E0,2.1499643E0,1.9738153E1,2.2779567E0,1.1078091E0,8.508065E0],"tree_param":{"num_deleted":"0","num_feature":"9","num_nodes":"17","size_leaf_vector":"1"}},{"base_weights":[2.18139E-1,-6.2860155E-1,2.821809E-1,-4.8197296E-2,6.7405845E-3,1.5971923E-1,6.2773776E-1,3.2969508E-1,-2.9987332E-1,-1.6360212E-2,7.5980073E-1,2.0582268E-2,-3.8660783E-2,-4.153006E-2,9.105557E-3,4.5354947E-2,4.204942E-3],"categories":[],"categories_nodes":[],"categories_segments":[],"categories_sizes":[],"default_left":[0,0,0,0,0,0,0,0,0,0,0,0,0,0,0,0,0],"id":14,"left_children":[1,3,5,-1,-1,7,9,11,13,-1,15,-1,-1,-1,-1,-1,-1],"loss_changes":[2.7763622E0,1.0720259E0,1.814522E0,0E0,0E0,2.8135023E0,1.6986938E0,2.6541739E0,2.6851625E0,0E0,9.590602E-1,0E0,0E0,0E0,0E0,0E0,0E0],"parents":[2147483647,0,0,1,1,2,2,5,5,6,6,7,7,8,8,10,10],"right_children":[2,4,6,-1,-1,8,10,12,14,-1,16,-1,-1,-1,-1,-1,-1],"split_conditions":[1E0,1.45E2,2.506E3,-4.8197296E-2,6.7405845E-3,8.5376E0,-1.897E4,2.408E3,1.08186E1,-1.6360212E-2,3.209E3,2.0582268E-2,-3.8660783E-2,-4.153006E-2,9.105557E-3,4.5354947E-2,4.204942E-3],"split_indices":[4,1,1,0,0,6,5,1,6,0,1,0,0,0,0,0,0],"split_type":[0,0,0,0,0,0,0,0,0,0,0,0,0,0,0,0,0],"sum_hessian":[4.6927948E1,2.6798887E0,4.424806E1,1.6794693E0,1.0004194E0,3.374972E1,1.0498335E1,2.4844034E1,8.905688E0,1.0959476E0,9.402388E0,2.3709124E1,1.1349096E0,3.8942814E0,5.011407E0,7.438412E0,1.9639752E0],"tree_param":{"num_deleted":"0","num_feature":"9","num_nodes":"17","size_leaf_vector":"1"}},{"base_weights":[2.0820533E-1,-6.037468E-1,2.7078268E-1,-1.9810225E-3,-4.5726683E-2,5.657866E-3,4.2162868E-1,4.2487666E-2,-2.1790619E-1,5.752734E-1,8.769022E-2,-4.235441E-2,8.513897E-3,8.175378E-3,4.327558E-2,-9.255688E-3,3.8709264E-2],"categories":[],"categories_nodes":[],"categories_segments":[],"categories_sizes":[],"default_left":[0,0,0,0,0,0,0,0,0,0,0,0,0,0,0,0,0],"id":15,"left_children":[1,3,5,-1,-1,7,9,-1,11,13,15,-1,-1,-1,-1,-1,-1],"loss_changes":[2.576018E0,6.137241E-1,1.7882798E0,0E0,0E0,3.4404855E0,1.4130611E0,0E0,3.6696167E0,2.171701E0,2.0475962E0,0E0,0E0,0E0,0E0,0E0,0E0],"parents":[2147483647,0,0,1,1,2,2,5,5,6,6,8,8,9,9,10,10],"right_children":[2,4,6,-1,-1,8,10,-1,12,14,16,-1,-1,-1,-1,-1,-1],"split_conditions":[1E0,1E0,-4.688E3,-1.9810225E-3,-4.5726683E-2,-1.4E1,4.659E-1,4.2487666E-2,1.355E3,1.429E-1,2.449E3,-4.235441E-2,8.513897E-3,8.175378E-3,4.327558E-2,-9.255688E-3,3.8709264E-2],"split_indices":[4,2,5,0,0,2,8,0,1,8,1,0,0,0,0,0,0],"split_type":[0,0,0,0,0,0,0,0,0,0,0,0,0,0,0,0,0],"sum_hessian":[4.6481655E1,2.7072034E0,4.3774452E1,1.3621587E0,1.3450447E0,1.6250433E1,2.752402E1,2.8162756E0,1.3434157E1,1.8355831E1,9.168189E0,4.6748385E0,8.759318E0,8.2354355E0,1.0120396E1,7.083607E0,2.0845816E0],"tree_param":{"num_deleted":"0","num_feature":"9","num_nodes":"17","size_leaf_vector":"1"}},{"base_weights":[2.0061548E-1,-5.8169234E-1,2.6199338E-1,-4.513714E-2,7.151337E-3,1.4487082E-1,6.00555E-1,5.1482207E-1,-6.309432E-2,-1.6767524E-2,7.379793E-1,3.34726E-2,-8.0291545E-3,-9.569873E-3,3.9631844E-2,7.5220526E-3,3.9679702E-2],"categories":[],"categories_nodes":[],"categories_segments":[],"categories_sizes":[],"default_left":[0,0,0,0,0,0,0,0,0,0,0,0,0,0,0,0,0],"id":16,"left_children":[1,3,5,-1,-1,7,9,11,13,-1,15,-1,-1,-1,-1,-1,-1],"loss_changes":[2.41347E0,9.984429E-1,1.671746E0,0E0,0E0,2.6692078E0,1.6728072E0,1.4068973E0,2.6582224E0,0E0,2.0656967E-1,0E0,0E0,0E0,0E0,0E0,0E0],"parents":[2147483647,0,0,1,1,2,2,5,5,6,6,7,7,8,8,10,10],"right_children":[2,4,6,-1,-1,8,10,12,14,-1,16,-1,-1,-1,-1,-1,-1],"split_conditions":[1E0,1.45E2,2.506E3,-4.513714E-2,7.151337E-3,-2.3537E0,-1.0478E1,6.56E-2,1.078E4,-1.6767524E-2,-6E0,3.34726E-2,-8.0291545E-3,-9.569873E-3,3.9631844E-2,7.5220526E-3,3.9679702E-2],"split_indices":[4,1,1,0,0,6,6,7,5,0,2,0,0,0,0,0,0],"split_type":[0,0,0,0,0,0,0,0,0,0,0,0,0,0,0,0,0],"sum_hessian":[4.6089535E1,2.7362847E0,4.3353252E1,1.7260151E0,1.0102695E0,3.3271244E1,1.0082007E1,1.1441796E1,2.1829447E1,1.1064509E0,8.975556E0,9.317439E0,2.1243575E0,1.965833E1,2.1711164E0,1.0965185E0,7.8790383E0],"tree_param":{"num_deleted":"0","num_feature":"9","num_nodes":"17","size_leaf_vector":"1"}},{"base_weights":[1.9326603E-1,-5.590785E-1,2.5318792E-1,-4.3257635E-2,6.986314E-3,-3.3520313E-4,4.0005872E-1,4.1835885E-2,-2.1617411E-1,5.518418E-1,7.788936E-2,2.1678302E-2,-2.7835155E-2,7.2433087E-3,4.2333145E-2,-9.066685E-3,3.7781328E-2],"categories":[],"categories_nodes":[],"categories_segments":[],"categories_sizes":[],"default_left":[0,0,0,0,0,0,0,0,0,0,0,0,0,0,0,0,0],"id":17,"left_children":[1,3,5,-1,-1,7,9,-1,11,13,15,-1,-1,-1,-1,-1,-1],"loss_changes":[2.2487178E0,9.25061E-1,1.6377726E0,0E0,0E0,3.276106E0,1.3188248E0,0E0,3.4307096E0,2.1289825E0,1.9084433E0,0E0,0E0,0E0,0E0,0E0,0E0],"parents":[2147483647,0,0,1,1,2,2,5,5,6,6,8,8,9,9,10,10],"right_children":[2,4,6,-1,-1,8,10,-1,12,14,16,-1,-1,-1,-1,-1,-1],"split_conditions":[1E0,1.45E2,-4.688E3,-4.3257635E-2,6.986314E-3,-1.4E1,4.659E-1,4.1835885E-2,-2.3537E0,1.429E-1,2.449E3,2.1678302E-2,-2.7835155E-2,7.2433087E-3,4.2333145E-2,-9.066685E-3,3.7781328E-2],"split_indices":[4,1,5,0,0,2,8,0,6,8,1,0,0,0,0,0,0],"split_type":[0,0,0,0,0,0,0,0,0,0,0,0,0,0,0,0,0],"sum_hessian":[4.5740833E1,2.759834E0,4.2981E1,1.7536811E0,1.0061531E0,1.6132084E1,2.6848913E1,2.7173283E0,1.3414757E1,1.7765972E1,9.082942E0,4.519051E0,8.895705E0,8.089908E0,9.676064E0,7.099822E0,1.9831197E0],"tree_param":{"num_deleted":"0","num_feature":"9","num_nodes":"17","size_leaf_vector":"1"}},{"base_weights":[1.869581E-1,6.7927785E-2,5.7675165E-1,2.3992588E-1,-3.8368437E-1,-1.7180873E-2,7.1733445E-1,3.1324637E-1,-3.8183212E-2,4.091323E-1,-7.329298E-1,7.7645296E-1,7.011134E-3,6.640864E-3,3.3902414E-2,3.115711E-2,5.064036E-3,-6.938235E-2,-7.255857E-3,4.2503748E-2,1.1234644E-2],"categories":[],"categories_nodes":[],"categories_segments":[],"categories_sizes":[],"default_left":[0,0,0,0,0,0,0,0,0,0,0,0,0,0,0,0,0,0,0,0,0],"id":18,"left_children":[1,3,5,7,9,-1,11,13,-1,15,17,19,-1,-1,-1,-1,-1,-1,-1,-1,-1],"loss_changes":[2.1130261E0,2.9403465E0,1.6332421E0,2.238509E0,3.2067227E0,0E0,2.1938944E-1,1.6232336E0,0E0,1.906817E-1,2.7412581E0,1.5456533E-1,0E0,0E0,0E0,0E0,0E0,0E0,0E0,0E0,0E0],"parents":[2147483647,0,0,1,1,2,2,3,3,4,4,6,6,7,7,9,9,10,10,11,11],"right_children":[2,4,6,8,10,-1,12,14,-1,16,18,20,-1,-1,-1,-1,-1,-1,-1,-1,-1],"split_conditions":[2.506E3,8.5376E0,-1.0478E1,2.408E3,-9E0,-1.7180873E-2,6.495E-1,1.541E3,-3.8183212E-2,-1.4112E4,1.56E-2,3.209E3,7.011134E-3,6.640864E-3,3.3902414E-2,3.115711E-2,5.064036E-3,-6.938235E-2,-7.255857E-3,4.2503748E-2,1.1234644E-2],"split_indices":[1,6,6,1,2,0,8,1,0,5,7,1,0,0,0,0,0,0,0,0,0],"split_type":[0,0,0,0,0,0,0,0,0,0,0,0,0,0,0,0,0,0,0,0,0],"sum_hessian":[4.5386448E1,3.5668663E1,9.717787E0,2.6170332E1,9.49833E0,1.0962975E0,8.62149E0,2.502959E1,1.1407428E0,2.8521757E0,6.646154E0,7.507065E0,1.1144243E0,1.7659416E1,7.370174E0,1.0783632E0,1.7738127E0,2.5004308E0,4.1457233E0,6.1462965E0,1.3607684E0],"tree_param":{"num_deleted":"0","num_feature":"9","num_nodes":"21","size_leaf_vector":"1"}},{"base_weights":[1.7923424E-1,-5.373215E-1,2.3767282E-1,-4.155959E-2,-7.113495E-4,-9.820062E-3,3.8275683E-1,4.1013893E-2,-2.168595E-1,5.3305155E-1,6.96996E-2,-3.9248995E-2,7.449036E-3,6.6833957E-3,4.151285E-2,-8.96649E-3,3.7041035E-2],"categories":[],"categories_nodes":[],"categories_segments":[],"categories_sizes":[],"default_left":[0,0,0,0,0,0,0,0,0,0,0,0,0,0,0,0,0],"id":19,"left_children":[1,3,5,-1,-1,7,9,-1,11,13,15,-1,-1,-1,-1,-1,-1],"loss_changes":[2.0566359E0,5.692712E-1,1.557981E0,0E0,0E0,3.0946608E0,1.2479386E0,0E0,3.1045547E0,2.061583E0,1.8057661E0,0E0,0E0,0E0,0E0,0E0,0E0],"parents":[2147483647,0,0,1,1,2,2,5,5,6,6,8,8,9,9,10,10],"right_children":[2,4,6,-1,-1,8,10,-1,12,14,16,-1,-1,-1,-1,-1,-1],"split_conditions":[1E0,2.35E-2,-4.688E3,-4.155959E-2,-7.113495E-4,-1.4E1,4.659E-1,4.1013893E-2,1.355E3,1.429E-1,2.449E3,-3.9248995E-2,7.449036E-3,6.6833957E-3,4.151285E-2,-8.96649E-3,3.7041035E-2],"split_indices":[4,7,5,0,0,2,8,0,1,8,1,0,0,0,0,0,0],"split_type":[0,0,0,0,0,0,0,0,0,0,0,0,0,0,0,0,0],"sum_hessian":[4.5064537E1,2.7801812E0,4.228436E1,1.4029983E0,1.3771827E0,1.5971515E1,2.6312843E1,2.5970478E0,1.3374467E1,1.7303114E1,9.009729E0,4.790115E0,8.5843525E0,8.001063E0,9.30205E0,7.1058054E0,1.9039234E0],"tree_param":{"num_deleted":"0","num_feature":"9","num_nodes":"17","size_leaf_vector":"1"}},{"base_weights":[1.7276861E-1,-5.1819557E-1,2.3000027E-1,-4.045225E-2,7.202091E-3,-8.588826E-3,3.7134466E-1,4.0458705E-2,-2.0736879E-1,5.1876664E-1,6.9217205E-2,2.4676345E-2,-2.4319926E-2,6.4152316E-3,4.0825274E-2,-8.527714E-3,3.652088E-2],"categories":[],"categories_nodes":[],"categories_segments":[],"categories_sizes":[],"default_left":[0,0,0,0,0,0,0,0,0,0,0,0,0,0,0,0,0],"id":20,"left_children":[1,3,5,-1,-1,7,9,-1,11,13,15,-1,-1,-1,-1,-1,-1],"loss_changes":[1.9270153E0,8.492944E-1,1.4503E0,0E0,0E0,2.9217148E0,1.1653397E0,0E0,3.0610895E0,1.9845433E0,1.7096754E0,0E0,0E0,0E0,0E0,0E0,0E0],"parents":[2147483647,0,0,1,1,2,2,5,5,6,6,8,8,9,9,10,10],"right_children":[2,4,6,-1,-1,8,10,-1,12,14,16,-1,-1,-1,-1,-1,-1],"split_conditions":[1E0,1.45E2,-4.688E3,-4.045225E-2,7.202091E-3,-1.4E1,4.659E-1,4.0458705E-2,-3.7997E0,1.429E-1,2.449E3,2.4676345E-2,-2.4319926E-2,6.4152316E-3,4.0825274E-2,-8.527714E-3,3.652088E-2],"split_indices":[4,1,5,0,0,2,8,0,6,8,1,0,0,0,0,0,0],"split_type":[0,0,0,0,0,0,0,0,0,0,0,0,0,0,0,0,0],"sum_hessian":[4.471573E1,2.8043354E0,4.1911392E1,1.7945145E0,1.0098208E0,1.59414625E1,2.596993E1,2.5168138E0,1.3424648E1,1.6971636E1,8.998294E0,3.6037219E0,9.820927E0,7.961568E0,9.010068E0,7.148194E0,1.8501002E0],"tree_param":{"num_deleted":"0","num_feature":"9","num_nodes":"17","size_leaf_vector":"1"}},{"base_weights":[1.6736129E-1,5.627935E-2,5.433829E-1,2.2338079E-1,-3.734669E-1,-1.8359458E-2,6.894614E-1,2.9656035E-1,-3.734633E-2,3.9386576E-1,-7.0058835E-1,7.5053686E-1,5.945322E-3,6.0960585E-3,3.2822303E-2,3.0171031E-2,4.816717E-3,-6.492787E-2,-7.2052046E-3,9.3913665E-3,4.1303333E-2],"categories":[],"categories_nodes":[],"categories_segments":[],"categories_sizes":[],"default_left":[0,0,0,0,0,0,0,0,0,0,0,0,0,0,0,0,0,0,0,0,0],"id":21,"left_children":[1,3,5,7,9,-1,11,13,-1,15,17,19,-1,-1,-1,-1,-1,-1,-1,-1,-1],"loss_changes":[1.8655722E0,2.6800575E0,1.6148138E0,2.114637E0,2.9110167E0,0E0,2.3027134E-1,1.5231044E0,0E0,1.7741454E-1,2.3817933E0,1.8885851E-1,0E0,0E0,0E0,0E0,0E0,0E0,0E0,0E0,0E0],"parents":[2147483647,0,0,1,1,2,2,3,3,4,4,6,6,7,7,9,9,10,10,11,11],"right_children":[2,4,6,8,10,-1,12,14,-1,16,18,20,-1,-1,-1,-1,-1,-1,-1,-1,-1],"split_conditions":[2.506E3,8.5376E0,-1.0478E1,2.408E3,-9E0,-1.8359458E-2,6.495E-1,1.541E3,-3.734633E-2,-1.4112E4,1.56E-2,-6.7618E0,5.945322E-3,6.0960585E-3,3.2822303E-2,3.0171031E-2,4.816717E-3,-6.492787E-2,-7.2052046E-3,9.3913665E-3,4.1303333E-2],"split_indices":[1,6,6,1,2,0,8,1,0,5,7,6,0,0,0,0,0,0,0,0,0],"split_type":[0,0,0,0,0,0,0,0,0,0,0,0,0,0,0,0,0,0,0,0,0],"sum_hessian":[4.439596E1,3.515914E1,9.236822E0,2.5661278E1,9.497864E0,1.0677044E0,8.169117E0,2.4507326E1,1.1539518E0,2.777833E0,6.7200303E0,7.0942574E0,1.0748602E0,1.7401703E1,7.1056232E0,1.0266565E0,1.7511765E0,2.5964828E0,4.1235476E0,1.2521708E0,5.8420863E0],"tree_param":{"num_deleted":"0","num_feature":"9","num_nodes":"21","size_leaf_vector":"1"}},{"base_weights":[1.6034442E-1,5.284563E-2,5.296899E-1,2.140486E-1,-3.5499936E-1,-1.7760372E-2,6.7595124E-1,2.8599724E-1,-3.585423E-2,3.8615113E-1,-6.6464525E-1,2.6168916E-1,7.914928E-1,5.830329E-3,3.205219E-2,2.9722938E-2,4.671637E-3,-6.089893E-2,-6.891279E-3,3.4279276E-2,-1.7919173E-2,6.140239E-3,4.5325797E-2],"categories":[],"categories_nodes":[],"categories_segments":[],"categories_sizes":[],"default_left":[0,0,0,0,0,0,0,0,0,0,0,0,0,0,0,0,0,0,0,0,0,0,0],"id":22,"left_children":[1,3,5,7,9,-1,11,13,-1,15,17,19,21,-1,-1,-1,-1,-1,-1,-1,-1,-1,-1],"loss_changes":[1.762609E0,2.445626E0,1.5416255E0,1.97747E0,2.6861813E0,0E0,2.2241926E-1,1.4452221E0,0E0,1.7324424E-1,2.1158965E0,1.1528022E0,3.9039993E-1,0E0,0E0,0E0,0E0,0E0,0E0,0E0,0E0,0E0,0E0],"parents":[2147483647,0,0,1,1,2,2,3,3,4,4,6,6,7,7,9,9,10,10,11,11,12,12],"right_children":[2,4,6,8,10,-1,12,14,-1,16,18,20,22,-1,-1,-1,-1,-1,-1,-1,-1,-1,-1],"split_conditions":[2.506E3,8.5376E0,-1.0478E1,2.408E3,-9E0,-1.7760372E-2,-8.571E3,1.541E3,-3.585423E-2,-1.4112E4,1.56E-2,3.77E-2,-6.7618E0,5.830329E-3,3.205219E-2,2.9722938E-2,4.671637E-3,-6.089893E-2,-6.891279E-3,3.4279276E-2,-1.7919173E-2,6.140239E-3,4.5325797E-2],"split_indices":[1,6,6,1,2,0,5,1,0,5,7,7,6,0,0,0,0,0,0,0,0,0,0],"split_type":[0,0,0,0,0,0,0,0,0,0,0,0,0,0,0,0,0,0,0,0,0,0,0],"sum_hessian":[4.4098522E1,3.5042427E1,9.056093E0,2.5455982E1,9.586445E0,1.0818993E0,7.974194E0,2.4273241E1,1.1827422E0,2.752101E0,6.834344E0,2.4510622E0,5.523132E0,1.7332453E1,6.9407873E0,1.0056368E0,1.7464643E0,2.6934216E0,4.140922E0,1.3930719E0,1.0579904E0,1.1140789E0,4.409053E0],"tree_param":{"num_deleted":"0","num_feature":"9","num_nodes":"23","size_leaf_vector":"1"}},{"base_weights":[1.5395157E-1,-4.9772438E-1,2.0953104E-1,-3.8307454E-2,-5.4728705E-4,-2.3528488E-2,3.4955296E-1,3.945016E-2,-2.1333882E-1,7.004475E-1,2.1327959E-1,2.329145E-2,-2.36589E-2,4.730324E-2,-1.153031E-2,1.9024868E-2,-1.6049638E-2],"categories":[],"categories_nodes":[],"categories_segments":[],"categories_sizes":[],"default_left":[0,0,0,0,0,0,0,0,0,0,0,0,0,0,0,0,0],"id":23,"left_children":[1,3,5,-1,-1,7,9,-1,11,13,15,-1,-1,-1,-1,-1,-1],"loss_changes":[1.7274544E0,4.9048424E-1,1.3787094E0,0E0,0E0,2.743708E0,1.1081002E0,0E0,2.7481773E0,1.8002737E0,1.9428233E0,0E0,0E0,0E0,0E0,0E0,0E0],"parents":[2147483647,0,0,1,1,2,2,5,5,6,6,8,8,9,9,10,10],"right_children":[2,4,6,-1,-1,8,10,-1,12,14,16,-1,-1,-1,-1,-1,-1],"split_conditions":[1E0,2.35E-2,-4.688E3,-3.8307454E-2,-5.4728705E-4,-1.4E1,3E0,3.945016E-2,-3.7997E0,1.07711E1,5.395E-1,2.329145E-2,-2.36589E-2,4.730324E-2,-1.153031E-2,1.9024868E-2,-1.6049638E-2],"split_indices":[4,7,5,0,0,2,4,0,6,6,8,0,0,0,0,0,0],"split_type":[0,0,0,0,0,0,0,0,0,0,0,0,0,0,0,0,0],"sum_hessian":[4.381432E1,2.8179796E0,4.0996338E1,1.4464473E0,1.3715324E0,1.5698662E1,2.5297678E1,2.375013E0,1.3323648E1,5.91834E0,1.9379337E1,3.4675097E0,9.856138E0,4.670194E0,1.2481464E0,1.4978998E1,4.400339E0],"tree_param":{"num_deleted":"0","num_feature":"9","num_nodes":"17","size_leaf_vector":"1"}},{"base_weights":[1.4835072E-1,4.3510266E-2,5.13762E-1,4.0069297E-2,-3.6904093E-2,-1.7940866E-2,6.6215783E-1,-2.0535035E-1,3.3014932E-1,7.24211E-1,5.348062E-3,-2.630434E-3,-6.639839E-2,-3.603102E-2,2.6548577E-2,4.035607E-2,7.520704E-3],"categories":[],"categories_nodes":[],"categories_segments":[],"categories_sizes":[],"default_left":[0,0,0,0,0,0,0,0,0,0,0,0,0,0,0,0,0],"id":24,"left_children":[1,3,5,-1,7,-1,9,11,13,15,-1,-1,-1,-1,-1,-1,-1],"loss_changes":[1.6829437E0,2.2041662E0,1.5106461E0,0E0,2.1214325E0,0E0,2.2412634E-1,3.9396963E0,2.6682734E0,2.4494553E-1,0E0,0E0,0E0,0E0,0E0,0E0,0E0],"parents":[2147483647,0,0,1,1,2,2,4,4,6,6,7,7,8,8,9,9],"right_children":[2,4,6,-1,8,-1,10,12,14,16,-1,-1,-1,-1,-1,-1,-1],"split_conditions":[2.506E3,-1.4E1,-1.0478E1,4.0069297E-2,1.634E3,-1.7940866E-2,6.495E-1,1E0,7.9E-3,3.209E3,5.348062E-3,-2.630434E-3,-6.639839E-2,-3.603102E-2,2.6548577E-2,4.035607E-2,7.520704E-3],"split_indices":[1,2,6,0,5,0,8,2,7,1,0,0,0,0,0,0,0],"split_type":[0,0,0,0,0,0,0,0,0,0,0,0,0,0,0,0,0],"sum_hessian":[4.3513252E1,3.4681755E1,8.831498E0,2.4668543E0,3.22149E1,1.0775346E0,7.7539635E0,2.2383379E1,9.831521E0,6.700626E0,1.0533378E0,2.062415E1,1.7592288E0,1.1621914E0,8.66933E0,5.499366E0,1.2012599E0],"tree_param":{"num_deleted":"0","num_feature":"9","num_nodes":"17","size_leaf_vector":"1"}},{"base_weights":[1.4198773E-1,4.0568847E-2,5.0043607E-1,1.9439474E-1,-3.3852366E-1,-1.8426519E-2,6.486933E-1,2.653149E-1,-3.434223E-2,1.8675847E-2,-6.276601E-1,4.1160103E-2,-2.5673578E-3,5.0087236E-3,3.093161E-2,-5.674505E-2,-6.5746317E-3],"categories":[],"categories_nodes":[],"categories_segments":[],"categories_sizes":[],"default_left":[0,0,0,0,0,0,0,0,0,0,0,0,0,0,0,0,0],"id":25,"left_children":[1,3,5,7,9,-1,11,13,-1,-1,15,-1,-1,-1,-1,-1,-1],"loss_changes":[1.5876116E0,2.139683E0,1.4843724E0,1.803019E0,2.4229536E0,0E0,1.0952809E0,1.3805603E0,0E0,0E0,1.8473957E0,0E0,0E0,0E0,0E0,0E0,0E0],"parents":[2147483647,0,0,1,1,2,2,3,3,4,4,6,6,7,7,10,10],"right_children":[2,4,6,8,10,-1,12,14,-1,-1,16,-1,-1,-1,-1,-1,-1],"split_conditions":[2.506E3,8.5376E0,-1.897E4,2.408E3,-9E0,-1.8426519E-2,3.209E3,1.541E3,-3.434223E-2,1.8675847E-2,1.56E-2,4.1160103E-2,-2.5673578E-3,5.0087236E-3,3.093161E-2,-5.674505E-2,-6.5746317E-3],"split_indices":[1,6,5,1,2,0,1,1,0,0,7,0,0,0,0,0,0],"split_type":[0,0,0,0,0,0,0,0,0,0,0,0,0,0,0,0,0],"sum_hessian":[4.323005E1,3.4563793E1,8.666253E0,2.4933598E1,9.630197E0,1.0465367E0,7.619716E0,2.3723328E1,1.2102705E0,2.6968858E0,6.9333105E0,5.958439E0,1.6612772E0,1.7041609E1,6.6817193E0,2.7918344E0,4.1414766E0],"tree_param":{"num_deleted":"0","num_feature":"9","num_nodes":"17","size_leaf_vector":"1"}},{"base_weights":[1.3544933E-1,3.9331805E-2,7.9522E-2,-3.966972E-2,4.865311E-1,-2.0221446E-1,3.1949997E-1,-1.7739175E-2,6.368823E-1,-2.7508019E-3,-6.274719E-2,-3.365792E-2,2.5822425E-2,1.13594225E-2,3.7901927E-2],"categories":[],"categories_nodes":[],"categories_segments":[],"categories_sizes":[],"default_left":[0,0,0,0,0,0,0,0,0,0,0,0,0,0,0],"id":26,"left_children":[1,-1,3,5,7,9,11,-1,13,-1,-1,-1,-1,-1,-1],"loss_changes":[1.538031E0,0E0,2.0366983E0,1.9964622E0,1.4270113E0,3.5559678E0,2.4389815E0,0E0,2.4538994E-1,0E0,0E0,0E0,0E0,0E0,0E0],"parents":[2147483647,0,0,2,2,3,3,4,4,5,5,6,6,8,8],"right_children":[2,-1,4,6,8,10,12,-1,14,-1,-1,-1,-1,-1,-1],"split_conditions":[-1.4E1,3.9331805E-2,2.506E3,1.634E3,-1.0478E1,1E0,7.9E-3,-1.7739175E-2,-8.571E3,-2.7508019E-3,-6.274719E-2,-3.365792E-2,2.5822425E-2,1.13594225E-2,3.7901927E-2],"split_indices":[2,0,1,5,6,2,7,0,5,0,0,0,0,0,0],"split_type":[0,0,0,0,0,0,0,0,0,0,0,0,0,0,0],"sum_hessian":[4.294902E1,2.3635726E0,4.0585445E1,3.209038E1,8.495065E0,2.2393185E1,9.697197E0,1.0818272E0,7.413237E0,2.0569328E1,1.8238568E0,1.2051368E0,8.492061E0,2.3481288E0,5.0651083E0],"tree_param":{"num_deleted":"0","num_feature":"9","num_nodes":"15","size_leaf_vector":"1"}},{"base_weights":[1.2962158E-1,3.8807493E-2,7.507868E-2,-3.981715E-2,4.737832E-1,1.1316512E-1,-3.939228E-1,-1.7958907E-2,6.235037E-1,-1.5675886E-2,1.2902858E-2,-4.1508105E-2,-5.558008E-4,4.0129814E-2,-3.3158963E-3],"categories":[],"categories_nodes":[],"categories_segments":[],"categories_sizes":[],"default_left":[0,0,0,0,0,0,0,0,0,0,0,0,0,0,0],"id":27,"left_children":[1,-1,3,5,7,9,11,-1,13,-1,-1,-1,-1,-1,-1],"loss_changes":[1.4819927E0,0E0,1.9148103E0,1.8350356E0,1.3882816E0,1.5558176E0,1.6931852E0,0E0,1.0760627E0,0E0,0E0,0E0,0E0,0E0,0E0],"parents":[2147483647,0,0,2,2,3,3,4,4,5,5,6,6,8,8],"right_children":[2,-1,4,6,8,10,12,-1,14,-1,-1,-1,-1,-1,-1],"split_conditions":[-1.4E1,3.8807493E-2,2.506E3,8.5376E0,-1.897E4,-6.375E3,1.08186E1,-1.7958907E-2,3.209E3,-1.5675886E-2,1.2902858E-2,-4.1508105E-2,-5.558008E-4,4.0129814E-2,-3.3158963E-3],"split_indices":[2,0,1,6,5,5,6,0,1,0,0,0,0,0,0],"split_type":[0,0,0,0,0,0,0,0,0,0,0,0,0,0,0],"sum_hessian":[4.2678707E1,2.2910845E0,4.0387623E1,3.2051407E1,8.336214E0,2.2857033E1,9.194375E0,1.0569488E0,7.279265E0,5.4991508E0,1.7357883E1,3.751088E0,5.4432874E0,5.649142E0,1.630123E0],"tree_param":{"num_deleted":"0","num_feature":"9","num_nodes":"15","size_leaf_vector":"1"}},{"base_weights":[1.2433484E-1,3.829122E-2,7.117119E-2,-3.911803E-2,4.6034375E-1,-1.9076039E-1,3.033867E-1,-1.7512597E-2,6.1249924E-1,-2.3980157E-3,-5.9978593E-2,-3.2586254E-2,2.4967525E-2,1.5577035E-2,4.187103E-2],"categories":[],"categories_nodes":[],"categories_segments":[],"categories_sizes":[],"default_left":[0,0,0,0,0,0,0,0,0,0,0,0,0,0,0],"id":28,"left_children":[1,-1,3,5,7,9,11,-1,13,-1,-1,-1,-1,-1,-1],"loss_changes":[1.426531E0,0E0,1.786632E0,1.7733274E0,1.3464217E0,3.3288374E0,2.2947752E0,0E0,2.867837E-1,0E0,0E0,0E0,0E0,0E0,0E0],"parents":[2147483647,0,0,2,2,3,3,4,4,5,5,6,6,8,8],"right_children":[2,-1,4,6,8,10,12,-1,14,-1,-1,-1,-1,-1,-1],"split_conditions":[-1.4E1,3.829122E-2,2.506E3,1.634E3,-1.0478E1,1E0,7.9E-3,-1.7512597E-2,2.4045E0,-2.3980157E-3,-5.9978593E-2,-3.2586254E-2,2.4967525E-2,1.5577035E-2,4.187103E-2],"split_indices":[2,0,1,5,6,2,7,0,6,0,0,0,0,0,0],"split_type":[0,0,0,0,0,0,0,0,0,0,0,0,0,0,0],"sum_hessian":[4.2427128E1,2.2211375E0,4.020599E1,3.202872E1,8.177267E0,2.2506927E1,9.521793E0,1.086594E0,7.090673E0,2.063371E1,1.8732178E0,1.2250851E0,8.296708E0,4.052838E0,3.0378354E0],"tree_param":{"num_deleted":"0","num_feature":"9","num_nodes":"15","size_leaf_vector":"1"}},{"base_weights":[1.191558E-1,3.778264E-2,6.733003E-2,-2.9791382E-1,1.7641984E-1,2.7122858E-1,-7.951748E-1,-6.1536595E-2,5.601955E-1,-2.5963558E-2,3.4523565E-2,1.9592525E-2,-7.386682E-2,-1.1502061E-2,2.2347732E-2,1.2283446E-3,3.5338785E-2],"categories":[],"categories_nodes":[],"categories_segments":[],"categories_sizes":[],"default_left":[0,0,0,0,0,0,0,0,0,0,0,0,0,0,0,0,0],"id":29,"left_children":[1,-1,3,5,7,9,11,13,15,-1,-1,-1,-1,-1,-1,-1,-1],"loss_changes":[1.3736445E0,0E0,1.6874038E0,2.9915745E0,2.9770794E0,2.121416E0,5.0236683E0,1.8842452E0,9.5866466E-1,0E0,0E0,0E0,0E0,0E0,0E0,0E0,0E0],"parents":[2147483647,0,0,2,2,3,3,4,4,5,5,6,6,7,7,8,8],"right_children":[2,-1,4,6,8,10,12,14,16,-1,-1,-1,-1,-1,-1,-1,-1],"split_conditions":[-1.4E1,3.778264E-2,-8.571E3,3.1E-1,1.541E3,3E0,-3.3011E0,5.41E-2,-6.7618E0,-2.5963558E-2,3.4523565E-2,1.9592525E-2,-7.386682E-2,-1.1502061E-2,2.2347732E-2,1.2283446E-3,3.5338785E-2],"split_indices":[2,0,5,8,1,4,6,7,6,0,0,0,0,0,0,0,0],"split_type":[0,0,0,0,0,0,0,0,0,0,0,0,0,0,0,0,0],"sum_hessian":[4.2184437E1,2.153661E0,4.0030777E1,8.80841E0,3.1222366E1,4.319295E0,4.489115E0,1.9790876E1,1.143149E1,1.4141889E0,2.9051058E0,1.7936214E0,2.695494E0,1.5276219E1,4.5146575E0,2.7070553E0,8.724435E0],"tree_param":{"num_deleted":"0","num_feature":"9","num_nodes":"17","size_leaf_vector":"1"}},{"base_weights":[1.149741E-1,3.728144E-2,6.451246E-2,-3.967546E-2,4.4102818E-1,3.640589E-2,-1.0551948E-1,-1.7769529E-2,5.931972E-1,-4.9660128E-2,-1.648033E-3,3.8939804E-2,-4.4422885E-3],"categories":[],"categories_nodes":[],"categories_segments":[],"categories_sizes":[],"default_left":[0,0,0,0,0,0,0,0,0,0,0,0,0],"id":30,"left_children":[1,-1,3,5,7,-1,9,-1,11,-1,-1,-1,-1],"loss_changes":[1.3192806E0,0E0,1.6211014E0,1.7418995E0,1.294572E0,0E0,1.9773502E0,0E0,1.0670359E0,0E0,0E0,0E0,0E0],"parents":[2147483647,0,0,2,2,3,3,4,4,6,6,8,8],"right_children":[2,-1,4,6,8,-1,10,-1,12,-1,-1,-1,-1],"split_conditions":[-1.4E1,3.728144E-2,2.506E3,-1.11954E1,-1.897E4,3.640589E-2,-9.8862E0,-1.7769529E-2,3.209E3,-4.9660128E-2,-1.648033E-3,3.8939804E-2,-4.4422885E-3],"split_indices":[2,0,1,6,5,0,6,0,1,0,0,0,0],"split_type":[0,0,0,0,0,0,0,0,0,0,0,0,0],"sum_hessian":[4.1967224E1,2.0885825E0,3.987864E1,3.193605E1,7.942591E0,1.7279989E0,3.0208052E1,1.0598861E0,6.8827047E0,1.3238508E0,2.8884201E1,5.2989006E0,1.5838042E0],"tree_param":{"num_deleted":"0","num_feature":"9","num_nodes":"13","size_leaf_vector":"1"}},{"base_weights":[1.1076004E-1,-4.4481483E-1,1.6158883E-1,-3.5617456E-2,-2.158914E-5,6.791513E-1,9.384361E-2,1.019013E-2,4.015511E-2,-3.0217191E-2,1.4908893E-1,2.600045E-2,3.4407002E-4],"categories":[],"categories_nodes":[],"categories_segments":[],"categories_sizes":[],"default_left":[0,0,0,0,0,0,0,0,0,0,0,0,0],"id":31,"left_children":[1,3,5,-1,-1,7,9,-1,-1,-1,11,-1,-1],"loss_changes":[1.2800019E0,4.5770097E-1,1.3362856E0,0E0,0E0,9.9179745E-2,1.4967363E0,0E0,0E0,0E0,1.8212929E0,0E0,0E0],"parents":[2147483647,0,0,1,1,2,2,5,5,6,6,10,10],"right_children":[2,4,6,-1,-1,8,10,-1,-1,-1,12,-1,-1],"split_conditions":[1E0,1.12E2,2.86E2,-3.5617456E-2,-2.158914E-5,2.088E-1,4.24E2,1.019013E-2,4.015511E-2,-3.0217191E-2,3E0,2.600045E-2,3.4407002E-4],"split_indices":[4,1,1,0,0,8,1,0,0,0,3,0,0],"split_type":[0,0,0,0,0,0,0,0,0,0,0,0,0],"sum_hessian":[4.1781826E1,2.8524466E0,3.8929382E1,1.4041137E0,1.4483329E0,3.4612114E0,3.546817E1,1.2627635E0,2.198448E0,1.8719018E0,3.3596268E1,8.574555E0,2.5021713E1],"tree_param":{"num_deleted":"0","num_feature":"9","num_nodes":"13","size_leaf_vector":"1"}},{"base_weights":[1.0604329E-1,3.6701564E-2,5.6777585E-2,-2.9760113E-1,1.6406442E-1,2.5290805E-1,-7.6528686E-1,-5.750969E-2,5.344695E-1,-2.5493905E-2,3.352468E-2,1.8924894E-2,-6.981646E-2,7.596243E-3,-2.2203274E-2,2.3872608E-4,3.4205705E-2],"categories":[],"categories_nodes":[],"categories_segments":[],"categories_sizes":[],"default_left":[0,0,0,0,0,0,0,0,0,0,0,0,0,0,0,0,0],"id":32,"left_children":[1,-1,3,5,7,9,11,13,15,-1,-1,-1,-1,-1,-1,-1,-1],"loss_changes":[1.2760454E0,0E0,1.5915904E0,2.712902E0,2.640001E0,2.0129468E0,4.526415E0,1.7510294E0,9.476721E-1,0E0,0E0,0E0,0E0,0E0,0E0,0E0,0E0],"parents":[2147483647,0,0,2,2,3,3,4,4,5,5,6,6,7,7,8,8],"right_children":[2,-1,4,6,8,10,12,14,16,-1,-1,-1,-1,-1,-1,-1,-1],"split_conditions":[-1.4E1,3.6701564E-2,-8.571E3,3.1E-1,1.541E3,3E0,-3.3011E0,7.8127E0,-6.7618E0,-2.5493905E-2,3.352468E-2,1.8924894E-2,-6.981646E-2,7.596243E-3,-2.2203274E-2,2.3872608E-4,3.4205705E-2],"split_indices":[2,0,5,8,1,4,6,6,6,0,0,0,0,0,0,0,0],"split_type":[0,0,0,0,0,0,0,0,0,0,0,0,0,0,0,0,0],"sum_hessian":[4.1591976E1,2.0144484E0,3.957753E1,8.785221E0,3.0792307E1,4.24624E0,4.5389805E0,1.9795496E1,1.0996811E1,1.4240227E0,2.8222175E0,1.7561336E0,2.782847E0,1.3232924E1,6.5625725E0,2.6496804E0,8.347131E0],"tree_param":{"num_deleted":"0","num_feature":"9","num_nodes":"17","size_leaf_vector":"1"}},{"base_weights":[1.0186244E-1,3.6215436E-2,5.3835187E-2,-2.1495854E-2,5.464466E-1,2.699441E-1,-1.5473962E-1,-1.4241377E-2,4.253136E-2,3.6442943E-2,-1.3058523E-2,7.3805633E-3,-2.0613017E-2],"categories":[],"categories_nodes":[],"categories_segments":[],"categories_sizes":[],"default_left":[0,0,0,0,0,0,0,0,0,0,0,0,0],"id":33,"left_children":[1,-1,3,5,7,9,11,-1,-1,-1,-1,-1,-1],"loss_changes":[1.2274724E0,0E0,1.5113297E0,1.4402283E0,1.6071589E0,3.0331066E0,2.0345893E0,0E0,0E0,0E0,0E0,0E0,0E0],"parents":[2147483647,0,0,2,2,3,3,4,4,5,5,6,6],"right_children":[2,-1,4,6,8,10,12,-1,-1,-1,-1,-1,-1],"split_conditions":[-1.4E1,3.6215436E-2,1.078E4,3E0,-5.5725E0,0E0,3.148E-1,-1.4241377E-2,4.253136E-2,3.6442943E-2,-1.3058523E-2,7.3805633E-3,-2.0613017E-2],"split_indices":[2,0,5,3,6,2,8,0,0,0,0,0,0],"split_type":[0,0,0,0,0,0,0,0,0,0,0,0,0],"sum_hessian":[4.1364674E1,1.9543651E0,3.941031E1,3.5012497E1,4.3978114E0,1.0663221E1,2.4349276E1,1.1951878E0,3.2026236E0,5.520693E0,5.142528E0,1.1396099E1,1.29531765E1],"tree_param":{"num_deleted":"0","num_feature":"9","num_nodes":"13","size_leaf_vector":"1"}},{"base_weights":[9.901979E-2,-4.3401593E-1,1.4862108E-1,-3.4538835E-2,-1.10749366E-4,6.6572434E-1,8.167519E-2,9.801974E-3,3.9515454E-2,-1.4057387E-1,2.4361797E-1,2.1586407E-2,-2.1107523E-2,8.3122676E-4,2.7477944E-2],"categories":[],"categories_nodes":[],"categories_segments":[],"categories_sizes":[],"default_left":[0,0,0,0,0,0,0,0,0,0,0,0,0,0,0],"id":34,"left_children":[1,3,5,-1,-1,7,9,-1,-1,11,13,-1,-1,-1,-1],"loss_changes":[1.1812048E0,4.254036E-1,1.309078E0,0E0,0E0,1.0105574E-1,1.3303406E0,0E0,0E0,2.7305164E0,1.4629717E0,0E0,0E0,0E0,0E0],"parents":[2147483647,0,0,1,1,2,2,5,5,6,6,9,9,10,10],"right_children":[2,4,6,-1,-1,8,10,-1,-1,12,14,-1,-1,-1,-1],"split_conditions":[1E0,1.12E2,2.86E2,-3.4538835E-2,-1.10749366E-4,2.088E-1,-3E0,9.801974E-3,3.9515454E-2,-2.3537E0,2.125E3,2.1586407E-2,-2.1107523E-2,8.3122676E-4,2.7477944E-2],"split_indices":[4,1,1,0,0,8,2,0,0,6,1,0,0,0,0],"split_type":[0,0,0,0,0,0,0,0,0,0,0,0,0,0,0],"sum_hessian":[4.1236458E1,2.850775E0,3.838568E1,1.4116259E0,1.439149E0,3.374691E0,3.501099E1,1.2470084E0,2.1276824E0,1.4813293E1,2.0197699E1,4.7090125E0,1.010428E1,1.2200129E1,7.997569E0],"tree_param":{"num_deleted":"0","num_feature":"9","num_nodes":"15","size_leaf_vector":"1"}},{"base_weights":[9.568374E-2,3.5799466E-2,4.8422914E-2,-2.223559E-1,1.7849272E-1,-1.072026E0,5.8422767E-2,-5.417039E-1,2.74495E-1,-6.710564E-2,-1.2257899E-2,2.4765348E-2,-1.6914356E-2,-3.8419466E-2,-2.8944293E-3,4.2475183E-2,8.584217E-3],"categories":[],"categories_nodes":[],"categories_segments":[],"categories_sizes":[],"default_left":[0,0,0,0,0,0,0,0,0,0,0,0,0,0,0,0,0],"id":35,"left_children":[1,-1,3,5,7,9,11,13,15,-1,-1,-1,-1,-1,-1,-1,-1],"loss_changes":[1.1977358E0,0E0,1.4532446E0,3.275798E0,2.0615618E0,4.2959976E-1,2.0864327E0,3.4929883E-1,1.3365664E0,0E0,0E0,0E0,0E0,0E0,0E0,0E0,0E0],"parents":[2147483647,0,0,2,2,3,3,4,4,5,5,6,6,7,7,8,8],"right_children":[2,-1,4,6,8,10,12,14,16,-1,-1,-1,-1,-1,-1,-1,-1],"split_conditions":[-1.4E1,3.5799466E-2,-5.166E3,8.97E2,1E0,3.162E-1,3.1E-1,2.35E-2,-6E0,-6.710564E-2,-1.2257899E-2,2.4765348E-2,-1.6914356E-2,-3.8419466E-2,-2.8944293E-3,4.2475183E-2,8.584217E-3],"split_indices":[2,0,5,1,4,8,8,7,2,0,0,0,0,0,0,0,0],"split_type":[0,0,0,0,0,0,0,0,0,0,0,0,0,0,0,0,0],"sum_hessian":[4.1038464E1,1.9036058E0,3.913486E1,1.2468491E1,2.6666368E1,2.3969588E0,1.0071532E1,2.5904603E0,2.4075909E1,1.3370867E0,1.059872E0,4.6747923E0,5.39674E0,1.3634471E0,1.2270133E0,2.5501888E0,2.1525719E1],"tree_param":{"num_deleted":"0","num_feature":"9","num_nodes":"17","size_leaf_vector":"1"}},{"base_weights":[9.091387E-2,3.53255E-2,4.4779096E-2,-2.87078E-1,1.4751224E-1,-1.6444866E-2,-6.654506E-2,-1.48745375E-2,6.0670733E-1,2.895065E-2,-3.196116E-2,-3.812394E-2,4.5533516E-3,-1.0051667E-2,4.5919854E-2],"categories":[],"categories_nodes":[],"categories_segments":[],"categories_sizes":[],"default_left":[0,0,0,0,0,0,0,0,0,0,0,0,0,0,0],"id":36,"left_children":[1,-1,3,5,7,9,-1,11,13,-1,-1,-1,-1,-1,-1],"loss_changes":[1.1558964E0,0E0,1.4049127E0,2.7429109E0,2.3339791E0,3.6277735E0,0E0,1.9710749E0,2.2414067E0,0E0,0E0,0E0,0E0,0E0,0E0],"parents":[2147483647,0,0,2,2,3,3,4,4,5,5,7,7,8,8],"right_children":[2,-1,4,6,8,10,-1,12,14,-1,-1,-1,-1,-1,-1],"split_conditions":[-1.4E1,3.53255E-2,-8.571E3,-8.94E3,2.125E3,4.04E-2,-6.654506E-2,9E-3,-6.7618E0,2.895065E-2,-3.196116E-2,-3.812394E-2,4.5533516E-3,-1.0051667E-2,4.5919854E-2],"split_indices":[2,0,5,5,1,7,0,7,6,0,0,0,0,0,0],"split_type":[0,0,0,0,0,0,0,0,0,0,0,0,0,0,0],"sum_hessian":[4.081398E1,1.8475313E0,3.896645E1,8.78713E0,3.017932E1,7.784571E0,1.0025595E0,2.3009867E1,7.169453E0,4.0155E0,3.7690709E0,2.0867822E0,2.0923084E1,2.0950847E0,5.0743685E0],"tree_param":{"num_deleted":"0","num_feature":"9","num_nodes":"15","size_leaf_vector":"1"}},{"base_weights":[8.6282045E-2,2.3475768E-2,5.2122146E-1,7.940578E-2,-3.495701E-2,-1.396513E-2,4.158419E-2,-6.5715266E-3,5.904682E-1,5.1529896E-3,-5.5173784E-2,4.429626E-2,-6.9705094E-3],"categories":[],"categories_nodes":[],"categories_segments":[],"categories_sizes":[],"default_left":[0,0,0,0,0,0,0,0,0,0,0,0,0],"id":37,"left_children":[1,3,5,7,-1,-1,-1,9,11,-1,-1,-1,-1],"loss_changes":[1.1240972E0,1.566925E0,1.5250953E0,1.5684822E0,0E0,0E0,0E0,3.8980443E0,1.2316674E0,0E0,0E0,0E0,0E0],"parents":[2147483647,0,0,1,1,2,2,3,3,7,7,8,8],"right_children":[2,4,6,8,-1,-1,-1,10,12,-1,-1,-1,-1],"split_conditions":[1.078E4,7.755E3,-5.5725E0,1.634E3,-3.495701E-2,-1.396513E-2,4.158419E-2,1E0,1.08186E1,5.1529896E-3,-5.5173784E-2,4.429626E-2,-6.9705094E-3],"split_indices":[5,5,6,5,0,0,0,2,6,0,0,0,0],"split_type":[0,0,0,0,0,0,0,0,0,0,0,0,0],"sum_hessian":[4.0598137E1,3.639639E1,4.201749E0,3.4607876E1,1.7885138E0,1.202215E0,2.9995341E0,3.046912E1,4.1387544E0,2.8524275E1,1.9448458E0,2.7939548E0,1.3447994E0],"tree_param":{"num_deleted":"0","num_feature":"9","num_nodes":"13","size_leaf_vector":"1"}},{"base_weights":[8.196466E-2,3.4789667E-2,3.677017E-2,-2.8417435E-1,1.3733761E-1,-2.035464E-2,-6.396701E-2,-1.8668666E-2,5.898197E-1,2.8093457E-2,-3.0544275E-2,-5.4791695E-3,3.8184542E-2,-9.768213E-3,4.533766E-2],"categories":[],"categories_nodes":[],"categories_segments":[],"categories_sizes":[],"default_left":[0,0,0,0,0,0,0,0,0,0,0,0,0,0,0],"id":38,"left_children":[1,-1,3,5,7,9,-1,11,13,-1,-1,-1,-1,-1,-1],"loss_changes":[1.1238835E0,0E0,1.3187613E0,2.5431056E0,2.1896617E0,3.3520772E0,0E0,1.7850603E0,2.1539063E0,0E0,0E0,0E0,0E0,0E0,0E0],"parents":[2147483647,0,0,2,2,3,3,4,4,5,5,7,7,8,8],"right_children":[2,-1,4,6,8,10,-1,12,14,-1,-1,-1,-1,-1,-1],"split_conditions":[-1.4E1,3.4789667E-2,-8.571E3,-8.94E3,2.125E3,4.04E-2,-6.396701E-2,8.65E-2,-6.7618E0,2.8093457E-2,-3.0544275E-2,-5.4791695E-3,3.8184542E-2,-9.768213E-3,4.533766E-2],"split_indices":[2,0,5,5,1,7,0,7,6,0,0,0,0,0,0],"split_type":[0,0,0,0,0,0,0,0,0,0,0,0,0,0,0],"sum_hessian":[4.04347E1,1.7857138E0,3.8648987E1,8.78557E0,2.9863417E1,7.751177E0,1.0343933E0,2.2919872E1,6.943546E0,3.9274805E0,3.8236966E0,2.1304138E1,1.6157327E0,2.1070447E0,4.836501E0],"tree_param":{"num_deleted":"0","num_feature":"9","num_nodes":"15","size_leaf_vector":"1"}},{"base_weights":[7.927255E-2,5.299227E-1,2.0360533E-2,4.2318545E-2,-1.2773449E-2,-1.0303289E-1,3.2850838E-1,1.1314315E-2,-5.21683E-2,-2.7188405E-2,5.064787E-1,-9.942855E-3,2.3403777E-2,4.5255978E-2,1.8384131E-3],"categories":[],"categories_nodes":[],"categories_segments":[],"categories_sizes":[],"default_left":[0,0,0,0,0,0,0,0,0,0,0,0,0,0,0],"id":39,"left_children":[1,3,5,-1,-1,7,9,11,-1,-1,13,-1,-1,-1,-1],"loss_changes":[1.0850393E0,1.3923182E0,1.4614E0,0E0,0E0,2.9762626E0,1.9789995E0,2.5477753E0,0E0,0E0,1.7702944E0,0E0,0E0,0E0,0E0],"parents":[2147483647,0,0,1,1,2,2,5,5,6,6,7,7,10,10],"right_children":[2,4,6,-1,-1,8,10,12,-1,-1,14,-1,-1,-1,-1],"split_conditions":[-1.2E1,4.854E-1,1.634E3,4.2318545E-2,-1.2773449E-2,1E0,7.9E-3,5.17E-2,-5.21683E-2,-2.7188405E-2,8E0,-9.942855E-3,2.3403777E-2,4.5255978E-2,1.8384131E-3],"split_indices":[2,8,5,0,0,2,7,7,0,0,2,0,0,0,0],"split_type":[0,0,0,0,0,0,0,0,0,0,0,0,0,0,0],"sum_hessian":[4.027615E1,3.7321033E0,3.654405E1,2.604901E0,1.1272022E0,2.6570076E1,9.973971E0,2.4570234E1,1.9998432E0,1.3418498E0,8.632121E0,1.7214083E1,7.35615E0,4.1678853E0,4.464236E0],"tree_param":{"num_deleted":"0","num_feature":"9","num_nodes":"15","size_leaf_vector":"1"}},{"base_weights":[7.606996E-2,3.393146E-2,3.3017203E-2,-3.4321506E-2,4.9952424E-1,2.5156802E-1,-1.6322173E-1,-1.3521823E-2,4.0730953E-2,3.514113E-2,-1.2753598E-2,1.1715694E-2,-1.7571976E-2],"categories":[],"categories_nodes":[],"categories_segments":[],"categories_sizes":[],"default_left":[0,0,0,0,0,0,0,0,0,0,0,0,0],"id":40,"left_children":[1,-1,3,5,7,9,11,-1,-1,-1,-1,-1,-1],"loss_changes":[1.0442053E0,0E0,1.2556361E0,1.3451362E0,1.4424047E0,2.78342E0,1.9527047E0,0E0,0E0,0E0,0E0,0E0,0E0],"parents":[2147483647,0,0,2,2,3,3,4,4,5,5,6,6],"right_children":[2,-1,4,6,8,10,12,-1,-1,-1,-1,-1,-1],"split_conditions":[-1.4E1,3.393146E-2,1.078E4,3E0,-5.5725E0,0E0,-2.3537E0,-1.3521823E-2,4.0730953E-2,3.514113E-2,-1.2753598E-2,1.1715694E-2,-1.7571976E-2],"split_indices":[2,0,5,3,6,2,6,0,0,0,0,0,0],"split_type":[0,0,0,0,0,0,0,0,0,0,0,0,0],"sum_hessian":[4.011551E1,1.6906543E0,3.8424854E1,3.4387558E1,4.037298E0,1.0390556E1,2.3997E1,1.2135693E0,2.8237288E0,5.290863E0,5.099694E0,7.6321645E0,1.6364836E1],"tree_param":{"num_deleted":"0","num_feature":"9","num_nodes":"13","size_leaf_vector":"1"}},{"base_weights":[7.451283E-2,-2.6531259E-2,1.124107E-1,5.457679E-1,5.1994693E-2,4.2081244E-2,-1.5033138E-3,-6.392598E-1,1.18947245E-1,7.1037016E-3,-5.4087587E-2,2.3884287E-2,-7.392895E-4],"categories":[],"categories_nodes":[],"categories_segments":[],"categories_sizes":[],"default_left":[0,0,0,0,0,0,0,0,0,0,0,0,0],"id":41,"left_children":[1,-1,3,5,7,-1,-1,9,11,-1,-1,-1,-1],"loss_changes":[1.0002264E0,0E0,1.0037436E0,8.291081E-1,1.7284316E0,0E0,0E0,1.2979351E0,1.6091312E0,0E0,0E0,0E0,0E0],"parents":[2147483647,0,0,2,2,3,3,4,4,7,7,8,8],"right_children":[2,-1,4,6,8,-1,-1,10,12,-1,-1,-1,-1],"split_conditions":[1.12E2,-2.6531259E-2,2.7E2,5E0,4.24E2,4.2081244E-2,-1.5033138E-3,-1.716E3,3E0,7.1037016E-3,-5.4087587E-2,2.3884287E-2,-7.392895E-4],"split_indices":[1,0,1,0,1,0,0,5,3,0,0,0,0],"split_type":[0,0,0,0,0,0,0,0,0,0,0,0,0],"sum_hessian":[4.001341E1,1.5919726E0,3.8421436E1,3.71814E0,3.4703297E1,2.1512682E0,1.5668716E0,2.3096159E0,3.239368E1,1.0805492E0,1.2290665E0,8.09824E0,2.429544E1],"tree_param":{"num_deleted":"0","num_feature":"9","num_nodes":"13","size_leaf_vector":"1"}},{"base_weights":[7.089753E-2,3.3414762E-2,2.8973179E-2,-2.2469497E-1,1.539991E-1,-1.0061147E0,4.3793235E-2,4.1650377E-2,5.237952E-2,-6.321767E-2,-1.1177685E-2,-8.829802E-3,3.80228E-2,-2.361743E-2,1.1769286E-2],"categories":[],"categories_nodes":[],"categories_segments":[],"categories_sizes":[],"default_left":[0,0,0,0,0,0,0,0,0,0,0,0,0,0,0],"id":42,"left_children":[1,-1,3,5,7,9,11,-1,13,-1,-1,-1,-1,-1,-1],"loss_changes":[1.0042299E0,0E0,1.2789309E0,2.847007E0,1.8107302E0,4.1620708E-1,1.8561708E0,0E0,2.4584336E0,0E0,0E0,0E0,0E0,0E0,0E0],"parents":[2147483647,0,0,2,2,3,3,4,4,5,5,6,6,8,8],"right_children":[2,-1,4,6,8,10,12,-1,14,-1,-1,-1,-1,-1,-1],"split_conditions":[-1.4E1,3.3414762E-2,-5.166E3,8.97E2,-6E0,3.162E-1,-8.571E3,4.1650377E-2,4.24E2,-6.321767E-2,-1.1177685E-2,-8.829802E-3,3.80228E-2,-2.361743E-2,1.1769286E-2],"split_indices":[2,0,5,1,2,8,5,0,1,0,0,0,0,0,0],"split_type":[0,0,0,0,0,0,0,0,0,0,0,0,0,0,0],"sum_hessian":[3.9869305E1,1.6347371E0,3.823457E1,1.235996E1,2.5874609E1,2.4581933E0,9.901766E0,2.4313493E0,2.344326E1,1.3853713E0,1.0728221E0,8.149274E0,1.7524922E0,5.6531377E0,1.7790123E1],"tree_param":{"num_deleted":"0","num_feature":"9","num_nodes":"15","size_leaf_vector":"1"}},{"base_weights":[6.8230934E-2,2.8074618E-2,3.424491E-2,-3.6655154E-2,7.3898785E-2,1.3435812E-1,-5.446955E-1,1.2936245E-2,-7.822539E-3,-4.4333834E-2,-3.184146E-3],"categories":[],"categories_nodes":[],"categories_segments":[],"categories_sizes":[],"default_left":[0,0,0,0,0,0,0,0,0,0,0],"id":43,"left_children":[1,3,-1,-1,5,7,9,-1,-1,-1,-1],"loss_changes":[9.88563E-1,1.4232962E0,0E0,0E0,1.4918157E0,1.319213E0,5.3162503E-1,0E0,0E0,0E0,0E0],"parents":[2147483647,0,0,1,1,4,4,5,5,6,6],"right_children":[2,4,-1,-1,6,8,10,-1,-1,-1,-1],"split_conditions":[9.15E-2,1.12E2,3.424491E-2,-3.6655154E-2,6.56E-2,8.5376E0,1.541E3,1.2936245E-2,-7.822539E-3,-4.4333834E-2,-3.184146E-3],"split_indices":[7,1,0,0,7,6,1,0,0,0,0],"split_type":[0,0,0,0,0,0,0,0,0,0,0],"sum_hessian":[3.9697323E1,3.825195E1,1.4453747E0,1.3204241E0,3.6931522E1,3.435644E1,2.5750825E0,2.4142172E1,1.021427E1,1.0121378E0,1.5629448E0],"tree_param":{"num_deleted":"0","num_feature":"9","num_nodes":"11","size_leaf_vector":"1"}},{"base_weights":[6.4059496E-2,3.2857727E-2,2.3184951E-2,-2.2317074E-1,1.4584234E-1,-9.735152E-1,3.8557693E-2,4.1088432E-2,4.6139654E-2,-6.076301E-2,-1.1100861E-2,2.2761103E-2,-1.6163414E-2,-2.2148034E-2,1.1045667E-2],"categories":[],"categories_nodes":[],"categories_segments":[],"categories_sizes":[],"default_left":[0,0,0,0,0,0,0,0,0,0,0,0,0,0,0],"id":44,"left_children":[1,-1,3,5,7,9,11,-1,13,-1,-1,-1,-1,-1,-1],"loss_changes":[9.672747E-1,0E0,1.2095739E0,2.6578422E0,1.7553358E0,3.6396384E-1,1.7835107E0,0E0,2.1706543E0,0E0,0E0,0E0,0E0,0E0,0E0],"parents":[2147483647,0,0,2,2,3,3,4,4,5,5,6,6,8,8],"right_children":[2,-1,4,6,8,10,12,-1,14,-1,-1,-1,-1,-1,-1],"split_conditions":[-1.4E1,3.2857727E-2,-5.166E3,8.97E2,-6E0,3.162E-1,3.1E-1,4.1088432E-2,4.24E2,-6.076301E-2,-1.1100861E-2,2.2761103E-2,-1.6163414E-2,-2.2148034E-2,1.1045667E-2],"split_indices":[2,0,5,1,2,8,8,0,1,0,0,0,0,0,0],"split_type":[0,0,0,0,0,0,0,0,0,0,0,0,0,0,0],"sum_hessian":[3.9528458E1,1.5764604E0,3.7951996E1,1.2342597E1,2.56094E1,2.4885774E0,9.85402E0,2.3610003E0,2.32484E1,1.4159667E0,1.0726106E0,4.4599714E0,5.3940487E0,5.7164793E0,1.7531921E1],"tree_param":{"num_deleted":"0","num_feature":"9","num_nodes":"15","size_leaf_vector":"1"}},{"base_weights":[6.1203323E-2,2.1878025E-2,3.3712503E-2,-3.4774225E-2,6.579612E-2,1.2506087E-1,-5.289498E-1,1.2308723E-2,-7.7254446E-3,-1.4120415E-3,-4.5676034E-2],"categories":[],"categories_nodes":[],"categories_segments":[],"categories_sizes":[],"default_left":[0,0,0,0,0,0,0,0,0,0,0],"id":45,"left_children":[1,3,-1,-1,5,7,9,-1,-1,-1,-1],"loss_changes":[9.5810723E-1,1.2730374E0,0E0,0E0,1.3921976E0,1.2238264E0,6.674764E-1,0E0,0E0,0E0,0E0],"parents":[2147483647,0,0,1,1,4,4,5,5,6,6],"right_children":[2,4,-1,-1,6,8,10,-1,-1,-1,-1],"split_conditions":[9.15E-2,1.12E2,3.3712503E-2,-3.4774225E-2,6.56E-2,8.5376E0,5E0,1.2308723E-2,-7.7254446E-3,-1.4120415E-3,-4.5676034E-2],"split_indices":[7,1,0,0,7,6,0,0,0,0,0],"split_type":[0,0,0,0,0,0,0,0,0,0,0],"sum_hessian":[3.9353767E1,3.795476E1,1.3990085E0,1.333719E0,3.662104E1,3.40207E1,2.6003425E0,2.382069E1,1.0200009E1,1.5959108E0,1.0044318E0],"tree_param":{"num_deleted":"0","num_feature":"9","num_nodes":"11","size_leaf_vector":"1"}},{"base_weights":[5.7357408E-2,7.979504E-4,4.704188E-1,5.8322344E-2,-3.6160227E-2,-1.4121817E-2,3.9769877E-2,-2.614825E-2,5.690401E-1,3.6535647E-3,-4.705316E-2,4.3194756E-2,-6.3323565E-3],"categories":[],"categories_nodes":[],"categories_segments":[],"categories_sizes":[],"default_left":[0,0,0,0,0,0,0,0,0,0,0,0,0],"id":46,"left_children":[1,3,5,7,-1,-1,-1,9,11,-1,-1,-1,-1],"loss_changes":[9.387547E-1,1.5564314E0,1.4087201E0,1.5078784E0,0E0,0E0,0E0,2.8512907E0,1.1259251E0,0E0,0E0,0E0,0E0],"parents":[2147483647,0,0,1,1,2,2,3,3,7,7,8,8],"right_children":[2,4,6,8,-1,-1,-1,10,12,-1,-1,-1,-1],"split_conditions":[1.078E4,7.755E3,-5.5725E0,1.634E3,-3.6160227E-2,-1.4121817E-2,3.9769877E-2,1E0,1.08186E1,3.6535647E-3,-4.705316E-2,4.3194756E-2,-6.3323565E-3],"split_indices":[5,5,6,5,0,0,0,2,6,0,0,0,0],"split_type":[0,0,0,0,0,0,0,0,0,0,0,0,0],"sum_hessian":[3.919814E1,3.5358517E1,3.839621E0,3.360772E1,1.7508E0,1.197158E0,2.642463E0,2.9652172E1,3.955545E0,2.7581213E1,2.0709596E0,2.608283E0,1.3472619E0],"tree_param":{"num_deleted":"0","num_feature":"9","num_nodes":"13","size_leaf_vector":"1"}},{"base_weights":[5.4367837E-2,3.2265928E-2,1.4389676E-2,-2.9435736E-1,1.1391701E-1,-3.872821E-2,-6.0766805E-2,-2.8468931E-2,5.477026E-1,2.6964426E-2,-3.0420845E-2,-5.7714693E-3,3.7107963E-2,-1.1526683E-2,4.4193063E-2],"categories":[],"categories_nodes":[],"categories_segments":[],"categories_sizes":[],"default_left":[0,0,0,0,0,0,0,0,0,0,0,0,0,0,0],"id":47,"left_children":[1,-1,3,5,7,9,-1,11,13,-1,-1,-1,-1,-1,-1],"loss_changes":[9.374696E-1,0E0,1.2183616E0,2.2315168E0,1.8610814E0,3.162841E0,0E0,1.6568767E0,2.1483889E0,0E0,0E0,0E0,0E0,0E0,0E0],"parents":[2147483647,0,0,2,2,3,3,4,4,5,5,7,7,8,8],"right_children":[2,-1,4,6,8,10,-1,12,14,-1,-1,-1,-1,-1,-1],"split_conditions":[-1.4E1,3.2265928E-2,-8.571E3,-8.94E3,2.125E3,4.04E-2,-6.0766805E-2,8.65E-2,-6.7618E0,2.6964426E-2,-3.0420845E-2,-5.7714693E-3,3.7107963E-2,-1.1526683E-2,4.4193063E-2],"split_indices":[2,0,5,5,1,7,0,7,6,0,0,0,0,0,0],"split_type":[0,0,0,0,0,0,0,0,0,0,0,0,0,0,0],"sum_hessian":[3.90741E1,1.5164472E0,3.7557655E1,8.678435E0,2.8879217E1,7.608619E0,1.0698164E0,2.2445929E1,6.4332886E0,3.8031924E0,3.805427E0,2.0933887E1,1.5120414E0,2.0353923E0,4.397897E0],"tree_param":{"num_deleted":"0","num_feature":"9","num_nodes":"15","size_leaf_vector":"1"}},{"base_weights":[5.2813906E-2,3.373998E-2,1.5239168E-2,-3.948788E-2,6.2050957E-2,5.3855103E-1,-5.375845E-3,4.1387755E-2,-7.3562574E-4,-3.4623593E-2,3.2021918E-3],"categories":[],"categories_nodes":[],"categories_segments":[],"categories_sizes":[],"default_left":[0,0,0,0,0,0,0,0,0,0,0],"id":48,"left_children":[1,-1,3,-1,5,7,9,-1,-1,-1,-1],"loss_changes":[9.2336994E-1,0E0,1.5072197E0,0E0,1.2076344E0,7.575083E-1,1.6583984E0,0E0,0E0,0E0,0E0],"parents":[2147483647,0,0,2,2,4,4,5,5,6,6],"right_children":[2,-1,4,-1,6,8,10,-1,-1,-1,-1],"split_conditions":[1E0,3.373998E-2,1.12E2,-3.948788E-2,2.7E2,5E0,4.24E2,4.1387755E-2,-7.3562574E-4,-3.4623593E-2,3.2021918E-3],"split_indices":[3,0,1,0,1,0,1,0,0,0,0],"split_type":[0,0,0,0,0,0,0,0,0,0,0],"sum_hessian":[3.894931E1,1.2527819E0,3.769653E1,1.1994435E0,3.6497086E1,3.6581342E0,3.283895E1,2.0765438E0,1.5815905E0,2.1897988E0,3.0649153E1],"tree_param":{"num_deleted":"0","num_feature":"9","num_nodes":"11","size_leaf_vector":"1"}},{"base_weights":[5.0453283E-2,1.2325611E-2,3.2903183E-2,-3.283784E-2,5.394514E-2,1.11917734E-1,-5.1450443E-1,1.8414794E-2,-8.433952E-4,-1.6047575E-3,-4.361416E-2],"categories":[],"categories_nodes":[],"categories_segments":[],"categories_sizes":[],"default_left":[0,0,0,0,0,0,0,0,0,0,0],"id":49,"left_children":[1,3,-1,-1,5,7,9,-1,-1,-1,-1],"loss_changes":[9.150368E-1,1.1079295E0,0E0,0E0,1.2829243E0,1.14741E0,5.967609E-1,0E0,0E0,0E0,0E0],"parents":[2147483647,0,0,1,1,4,4,5,5,6,6],"right_children":[2,4,-1,-1,6,8,10,-1,-1,-1,-1],"split_conditions":[9.15E-2,1.12E2,3.2903183E-2,-3.283784E-2,6.56E-2,-2.3537E0,5E0,1.8414794E-2,-8.433952E-4,-1.6047575E-3,-4.361416E-2],"split_indices":[7,1,0,0,7,6,0,0,0,0,0],"split_type":[0,0,0,0,0,0,0,0,0,0,0],"sum_hessian":[3.884793E1,3.751419E1,1.3337376E0,1.3313397E0,3.6182854E1,3.3563084E1,2.6197696E0,1.0600511E1,2.2962572E1,1.5796127E0,1.0401568E0],"tree_param":{"num_deleted":"0","num_feature":"9","num_nodes":"11","size_leaf_vector":"1"}},{"base_weights":[4.7454566E-2,4.774888E-1,-5.598872E-3,4.0607776E-2,-1.4283495E-2,-1.041081E-1,3.3472437E-1,-2.5494418E-1,3.391796E-1,4.0669084E-2,4.5951784E-2,-3.5459917E-2,-3.3304126E-3,-2.5786066E-2,3.131227E-2,2.5743052E-2,-1.6897636E-2],"categories":[],"categories_nodes":[],"categories_segments":[],"categories_sizes":[],"default_left":[0,0,0,0,0,0,0,0,0,0,0,0,0,0,0,0,0],"id":50,"left_children":[1,3,5,-1,-1,7,9,11,13,-1,15,-1,-1,-1,-1,-1,-1],"loss_changes":[9.0893835E-1,1.3491437E0,1.2534367E0,0E0,0E0,2.0223043E0,1.1232557E0,1.8496697E0,2.232135E0,0E0,1.3075774E0,0E0,0E0,0E0,0E0,0E0,0E0],"parents":[2147483647,0,0,1,1,2,2,5,5,6,6,7,7,8,8,10,10],"right_children":[2,4,6,-1,-1,8,10,12,14,-1,16,-1,-1,-1,-1,-1,-1],"split_conditions":[-1.2E1,4.854E-1,5.66E-2,4.0607776E-2,-1.4283495E-2,2.277E3,3E0,-5.166E3,-6.7618E0,4.0669084E-2,6.56E-2,-3.5459917E-2,-3.3304126E-3,-2.5786066E-2,3.131227E-2,2.5743052E-2,-1.6897636E-2],"split_indices":[2,8,7,0,0,1,4,5,6,0,7,0,0,0,0,0,0],"split_type":[0,0,0,0,0,0,0,0,0,0,0,0,0,0,0,0,0],"sum_hessian":[3.8722687E1,3.3739967E0,3.534869E1,2.3008196E0,1.0731772E0,2.7951885E1,7.3968024E0,2.1172476E1,6.779411E0,2.0997155E0,5.2970867E0,5.394847E0,1.5777628E1,1.5039679E0,5.275443E0,2.2309897E0,3.066097E0],"tree_param":{"num_deleted":"0","num_feature":"9","num_nodes":"17","size_leaf_vector":"1"}},{"base_weights":[4.645504E-2,3.3158034E-2,9.64761E-3,-3.799972E-2,5.482817E-2,5.2432996E-1,-1.0885074E-2,4.0645834E-2,-7.386867E-4,-3.3081423E-2,2.8197393E-3],"categories":[],"categories_nodes":[],"categories_segments":[],"categories_sizes":[],"default_left":[0,0,0,0,0,0,0,0,0,0,0],"id":51,"left_children":[1,-1,3,-1,5,7,9,-1,-1,-1,-1],"loss_changes":[8.9311206E-1,0E0,1.3772941E0,0E0,1.1538187E0,7.2600603E-1,1.509419E0,0E0,0E0,0E0,0E0],"parents":[2147483647,0,0,2,2,4,4,5,5,6,6],"right_children":[2,-1,4,-1,6,8,10,-1,-1,-1,-1],"split_conditions":[1E0,3.3158034E-2,1.12E2,-3.799972E-2,2.7E2,5E0,4.24E2,4.0645834E-2,-7.386867E-4,-3.3081423E-2,2.8197393E-3],"split_indices":[3,0,1,0,1,0,1,0,0,0,0],"split_type":[0,0,0,0,0,0,0,0,0,0,0],"sum_hessian":[3.862712E1,1.2171322E0,3.740999E1,1.1970587E0,3.621293E1,3.5893095E0,3.262362E1,2.0070271E0,1.5822823E0,2.229126E0,3.0394495E1],"tree_param":{"num_deleted":"0","num_feature":"9","num_nodes":"11","size_leaf_vector":"1"}},{"base_weights":[4.4418164E-2,7.1813785E-3,3.231948E-2,-3.1508286E-2,4.7173496E-2,1.0319228E-1,-4.895002E-1,1.7636625E-2,-1.0220692E-3,-6.4206583E-4,-4.3814432E-2],"categories":[],"categories_nodes":[],"categories_segments":[],"categories_sizes":[],"default_left":[0,0,0,0,0,0,0,0,0,0,0],"id":52,"left_children":[1,3,-1,-1,5,7,9,-1,-1,-1,-1],"loss_changes":[8.815281E-1,1.0044737E0,0E0,0E0,1.1603026E0,1.0639191E0,6.641005E-1,0E0,0E0,0E0,0E0],"parents":[2147483647,0,0,1,1,4,4,5,5,6,6],"right_children":[2,4,-1,-1,6,8,10,-1,-1,-1,-1],"split_conditions":[9.15E-2,1.12E2,3.231948E-2,-3.1508286E-2,6.56E-2,-2.3537E0,1E0,1.7636625E-2,-1.0220692E-3,-6.4206583E-4,-4.3814432E-2],"split_indices":[7,1,0,0,7,6,2,0,0,0,0],"split_type":[0,0,0,0,0,0,0,0,0,0,0],"sum_hessian":[3.8533848E1,3.7242058E1,1.2917918E0,1.32757E0,3.5914486E1,3.3251377E1,2.6631088E0,1.0402366E1,2.2849012E1,1.6557922E0,1.0073165E0],"tree_param":{"num_deleted":"0","num_feature":"9","num_nodes":"11","size_leaf_vector":"1"}},{"base_weights":[4.1700497E-2,-1.2776146E-2,4.4808E-1,4.4738356E-2,-3.5863798E-2,-1.44305695E-2,3.903432E-2,-3.7004076E-2,5.4660666E-1,2.785844E-3,-4.2923804E-2,4.1968882E-2,-5.963734E-3],"categories":[],"categories_nodes":[],"categories_segments":[],"categories_sizes":[],"default_left":[0,0,0,0,0,0,0,0,0,0,0,0,0],"id":53,"left_children":[1,3,5,7,-1,-1,-1,9,11,-1,-1,-1,-1],"loss_changes":[8.7828463E-1,1.4797288E0,1.3737084E0,1.4138979E0,0E0,0E0,0E0,2.344324E0,1.0401019E0,0E0,0E0,0E0,0E0],"parents":[2147483647,0,0,1,1,2,2,3,3,7,7,8,8],"right_children":[2,4,6,8,-1,-1,-1,10,12,-1,-1,-1,-1],"split_conditions":[1.078E4,7.755E3,-5.5725E0,1.634E3,-3.5863798E-2,-1.44305695E-2,3.903432E-2,1E0,1.08186E1,2.785844E-3,-4.2923804E-2,4.1968882E-2,-5.963734E-3],"split_indices":[5,5,6,5,0,0,0,2,6,0,0,0,0],"split_type":[0,0,0,0,0,0,0,0,0,0,0,0,0],"sum_hessian":[3.8414234E1,3.4727455E1,3.68678E0,3.2972145E1,1.7553093E0,1.1879212E0,2.4988587E0,2.9150492E1,3.8216553E0,2.7031567E1,2.118925E0,2.4735482E0,1.348107E0],"tree_param":{"num_deleted":"0","num_feature":"9","num_nodes":"13","size_leaf_vector":"1"}},{"base_weights":[3.9452527E-2,3.2737598E-2,3.0950743E-3,-3.607597E-2,4.6013564E-2,5.1014394E-1,-1.8184606E-2,3.976862E-2,-6.26377E-4,-3.125724E-2,2.3115936E-3],"categories":[],"categories_nodes":[],"categories_segments":[],"categories_sizes":[],"default_left":[0,0,0,0,0,0,0,0,0,0,0],"id":54,"left_children":[1,-1,3,-1,5,7,9,-1,-1,-1,-1],"loss_changes":[8.773658E-1,0E0,1.2187544E0,0E0,1.1096523E0,6.840837E-1,1.3350985E0,0E0,0E0,0E0,0E0],"parents":[2147483647,0,0,2,2,4,4,5,5,6,6],"right_children":[2,-1,4,-1,6,8,10,-1,-1,-1,-1],"split_conditions":[1E0,3.2737598E-2,1.12E2,-3.607597E-2,2.7E2,5E0,4.24E2,3.976862E-2,-6.26377E-4,-3.125724E-2,2.3115936E-3],"split_indices":[3,0,1,0,1,0,1,0,0,0,0],"split_type":[0,0,0,0,0,0,0,0,0,0,0],"sum_hessian":[3.8309967E1,1.1884449E0,3.7121525E1,1.1916088E0,3.5929916E1,3.521841E0,3.2408073E1,1.9409146E0,1.5809263E0,2.2742605E0,3.0133814E1],"tree_param":{"num_deleted":"0","num_feature":"9","num_nodes":"11","size_leaf_vector":"1"}},{"base_weights":[3.7790325E-2,3.1065628E-2,-2.4221852E-4,-3.0853486E-1,1.0045486E-1,2.2986338E-2,-5.7255507E-1,-3.2713555E-2,5.201702E-1,3.473624E-2,-4.7649574E-2,-3.460407E-2,3.392779E-3,-1.1544057E-2,4.33388E-2],"categories":[],"categories_nodes":[],"categories_segments":[],"categories_sizes":[],"default_left":[0,0,0,0,0,0,0,0,0,0,0,0,0,0,0],"id":55,"left_children":[1,-1,3,5,7,-1,9,11,13,-1,-1,-1,-1,-1,-1],"loss_changes":[8.7068343E-1,0E0,1.2052475E0,2.202042E0,1.652816E0,0E0,4.306488E0,1.5826373E0,2.05057E0,0E0,0E0,0E0,0E0,0E0,0E0],"parents":[2147483647,0,0,2,2,3,3,4,4,6,6,7,7,8,8],"right_children":[2,-1,4,6,8,-1,10,12,14,-1,-1,-1,-1,-1,-1],"split_conditions":[-1.4E1,3.1065628E-2,-8.571E3,3E0,2.125E3,2.2986338E-2,1.023E-1,9E-3,-6.7618E0,3.473624E-2,-4.7649574E-2,-3.460407E-2,3.392779E-3,-1.1544057E-2,4.33388E-2],"split_indices":[2,0,5,3,1,0,8,7,6,0,0,0,0,0,0],"split_type":[0,0,0,0,0,0,0,0,0,0,0,0,0,0,0],"sum_hessian":[3.8225857E1,1.400595E0,3.682526E1,8.558548E0,2.8266712E1,1.9993798E0,6.559169E0,2.215832E1,6.1083927E0,1.3236853E0,5.235483E0,2.1540353E0,2.0004284E1,2.0342677E0,4.074125E0],"tree_param":{"num_deleted":"0","num_feature":"9","num_nodes":"15","size_leaf_vector":"1"}},{"base_weights":[3.728286E-2,5.1580083E-1,-8.365844E-3,4.1688383E-3,3.324149E-2,-3.6094144E-2,5.662319E-2,4.0510994E-1,-1.0310386E-1,-1.6444305E-2,3.1440094E-2,7.085678E-3,-1.636742E-2],"categories":[],"categories_nodes":[],"categories_segments":[],"categories_sizes":[],"default_left":[0,0,0,0,0,0,0,0,0,0,0,0,0],"id":56,"left_children":[1,3,5,-1,-1,-1,7,9,11,-1,-1,-1,-1],"loss_changes":[8.588927E-1,1.6516268E-1,1.74265E0,0E0,0E0,0E0,1.9656361E0,2.0236692E0,1.3912625E0,0E0,0E0,0E0,0E0],"parents":[2147483647,0,0,1,1,2,2,6,6,7,7,8,8],"right_children":[2,4,6,-1,-1,-1,8,10,12,-1,-1,-1,-1],"split_conditions":[-1.11954E1,4E-2,-9.8862E0,4.1688383E-3,3.324149E-2,-3.6094144E-2,3E0,8.11E-2,3.148E-1,-1.6444305E-2,3.1440094E-2,7.085678E-3,-1.636742E-2],"split_indices":[6,7,6,0,0,0,3,8,8,0,0,0,0],"split_type":[0,0,0,0,0,0,0,0,0,0,0,0,0],"sum_hessian":[3.8122334E1,2.4230518E0,3.5699284E1,1.0207367E0,1.4023151E0,2.1363583E0,3.3562923E1,1.0065693E1,2.349723E1,2.241252E0,7.824441E0,1.1409275E1,1.2087956E1],"tree_param":{"num_deleted":"0","num_feature":"9","num_nodes":"13","size_leaf_vector":"1"}},{"base_weights":[3.5806835E-2,-8.6172245E-4,3.176984E-2,5.067766E-1,-4.9362946E-2,4.0701265E-3,3.276176E-2,-3.4340218E-2,1.3189326E-2,1.7768709E-2,-6.9160364E-3],"categories":[],"categories_nodes":[],"categories_segments":[],"categories_sizes":[],"default_left":[0,0,0,0,0,0,0,0,0,0,0],"id":57,"left_children":[1,3,-1,5,7,-1,-1,-1,9,-1,-1],"loss_changes":[8.5900766E-1,9.555445E-1,0E0,1.6041338E-1,1.4209433E0,0E0,0E0,0E0,1.7717462E0,0E0,0E0],"parents":[2147483647,0,0,1,1,3,3,4,4,8,8],"right_children":[2,4,-1,6,8,-1,-1,-1,10,-1,-1],"split_conditions":[9.15E-2,-1.11954E1,3.176984E-2,4E-2,-9.8862E0,4.0701265E-3,3.276176E-2,-3.4340218E-2,3E0,1.7768709E-2,-6.9160364E-3],"split_indices":[7,6,0,7,6,0,0,0,3,0,0],"split_type":[0,0,0,0,0,0,0,0,0,0,0],"sum_hessian":[3.804559E1,3.6793976E1,1.2516118E0,2.3847928E0,3.4409184E1,1.017551E0,1.3672417E0,2.1830492E0,3.2226135E1,9.476945E0,2.274919E1],"tree_param":{"num_deleted":"0","num_feature":"9","num_nodes":"11","size_leaf_vector":"1"}},{"base_weights":[3.528584E-2,3.0727942E-2,-2.1179682E-3,-2.9207587E-1,9.371766E-2,-4.4151656E-2,-5.7805307E-2,-3.5350822E-2,5.0779337E-1,2.5888536E-2,-2.90324E-2,-5.7965172E-3,3.5352282E-2,-1.0668307E-2,4.2796247E-2],"categories":[],"categories_nodes":[],"categories_segments":[],"categories_sizes":[],"default_left":[0,0,0,0,0,0,0,0,0,0,0,0,0,0,0],"id":58,"left_children":[1,-1,3,5,7,9,-1,11,13,-1,-1,-1,-1,-1,-1],"loss_changes":[8.465093E-1,0E0,1.0733097E0,2.003913E0,1.5703142E0,2.8612723E0,0E0,1.4625995E0,1.9318638E0,0E0,0E0,0E0,0E0,0E0,0E0],"parents":[2147483647,0,0,2,2,3,3,4,4,5,5,7,7,8,8],"right_children":[2,-1,4,6,8,10,-1,12,14,-1,-1,-1,-1,-1,-1],"split_conditions":[-1.4E1,3.0727942E-2,-8.571E3,-8.94E3,2.125E3,4.04E-2,-5.7805307E-2,8.65E-2,-6.7618E0,2.5888536E-2,-2.90324E-2,-5.7965172E-3,3.5352282E-2,-1.0668307E-2,4.2796247E-2],"split_indices":[2,0,5,5,1,7,0,7,6,0,0,0,0,0,0],"split_type":[0,0,0,0,0,0,0,0,0,0,0,0,0,0,0],"sum_hessian":[3.8008957E1,1.369477E0,3.6639477E1,8.593009E0,2.8046469E1,7.4938335E0,1.0991755E0,2.2079012E1,5.967458E0,3.6772316E0,3.816602E0,2.0678423E1,1.4005876E0,2.0688713E0,3.8985868E0],"tree_param":{"num_deleted":"0","num_feature":"9","num_nodes":"15","size_leaf_vector":"1"}}]},"name":"gbtree"},"learner_model_param":{"base_score":"8.16124E-1","boost_from_average":"1","num_class":"0","num_feature":"9","num_target":"1"},"objective":{"name":"binary:logistic","reg_loss_param":{"scale_pos_weight":"1"}}},"version":[2,1,4]}