{"learner":{"attributes":{"best_iteration":"10","best_score":"0.6814063044845081","scikit_learn":"{\"_estimator_type\": \"classifier\"}"},"feature_names":["yardline_100","game_seconds_remaining","score_differential","timeouts_pos","timeouts_def","leverage","cpoe_by_filter","target_share_by_filter","carry_share_by_filter"],"feature_types":["float","float","float","float","float","float","float","float","float"],"gradient_booster":{"model":{"gbtree_model_param":{"num_parallel_tree":"1","num_trees":"41"},"iteration_indptr":[0,1,2,3,4,5,6,7,8,9,10,11,12,13,14,15,16,17,18,19,20,21,22,23,24,25,26,27,28,29,30,31,32,33,34,35,36,37,38,39,40,41],"tree_info":[0,0,0,0,0,0,0,0,0,0,0,0,0,0,0,0,0,0,0,0,0,0,0,0,0,0,0,0,0,0,0,0,0,0,0,0,0,0,0,0,0],"trees":[{"base_weights":[-2.6686982E-6,1.3975115E0,-1.8899475E-1,7.718783E-2,1.2005935E-2,4.4624472E-1,-3.1446245E-1,1.0738713E0,-3.6521308E-2,-4.1956547E-1,2.99015E-1,7.03563E-2,1.7741445E-2,6.0974002E-2,-2.6655419E-2,-1.00357365E-2,-4.1351497E-2,5.1215615E-2,-1.0651943E-2],"categories":[],"categories_nodes":[],"categories_segments":[],"categories_sizes":[],"default_left":[0,0,0,0,0,0,0,0,0,0,0,0,0,0,0,0,0,0,0],"id":0,"left_children":[1,3,5,-1,-1,7,9,11,13,15,17,-1,-1,-1,-1,-1,-1,-1,-1],"loss_changes":[2.1058195E1,1.2369423E0,5.737969E0,0E0,0E0,3.674319E0,3.944828E0,7.584748E-1,5.482811E0,4.380719E0,3.6527963E0,0E0,0E0,0E0,0E0,0E0,0E0,0E0,0E0],"parents":[2147483647,0,0,1,1,2,2,5,5,6,6,7,7,8,8,9,9,10,10],"right_children":[2,4,6,-1,-1,8,10,12,14,16,18,-1,-1,-1,-1,-1,-1,-1,-1],"split_conditions":[2E0,6.9E1,-1E1,7.718783E-2,1.2005935E-2,5.3E1,3.285E3,7.94E2,-8.186E-1,2.65E3,1.924E-1,7.03563E-2,1.7741445E-2,6.0974002E-2,-2.6655419E-2,-1.00357365E-2,-4.1351497E-2,5.1215615E-2,-1.0651943E-2],"split_indices":[3,0,2,0,0,0,1,1,6,1,8,0,0,0,0,0,0,0,0],"split_type":[0,0,0,0,0,0,0,0,0,0,0,0,0,0,0,0,0,0,0],"sum_hessian":[7.772991E1,8.497804E0,6.923211E1,7.2481265E0,1.2496771E0,1.0997158E1,5.8234947E1,4.248902E0,6.7482557E0,4.998708E1,8.247869E0,2.2494187E0,1.9994832E0,1.4996125E0,5.2486434E0,3.3491344E1,1.6495737E1,2.999225E0,5.2486434E0],"tree_param":{"num_deleted":"0","num_feature":"9","num_nodes":"19","size_leaf_vector":"1"}},{"base_weights":[2.541858E-3,1.3372453E0,-1.7803307E-1,7.410569E-2,1.0586573E-2,-6.434179E-2,-8.565492E-1,3.9320266E-1,-2.7155656E-1,-1.2685685E0,-2.4188416E-1,9.033413E-3,6.999417E-2,9.100592E-3,-3.2110475E-2,-9.849957E-3,-7.611927E-2,1.834953E-2,-3.6473975E-2],"categories":[],"categories_nodes":[],"categories_segments":[],"categories_sizes":[],"default_left":[0,0,0,0,0,0,0,0,0,0,0,0,0,0,0,0,0,0,0],"id":1,"left_children":[1,3,5,-1,-1,7,9,11,13,15,17,-1,-1,-1,-1,-1,-1,-1,-1],"loss_changes":[1.9206015E1,1.2345562E0,5.36055E0,0E0,0E0,5.9101353E0,2.2241592E0,3.9167655E0,7.299122E0,1.2633591E0,1.8252504E0,0E0,0E0,0E0,0E0,0E0,0E0,0E0,0E0],"parents":[2147483647,0,0,1,1,2,2,5,5,6,6,7,7,8,8,9,9,10,10],"right_children":[2,4,6,-1,-1,8,10,12,14,16,18,-1,-1,-1,-1,-1,-1,-1,-1],"split_conditions":[2E0,1.842E3,7.4E1,7.410569E-2,1.0586573E-2,2.006E-1,2.168E3,3.4E-2,1.969E3,7.5E-3,4.03E-2,9.033413E-3,6.999417E-2,9.100592E-3,-3.2110475E-2,-9.849957E-3,-7.611927E-2,1.834953E-2,-3.6473975E-2],"split_indices":[3,1,0,0,0,8,1,7,1,7,7,0,0,0,0,0,0,0,0],"split_type":[0,0,0,0,0,0,0,0,0,0,0,0,0,0,0,0,0,0,0],"sum_hessian":[7.770058E1,8.496199E0,6.9204384E1,7.2466297E0,1.2495692E0,6.0210426E1,8.993955E0,1.8488651E1,4.1721775E1,4.7476773E0,4.2462773E0,1.6239561E1,2.2490911E0,1.8991184E1,2.273059E1,1.2493391E0,3.498338E0,1.9982941E0,2.247983E0],"tree_param":{"num_deleted":"0","num_feature":"9","num_nodes":"19","size_leaf_vector":"1"}},{"base_weights":[2.8796818E-3,1.2821147E0,-1.6991414E-1,7.1027376E-2,1.0293299E-2,4.3085486E-1,-2.8878784E-1,1.0396953E0,-3.74743E-2,-1.3691558E-1,-7.087864E-1,2.2843843E-2,6.62216E-2,4.989879E-2,-2.856421E-2,-1.5469971E-2,3.1748705E-2,-7.303879E-2,-1.9506589E-2],"categories":[],"categories_nodes":[],"categories_segments":[],"categories_sizes":[],"default_left":[0,0,0,0,0,0,0,0,0,0,0,0,0,0,0,0,0,0,0],"id":2,"left_children":[1,3,5,-1,-1,7,9,11,13,15,17,-1,-1,-1,-1,-1,-1,-1,-1],"loss_changes":[1.7601753E1,1.1193466E0,5.1355705E0,0E0,0E0,3.458353E0,3.6776066E0,2.6591396E-1,4.8501625E0,6.147814E0,3.1385837E0,0E0,0E0,0E0,0E0,0E0,0E0,0E0,0E0],"parents":[2147483647,0,0,1,1,2,2,5,5,6,6,7,7,8,8,9,9,10,10],"right_children":[2,4,6,-1,-1,8,10,12,14,16,18,-1,-1,-1,-1,-1,-1,-1,-1],"split_conditions":[2E0,1.842E3,-1E1,7.1027376E-2,1.0293299E-2,1.559E-1,6.8E1,4.85E-2,2.359E-1,6E1,1.401E3,2.2843843E-2,6.62216E-2,4.989879E-2,-2.856421E-2,-1.5469971E-2,3.1748705E-2,-7.303879E-2,-1.9506589E-2],"split_indices":[3,1,2,0,0,6,0,7,8,0,1,0,0,0,0,0,0,0,0],"split_type":[0,0,0,0,0,0,0,0,0,0,0,0,0,0,0,0,0,0,0],"sum_hessian":[7.764458E1,8.475852E0,6.9168724E1,7.2264433E0,1.2494088E0,1.0992069E1,5.817666E1,4.248672E0,6.743397E0,4.3700474E1,1.4476183E1,2.2492707E0,1.9994013E0,1.9980923E0,4.745305E0,3.620859E1,7.4918833E0,3.2417703E0,1.1234413E1],"tree_param":{"num_deleted":"0","num_feature":"9","num_nodes":"19","size_leaf_vector":"1"}},{"base_weights":[4.2145713E-3,1.2316606E0,-1.6104741E-1,6.848079E-2,9.034346E-3,4.1883972E-1,-2.7582145E-1,1.009923E0,-3.5762407E-2,-3.7584057E-1,3.0504137E-1,6.6325456E-2,1.6531987E-2,-5.1825684E-2,2.8121442E-2,-8.438588E-3,-3.8148485E-2,3.4393303E-2,-2.6046513E-2],"categories":[],"categories_nodes":[],"categories_segments":[],"categories_sizes":[],"default_left":[0,0,0,0,0,0,0,0,0,0,0,0,0,0,0,0,0,0,0],"id":3,"left_children":[1,3,5,-1,-1,7,9,11,13,15,17,-1,-1,-1,-1,-1,-1,-1,-1],"loss_changes":[1.613444E1,1.1208973E0,4.782631E0,0E0,0E0,3.2560406E0,3.5505276E0,6.890693E-1,5.2160244E0,3.9515414E0,3.279865E0,0E0,0E0,0E0,0E0,0E0,0E0,0E0,0E0],"parents":[2147483647,0,0,1,1,2,2,5,5,6,6,7,7,8,8,9,9,10,10],"right_children":[2,4,6,-1,-1,8,10,12,14,16,18,-1,-1,-1,-1,-1,-1,-1,-1],"split_conditions":[2E0,6.9E1,-1E1,6.848079E-2,9.034346E-3,5.3E1,3.285E3,7.94E2,6.6E1,2.65E3,6.42E-2,6.6325456E-2,1.6531987E-2,-5.1825684E-2,2.8121442E-2,-8.438588E-3,-3.8148485E-2,3.4393303E-2,-2.6046513E-2],"split_indices":[3,0,2,0,0,0,1,1,0,1,7,0,0,0,0,0,0,0,0],"split_type":[0,0,0,0,0,0,0,0,0,0,0,0,0,0,0,0,0,0,0],"sum_hessian":[7.756086E1,8.437852E0,6.912301E1,7.190773E0,1.2470785E0,1.0982996E1,5.8140015E1,4.243697E0,6.739299E0,4.9900566E1,8.239448E0,2.2447186E0,1.9989786E0,2.247152E0,4.4921465E0,3.3446537E1,1.6454031E1,5.7442727E0,2.4951751E0],"tree_param":{"num_deleted":"0","num_feature":"9","num_nodes":"19","size_leaf_vector":"1"}},{"base_weights":[5.2777296E-3,1.185011E0,-1.5284432E-1,6.590222E-2,8.779288E-3,-4.7003396E-2,-7.872142E-1,3.8434938E-1,-2.4287573E-1,-1.1857566E0,-2.014816E-1,8.93172E-3,6.788049E-2,9.016278E-3,-2.9488891E-2,-9.099432E-3,-7.125767E-2,1.8998561E-2,-3.385617E-2],"categories":[],"categories_nodes":[],"categories_segments":[],"categories_sizes":[],"default_left":[0,0,0,0,0,0,0,0,0,0,0,0,0,0,0,0,0,0,0],"id":4,"left_children":[1,3,5,-1,-1,7,9,11,13,15,17,-1,-1,-1,-1,-1,-1,-1,-1],"loss_changes":[1.48144455E1,1.0289555E0,4.6669545E0,0E0,0E0,5.2561464E0,2.0847793E0,3.6555448E0,6.365707E0,1.1148863E0,1.7051586E0,0E0,0E0,0E0,0E0,0E0,0E0,0E0,0E0],"parents":[2147483647,0,0,1,1,2,2,5,5,6,6,7,7,8,8,9,9,10,10],"right_children":[2,4,6,-1,-1,8,10,12,14,16,18,-1,-1,-1,-1,-1,-1,-1,-1],"split_conditions":[2E0,1.842E3,7.4E1,6.590222E-2,8.779288E-3,2.006E-1,2.168E3,1.754E-1,1.969E3,7.5E-3,4.03E-2,8.93172E-3,6.788049E-2,9.016278E-3,-2.9488891E-2,-9.099432E-3,-7.125767E-2,1.8998561E-2,-3.385617E-2],"split_indices":[3,1,0,0,0,8,1,8,1,7,7,0,0,0,0,0,0,0,0],"split_type":[0,0,0,0,0,0,0,0,0,0,0,0,0,0,0,0,0,0,0],"sum_hessian":[7.744525E1,8.385745E0,6.905951E1,7.139133E0,1.2466117E0,6.0105373E1,8.954138E0,1.846945E1,4.163592E1,4.718911E0,4.235226E0,1.6223816E1,2.2456346E0,1.8971693E1,2.2664228E1,1.2476854E0,3.471226E0,1.9961517E0,2.2390747E0],"tree_param":{"num_deleted":"0","num_feature":"9","num_nodes":"19","size_leaf_vector":"1"}},{"base_weights":[5.4877796E-3,1.141877E0,-1.459337E-1,6.376331E-2,7.6094135E-3,-4.3769713E-2,-7.599267E-1,3.6915085E-1,-2.3144276E-1,-1.1460613E0,-1.944389E-1,3.3061244E-2,-1.232798E-2,8.587002E-3,-2.8128156E-2,-8.848648E-3,-6.8909004E-2,1.8358557E-2,-3.274603E-2],"categories":[],"categories_nodes":[],"categories_segments":[],"categories_sizes":[],"default_left":[0,0,0,0,0,0,0,0,0,0,0,0,0,0,0,0,0,0,0],"id":5,"left_children":[1,3,5,-1,-1,7,9,11,13,15,17,-1,-1,-1,-1,-1,-1,-1,-1],"loss_changes":[1.3640895E1,1.0363503E0,4.3567333E0,0E0,0E0,4.8173833E0,1.9438047E0,3.663657E0,5.7832756E0,1.0364866E0,1.5931495E0,0E0,0E0,0E0,0E0,0E0,0E0,0E0,0E0],"parents":[2147483647,0,0,1,1,2,2,5,5,6,6,7,7,8,8,9,9,10,10],"right_children":[2,4,6,-1,-1,8,10,12,14,16,18,-1,-1,-1,-1,-1,-1,-1,-1],"split_conditions":[2E0,6.9E1,7.4E1,6.376331E-2,7.6094135E-3,2.006E-1,2.168E3,1E0,1.969E3,7.5E-3,4.03E-2,3.3061244E-2,-1.232798E-2,8.587002E-3,-2.8128156E-2,-8.848648E-3,-6.8909004E-2,1.8358557E-2,-3.274603E-2],"split_indices":[3,0,0,0,0,8,1,2,1,7,7,0,0,0,0,0,0,0,0],"split_type":[0,0,0,0,0,0,0,0,0,0,0,0,0,0,0,0,0,0,0],"sum_hessian":[7.730513E1,8.3204775E0,6.898465E1,7.0779653E0,1.2425126E0,6.0062046E1,8.922602E0,1.846598E1,4.1596066E1,4.692039E0,4.230563E0,1.2474528E1,5.991452E0,1.8974022E1,2.2622046E1,1.2472471E0,3.4447918E0,1.997284E0,2.2332792E0],"tree_param":{"num_deleted":"0","num_feature":"9","num_nodes":"19","size_leaf_vector":"1"}},{"base_weights":[4.9801203E-3,1.1016198E0,-1.4015241E-1,6.1555207E-2,7.4006976E-3,-4.1609127E-2,-7.3430085E-1,3.5188332E-1,-2.2059256E-1,-1.1092323E0,-1.8770666E-1,7.6122913E-3,6.5266915E-2,8.178522E-3,-2.6838666E-2,-8.604961E-3,-6.6754095E-2,1.7742293E-2,-3.168339E-2],"categories":[],"categories_nodes":[],"categories_segments":[],"categories_sizes":[],"default_left":[0,0,0,0,0,0,0,0,0,0,0,0,0,0,0,0,0,0,0],"id":6,"left_children":[1,3,5,-1,-1,7,9,11,13,15,17,-1,-1,-1,-1,-1,-1,-1,-1],"loss_changes":[1.2590223E1,9.5931435E-1,4.061468E0,0E0,0E0,4.3742995E0,1.8170834E0,3.5052395E0,5.25593E0,9.67772E-1,1.4889653E0,0E0,0E0,0E0,0E0,0E0,0E0,0E0,0E0],"parents":[2147483647,0,0,1,1,2,2,5,5,6,6,7,7,8,8,9,9,10,10],"right_children":[2,4,6,-1,-1,8,10,12,14,16,18,-1,-1,-1,-1,-1,-1,-1,-1],"split_conditions":[2E0,6.9E1,7.4E1,6.1555207E-2,7.4006976E-3,2.006E-1,2.168E3,1.754E-1,1.969E3,7.5E-3,4.03E-2,7.6122913E-3,6.5266915E-2,8.178522E-3,-2.6838666E-2,-8.604961E-3,-6.6754095E-2,1.7742293E-2,-3.168339E-2],"split_indices":[3,0,0,0,0,8,1,8,1,7,7,0,0,0,0,0,0,0,0],"split_type":[0,0,0,0,0,0,0,0,0,0,0,0,0,0,0,0,0,0,0],"sum_hessian":[7.7135056E1,8.244925E0,6.889014E1,7.0030284E0,1.2418967E0,6.0007534E1,8.882599E0,1.8459213E1,4.154832E1,4.6580787E0,4.2245207E0,1.6222229E1,2.236985E0,1.8975525E1,2.2572796E1,1.2467716E0,3.4113069E0,1.9980373E0,2.2264833E0],"tree_param":{"num_deleted":"0","num_feature":"9","num_nodes":"19","size_leaf_vector":"1"}},{"base_weights":[5.1873378E-3,1.0640678E0,-1.3388821E-1,5.972003E-2,6.3280948E-3,3.9262995E-1,-2.38504E-1,9.699141E-1,-5.012269E-2,-3.3492684E-1,3.181368E-1,2.001866E-2,6.316585E-2,4.587081E-2,-2.7256921E-2,-1.1062692E-2,-4.710139E-2,3.3665847E-2,-2.304746E-2],"categories":[],"categories_nodes":[],"categories_segments":[],"categories_sizes":[],"default_left":[0,0,0,0,0,0,0,0,0,0,0,0,0,0,0,0,0,0,0],"id":7,"left_children":[1,3,5,-1,-1,7,9,11,13,15,17,-1,-1,-1,-1,-1,-1,-1,-1],"loss_changes":[1.1619857E1,9.680519E-1,3.937135E0,0E0,0E0,3.101457E0,3.2643106E0,3.6875343E-1,4.1930695E0,3.285873E0,2.8559914E0,0E0,0E0,0E0,0E0,0E0,0E0,0E0,0E0],"parents":[2147483647,0,0,1,1,2,2,5,5,6,6,7,7,8,8,9,9,10,10],"right_children":[2,4,6,-1,-1,8,10,12,14,16,18,-1,-1,-1,-1,-1,-1,-1,-1],"split_conditions":[2E0,1.842E3,-1E1,5.972003E-2,6.3280948E-3,1.559E-1,3.285E3,4.85E-2,2.359E-1,3.039E3,6.42E-2,2.001866E-2,6.316585E-2,4.587081E-2,-2.7256921E-2,-1.1062692E-2,-4.710139E-2,3.3665847E-2,-2.304746E-2],"split_indices":[3,1,2,0,0,6,1,7,8,1,7,0,0,0,0,0,0,0,0],"split_type":[0,0,0,0,0,0,0,0,0,0,0,0,0,0,0,0,0,0,0],"sum_hessian":[7.693732E1,8.1598215E0,6.877749E1,6.923318E0,1.2365035E0,1.0944106E1,5.7833385E1,4.233544E0,6.7105627E0,4.963396E1,8.199425E0,2.2433794E0,1.9901646E0,1.9824445E0,4.728118E0,4.2955463E1,6.678498E0,5.725135E0,2.4742901E0],"tree_param":{"num_deleted":"0","num_feature":"9","num_nodes":"19","size_leaf_vector":"1"}},{"base_weights":[6.5137562E-3,1.0287391E0,-1.2658845E-1,5.7796385E-2,6.1551034E-3,-3.232284E-2,-6.9818544E-1,3.3991304E-1,-2.0199314E-1,-1.0693252E0,-1.6434817E-1,4.9149026E-3,5.3600837E-2,8.073858E-3,-2.5120774E-2,-8.380852E-3,-6.4414196E-2,1.7641176E-2,-2.9792637E-2],"categories":[],"categories_nodes":[],"categories_segments":[],"categories_sizes":[],"default_left":[0,0,0,0,0,0,0,0,0,0,0,0,0,0,0,0,0,0,0],"id":8,"left_children":[1,3,5,-1,-1,7,9,11,13,15,17,-1,-1,-1,-1,-1,-1,-1,-1],"loss_changes":[1.0709566E1,9.0215683E-1,3.732316E0,0E0,0E0,3.9130628E0,1.7692871E0,3.331745E0,4.7152452E0,8.9155626E-1,1.3723822E0,0E0,0E0,0E0,0E0,0E0,0E0,0E0,0E0],"parents":[2147483647,0,0,1,1,2,2,5,5,6,6,7,7,8,8,9,9,10,10],"right_children":[2,4,6,-1,-1,8,10,12,14,16,18,-1,-1,-1,-1,-1,-1,-1,-1],"split_conditions":[2E0,1.842E3,7.4E1,5.7796385E-2,6.1551034E-3,2.006E-1,2.168E3,2.59E-2,1.969E3,7.5E-3,4.03E-2,4.9149026E-3,5.3600837E-2,8.073858E-3,-2.5120774E-2,-8.380852E-3,-6.4414196E-2,1.7641176E-2,-2.9792637E-2],"split_indices":[3,1,0,0,0,8,1,7,1,7,7,0,0,0,0,0,0,0,0],"split_type":[0,0,0,0,0,0,0,0,0,0,0,0,0,0,0,0,0,0,0],"sum_hessian":[7.675471E1,8.067482E0,6.8687225E1,6.8316655E0,1.2358165E0,5.987021E1,8.8170185E0,1.8431149E1,4.143906E1,4.60936E0,4.207659E0,1.4710526E1,3.720623E0,1.8961143E1,2.2477915E1,1.2455399E0,3.3638203E0,1.9967878E0,2.210871E0],"tree_param":{"num_deleted":"0","num_feature":"9","num_nodes":"19","size_leaf_vector":"1"}},{"base_weights":[6.4809565E-3,9.955322E-1,-1.2113753E-1,6.5396085E-2,4.4352674E-1,3.8008165E-1,-2.2084175E-1,-5.3757075E-3,3.851928E-2,9.374922E-1,-4.5655258E-2,-3.134903E-1,3.1277665E-1,6.163114E-2,1.5379948E-2,-5.074797E-2,2.6854126E-2,-6.633326E-3,-3.2703374E-2,3.253543E-2,-2.1665325E-2],"categories":[],"categories_nodes":[],"categories_segments":[],"categories_sizes":[],"default_left":[0,0,0,0,0,0,0,0,0,0,0,0,0,0,0,0,0,0,0,0,0],"id":9,"left_children":[1,3,5,-1,7,9,11,-1,-1,13,15,17,19,-1,-1,-1,-1,-1,-1,-1,-1],"loss_changes":[9.905976E0,9.664345E-1,3.5599632E0,0E0,9.391347E-1,2.8687654E0,2.9975903E0,0E0,0E0,5.881152E-1,4.897378E0,3.0215101E0,2.5956972E0,0E0,0E0,0E0,0E0,0E0,0E0,0E0,0E0],"parents":[2147483647,0,0,1,1,2,2,4,4,5,5,6,6,9,9,10,10,11,11,12,12],"right_children":[2,4,6,-1,8,10,12,-1,-1,14,16,18,20,-1,-1,-1,-1,-1,-1,-1,-1],"split_conditions":[2E0,3.231E-1,-1E1,6.5396085E-2,6.579E-1,5.3E1,3.285E3,-5.3757075E-3,3.851928E-2,7.94E2,6.6E1,2.65E3,6.42E-2,6.163114E-2,1.5379948E-2,-5.074797E-2,2.6854126E-2,-6.633326E-3,-3.2703374E-2,3.253543E-2,-2.1665325E-2],"split_indices":[3,8,2,0,6,0,1,0,0,1,0,1,7,0,0,0,0,0,0,0,0],"split_type":[0,0,0,0,0,0,0,0,0,0,0,0,0,0,0,0,0,0,0,0,0],"sum_hessian":[7.652563E1,7.9684896E0,6.8557144E1,4.214201E0,3.7542892E0,1.090831E1,5.764883E1,1.6476452E0,2.106644E0,4.203149E0,6.705161E0,4.947188E1,8.176948E0,2.2105439E0,1.9926052E0,2.239069E0,4.466092E0,3.322249E1,1.6249393E1,5.7158403E0,2.4611073E0],"tree_param":{"num_deleted":"0","num_feature":"9","num_nodes":"21","size_leaf_vector":"1"}},{"base_weights":[7.791593E-3,9.6655923E-1,-1.1492055E-1,5.4843374E-2,4.1519785E-3,-2.413951E-2,-6.682961E-1,3.2995263E-1,-1.8588528E-1,-1.0358828E0,-1.4581983E-1,3.0161295E-2,-1.2117804E-2,7.6888814E-3,-2.3394352E-2,-8.155046E-3,-6.2490012E-2,1.7556451E-2,-2.8300181E-2],"categories":[],"categories_nodes":[],"categories_segments":[],"categories_sizes":[],"default_left":[0,0,0,0,0,0,0,0,0,0,0,0,0,0,0,0,0,0,0],"id":10,"left_children":[1,3,5,-1,-1,7,9,11,13,15,17,-1,-1,-1,-1,-1,-1,-1,-1],"loss_changes":[9.208602E0,9.3128586E-1,3.4725218E0,0E0,0E0,3.53756E0,1.7213826E0,3.1790547E0,4.124036E0,8.340759E-1,1.2825165E0,0E0,0E0,0E0,0E0,0E0,0E0,0E0,0E0],"parents":[2147483647,0,0,1,1,2,2,5,5,6,6,7,7,8,8,9,9,10,10],"right_children":[2,4,6,-1,-1,8,10,12,14,16,18,-1,-1,-1,-1,-1,-1,-1,-1],"split_conditions":[2E0,6.9E1,7.4E1,5.4843374E-2,4.1519785E-3,2.006E-1,2.168E3,1E0,1.969E3,7.5E-3,4.03E-2,3.0161295E-2,-1.2117804E-2,7.6888814E-3,-2.3394352E-2,-8.155046E-3,-6.2490012E-2,1.7556451E-2,-2.8300181E-2],"split_indices":[3,0,0,0,0,8,1,2,1,7,7,0,0,0,0,0,0,0,0],"split_type":[0,0,0,0,0,0,0,0,0,0,0,0,0,0,0,0,0,0,0],"sum_hessian":[7.632542E1,7.880137E0,6.844528E1,6.656858E0,1.2232791E0,5.9695827E1,8.7494545E0,1.8392097E1,4.130373E1,4.559201E0,4.1902537E0,1.2411618E1,5.980479E0,1.8942606E1,2.2361126E1,1.24442E0,3.3147807E0,1.9950565E0,2.1951973E0],"tree_param":{"num_deleted":"0","num_feature":"9","num_nodes":"19","size_leaf_vector":"1"}},{"base_weights":[7.1745757E-3,9.365125E-1,-1.10576384E-1,6.24954E-2,3.965173E-1,-2.2935145E-2,-6.4741373E-1,-6.4751105E-3,3.5990436E-2,3.1469196E-1,-1.7725988E-1,-1.0062647E0,-1.408877E-1,6.302861E-3,6.138731E-2,7.3237154E-3,-2.2340147E-2,-7.931005E-3,-6.0815215E-2,-3.3580903E-2,1.2492127E-2],"categories":[],"categories_nodes":[],"categories_segments":[],"categories_sizes":[],"default_left":[0,0,0,0,0,0,0,0,0,0,0,0,0,0,0,0,0,0,0,0,0],"id":11,"left_children":[1,3,5,-1,7,9,11,-1,-1,13,15,17,19,-1,-1,-1,-1,-1,-1,-1,-1],"loss_changes":[8.537672E0,9.890423E-1,3.2456524E0,0E0,8.9016616E-1,3.2138674E0,1.6193824E0,0E0,0E0,3.1820736E0,3.7510622E0,7.8778315E-1,1.2421161E0,0E0,0E0,0E0,0E0,0E0,0E0,0E0,0E0],"parents":[2147483647,0,0,1,1,2,2,4,4,5,5,6,6,9,9,10,10,11,11,12,12],"right_children":[2,4,6,-1,8,10,12,-1,-1,14,16,18,20,-1,-1,-1,-1,-1,-1,-1,-1],"split_conditions":[2E0,3.231E-1,7.4E1,6.24954E-2,6.579E-1,2.006E-1,2.168E3,-6.4751105E-3,3.5990436E-2,1.754E-1,1.969E3,7.5E-3,-9.282E3,6.302861E-3,6.138731E-2,7.3237154E-3,-2.2340147E-2,-7.931005E-3,-6.0815215E-2,-3.3580903E-2,1.2492127E-2],"split_indices":[3,8,0,0,6,8,1,0,0,8,1,7,5,0,0,0,0,0,0,0,0],"split_type":[0,0,0,0,0,0,0,0,0,0,0,0,0,0,0,0,0,0,0,0,0],"sum_hessian":[7.607286E1,7.772875E0,6.829998E1,4.0865245E0,3.68635E0,5.9610935E1,8.689046E0,1.6313864E0,2.0549636E0,1.8373901E1,4.1237038E1,4.5084267E0,4.180619E0,1.617106E1,2.2028399E0,1.8942621E1,2.2294415E1,1.2438568E0,3.26457E0,1.4678937E0,2.712725E0],"tree_param":{"num_deleted":"0","num_feature":"9","num_nodes":"21","size_leaf_vector":"1"}},{"base_weights":[7.5624236E-3,9.104916E-1,-1.0583654E-1,6.09319E-2,3.846549E-1,-3.6118962E-2,-7.6097345E-1,-6.268315E-3,3.503567E-2,4.7683504E-1,-1.3927506E-1,-2.1879767E-1,-5.3940337E-2,4.124893E-2,-1.0447856E-2,-4.832017E-2,-3.201921E-3,-3.353215E-2,1.9160395E-2],"categories":[],"categories_nodes":[],"categories_segments":[],"categories_sizes":[],"default_left":[0,0,0,0,0,0,0,0,0,0,0,0,0,0,0,0,0,0,0],"id":12,"left_children":[1,3,5,-1,7,9,11,-1,-1,13,15,17,-1,-1,-1,-1,-1,-1,-1],"loss_changes":[7.963003E0,9.371414E-1,3.131034E0,0E0,8.40165E-1,3.4291878E0,9.015193E-1,0E0,0E0,2.7668152E0,3.2789373E0,1.2618357E0,0E0,0E0,0E0,0E0,0E0,0E0,0E0],"parents":[2147483647,0,0,1,1,2,2,4,4,5,5,6,6,9,9,10,10,11,11],"right_children":[2,4,6,-1,8,10,12,-1,-1,14,16,18,-1,-1,-1,-1,-1,-1,-1],"split_conditions":[2E0,3.231E-1,6.395E-1,6.09319E-2,6.579E-1,-1E1,5.5E1,-6.268315E-3,3.503567E-2,7.38E-2,-7E0,1.6121E0,-5.3940337E-2,4.124893E-2,-1.0447856E-2,-4.832017E-2,-3.201921E-3,-3.353215E-2,1.9160395E-2],"split_indices":[3,8,8,0,6,2,0,0,0,7,2,6,0,0,0,0,0,0,0],"split_type":[0,0,0,0,0,0,0,0,0,0,0,0,0,0,0,0,0,0,0],"sum_hessian":[7.582923E1,7.6765203E0,6.815271E1,4.009428E0,3.6670926E0,6.255133E1,5.6013813E0,1.6338713E0,2.0332212E0,9.866536E0,5.2684795E1,2.6940837E0,2.9072976E0,6.40969E0,3.4568465E0,3.4051194E0,4.927968E1,1.473848E0,1.2202356E0],"tree_param":{"num_deleted":"0","num_feature":"9","num_nodes":"19","size_leaf_vector":"1"}},{"base_weights":[7.23615E-3,8.8583577E-1,-1.0195353E-1,1.0192137E0,1.93129E-3,-1.8012203E-2,-6.19739E-1,1.5996484E-2,5.4614246E-2,3.0099925E-1,-1.640422E-1,-9.6935624E-1,-1.3281374E-1,5.875129E-3,5.9772905E-2,7.1549774E-3,-2.104443E-2,-7.6276585E-3,-5.8748286E-2,-3.2543123E-2,1.231921E-2],"categories":[],"categories_nodes":[],"categories_segments":[],"categories_sizes":[],"default_left":[0,0,0,0,0,0,0,0,0,0,0,0,0,0,0,0,0,0,0,0,0],"id":13,"left_children":[1,3,5,7,-1,9,11,-1,-1,13,15,17,19,-1,-1,-1,-1,-1,-1,-1,-1],"loss_changes":[7.4440804E0,9.2977524E-1,2.9912097E0,2.716446E-2,0E0,2.866451E0,1.5066395E0,0E0,0E0,3.0340838E0,3.3837686E0,7.331643E-1,1.1766825E0,0E0,0E0,0E0,0E0,0E0,0E0,0E0,0E0],"parents":[2147483647,0,0,1,1,2,2,3,3,5,5,6,6,9,9,10,10,11,11,12,12],"right_children":[2,4,6,8,-1,10,12,-1,-1,14,16,18,20,-1,-1,-1,-1,-1,-1,-1,-1],"split_conditions":[2E0,1.842E3,7.4E1,-2.2743E4,1.93129E-3,2.006E-1,2.168E3,1.5996484E-2,5.4614246E-2,1.754E-1,1.969E3,7.5E-3,-9.282E3,5.875129E-3,5.9772905E-2,7.1549774E-3,-2.104443E-2,-7.6276585E-3,-5.8748286E-2,-3.2543123E-2,1.231921E-2],"split_indices":[3,1,0,5,0,8,1,0,0,8,1,7,5,0,0,0,0,0,0,0,0],"split_type":[0,0,0,0,0,0,0,0,0,0,0,0,0,0,0,0,0,0,0,0,0],"sum_hessian":[7.565443E1,7.5765514E0,6.807787E1,6.3705926E0,1.205959E0,5.9471394E1,8.60648E0,1.1115447E0,5.2590475E0,1.8341673E1,4.1129723E1,4.432866E0,4.173613E0,1.615821E1,2.1834617E0,1.8932608E1,2.2197113E1,1.2417704E0,3.1910958E0,1.4610931E0,2.71252E0],"tree_param":{"num_deleted":"0","num_feature":"9","num_nodes":"21","size_leaf_vector":"1"}},{"base_weights":[7.403469E-3,8.611437E-1,-9.7609974E-2,5.849824E-2,3.4779078E-1,-3.1087793E-2,-7.2564936E-1,-7.040755E-3,3.3054434E-2,4.5527798E-1,-1.2891729E-1,-2.0083813E-1,-5.187731E-2,3.9470986E-2,-1.0053772E-2,-4.6414956E-2,-2.837152E-3,1.9784143E-2,-3.2811623E-2],"categories":[],"categories_nodes":[],"categories_segments":[],"categories_sizes":[],"default_left":[0,0,0,0,0,0,0,0,0,0,0,0,0,0,0,0,0,0,0],"id":14,"left_children":[1,3,5,-1,7,9,11,-1,-1,13,15,17,-1,-1,-1,-1,-1,-1,-1],"loss_changes":[6.932689E0,9.356966E-1,2.8568435E0,0E0,7.9787344E-1,3.0736306E0,8.6477995E-1,0E0,0E0,2.534287E0,3.0358844E0,1.2604141E0,0E0,0E0,0E0,0E0,0E0,0E0,0E0],"parents":[2147483647,0,0,1,1,2,2,4,4,5,5,6,6,9,9,10,10,11,11],"right_children":[2,4,6,-1,8,10,12,-1,-1,14,16,18,-1,-1,-1,-1,-1,-1,-1],"split_conditions":[2E0,3.231E-1,6.395E-1,5.849824E-2,6.579E-1,-1E1,5.5E1,-7.040755E-3,3.3054434E-2,7.38E-2,-7E0,9.32E-2,-5.187731E-2,3.9470986E-2,-1.0053772E-2,-4.6414956E-2,-2.837152E-3,1.9784143E-2,-3.2811623E-2],"split_indices":[3,8,8,0,6,2,0,0,0,7,2,7,0,0,0,0,0,0,0],"split_type":[0,0,0,0,0,0,0,0,0,0,0,0,0,0,0,0,0,0,0],"sum_hessian":[7.538942E1,7.468835E0,6.7920586E1,3.864798E0,3.6040366E0,6.236442E1,5.556165E0,1.6231622E0,1.9808745E0,9.831698E0,5.2532722E1,2.683953E0,2.8722122E0,6.3806496E0,3.4510486E0,3.367982E0,4.916474E1,1.2186993E0,1.4652536E0],"tree_param":{"num_deleted":"0","num_feature":"9","num_nodes":"19","size_leaf_vector":"1"}},{"base_weights":[7.0738858E-3,8.386663E-1,-9.40873E-2,9.7483003E-1,4.4787038E-4,-1.3628914E-2,-5.9410715E-1,5.22641E-2,1.5308273E-2,2.8789717E-1,-1.5185009E-1,-9.355226E-1,-1.2538524E-1,3.773528E-2,-1.6108326E-3,-3.62044E-2,-4.585567E-4,-7.341849E-3,-5.6873735E-2,1.7104374E-2,-2.6372923E-2],"categories":[],"categories_nodes":[],"categories_segments":[],"categories_sizes":[],"default_left":[0,0,0,0,0,0,0,0,0,0,0,0,0,0,0,0,0,0,0,0,0],"id":15,"left_children":[1,3,5,7,-1,9,11,-1,-1,13,15,17,19,-1,-1,-1,-1,-1,-1,-1,-1],"loss_changes":[6.4892697E0,9.363308E-1,2.7612052E0,1.8052101E-2,0E0,2.5576E0,1.4057896E0,0E0,0E0,2.9090035E0,3.4236E0,6.8539906E-1,1.1513845E0,0E0,0E0,0E0,0E0,0E0,0E0,0E0,0E0],"parents":[2147483647,0,0,1,1,2,2,3,3,5,5,6,6,9,9,10,10,11,11,12,12],"right_children":[2,4,6,8,-1,10,12,-1,-1,14,16,18,20,-1,-1,-1,-1,-1,-1,-1,-1],"split_conditions":[2E0,6.9E1,7.4E1,5.269E-1,4.4787038E-4,2.006E-1,2.168E3,5.22641E-2,1.5308273E-2,-1E0,2.919E-1,7.5E-3,4.03E-2,3.773528E-2,-1.6108326E-3,-3.62044E-2,-4.585567E-4,-7.341849E-3,-5.6873735E-2,1.7104374E-2,-2.6372923E-2],"split_indices":[3,0,0,8,0,8,1,0,0,2,8,7,7,0,0,0,0,0,0,0,0],"split_type":[0,0,0,0,0,0,0,0,0,0,0,0,0,0,0,0,0,0,0,0,0],"sum_hessian":[7.5200554E1,7.3651514E0,6.78354E1,6.1766024E0,1.1885494E0,5.9317806E1,8.517594E0,5.078303E0,1.0982994E0,1.830438E1,4.1013424E1,4.3518324E0,4.165762E0,6.893811E0,1.1410569E1,7.3719673E0,3.3641457E1,1.2392528E0,3.1125798E0,1.9952102E0,2.1705515E0],"tree_param":{"num_deleted":"0","num_feature":"9","num_nodes":"21","size_leaf_vector":"1"}},{"base_weights":[6.673383E-3,8.158852E-1,-9.063246E-2,5.632437E-2,3.1414968E-1,-2.6521152E-2,-6.985059E-1,-7.829826E-3,3.1296603E-2,4.3483686E-1,-1.1921033E-1,-1.9419855E-1,-5.0015498E-2,3.7659388E-2,-9.4443215E-3,-4.459238E-2,-2.5025844E-3,-3.199784E-2,1.9406246E-2],"categories":[],"categories_nodes":[],"categories_segments":[],"categories_sizes":[],"default_left":[0,0,0,0,0,0,0,0,0,0,0,0,0,0,0,0,0,0,0],"id":16,"left_children":[1,3,5,-1,7,9,11,-1,-1,13,15,17,-1,-1,-1,-1,-1,-1,-1],"loss_changes":[6.056558E0,9.3265533E-1,2.6597106E0,0E0,7.6483595E-1,2.754697E0,7.976563E-1,0E0,0E0,2.2845907E0,2.809652E0,1.2038482E0,0E0,0E0,0E0,0E0,0E0,0E0,0E0],"parents":[2147483647,0,0,1,1,2,2,4,4,5,5,6,6,9,9,10,10,11,11],"right_children":[2,4,6,-1,8,10,12,-1,-1,14,16,18,-1,-1,-1,-1,-1,-1,-1],"split_conditions":[2E0,3.231E-1,6.395E-1,5.632437E-2,6.579E-1,-1E1,5.5E1,-7.829826E-3,3.1296603E-2,7.38E-2,-7E0,1.6121E0,-5.0015498E-2,3.7659388E-2,-9.4443215E-3,-4.459238E-2,-2.5025844E-3,-3.199784E-2,1.9406246E-2],"split_indices":[3,8,8,0,6,2,0,0,0,7,2,6,0,0,0,0,0,0,0],"split_type":[0,0,0,0,0,0,0,0,0,0,0,0,0,0,0,0,0,0,0],"sum_hessian":[7.497834E1,7.2555137E0,6.7722824E1,3.7122455E0,3.5432682E0,6.2205727E1,5.5170965E0,1.6100556E0,1.9332128E0,9.789148E0,5.241658E1,2.680876E0,2.8362203E0,6.343721E0,3.4454272E0,3.3290381E0,4.908754E1,1.462436E0,1.2184399E0],"tree_param":{"num_deleted":"0","num_feature":"9","num_nodes":"19","size_leaf_vector":"1"}},{"base_weights":[6.3593276E-3,7.952317E-1,-8.7419085E-2,9.334359E-1,-5.9498503E-4,-1.0544677E-2,-5.6960136E-1,1.3633894E-2,1.0068778E0,4.9500197E-2,-4.7976375E-2,-9.043442E-1,-1.1675001E-1,5.512295E-2,1.5218608E-2,8.260336E-3,-1.3134889E-2,-7.0717395E-3,-5.516374E-2,-3.1189084E-2,1.2491467E-2],"categories":[],"categories_nodes":[],"categories_segments":[],"categories_sizes":[],"default_left":[0,0,0,0,0,0,0,0,0,0,0,0,0,0,0,0,0,0,0,0,0],"id":17,"left_children":[1,3,5,7,-1,9,11,-1,13,-1,15,17,19,-1,-1,-1,-1,-1,-1,-1,-1],"loss_changes":[5.675566E0,9.20259E-1,2.537877E0,6.3745975E-2,0E0,2.3025105E0,1.322089E0,0E0,6.0777664E-2,0E0,2.7437959E0,6.4330435E-1,1.1132588E0,0E0,0E0,0E0,0E0,0E0,0E0,0E0,0E0],"parents":[2147483647,0,0,1,1,2,2,3,3,5,5,6,6,8,8,10,10,11,11,12,12],"right_children":[2,4,6,8,-1,10,12,-1,14,-1,16,18,20,-1,-1,-1,-1,-1,-1,-1,-1],"split_conditions":[2E0,1.842E3,7.4E1,-2.2743E4,-5.9498503E-4,-3.6015E4,2.168E3,1.3633894E-2,6E1,4.9500197E-2,2.237E3,7.5E-3,-9.282E3,5.512295E-2,1.5218608E-2,8.260336E-3,-1.3134889E-2,-7.0717395E-3,-5.516374E-2,-3.1189084E-2,1.2491467E-2],"split_indices":[3,1,0,5,0,5,1,0,0,0,1,7,5,0,0,0,0,0,0,0,0],"split_type":[0,0,0,0,0,0,0,0,0,0,0,0,0,0,0,0,0,0,0,0,0],"sum_hessian":[7.47787E1,7.1502504E0,6.762845E1,5.9713054E0,1.1789452E0,5.9210392E1,8.418056E0,1.0687331E0,4.902572E0,1.2175311E0,5.7992863E1,4.2669625E0,4.151093E0,3.8142858E0,1.0882865E0,2.9216387E1,2.8776474E1,1.2363747E0,3.0305877E0,1.4474436E0,2.7036495E0],"tree_param":{"num_deleted":"0","num_feature":"9","num_nodes":"21","size_leaf_vector":"1"}},{"base_weights":[6.6918083E-3,7.7596134E-1,-8.3746605E-2,5.445968E-2,2.8387225E-1,3.8448918E-1,-1.5967377E-1,-8.326544E-3,2.960365E-2,-5.1063704E-1,1.0688893E0,-5.1619524E-1,-1.5195162E-2,-4.861804E-2,1.1091969E-2,6.0278025E-2,1.5018581E-2,3.2878288E-3,-4.3099474E-2,3.4119E-2,-9.073558E-3],"categories":[],"categories_nodes":[],"categories_segments":[],"categories_sizes":[],"default_left":[0,0,0,0,0,0,0,0,0,0,0,0,0,0,0,0,0,0,0,0,0],"id":18,"left_children":[1,3,5,-1,7,9,11,-1,-1,13,15,17,19,-1,-1,-1,-1,-1,-1,-1,-1],"loss_changes":[5.321684E0,9.309864E-1,2.4971306E0,0E0,7.2076094E-1,6.581984E0,3.0651937E0,0E0,0E0,1.8884379E0,2.5832224E-1,3.512754E0,5.1676693E0,0E0,0E0,0E0,0E0,0E0,0E0,0E0,0E0],"parents":[2147483647,0,0,1,1,2,2,4,4,5,5,6,6,9,9,10,10,11,11,12,12],"right_children":[2,4,6,-1,8,10,12,-1,-1,14,16,18,20,-1,-1,-1,-1,-1,-1,-1,-1],"split_conditions":[2E0,3.231E-1,3.2E1,5.445968E-2,6.579E-1,0E0,4.7E1,-8.326544E-3,2.960365E-2,2.8E1,2.9E1,-2E0,5.4E1,-4.861804E-2,1.1091969E-2,6.0278025E-2,1.5018581E-2,3.2878288E-3,-4.3099474E-2,3.4119E-2,-9.073558E-3],"split_indices":[3,8,0,0,6,6,0,0,0,0,0,2,0,0,0,0,0,0,0,0,0],"split_type":[0,0,0,0,0,0,0,0,0,0,0,0,0,0,0,0,0,0,0,0,0],"sum_hessian":[7.455822E1,7.0458865E0,6.751234E1,3.5639184E0,3.481968E0,8.852969E0,5.8659367E1,1.6013826E0,1.8805854E0,3.9459527E0,4.9070168E0,1.6174263E1,4.2485104E1,2.219421E0,1.7265317E0,3.6833048E0,1.2237121E0,6.330401E0,9.843862E0,7.5801826E0,3.4904922E1],"tree_param":{"num_deleted":"0","num_feature":"9","num_nodes":"21","size_leaf_vector":"1"}},{"base_weights":[7.6999296E-3,7.568068E-1,-7.932241E-2,8.965719E-1,-1.4285495E-3,-1.752134E-2,-6.692319E-1,1.29944505E-2,9.686172E-1,4.0675965E-1,-1.02661885E-1,-1.8425204E-1,-4.812152E-2,5.3297967E-2,1.4050806E-2,3.5484146E-2,-9.154178E-3,-3.398915E-2,-5.5616495E-4,1.9305808E-2,-3.1317294E-2],"categories":[],"categories_nodes":[],"categories_segments":[],"categories_sizes":[],"default_left":[0,0,0,0,0,0,0,0,0,0,0,0,0,0,0,0,0,0,0,0,0],"id":19,"left_children":[1,3,5,7,-1,9,11,-1,13,15,17,19,-1,-1,-1,-1,-1,-1,-1,-1,-1],"loss_changes":[4.974254E0,8.9725065E-1,2.4835222E0,5.8896065E-2,0E0,2.3168163E0,7.417562E-1,0E0,8.3090305E-2,2.0466878E0,2.8057058E0,1.1677798E0,0E0,0E0,0E0,0E0,0E0,0E0,0E0,0E0,0E0],"parents":[2147483647,0,0,1,1,2,2,3,3,5,5,6,6,8,8,9,9,10,10,11,11],"right_children":[2,4,6,8,-1,10,12,-1,14,16,18,20,-1,-1,-1,-1,-1,-1,-1,-1,-1],"split_conditions":[2E0,1.842E3,6.395E-1,-2.2743E4,-1.4285495E-3,-1E1,5.5E1,1.29944505E-2,6E1,7.38E-2,7.67E2,9.32E-2,-4.812152E-2,5.3297967E-2,1.4050806E-2,3.5484146E-2,-9.154178E-3,-3.398915E-2,-5.5616495E-4,1.9305808E-2,-3.1317294E-2],"split_indices":[3,1,8,5,0,2,0,0,0,7,1,7,0,0,0,0,0,0,0,0,0],"split_type":[0,0,0,0,0,0,0,0,0,0,0,0,0,0,0,0,0,0,0,0,0],"sum_hessian":[7.4384186E1,6.9406753E0,6.744351E1,5.7719283E0,1.1687473E0,6.197996E1,5.4635453E0,1.0550942E0,4.716834E0,9.727482E0,5.225248E1,2.6720786E0,2.7914667E0,3.6498718E0,1.066962E0,6.2926307E0,3.4348512E0,6.2735558E0,4.5978924E1,1.2220578E0,1.4500208E0],"tree_param":{"num_deleted":"0","num_feature":"9","num_nodes":"21","size_leaf_vector":"1"}},{"base_weights":[7.5000445E-3,7.38849E-1,-7.646025E-2,5.276692E-2,2.55646E-1,-1.6785175E-2,-6.486627E-1,-8.770389E-3,2.8023023E-2,7.578055E-1,-6.0484946E-2,-1.7854367E-1,-4.673473E-2,5.564648E-3,5.261929E-2,-6.016742E-3,2.8575424E-2,-3.0982316E-2,1.9487945E-2],"categories":[],"categories_nodes":[],"categories_segments":[],"categories_sizes":[],"default_left":[0,0,0,0,0,0,0,0,0,0,0,0,0,0,0,0,0,0,0],"id":20,"left_children":[1,3,5,-1,7,9,11,-1,-1,13,15,17,-1,-1,-1,-1,-1,-1,-1],"loss_changes":[4.6737313E0,9.2874575E-1,2.3232405E0,0E0,6.7924047E-1,2.1759043E0,6.9763327E-1,0E0,0E0,5.369754E-1,2.356913E0,1.1610278E0,0E0,0E0,0E0,0E0,0E0,0E0,0E0],"parents":[2147483647,0,0,1,1,2,2,4,4,5,5,6,6,9,9,10,10,11,11],"right_children":[2,4,6,-1,8,10,12,-1,-1,14,16,18,-1,-1,-1,-1,-1,-1,-1],"split_conditions":[2E0,3.231E-1,6.395E-1,5.276692E-2,6.579E-1,-1.8E1,5.5E1,-8.770389E-3,2.8023023E-2,3E0,3.42E3,1.6121E0,-4.673473E-2,5.564648E-3,5.261929E-2,-6.016742E-3,2.8575424E-2,-3.0982316E-2,1.9487945E-2],"split_indices":[3,8,8,0,6,2,0,0,0,4,1,6,0,0,0,0,0,0,0],"split_type":[0,0,0,0,0,0,0,0,0,0,0,0,0,0,0,0,0,0,0],"sum_hessian":[7.41941E1,6.837246E0,6.735685E1,3.4158661E0,3.4213798E0,6.192773E1,5.4291177E0,1.5930743E0,1.8283054E0,2.4344926E0,5.949324E1,2.6680868E0,2.7610312E0,1.193322E0,1.2411706E0,5.5086166E1,4.4070745E0,1.4512872E0,1.2167996E0],"tree_param":{"num_deleted":"0","num_feature":"9","num_nodes":"19","size_leaf_vector":"1"}},{"base_weights":[8.424102E-3,7.209874E-1,-7.2388574E-2,5.175948E-2,2.4829881E-1,3.7864695E-4,-5.3487307E-1,-8.488554E-3,2.7331928E-2,2.7965638E-1,-1.2812132E-1,-8.641851E-1,-1.0013014E-1,5.0038644E-3,5.8207948E-2,-3.4728702E-2,6.194318E-4,-6.4724805E-3,-5.3109743E-2,-2.9959483E-2,1.2794085E-2],"categories":[],"categories_nodes":[],"categories_segments":[],"categories_sizes":[],"default_left":[0,0,0,0,0,0,0,0,0,0,0,0,0,0,0,0,0,0,0,0,0],"id":21,"left_children":[1,3,5,-1,7,9,11,-1,-1,13,15,17,19,-1,-1,-1,-1,-1,-1,-1,-1],"loss_changes":[4.3724837E0,8.915124E-1,2.2984962E0,0E0,6.420282E-1,2.1893263E0,1.2427702E0,0E0,0E0,2.93698E0,3.3342488E0,6.120486E-1,1.0652987E0,0E0,0E0,0E0,0E0,0E0,0E0,0E0,0E0],"parents":[2147483647,0,0,1,1,2,2,4,4,5,5,6,6,9,9,10,10,11,11,12,12],"right_children":[2,4,6,-1,8,10,12,-1,-1,14,16,18,20,-1,-1,-1,-1,-1,-1,-1,-1],"split_conditions":[2E0,3.231E-1,7.4E1,5.175948E-2,6.579E-1,2.006E-1,2.168E3,-8.488554E-3,2.7331928E-2,1.754E-1,2.919E-1,7.5E-3,-9.282E3,5.0038644E-3,5.8207948E-2,-3.4728702E-2,6.194318E-4,-6.4724805E-3,-5.3109743E-2,-2.9959483E-2,1.2794085E-2],"split_indices":[3,8,0,0,6,8,1,0,0,8,8,7,5,0,0,0,0,0,0,0,0],"split_type":[0,0,0,0,0,0,0,0,0,0,0,0,0,0,0,0,0,0,0,0,0],"sum_hessian":[7.4025734E1,6.733306E0,6.729243E1,3.3298848E0,3.4034214E0,5.9007397E1,8.28503E0,1.5967742E0,1.8066471E0,1.822388E1,4.0783516E1,4.152079E0,4.1329513E0,1.6073624E1,2.1502564E0,7.3220644E0,3.3461452E1,1.2325032E0,2.919576E0,1.4363736E0,2.696578E0],"tree_param":{"num_deleted":"0","num_feature":"9","num_nodes":"21","size_leaf_vector":"1"}},{"base_weights":[8.34674E-3,4.3045554E-1,-1.2278182E-1,9.0762E-1,-6.7369497E-1,-5.8033183E-2,-7.675498E-1,1.1695471E0,-1.3124506E-1,-5.1775765E-2,2.0566469E-2,4.085954E-2,-1.02307655E-1,-1.7006676E-4,-4.9306083E-2,3.1929906E-2,6.826496E-2,1.7633788E-2,-3.025612E-2,1.749848E-3,-2.56241E-2],"categories":[],"categories_nodes":[],"categories_segments":[],"categories_sizes":[],"default_left":[0,0,0,0,0,0,0,0,0,0,0,0,0,0,0,0,0,0,0,0,0],"id":22,"left_children":[1,3,5,7,9,11,13,15,17,-1,-1,-1,19,-1,-1,-1,-1,-1,-1,-1,-1],"loss_changes":[4.1934304E0,1.0069991E1,2.3707325E0,3.6803856E0,2.7779832E0,2.1627824E0,8.6478996E-1,2.1448612E-1,1.0180947E0,0E0,0E0,0E0,2.9443321E0,0E0,0E0,0E0,0E0,0E0,0E0,0E0,0E0],"parents":[2147483647,0,0,1,1,2,2,3,3,4,4,5,5,6,6,7,7,8,8,12,12],"right_children":[2,4,6,8,10,12,14,16,18,-1,-1,-1,20,-1,-1,-1,-1,-1,-1,-1,-1],"split_conditions":[3E0,1.951E3,6.395E-1,6.9E1,6.55E-2,-1.8E1,5.199E-1,3.73E-2,1.559E-1,-5.1775765E-2,2.0566469E-2,4.085954E-2,7.41E-2,-1.7006676E-4,-4.9306083E-2,3.1929906E-2,6.826496E-2,1.7633788E-2,-3.025612E-2,1.749848E-3,-2.56241E-2],"split_indices":[3,1,8,0,7,2,6,7,6,0,0,0,7,0,0,0,0,0,0,0,0],"split_type":[0,0,0,0,0,0,0,0,0,0,0,0,0,0,0,0,0,0,0,0,0],"sum_hessian":[7.3806496E1,1.6952602E1,5.6853897E1,1.1961409E1,4.991193E0,5.2656094E1,4.197803E0,9.4524E0,2.5090086E0,3.777237E0,1.2139561E0,1.6948416E0,5.096125E1,1.1595311E0,3.0382721E0,3.6943357E0,5.7580647E0,1.3678913E0,1.1411172E0,3.8865738E1,1.20955105E1],"tree_param":{"num_deleted":"0","num_feature":"9","num_nodes":"21","size_leaf_vector":"1"}},{"base_weights":[8.310504E-3,4.164052E-1,-1.17387846E-1,8.798639E-1,-6.478001E-1,-5.486746E-2,-7.439474E-1,1.1375632E0,-1.2841953E-1,-1.0003158E0,1.9965917E-2,3.9671686E-2,-9.773274E-2,-4.8369307E-2,5.6896824E-5,3.0907024E-2,6.653615E-2,1.7133584E-2,-2.94836E-2,-5.9135467E-2,-2.0704307E-2,1.6644121E-3,-2.4519391E-2],"categories":[],"categories_nodes":[],"categories_segments":[],"categories_sizes":[],"default_left":[0,0,0,0,0,0,0,0,0,0,0,0,0,0,0,0,0,0,0,0,0,0,0],"id":23,"left_children":[1,3,5,7,9,11,13,15,17,19,-1,-1,21,-1,-1,-1,-1,-1,-1,-1,-1,-1,-1],"loss_changes":[3.8730066E0,9.336782E0,2.2223535E0,3.4736195E0,2.6025445E0,2.0270162E0,8.6051536E-1,2.1094036E-1,9.6375644E-1,1.8201828E-2,0E0,0E0,2.6875834E0,0E0,0E0,0E0,0E0,0E0,0E0,0E0,0E0,0E0,0E0],"parents":[2147483647,0,0,1,1,2,2,3,3,4,4,5,5,6,6,7,7,8,8,9,9,12,12],"right_children":[2,4,6,8,10,12,14,16,18,20,-1,-1,22,-1,-1,-1,-1,-1,-1,-1,-1,-1,-1],"split_conditions":[3E0,1.951E3,6.395E-1,6.9E1,6.55E-2,-1.8E1,3.268E3,3.73E-2,1.559E-1,3E0,1.9965917E-2,3.9671686E-2,7.41E-2,-4.8369307E-2,5.6896824E-5,3.0907024E-2,6.653615E-2,1.7133584E-2,-2.94836E-2,-5.9135467E-2,-2.0704307E-2,1.6644121E-3,-2.4519391E-2],"split_indices":[3,1,8,0,7,2,1,7,6,4,0,0,7,0,0,0,0,0,0,0,0,0,0],"split_type":[0,0,0,0,0,0,0,0,0,0,0,0,0,0,0,0,0,0,0,0,0,0,0],"sum_hessian":[7.3548965E1,1.677481E1,5.6774155E1,1.1806381E1,4.968429E0,5.2611916E1,4.1622386E0,9.300994E0,2.5053868E0,3.7505064E0,1.2179228E0,1.6884117E0,5.0923504E1,2.9724839E0,1.1897548E0,3.6597557E0,5.6412387E0,1.3666598E0,1.1387271E0,2.0844781E0,1.6660281E0,3.8868954E1,1.2054552E1],"tree_param":{"num_deleted":"0","num_feature":"9","num_nodes":"23","size_leaf_vector":"1"}},{"base_weights":[7.872217E-3,4.0136144E-1,-1.12246804E-1,8.5349727E-1,-6.281187E-1,-5.1862832E-2,-7.2134346E-1,1.1072943E0,-1.2567502E-1,-9.7296107E-1,1.9385232E-2,-2.9584363E-1,9.6714154E-2,8.547233E-4,-4.6965685E-2,2.9919887E-2,6.492375E-2,1.6648626E-2,-2.8735971E-2,-1.9691123E-2,-5.7769127E-2,1.14683155E-2,-3.0893896E-2,-3.873418E-2,1.0755918E-2],"categories":[],"categories_nodes":[],"categories_segments":[],"categories_sizes":[],"default_left":[0,0,0,0,0,0,0,0,0,0,0,0,0,0,0,0,0,0,0,0,0,0,0,0,0],"id":24,"left_children":[1,3,5,7,9,11,13,15,17,19,-1,21,23,-1,-1,-1,-1,-1,-1,-1,-1,-1,-1,-1,-1],"loss_changes":[3.5560308E0,8.724131E0,2.0844426E0,3.2820444E0,2.4594772E0,1.9703377E0,8.411217E-1,2.1006775E-1,9.1247547E-1,4.3921947E-2,0E0,3.6123593E0,3.6793232E0,0E0,0E0,0E0,0E0,0E0,0E0,0E0,0E0,0E0,0E0,0E0,0E0],"parents":[2147483647,0,0,1,1,2,2,3,3,4,4,5,5,6,6,7,7,8,8,9,9,11,11,12,12],"right_children":[2,4,6,8,10,12,14,16,18,20,-1,22,24,-1,-1,-1,-1,-1,-1,-1,-1,-1,-1,-1,-1],"split_conditions":[3E0,1.951E3,6.395E-1,6.9E1,6.55E-2,4.7E1,5.199E-1,3.73E-2,1.559E-1,1.858E-1,1.9385232E-2,-1E0,7.55E2,8.547233E-4,-4.6965685E-2,2.9919887E-2,6.492375E-2,1.6648626E-2,-2.8735971E-2,-1.9691123E-2,-5.7769127E-2,1.14683155E-2,-3.0893896E-2,-3.873418E-2,1.0755918E-2],"split_indices":[3,1,8,0,7,0,6,7,6,8,0,2,1,0,0,0,0,0,0,0,0,0,0,0,0],"split_type":[0,0,0,0,0,0,0,0,0,0,0,0,0,0,0,0,0,0,0,0,0,0,0,0,0],"sum_hessian":[7.3282005E1,1.659109E1,5.6690918E1,1.1646865E1,4.944225E0,5.2564938E1,4.125979E0,9.145535E0,2.5013294E0,3.722679E0,1.2215462E0,1.9519861E1,3.304508E1,1.1503627E0,2.9756165E0,3.6253533E0,5.5201817E0,1.3653089E0,1.1360205E0,1.64838E0,2.0742989E0,7.5287995E0,1.1991061E1,3.2899485E0,2.975513E1],"tree_param":{"num_deleted":"0","num_feature":"9","num_nodes":"25","size_leaf_vector":"1"}},{"base_weights":[6.6000284E-3,3.8707495E-1,-1.0841619E-1,8.283897E-1,-6.09347E-1,-5.020078E-2,-6.996305E-1,1.0785658E0,-1.2300853E-1,-9.468769E-1,1.8823577E-2,3.8387936E-2,-9.1542855E-2,-4.613131E-2,1.0611297E-3,1.4603597E-2,5.7527285E-2,-2.5951369E-2,1.832193E-2,-5.647422E-2,-1.9034462E-2,1.6507534E-3,-2.3330083E-2],"categories":[],"categories_nodes":[],"categories_segments":[],"categories_sizes":[],"default_left":[0,0,0,0,0,0,0,0,0,0,0,0,0,0,0,0,0,0,0,0,0,0,0],"id":25,"left_children":[1,3,5,7,9,11,13,15,17,19,-1,-1,21,-1,-1,-1,-1,-1,-1,-1,-1,-1,-1],"loss_changes":[3.281297E0,8.1568775E0,1.9481003E0,3.1040726E0,2.3255174E0,1.880598E0,8.374598E-1,2.2934341E-1,8.6799246E-1,5.520296E-2,0E0,0E0,2.4377475E0,0E0,0E0,0E0,0E0,0E0,0E0,0E0,0E0,0E0,0E0],"parents":[2147483647,0,0,1,1,2,2,3,3,4,4,5,5,6,6,7,7,8,8,9,9,12,12],"right_children":[2,4,6,8,10,12,14,16,18,20,-1,-1,22,-1,-1,-1,-1,-1,-1,-1,-1,-1,-1],"split_conditions":[3E0,1.951E3,6.395E-1,6.9E1,6.55E-2,-1.8E1,3.268E3,-2.2743E4,2.6E2,3E0,1.8823577E-2,3.8387936E-2,7.41E-2,-4.613131E-2,1.0611297E-3,1.4603597E-2,5.7527285E-2,-2.5951369E-2,1.832193E-2,-5.647422E-2,-1.9034462E-2,1.6507534E-3,-2.3330083E-2],"split_indices":[3,1,8,0,7,2,1,5,1,4,0,0,7,0,0,0,0,0,0,0,0,0,0],"split_type":[0,0,0,0,0,0,0,0,0,0,0,0,0,0,0,0,0,0,0,0,0,0,0],"sum_hessian":[7.302362E1,1.6401588E1,5.662203E1,1.1483976E1,4.9176116E0,5.2534042E1,4.0879865E0,8.987099E0,2.4968781E0,3.6927648E0,1.2248468E0,1.6821215E0,5.085192E1,2.9083734E0,1.1796134E0,1.177603E0,7.8094954E0,1.3467592E0,1.150119E0,2.039945E0,1.6528199E0,3.8858795E1,1.1993126E1],"tree_param":{"num_deleted":"0","num_feature":"9","num_nodes":"23","size_leaf_vector":"1"}},{"base_weights":[6.046485E-3,6.274657E-1,-5.9394803E-2,4.8633166E-2,1.4199938E-1,9.706622E-3,-5.0363517E-1,-1.1616552E-2,2.242868E-2,-1.11507714E-1,2.777065E-1,-8.194357E-1,-9.811166E-2,-1.5777623E-2,2.23072E-2,3.190803E-2,-4.3106712E-2,-6.462024E-3,-5.0553203E-2,-3.0089205E-2,1.3048566E-2],"categories":[],"categories_nodes":[],"categories_segments":[],"categories_sizes":[],"default_left":[0,0,0,0,0,0,0,0,0,0,0,0,0,0,0,0,0,0,0,0,0],"id":26,"left_children":[1,3,5,-1,7,9,11,-1,-1,13,15,17,19,-1,-1,-1,-1,-1,-1,-1,-1],"loss_changes":[3.0365026E0,1.0539365E0,2.0812385E0,0E0,5.778317E-1,1.9643342E0,1.088042E0,0E0,0E0,4.8849125E0,8.283158E0,5.297532E-1,1.0849495E0,0E0,0E0,0E0,0E0,0E0,0E0,0E0,0E0],"parents":[2147483647,0,0,1,1,2,2,4,4,5,5,6,6,9,9,10,10,11,11,12,12],"right_children":[2,4,6,-1,8,10,12,-1,-1,14,16,18,20,-1,-1,-1,-1,-1,-1,-1,-1],"split_conditions":[2E0,3.231E-1,7.4E1,4.8633166E-2,6.579E-1,6E1,2.168E3,-1.1616552E-2,2.242868E-2,2.3099E0,2.3099E0,7.5E-3,-9.282E3,-1.5777623E-2,2.23072E-2,3.190803E-2,-4.3106712E-2,-6.462024E-3,-5.0553203E-2,-3.0089205E-2,1.3048566E-2],"split_indices":[3,8,0,0,6,0,1,0,0,6,6,7,5,0,0,0,0,0,0,0,0],"split_type":[0,0,0,0,0,0,0,0,0,0,0,0,0,0,0,0,0,0,0,0,0],"sum_hessian":[7.275201E1,6.113266E0,6.663874E1,2.9862714E0,3.1269946E0,5.851492E1,8.123824E0,1.5169512E0,1.6100433E0,4.0693485E1,1.7821432E1,3.9933364E0,4.130488E0,3.011028E1,1.0583208E1,1.3874124E1,3.9473095E0,1.2316585E0,2.761678E0,1.4378198E0,2.6926684E0],"tree_param":{"num_deleted":"0","num_feature":"9","num_nodes":"21","size_leaf_vector":"1"}},{"base_weights":[5.4911994E-3,3.679698E-1,-1.0254847E-1,7.9792714E-1,-5.8914375E-1,-4.6743378E-2,-6.742208E-1,2.3824471E-1,6.4329095E-2,-9.176373E-1,1.8021856E-2,3.706677E-2,-8.649454E-2,2.0886254E-3,-4.4658873E-2,3.3017434E-2,-3.231802E-2,-1.7599357E-2,-5.525223E-2,1.4984494E-3,-2.193573E-2],"categories":[],"categories_nodes":[],"categories_segments":[],"categories_sizes":[],"default_left":[0,0,0,0,0,0,0,0,0,0,0,0,0,0,0,0,0,0,0,0,0],"id":27,"left_children":[1,3,5,7,9,11,13,15,-1,17,-1,-1,19,-1,-1,-1,-1,-1,-1,-1,-1],"loss_changes":[2.9181852E0,7.5098715E0,1.8011141E0,3.0379772E0,2.1642685E0,1.737323E0,8.265655E-1,3.0134954E0,0E0,1.0388732E-1,0E0,0E0,2.135628E0,0E0,0E0,0E0,0E0,0E0,0E0,0E0,0E0],"parents":[2147483647,0,0,1,1,2,2,3,3,4,4,5,5,6,6,7,7,9,9,12,12],"right_children":[2,4,6,8,10,12,14,16,-1,18,-1,-1,20,-1,-1,-1,-1,-1,-1,-1,-1],"split_conditions":[3E0,1.951E3,6.395E-1,1.809E3,6.55E-2,-1.8E1,5.199E-1,6.1E1,6.4329095E-2,1.858E-1,1.8021856E-2,3.706677E-2,7.41E-2,2.0886254E-3,-4.4658873E-2,3.3017434E-2,-3.231802E-2,-1.7599357E-2,-5.525223E-2,1.4984494E-3,-2.193573E-2],"split_indices":[3,1,8,1,7,2,6,0,0,8,0,0,7,0,0,0,0,0,0,0,0],"split_type":[0,0,0,0,0,0,0,0,0,0,0,0,0,0,0,0,0,0,0,0,0],"sum_hessian":[7.255205E1,1.6106853E1,5.6445194E1,1.1228896E1,4.877958E0,5.2410763E1,4.03443E0,5.927437E0,5.3014593E0,3.6492078E0,1.2287501E0,1.6691892E0,5.0741573E1,1.1343383E0,2.900092E0,4.184326E0,1.7431105E0,1.6244215E0,2.0247865E0,3.8820328E1,1.1921246E1],"tree_param":{"num_deleted":"0","num_feature":"9","num_nodes":"21","size_leaf_vector":"1"}},{"base_weights":[5.0578504E-3,3.546032E-1,-9.8048925E-2,7.746663E-1,-5.721427E-1,-1.6864847E-1,3.1245852E-1,2.2821961E-1,6.2868156E-2,-8.9399236E-1,1.7504293E-2,2.620991E-1,-2.7228037E-1,5.779842E-1,-3.050286E-2,3.1987708E-2,-3.1328138E-2,-5.406166E-2,-1.7082913E-2,5.5695236E-2,-3.5177742E-3,-6.257476E-3,-3.640964E-2,-1.27238305E-2,4.6477333E-2],"categories":[],"categories_nodes":[],"categories_segments":[],"categories_sizes":[],"default_left":[0,0,0,0,0,0,0,0,0,0,0,0,0,0,0,0,0,0,0,0,0,0,0,0,0],"id":28,"left_children":[1,3,5,7,9,11,13,15,-1,17,-1,19,21,23,-1,-1,-1,-1,-1,-1,-1,-1,-1,-1,-1],"loss_changes":[2.675011E0,7.0236177E0,1.7149129E0,2.8930864E0,2.0485663E0,2.2848983E0,2.5000744E0,2.8197918E0,0E0,1.0797024E-1,0E0,2.9459028E0,2.6229606E0,2.379132E0,0E0,0E0,0E0,0E0,0E0,0E0,0E0,0E0,0E0,0E0,0E0],"parents":[2147483647,0,0,1,1,2,2,3,3,4,4,5,5,6,6,7,7,9,9,11,11,12,12,13,13],"right_children":[2,4,6,8,10,12,14,16,-1,18,-1,20,22,24,-1,-1,-1,-1,-1,-1,-1,-1,-1,-1,-1],"split_conditions":[3E0,1.951E3,3.285E3,1.809E3,6.55E-2,-1E1,6.8E1,6.1E1,6.2868156E-2,3E0,1.7504293E-2,-8.3E-1,4.152E-1,4.4E1,-3.050286E-2,3.1987708E-2,-3.1328138E-2,-5.406166E-2,-1.7082913E-2,5.5695236E-2,-3.5177742E-3,-6.257476E-3,-3.640964E-2,-1.27238305E-2,4.6477333E-2],"split_indices":[3,1,1,1,7,2,0,0,0,4,0,6,8,0,0,0,0,0,0,0,0,0,0,0,0],"split_type":[0,0,0,0,0,0,0,0,0,0,0,0,0,0,0,0,0,0,0,0,0,0,0,0,0],"sum_hessian":[7.225766E1,1.5903511E1,5.6354153E1,1.1056203E1,4.8473086E0,4.8587234E1,7.766918E0,5.876449E0,5.1797533E0,3.6159809E0,1.231328E0,9.125949E0,3.9461285E1,6.3210216E0,1.4458967E0,4.1364946E0,1.7399546E0,1.9853708E0,1.63061E0,1.9020426E0,7.223906E0,3.0797045E1,8.664239E0,1.9588461E0,4.3621755E0],"tree_param":{"num_deleted":"0","num_feature":"9","num_nodes":"25","size_leaf_vector":"1"}},{"base_weights":[5.174619E-3,3.4184888E-1,-9.315359E-2,7.5245917E-1,-5.5589676E-1,-3.950691E-2,-6.4908016E-1,2.1862699E-1,6.1491825E-2,-8.7136334E-1,1.7003171E-2,-2.6417476E-1,9.693345E-2,2.329757E-3,-4.3255545E-2,3.0992806E-2,-3.0374525E-2,-1.614833E-2,-5.2980464E-2,1.1997264E-2,-2.881831E-2,-3.6632944E-2,1.0414135E-2],"categories":[],"categories_nodes":[],"categories_segments":[],"categories_sizes":[],"default_left":[0,0,0,0,0,0,0,0,0,0,0,0,0,0,0,0,0,0,0,0,0,0,0],"id":29,"left_children":[1,3,5,7,9,11,13,15,-1,17,-1,19,21,-1,-1,-1,-1,-1,-1,-1,-1,-1,-1],"loss_changes":[2.4458578E0,6.5732765E0,1.6809721E0,2.7590985E0,1.9399927E0,1.6579925E0,7.874279E-1,2.6389441E0,0E0,1.3076305E-1,0E0,3.3471875E0,3.280692E0,0E0,0E0,0E0,0E0,0E0,0E0,0E0,0E0,0E0,0E0],"parents":[2147483647,0,0,1,1,2,2,3,3,4,4,5,5,6,6,7,7,9,9,11,11,12,12],"right_children":[2,4,6,8,10,12,14,16,-1,18,-1,20,22,-1,-1,-1,-1,-1,-1,-1,-1,-1,-1],"split_conditions":[3E0,1.951E3,6.395E-1,1.809E3,6.55E-2,4.7E1,5.199E-1,6.1E1,6.1491825E-2,1.858E-1,1.7003171E-2,-1E0,7.55E2,2.329757E-3,-4.3255545E-2,3.0992806E-2,-3.0374525E-2,-1.614833E-2,-5.2980464E-2,1.1997264E-2,-2.881831E-2,-3.6632944E-2,1.0414135E-2],"split_indices":[3,1,8,1,7,0,6,0,0,8,0,2,1,0,0,0,0,0,0,0,0,0,0],"split_type":[0,0,0,0,0,0,0,0,0,0,0,0,0,0,0,0,0,0,0,0,0,0,0],"sum_hessian":[7.192084E1,1.5697213E1,5.622362E1,1.0881894E1,4.815319E0,5.2252357E1,3.9712658E0,5.8254733E0,5.0564213E0,3.58167E0,1.233649E0,1.938919E1,3.2863167E1,1.1268446E0,2.8444211E0,4.0891356E0,1.7363377E0,1.6092567E0,1.9724132E0,7.5037355E0,1.1885455E1,3.2286587E0,2.9634508E1],"tree_param":{"num_deleted":"0","num_feature":"9","num_nodes":"23","size_leaf_vector":"1"}},{"base_weights":[3.9409515E-3,3.2968622E-1,-9.01203E-2,7.312173E-1,-5.4031163E-1,-1.3805525E-1,4.8269466E-1,2.094427E-1,6.019184E-2,-8.4963596E-1,1.6517838E-2,1.2352436E-3,-5.989234E-1,4.9156353E-2,-2.5513802E-2,3.003087E-2,-2.9455254E-2,-5.18998E-2,-1.5674924E-2,-4.3070423E-3,3.2362845E-2,2.9393638E-2,-3.9092652E-2],"categories":[],"categories_nodes":[],"categories_segments":[],"categories_sizes":[],"default_left":[0,0,0,0,0,0,0,0,0,0,0,0,0,0,0,0,0,0,0,0,0,0,0],"id":30,"left_children":[1,3,5,7,9,11,13,15,-1,17,-1,19,21,-1,-1,-1,-1,-1,-1,-1,-1,-1,-1],"loss_changes":[2.2551913E0,6.1551185E0,1.635701E0,2.6347628E0,1.8378814E0,3.435741E0,2.8049393E0,2.470038E0,0E0,1.3370156E-1,0E0,2.4315042E0,3.1562295E0,0E0,0E0,0E0,0E0,0E0,0E0,0E0,0E0,0E0,0E0],"parents":[2147483647,0,0,1,1,2,2,3,3,4,4,5,5,6,6,7,7,9,9,11,11,12,12],"right_children":[2,4,6,8,10,12,14,16,-1,18,-1,20,22,-1,-1,-1,-1,-1,-1,-1,-1,-1,-1],"split_conditions":[3E0,1.951E3,1.056E-1,1.809E3,6.55E-2,7.41E-2,4E0,6.1E1,6.019184E-2,3E0,1.6517838E-2,3.42E3,-1.7E1,4.9156353E-2,-2.5513802E-2,3.003087E-2,-2.9455254E-2,-5.18998E-2,-1.5674924E-2,-4.3070423E-3,3.2362845E-2,2.9393638E-2,-3.9092652E-2],"split_indices":[3,1,7,1,7,7,2,0,0,4,0,1,2,0,0,0,0,0,0,0,0,0,0],"split_type":[0,0,0,0,0,0,0,0,0,0,0,0,0,0,0,0,0,0,0,0,0,0,0],"sum_hessian":[7.163313E1,1.5488747E1,5.6144386E1,1.0706761E1,4.7819853E0,5.2509235E1,3.635149E0,5.774658E0,4.9321027E0,3.5462556E0,1.2357298E0,4.108825E1,1.1420988E1,2.423619E0,1.21153E0,4.042347E0,1.7323114E0,1.9315766E0,1.6146789E0,3.695645E1,4.131795E0,1.2296579E0,1.019133E1],"tree_param":{"num_deleted":"0","num_feature":"9","num_nodes":"23","size_leaf_vector":"1"}},{"base_weights":[4.4961306E-3,6.557412E-1,-4.0291492E-2,4.20345E-2,5.3393836E-3,6.644141E-1,-8.450977E-2,8.339373E-3,4.807766E-2,-4.0208012E-1,6.23592E-2,-5.503701E-2,-9.741346E-3,5.681281E-2,-7.118278E-3],"categories":[],"categories_nodes":[],"categories_segments":[],"categories_sizes":[],"default_left":[0,0,0,0,0,0,0,0,0,0,0,0,0,0,0],"id":31,"left_children":[1,3,5,-1,-1,7,9,-1,-1,11,13,-1,-1,-1,-1],"loss_changes":[2.135696E0,3.8854146E-1,2.1939166E0,0E0,0E0,4.552436E-1,3.0773144E0,0E0,0E0,2.8015072E0,1.018978E1,0E0,0E0,0E0,0E0],"parents":[2147483647,0,0,1,1,2,2,5,5,6,6,9,9,10,10],"right_children":[2,4,6,-1,-1,8,10,-1,-1,12,14,-1,-1,-1,-1],"split_conditions":[1.35E2,-7E1,-1.8E1,4.20345E-2,5.3393836E-3,-2.6856E4,1.809E3,8.339373E-3,4.807766E-2,-1.1016E4,1.969E3,-5.503701E-2,-9.741346E-3,5.681281E-2,-7.118278E-3],"split_indices":[1,5,2,0,0,5,1,0,0,5,1,0,0,0,0],"split_type":[0,0,0,0,0,0,0,0,0,0,0,0,0,0,0],"sum_hessian":[7.13154E1,3.711167E0,6.760423E1,2.378412E0,1.3327552E0,3.1634014E0,6.4440834E1,1.7664285E0,1.3969729E0,1.9828526E1,4.4612305E1,3.550051E0,1.6278475E1,6.4144945E0,3.819781E1],"tree_param":{"num_deleted":"0","num_feature":"9","num_nodes":"15","size_leaf_vector":"1"}},{"base_weights":[5.563923E-3,4.1512147E-1,-6.2062558E-2,-4.1032586E-1,1.0025781E0,-3.729179E-1,6.2407743E-2,-8.049847E-1,2.5973795E-2,5.8423217E-2,5.078814E-3,1.5869999E-1,-7.7931285E-1,9.2882323E-1,-3.4196127E-2,-5.4522168E-2,-4.9151503E-3,-1.563558E-2,4.1964628E-2,1.5072847E-2,-4.7822695E-2,1.0460119E-2,6.6075034E-2,2.4870763E-2,-1.1067546E-2],"categories":[],"categories_nodes":[],"categories_segments":[],"categories_sizes":[],"default_left":[0,0,0,0,0,0,0,0,0,0,0,0,0,0,0,0,0,0,0,0,0,0,0,0,0],"id":32,"left_children":[1,3,5,7,9,11,13,15,-1,-1,-1,17,19,21,23,-1,-1,-1,-1,-1,-1,-1,-1,-1,-1],"loss_changes":[2.02267E0,5.4292064E0,2.451236E0,2.2573502E0,8.2829E-1,4.0309486E0,3.8539078E0,6.8171835E-1,0E0,0E0,0E0,3.042941E0,2.2830367E0,1.0280237E0,4.293706E0,0E0,0E0,0E0,0E0,0E0,0E0,0E0,0E0,0E0,0E0],"parents":[2147483647,0,0,1,1,2,2,3,3,4,4,5,5,6,6,7,7,11,11,12,12,13,13,14,14],"right_children":[2,4,6,8,10,12,14,16,-1,-1,-1,18,20,22,24,-1,-1,-1,-1,-1,-1,-1,-1,-1,-1],"split_conditions":[3.2E1,0E0,4.7E1,2.9E1,3E1,1.969E3,5E1,3.641E-1,2.5973795E-2,5.8423217E-2,5.078814E-3,1.498E3,1.63E-2,4.85E-2,-6.237E-1,-5.4522168E-2,-4.9151503E-3,-1.563558E-2,4.1964628E-2,1.5072847E-2,-4.7822695E-2,1.0460119E-2,6.6075034E-2,2.4870763E-2,-1.1067546E-2],"split_indices":[0,6,0,0,0,1,0,8,0,0,0,1,7,7,6,0,0,0,0,0,0,0,0,0,0],"split_type":[0,0,0,0,0,0,0,0,0,0,0,0,0,0,0,0,0,0,0,0,0,0,0,0,0],"sum_hessian":[7.109847E1,9.34785E0,6.175062E1,4.0120115E0,5.335838E0,1.7085304E1,4.4665318E1,2.9107645E0,1.1012473E0,4.2554955E0,1.0803424E0,7.666288E0,9.419017E0,3.6163585E0,4.104896E1,1.6864773E0,1.224287E0,4.8485065E0,2.8177817E0,1.2275742E0,8.1914425E0,1.8178056E0,1.7985529E0,1.0256811E1,3.0792149E1],"tree_param":{"num_deleted":"0","num_feature":"9","num_nodes":"25","size_leaf_vector":"1"}},{"base_weights":[6.8650744E-3,6.3632864E-1,-3.6369346E-2,4.0645845E-2,5.48476E-3,6.445151E-1,-7.907801E-2,8.1512015E-3,4.6644017E-2,-8.3104706E-1,-1.5777031E-2,4.79692E-3,-6.286112E-2,2.8372044E-3,-2.7712572E-2],"categories":[],"categories_nodes":[],"categories_segments":[],"categories_sizes":[],"default_left":[0,0,0,0,0,0,0,0,0,0,0,0,0,0,0],"id":33,"left_children":[1,3,5,-1,-1,7,9,-1,-1,11,13,-1,-1,-1,-1],"loss_changes":[1.9807564E0,3.457935E-1,2.035816E0,0E0,0E0,4.2245102E-1,3.0865126E0,0E0,0E0,2.110388E0,2.4167097E0,0E0,0E0,0E0,0E0],"parents":[2147483647,0,0,1,1,2,2,5,5,6,6,9,9,10,10],"right_children":[2,4,6,-1,-1,8,10,-1,-1,12,14,-1,-1,-1,-1],"split_conditions":[1.35E2,-7E1,-1.8E1,4.0645845E-2,5.48476E-3,-2.6856E4,5.34E2,8.1512015E-3,4.6644017E-2,-4.95E2,5.856E-1,4.79692E-3,-6.286112E-2,2.8372044E-3,-2.7712572E-2],"split_indices":[1,5,2,0,0,5,1,0,0,5,8,0,0,0,0],"split_type":[0,0,0,0,0,0,0,0,0,0,0,0,0,0,0],"sum_hessian":[7.093277E1,3.6771967E0,6.725557E1,2.3467014E0,1.3304954E0,3.1379366E0,6.411764E1,1.7617068E0,1.3762296E0,4.036654E0,6.0080982E1,1.5153849E0,2.521269E0,5.37382E1,6.342779E0],"tree_param":{"num_deleted":"0","num_feature":"9","num_nodes":"15","size_leaf_vector":"1"}},{"base_weights":[6.7767287E-3,6.908491E-2,-4.073564E-1,2.6644644E-1,-1.0651444E-1,-7.967388E-2,-4.3190952E-2,6.0839863E-3,1.0660278E0,-2.4615338E-1,5.1187575E-1,-5.8999074E-1,5.5551875E-1,7.997802E-3,-5.1748514E-2,2.3929143E-2,6.1153628E-2,-2.3180088E-2,1.4350428E-2,-2.1856694E-2,4.674382E-2,-4.25298E-2,3.7210432E-3,4.3668777E-2,-4.1222484E-3],"categories":[],"categories_nodes":[],"categories_segments":[],"categories_sizes":[],"default_left":[0,0,0,0,0,0,0,0,0,0,0,0,0,0,0,0,0,0,0,0,0,0,0,0,0],"id":34,"left_children":[1,3,5,7,9,11,-1,13,15,17,19,21,23,-1,-1,-1,-1,-1,-1,-1,-1,-1,-1,-1,-1],"loss_changes":[1.8813196E0,2.2214665E0,1.3577021E0,6.255529E0,3.0792937E0,2.484433E0,0E0,3.961504E0,9.5775604E-2,3.4460115E0,3.0681438E0,7.860757E-1,7.7749574E-1,0E0,0E0,0E0,0E0,0E0,0E0,0E0,0E0,0E0,0E0,0E0,0E0],"parents":[2147483647,0,0,1,1,2,2,3,3,4,4,5,5,7,7,8,8,9,9,10,10,11,11,12,12],"right_children":[2,4,6,8,10,12,-1,14,16,18,20,22,24,-1,-1,-1,-1,-1,-1,-1,-1,-1,-1,-1,-1],"split_conditions":[7.4E1,1.969E3,3.641E-1,1.809E3,3.09E0,2.178E-1,-4.3190952E-2,1.675E3,4.2E1,6.1E1,2.595E3,9.1E1,1E0,7.997802E-3,-5.1748514E-2,2.3929143E-2,6.1153628E-2,-2.3180088E-2,1.4350428E-2,-2.1856694E-2,4.674382E-2,-4.25298E-2,3.7210432E-3,4.3668777E-2,-4.1222484E-3],"split_indices":[0,1,8,1,6,8,0,1,0,0,1,0,2,0,0,0,0,0,0,0,0,0,0,0,0],"split_type":[0,0,0,0,0,0,0,0,0,0,0,0,0,0,0,0,0,0,0,0,0,0,0,0,0],"sum_hessian":[7.081777E1,6.2280563E1,8.537207E0,2.907967E1,3.3200893E1,5.6533566E0,2.8838503E0,2.2696701E1,6.38297E0,2.757591E1,5.6249833E0,3.174284E0,2.4790728E0,2.0511387E1,2.1853144E0,2.2002184E0,4.182751E0,1.9679968E1,7.8959436E0,1.7239217E0,3.9010615E0,2.0787156E0,1.0955684E0,1.4083678E0,1.0707049E0],"tree_param":{"num_deleted":"0","num_feature":"9","num_nodes":"25","size_leaf_vector":"1"}},{"base_weights":[6.673696E-3,3.9735717E-1,-5.776726E-2,-3.9217827E-1,9.601503E-1,-3.536378E-1,6.029188E-2,-7.778364E-1,2.5591662E-2,5.5922385E-2,4.936653E-3,1.4505519E-1,-7.3721206E-1,9.013126E-1,-3.3504467E-2,-5.302002E-2,-4.4181696E-3,-1.5158841E-2,3.9902158E-2,1.4440628E-2,-4.5398906E-2,1.0342821E-2,6.391203E-2,2.3142377E-2,-1.0446455E-2],"categories":[],"categories_nodes":[],"categories_segments":[],"categories_sizes":[],"default_left":[0,0,0,0,0,0,0,0,0,0,0,0,0,0,0,0,0,0,0,0,0,0,0,0,0],"id":35,"left_children":[1,3,5,7,9,11,13,15,-1,-1,-1,17,19,21,23,-1,-1,-1,-1,-1,-1,-1,-1,-1,-1],"loss_changes":[1.8247073E0,4.935519E0,2.1976936E0,2.1342945E0,7.459307E-1,3.5340834E0,3.610766E0,6.6367555E-1,0E0,0E0,0E0,2.766372E0,2.0654054E0,9.370942E-1,3.7363098E0,0E0,0E0,0E0,0E0,0E0,0E0,0E0,0E0,0E0,0E0],"parents":[2147483647,0,0,1,1,2,2,3,3,4,4,5,5,6,6,7,7,11,11,12,12,13,13,14,14],"right_children":[2,4,6,8,10,12,14,16,-1,-1,-1,18,20,22,24,-1,-1,-1,-1,-1,-1,-1,-1,-1,-1],"split_conditions":[3.2E1,0E0,4.7E1,2.9E1,3E1,1.969E3,5E1,3.641E-1,2.5591662E-2,5.5922385E-2,4.936653E-3,1.498E3,1.63E-2,4.85E-2,-6.237E-1,-5.302002E-2,-4.4181696E-3,-1.5158841E-2,3.9902158E-2,1.4440628E-2,-4.5398906E-2,1.0342821E-2,6.391203E-2,2.3142377E-2,-1.0446455E-2],"split_indices":[0,6,0,0,0,1,0,8,0,0,0,1,7,7,6,0,0,0,0,0,0,0,0,0,0],"split_type":[0,0,0,0,0,0,0,0,0,0,0,0,0,0,0,0,0,0,0,0,0,0,0,0,0],"sum_hessian":[7.056625E1,9.2599745E0,6.130628E1,3.9798498E0,5.280124E0,1.6916368E1,4.4389908E1,2.8875654E0,1.0922844E0,4.2083926E0,1.0717314E0,7.624903E0,9.291466E0,3.5901089E0,4.0799797E1,1.6665732E0,1.2209922E0,4.8389797E0,2.7859237E0,1.2271327E0,8.064333E0,1.8079383E0,1.7821705E0,1.0226415E1,3.0573383E1],"tree_param":{"num_deleted":"0","num_feature":"9","num_nodes":"25","size_leaf_vector":"1"}},{"base_weights":[7.880205E-3,6.1193436E-1,-3.350614E-2,3.9066676E-2,5.401801E-3,-6.541843E-1,1.2337393E-2,6.7982427E-3,-5.714142E-2,2.2399612E-1,-1.2857921E-1,-6.338095E-3,5.3697985E-2,-1.2813349E-2,2.4261482E-2],"categories":[],"categories_nodes":[],"categories_segments":[],"categories_sizes":[],"default_left":[0,0,0,0,0,0,0,0,0,0,0,0,0,0,0],"id":36,"left_children":[1,3,5,-1,-1,7,9,-1,-1,11,13,-1,-1,-1,-1],"loss_changes":[1.8049244E0,3.1069732E-1,1.9358133E0,0E0,0E0,1.9616916E0,1.9397953E0,0E0,0E0,7.8793354E0,3.1887271E0,0E0,0E0,0E0,0E0],"parents":[2147483647,0,0,1,1,2,2,5,5,6,6,9,9,10,10],"right_children":[2,4,6,-1,-1,8,10,-1,-1,12,14,-1,-1,-1,-1],"split_conditions":[1.35E2,-7E1,4.46E2,3.9066676E-2,5.401801E-3,-3E0,1.969E3,6.7982427E-3,-5.714142E-2,1.809E3,3.09E0,-6.338095E-3,5.3697985E-2,-1.2813349E-2,2.4261482E-2],"split_indices":[1,5,1,0,0,2,1,0,0,1,6,0,0,0,0],"split_type":[0,0,0,0,0,0,0,0,0,0,0,0,0,0,0],"sum_hessian":[7.037798E1,3.6287458E0,6.674924E1,2.3037126E0,1.3250331E0,3.6783202E0,6.307092E1,1.6813263E0,1.9969939E0,2.4972424E1,3.8098495E1,1.8279718E1,6.6927056E0,3.202002E1,6.078476E0],"tree_param":{"num_deleted":"0","num_feature":"9","num_nodes":"15","size_leaf_vector":"1"}},{"base_weights":[8.2964115E-3,6.797395E-2,-3.8927618E-1,4.8196156E-2,3.0069713E-2,-7.453716E-2,-8.328979E-1,1.9998142E-1,-1.6838855E-1,-5.706196E-1,5.405349E-1,-4.755647E-2,-1.281061E-2,1.6503062E-2,-2.4580074E-2,-1.7317686E-2,2.9028332E-2,-4.103917E-2,3.3914864E-3,4.2177167E-2,-3.834591E-3],"categories":[],"categories_nodes":[],"categories_segments":[],"categories_sizes":[],"default_left":[0,0,0,0,0,0,0,0,0,0,0,0,0,0,0,0,0,0,0,0,0],"id":37,"left_children":[1,3,5,-1,7,9,11,13,15,17,19,-1,-1,-1,-1,-1,-1,-1,-1,-1,-1],"loss_changes":[1.7141422E0,2.1003022E0,1.2549093E0,0E0,2.0969117E0,2.327146E0,1.6518831E-2,3.1688666E0,4.035162E0,7.182889E-1,7.1316063E-1,0E0,0E0,0E0,0E0,0E0,0E0,0E0,0E0,0E0,0E0],"parents":[2147483647,0,0,1,1,2,2,4,4,5,5,6,6,7,7,8,8,9,9,10,10],"right_children":[2,4,6,-1,8,10,12,14,16,18,20,-1,-1,-1,-1,-1,-1,-1,-1,-1,-1],"split_conditions":[7.4E1,-3.6015E4,3.641E-1,4.8196156E-2,2.237E3,2.178E-1,9.32E-2,3.09E0,3.09E0,9.1E1,1E0,-4.755647E-2,-1.281061E-2,1.6503062E-2,-2.4580074E-2,-1.7317686E-2,2.9028332E-2,-4.103917E-2,3.3914864E-3,4.2177167E-2,-3.834591E-3],"split_indices":[0,5,8,0,1,8,7,6,6,0,2,0,0,0,0,0,0,0,0,0,0],"split_type":[0,0,0,0,0,0,0,0,0,0,0,0,0,0,0,0,0,0,0,0,0],"sum_hessian":[7.01317E1,6.169936E1,8.43234E0,1.5127087E0,6.018665E1,5.615966E0,2.816374E0,3.242125E1,2.77654E1,3.148686E0,2.4672801E0,1.7983707E0,1.0180032E0,2.7728535E1,4.6927147E0,2.2868893E1,4.8965073E0,2.057073E0,1.0916127E0,1.4089384E0,1.0583417E0],"tree_param":{"num_deleted":"0","num_feature":"9","num_nodes":"21","size_leaf_vector":"1"}},{"base_weights":[7.7781514E-3,3.807611E-1,-5.360707E-2,-3.7939325E-1,9.247565E-1,-3.419807E-1,6.0893208E-2,-7.543378E-1,2.4992026E-2,5.3757943E-2,5.0128037E-3,1.7794865E-1,-6.6227007E-1,8.731169E-1,-2.9785637E-2,-5.152447E-2,-4.3147733E-3,4.708465E-2,-8.746242E-3,-4.9872197E-2,3.8318054E-3,1.0183486E-2,6.1726272E-2,2.2186354E-2,-9.8852515E-3],"categories":[],"categories_nodes":[],"categories_segments":[],"categories_sizes":[],"default_left":[0,0,0,0,0,0,0,0,0,0,0,0,0,0,0,0,0,0,0,0,0,0,0,0,0],"id":38,"left_children":[1,3,5,7,9,11,13,15,-1,-1,-1,17,19,21,23,-1,-1,-1,-1,-1,-1,-1,-1,-1,-1],"loss_changes":[1.644664E0,4.547635E0,2.0611467E0,2.006404E0,6.618514E-1,3.067583E0,3.3461783E0,6.2380314E-1,0E0,0E0,0E0,2.196908E0,2.843501E0,8.519108E-1,3.3889956E0,0E0,0E0,0E0,0E0,0E0,0E0,0E0,0E0,0E0,0E0],"parents":[2147483647,0,0,1,1,2,2,3,3,4,4,5,5,6,6,7,7,11,11,12,12,13,13,14,14],"right_children":[2,4,6,8,10,12,14,16,-1,-1,-1,18,20,22,24,-1,-1,-1,-1,-1,-1,-1,-1,-1,-1],"split_conditions":[3.2E1,0E0,4.7E1,2.9E1,3E1,-2E0,5E1,3.641E-1,2.4992026E-2,5.3757943E-2,5.0128037E-3,9.06E2,2.3099E0,4.85E-2,-6.237E-1,-5.152447E-2,-4.3147733E-3,4.708465E-2,-8.746242E-3,-4.9872197E-2,3.8318054E-3,1.0183486E-2,6.1726272E-2,2.2186354E-2,-9.8852515E-3],"split_indices":[0,6,0,0,0,2,0,8,0,0,0,1,6,7,6,0,0,0,0,0,0,0,0,0,0],"split_type":[0,0,0,0,0,0,0,0,0,0,0,0,0,0,0,0,0,0,0,0,0,0,0,0,0],"sum_hessian":[6.994156E1,9.148927E0,6.0792633E1,3.9424741E0,5.206453E0,1.6713152E1,4.4079483E1,2.8634303E0,1.0790436E0,4.1461205E0,1.0603323E0,6.5404234E0,1.01727295E1,3.560338E0,4.0519142E1,1.6420838E0,1.2213466E0,1.5395801E0,5.000843E0,6.757555E0,3.4151742E0,1.796386E0,1.763952E0,1.0177448E1,3.0341696E1],"tree_param":{"num_deleted":"0","num_feature":"9","num_nodes":"25","size_leaf_vector":"1"}},{"base_weights":[8.884141E-3,6.687884E-2,-3.7831485E-1,4.719022E-2,2.991542E-2,-7.211693E-2,-8.1342846E-1,1.9048578E-1,-1.5786043E-1,-3.710758E-2,3.6743283E-1,-4.659156E-2,-1.22924205E-2,1.5786344E-2,-2.3747055E-2,-1.871414E-2,2.143514E-2,-1.9944673E-3,3.793461E-2],"categories":[],"categories_nodes":[],"categories_segments":[],"categories_sizes":[],"default_left":[0,0,0,0,0,0,0,0,0,0,0,0,0,0,0,0,0,0,0],"id":39,"left_children":[1,3,5,-1,7,9,11,13,15,-1,17,-1,-1,-1,-1,-1,-1,-1,-1],"loss_changes":[1.614277E0,1.9941816E0,1.1894673E0,0E0,1.8663447E0,2.2152846E0,2.4416447E-2,2.923669E0,3.7935944E0,0E0,7.716281E-1,0E0,0E0,0E0,0E0,0E0,0E0,0E0,0E0],"parents":[2147483647,0,0,1,1,2,2,4,4,5,5,6,6,7,7,8,8,10,10],"right_children":[2,4,6,-1,8,10,12,14,16,-1,18,-1,-1,-1,-1,-1,-1,-1,-1],"split_conditions":[7.4E1,-3.6015E4,3.641E-1,4.719022E-2,2.237E3,1.111E-1,9.32E-2,3.09E0,3.273E3,-3.710758E-2,8.5E1,-4.659156E-2,-1.22924205E-2,1.5786344E-2,-2.3747055E-2,-1.871414E-2,2.143514E-2,-1.9944673E-3,3.793461E-2],"split_indices":[0,5,8,0,1,8,7,6,1,0,0,0,0,0,0,0,0,0,0],"split_type":[0,0,0,0,0,0,0,0,0,0,0,0,0,0,0,0,0,0,0],"sum_hessian":[6.976112E1,6.139296E1,8.368168E0,1.4908297E0,5.990213E1,5.595939E0,2.7722287E0,3.2282433E1,2.7619696E1,1.9440539E0,3.651885E0,1.7627417E0,1.0094869E0,2.761121E1,4.671224E0,2.0439941E1,7.1797543E0,2.2292075E0,1.4226775E0],"tree_param":{"num_deleted":"0","num_feature":"9","num_nodes":"19","size_leaf_vector":"1"}},{"base_weights":[8.1936065E-3,3.954195E-2,-1.954762E-2,2.8752467E-2,-5.170967E-1,-1.8856463E-1,1.3594893E-1,-7.107294E-1,-5.044729E-4,1.3358432E-2,-2.3413325E-2,3.8115453E-2,1.6929004E-3,-5.117517E-3,-4.6488296E-2],"categories":[],"categories_nodes":[],"categories_segments":[],"categories_sizes":[],"default_left":[0,0,0,0,0,0,0,0,0,0,0,0,0,0,0],"id":40,"left_children":[1,-1,3,5,7,9,11,13,-1,-1,-1,-1,-1,-1,-1],"loss_changes":[1.5473342E0,0E0,1.67585E0,1.5153408E0,5.984125E-1,2.8711572E0,2.7497563E0,4.977467E-1,0E0,0E0,0E0,0E0,0E0,0E0,0E0],"parents":[2147483647,0,0,2,2,3,3,4,4,5,5,6,6,7,7],"right_children":[2,-1,4,6,8,10,12,14,-1,-1,-1,-1,-1,-1,-1],"split_conditions":[4.7E1,3.954195E-2,6.395E-1,2.59E-2,1.8666E0,-2E0,2.15E-1,5.199E-1,-5.044729E-4,1.3358432E-2,-2.3413325E-2,3.8115453E-2,1.6929004E-3,-5.117517E-3,-4.6488296E-2],"split_indices":[1,0,8,7,6,2,8,6,0,0,0,0,0,0,0],"split_type":[0,0,0,0,0,0,0,0,0,0,0,0,0,0,0],"sum_hessian":[6.955579E1,1.4393939E0,6.81164E1,6.2947884E1,5.168519E0,2.0542816E1,4.2405067E1,3.4493525E0,1.7191666E0,7.829919E0,1.2712897E1,5.0366516E0,3.7368416E1,1.3015478E0,2.1478045E0],"tree_param":{"num_deleted":"0","num_feature":"9","num_nodes":"15","size_leaf_vector":"1"}}]},"name":"gbtree"},"learner_model_param":{"base_score":"4.919621E-1","boost_from_average":"1","num_class":"0","num_feature":"9","num_target":"1"},"objective":{"name":"binary:logistic","reg_loss_param":{"scale_pos_weight":"1"}}},"version":[2,1,4]}