{"learner":{"attributes":{"best_iteration":"12","best_score":"0.6818037617206574","scikit_learn":"{\"_estimator_type\": \"classifier\"}"},"feature_names":["yardline_100","game_seconds_remaining","score_differential","timeouts_pos","timeouts_def","leverage","cpoe_by_filter","target_share_by_filter","carry_share_by_filter"],"feature_types":["float","float","float","float","float","float","float","float","float"],"gradient_booster":{"model":{"gbtree_model_param":{"num_parallel_tree":"1","num_trees":"43"},"iteration_indptr":[0,1,2,3,4,5,6,7,8,9,10,11,12,13,14,15,16,17,18,19,20,21,22,23,24,25,26,27,28,29,30,31,32,33,34,35,36,37,38,39,40,41,42,43],"tree_info":[0,0,0,0,0,0,0,0,0,0,0,0,0,0,0,0,0,0,0,0,0,0,0,0,0,0,0,0,0,0,0,0,0,0,0,0,0,0,0,0,0,0,0],"trees":[{"base_weights":[-3.1628832E-2,5.565412E-1,-3.512759E-1,1.5904099E-2,1.4622675E0,4.3483377E-2,-4.1435724E-1,4.7641194E-1,-6.497995E-1,9.591197E-2,5.671348E-4,3.3439732E-1,-5.130232E-1,5.5195477E-2,-1.2136842E-2,-5.134199E-2,-1.0934627E-2,-3.914537E-2,4.13607E-2,-4.5108598E-2,-1.4053985E-2],"categories":[],"categories_nodes":[],"categories_segments":[],"categories_sizes":[],"default_left":[0,0,0,0,0,0,0,0,0,0,0,0,0,0,0,0,0,0,0,0,0],"id":0,"left_children":[1,3,5,7,9,-1,11,13,15,-1,-1,17,19,-1,-1,-1,-1,-1,-1,-1,-1],"loss_changes":[1.1848708E1,1.0853006E1,3.5005202E0,4.8834763E0,5.4636955E0,0E0,3.085671E0,4.5081263E0,8.358495E-1,0E0,0E0,3.5098417E0,2.927888E0,0E0,0E0,0E0,0E0,0E0,0E0,0E0,0E0],"parents":[2147483647,0,0,1,1,2,2,3,3,4,4,6,6,7,7,8,8,11,11,12,12],"right_children":[2,4,6,8,10,-1,12,14,16,-1,-1,18,20,-1,-1,-1,-1,-1,-1,-1,-1],"split_conditions":[-4E0,-7.611E3,-8.218E3,3.299E-1,6.91E-2,4.3483377E-2,1.76E2,2.4251E0,4.596E-1,9.591197E-2,5.671348E-4,-4.8291E0,1.363E3,5.5195477E-2,-1.2136842E-2,-5.134199E-2,-1.0934627E-2,-3.914537E-2,4.13607E-2,-4.5108598E-2,-1.4053985E-2],"split_indices":[2,5,5,8,7,0,1,6,8,0,0,6,1,0,0,0,0,0,0,0,0],"split_type":[0,0,0,0,0,0,0,0,0,0,0,0,0,0,0,0,0,0,0,0,0],"sum_hessian":[6.0982903E1,2.1211445E1,3.9771458E1,1.392001E1,7.291434E0,1.3257153E0,3.8445744E1,8.396196E0,5.5238137E0,5.302861E0,1.9885728E0,4.198098E0,3.4247643E1,4.198098E0,4.198098E0,2.2095253E0,3.3142881E0,1.1047627E0,3.0933356E0,1.17104845E1,2.2537159E1],"tree_param":{"num_deleted":"0","num_feature":"9","num_nodes":"21","size_leaf_vector":"1"}},{"base_weights":[-2.9340718E-2,5.275777E-1,-3.3622658E-1,3.2548584E-2,1.4133835E0,4.188861E-2,-3.9790803E-1,4.0712547E-1,-5.137086E-1,1.8755089E0,5.481961E-4,3.1619024E-1,-4.9328285E-1,5.2174814E-2,-1.4440513E-2,-5.0209768E-2,-2.8525547E-3,2.9089529E-2,1.0292709E-1,-3.8398813E-2,3.9375983E-2,-4.3678567E-2,-1.3444846E-2],"categories":[],"categories_nodes":[],"categories_segments":[],"categories_sizes":[],"default_left":[0,0,0,0,0,0,0,0,0,0,0,0,0,0,0,0,0,0,0,0,0,0,0],"id":1,"left_children":[1,3,5,7,9,-1,11,13,15,17,-1,19,21,-1,-1,-1,-1,-1,-1,-1,-1,-1,-1],"loss_changes":[1.0758457E1,9.76945E0,3.2679963E0,3.3567467E0,5.164935E0,0E0,2.8244677E0,4.5898867E0,1.4433233E0,2.2600365E-1,0E0,3.2751865E0,2.7478685E0,0E0,0E0,0E0,0E0,0E0,0E0,0E0,0E0,0E0,0E0],"parents":[2147483647,0,0,1,1,2,2,3,3,4,4,6,6,7,7,8,8,9,9,11,11,12,12],"right_children":[2,4,6,8,10,-1,12,14,16,18,-1,20,22,-1,-1,-1,-1,-1,-1,-1,-1,-1,-1],"split_conditions":[-4E0,-6.978E3,-8.218E3,3.299E-1,6.91E-2,4.188861E-2,1.76E2,2.4251E0,4.596E-1,2E0,5.481961E-4,-4.8291E0,1.363E3,5.2174814E-2,-1.4440513E-2,-5.0209768E-2,-2.8525547E-3,2.9089529E-2,1.0292709E-1,-3.8398813E-2,3.9375983E-2,-4.3678567E-2,-1.3444846E-2],"split_indices":[2,5,5,8,7,0,1,6,8,3,0,6,1,0,0,0,0,0,0,0,0,0,0],"split_type":[0,0,0,0,0,0,0,0,0,0,0,0,0,0,0,0,0,0,0,0,0,0,0],"sum_hessian":[6.091006E1,2.1384178E1,3.9525883E1,1.4383026E1,7.001153E0,1.3449466E0,3.8180935E1,8.683392E0,5.6996346E0,5.0121956E0,1.9889572E0,4.2258167E0,3.395512E1,4.274934E0,4.4084578E0,2.1699367E0,3.5296977E0,1.1391354E0,3.8730602E0,1.089752E0,3.1360645E0,1.1526644E1,2.2428476E1],"tree_param":{"num_deleted":"0","num_feature":"9","num_nodes":"23","size_leaf_vector":"1"}},{"base_weights":[-2.6508048E-2,5.0325996E-1,-3.2189423E-1,2.9726325E-2,1.3383129E0,4.0374678E-2,-3.8219166E-1,2.2586E-1,-4.7470383E-2,1.7672682E0,5.298837E-4,2.9900572E-1,-4.743248E-1,3.3569794E-2,-2.1703867E-2,2.8184017E-2,9.658019E-2,-3.767906E-2,3.752037E-2,-4.230928E-2,-1.2860598E-2],"categories":[],"categories_nodes":[],"categories_segments":[],"categories_sizes":[],"default_left":[0,0,0,0,0,0,0,0,0,0,0,0,0,0,0,0,0,0,0,0,0],"id":2,"left_children":[1,3,5,7,9,-1,11,13,-1,15,-1,17,19,-1,-1,-1,-1,-1,-1,-1,-1],"loss_changes":[9.830469E0,8.86032E0,3.0514612E0,3.1691022E0,4.607026E0,0E0,2.5841355E0,4.297777E0,0E0,1.24197006E-1,0E0,3.0597656E0,2.5810552E0,0E0,0E0,0E0,0E0,0E0,0E0,0E0,0E0],"parents":[2147483647,0,0,1,1,2,2,3,3,4,4,6,6,7,7,9,9,11,11,12,12],"right_children":[2,4,6,8,10,-1,12,14,-1,16,-1,18,20,-1,-1,-1,-1,-1,-1,-1,-1],"split_conditions":[-4E0,-6.978E3,-8.218E3,2.604E3,6.91E-2,4.0374678E-2,1.76E2,-1.462E4,-4.7470383E-2,2E0,5.298837E-4,-4.8291E0,1.363E3,3.3569794E-2,-2.1703867E-2,2.8184017E-2,9.658019E-2,-3.767906E-2,3.752037E-2,-4.230928E-2,-1.2860598E-2],"split_indices":[2,5,5,1,7,0,1,5,0,3,0,6,1,0,0,0,0,0,0,0,0],"split_type":[0,0,0,0,0,0,0,0,0,0,0,0,0,0,0,0,0,0,0,0,0],"sum_hessian":[6.0784847E1,2.1507652E1,3.927719E1,1.4385604E1,7.12205E0,1.362644E0,3.7914547E1,1.2625811E1,1.7597928E0,5.132721E0,1.9893284E0,4.2495584E0,3.366499E1,7.5268993E0,5.0989113E0,1.1488247E0,3.9838965E0,1.0745282E0,3.1750302E0,1.1341813E1,2.2323177E1],"tree_param":{"num_deleted":"0","num_feature":"9","num_nodes":"21","size_leaf_vector":"1"}},{"base_weights":[-2.4234625E-2,4.793291E-1,-3.0823252E-1,5.672226E-3,1.2407138E0,-9.261788E-1,-1.8150437E-1,4.2735443E-1,-6.1947834E-1,1.6055928E0,5.1219406E-4,-5.9134144E-2,9.487555E-3,7.1563196E-1,-2.9657957E-1,4.9007393E-2,-1.1391693E-2,-4.9162533E-2,-1.0535752E-2,3.360268E-2,9.1632105E-2,-1.8191678E-2,6.191758E-2,-2.0475062E-2,2.5721217E-2],"categories":[],"categories_nodes":[],"categories_segments":[],"categories_sizes":[],"default_left":[0,0,0,0,0,0,0,0,0,0,0,0,0,0,0,0,0,0,0,0,0,0,0,0,0],"id":3,"left_children":[1,3,5,7,9,11,13,15,17,19,-1,-1,-1,21,23,-1,-1,-1,-1,-1,-1,-1,-1,-1,-1],"loss_changes":[8.964226E0,8.151335E0,2.9664345E0,4.2060065E0,3.8767595E0,2.1044374E0,3.7696981E0,3.6713595E0,7.490387E-1,1.8461227E-1,0E0,0E0,0E0,2.826367E0,3.0723667E0,0E0,0E0,0E0,0E0,0E0,0E0,0E0,0E0,0E0,0E0],"parents":[2147483647,0,0,1,1,2,2,3,3,4,4,5,5,6,6,7,7,8,8,9,9,13,13,14,14],"right_children":[2,4,6,8,10,12,14,16,18,20,-1,-1,-1,22,24,-1,-1,-1,-1,-1,-1,-1,-1,-1,-1],"split_conditions":[-4E0,-7.611E3,-4.0071E0,3.299E-1,6.91E-2,2.833E3,1.76E2,2.4251E0,4.596E-1,2.46E-2,5.1219406E-4,-5.9134144E-2,9.487555E-3,3.8E1,1.9E1,4.9007393E-2,-1.1391693E-2,-4.9162533E-2,-1.0535752E-2,3.360268E-2,9.1632105E-2,-1.8191678E-2,6.191758E-2,-2.0475062E-2,2.5721217E-2],"split_indices":[2,5,6,8,7,1,1,6,8,7,0,0,0,1,0,0,0,0,0,0,0,0,0,0,0],"split_type":[0,0,0,0,0,0,0,0,0,0,0,0,0,0,0,0,0,0,0,0,0,0,0,0,0],"sum_hessian":[6.0648952E1,2.1622236E1,3.902672E1,1.3950864E1,7.6713724E0,5.567981E0,3.3458736E1,8.520164E0,5.4307003E0,5.6816854E0,1.9896872E0,4.4787025E0,1.0892781E0,3.2105093E0,3.0248228E1,4.3521786E0,4.167985E0,2.1298482E0,3.300852E0,1.8862206E0,3.7954648E0,1.1466105E0,2.0638988E0,2.6985868E1,3.2623587E0],"tree_param":{"num_deleted":"0","num_feature":"9","num_nodes":"25","size_leaf_vector":"1"}},{"base_weights":[-2.162175E-2,4.5814604E-1,-2.9481664E-1,3.7377796E-3,1.1811439E0,-9.0158623E-1,-1.7184277E-1,4.079328E-1,-6.0292363E-1,1.5241357E0,4.9509073E-4,-5.783679E-2,9.223519E-3,6.852147E-1,-2.8325164E-1,3.5774615E-2,-3.0105738E-2,-3.8737826E-2,1.9180587E-3,3.233926E-2,8.669487E-2,-1.7757319E-2,5.9134234E-2,-1.963552E-2,2.4561146E-2],"categories":[],"categories_nodes":[],"categories_segments":[],"categories_sizes":[],"default_left":[0,0,0,0,0,0,0,0,0,0,0,0,0,0,0,0,0,0,0,0,0,0,0,0,0],"id":4,"left_children":[1,3,5,7,9,11,13,15,17,19,-1,-1,-1,21,23,-1,-1,-1,-1,-1,-1,-1,-1,-1,-1],"loss_changes":[8.19303E0,7.452531E0,2.8133826E0,3.909576E0,3.5027037E0,2.005775E0,3.4703794E0,3.4015837E0,7.325022E-1,1.2384033E-1,0E0,0E0,0E0,2.6142573E0,2.827049E0,0E0,0E0,0E0,0E0,0E0,0E0,0E0,0E0,0E0,0E0],"parents":[2147483647,0,0,1,1,2,2,3,3,4,4,5,5,6,6,7,7,8,8,9,9,13,13,14,14],"right_children":[2,4,6,8,10,12,14,16,18,20,-1,-1,-1,22,24,-1,-1,-1,-1,-1,-1,-1,-1,-1,-1],"split_conditions":[-4E0,-7.611E3,-4.0071E0,3.299E-1,6.91E-2,2.833E3,1.76E2,2.241E3,1.206E-1,2.46E-2,4.9509073E-4,-5.783679E-2,9.223519E-3,3.8E1,1.9E1,3.5774615E-2,-3.0105738E-2,-3.8737826E-2,1.9180587E-3,3.233926E-2,8.669487E-2,-1.7757319E-2,5.9134234E-2,-1.963552E-2,2.4561146E-2],"split_indices":[2,5,6,8,7,1,1,1,7,7,0,0,0,1,0,0,0,0,0,0,0,0,0,0,0],"split_type":[0,0,0,0,0,0,0,0,0,0,0,0,0,0,0,0,0,0,0,0,0,0,0,0,0],"sum_hessian":[6.047825E1,2.1697487E1,3.878076E1,1.394079E1,7.756696E0,5.468234E0,3.331253E1,8.563104E0,5.3776865E0,5.766662E0,1.9900339E0,4.375265E0,1.0929687E0,3.2396643E0,3.0072865E1,6.787833E0,1.7752701E0,4.0770936E0,1.3005929E0,1.9006054E0,3.8660567E0,1.1405407E0,2.0991235E0,2.678079E1,3.2920744E0],"tree_param":{"num_deleted":"0","num_feature":"9","num_nodes":"25","size_leaf_vector":"1"}},{"base_weights":[-1.9389203E-2,4.3770722E-1,-2.8205565E-1,1.7814105E-2,1.1592917E0,3.9289977E-2,-3.4111428E-1,2.0052655E-1,-4.572776E-2,1.5172554E0,4.7855536E-4,-8.782486E-1,-2.2641699E-1,3.1148726E-2,-2.1594234E-2,2.3267036E-2,8.3515406E-2,-5.661564E-2,8.96705E-3,3.283377E-2,-1.731431E-2],"categories":[],"categories_nodes":[],"categories_segments":[],"categories_sizes":[],"default_left":[0,0,0,0,0,0,0,0,0,0,0,0,0,0,0,0,0,0,0,0,0],"id":5,"left_children":[1,3,5,7,9,-1,11,13,-1,15,-1,17,19,-1,-1,-1,-1,-1,-1,-1,-1],"loss_changes":[7.482322E0,6.8751125E0,2.7611794E0,2.807345E0,3.4246092E0,0E0,2.1519575E0,3.928926E0,0E0,2.4765396E-1,0E0,1.9138322E0,3.6984742E0,0E0,0E0,0E0,0E0,0E0,0E0,0E0,0E0],"parents":[2147483647,0,0,1,1,2,2,3,3,4,4,6,6,7,7,9,9,11,11,12,12],"right_children":[2,4,6,8,10,-1,12,14,-1,16,-1,18,20,-1,-1,-1,-1,-1,-1,-1,-1],"split_conditions":[-4E0,-6.978E3,-8.218E3,2.604E3,6.91E-2,3.9289977E-2,-4.0071E0,-1.462E4,-4.572776E-2,2E0,4.7855536E-4,2.833E3,1.76E2,3.1148726E-2,-2.1594234E-2,2.3267036E-2,8.3515406E-2,-5.661564E-2,8.96705E-3,3.283377E-2,-1.731431E-2],"split_indices":[2,5,5,1,7,0,6,5,0,3,0,1,1,0,0,0,0,0,0,0,0],"split_type":[0,0,0,0,0,0,0,0,0,0,0,0,0,0,0,0,0,0,0,0,0],"sum_hessian":[6.0291245E1,2.1759174E1,3.853207E1,1.4402806E1,7.356367E0,1.3744714E0,3.7157597E1,1.2699139E1,1.7036682E0,5.3659987E0,1.9903685E0,5.3669143E0,3.1790684E1,7.622358E0,5.0767803E0,1.1947825E0,4.171216E0,4.270387E0,1.0965272E0,3.2642498E0,2.8526434E1],"tree_param":{"num_deleted":"0","num_feature":"9","num_nodes":"21","size_leaf_vector":"1"}},{"base_weights":[-1.7353596E-2,4.1782036E-1,-2.6962218E-1,-2.8774363E-3,1.0797938E0,3.7904333E-2,-3.2731995E-1,3.7973866E-1,-5.854101E-1,1.3884007E0,4.6258146E-4,-8.5604304E-1,-2.1576722E-1,4.488876E-2,-1.1889131E-2,-4.7537837E-2,-9.2493985E-3,2.911667E-2,7.9263486E-2,-5.546276E-2,8.717915E-3,3.1374853E-2,-1.6588002E-2],"categories":[],"categories_nodes":[],"categories_segments":[],"categories_sizes":[],"default_left":[0,0,0,0,0,0,0,0,0,0,0,0,0,0,0,0,0,0,0,0,0,0,0],"id":6,"left_children":[1,3,5,7,9,-1,11,13,15,17,-1,19,21,-1,-1,-1,-1,-1,-1,-1,-1,-1,-1],"loss_changes":[6.8193245E0,6.3556952E0,2.5773482E0,3.5532157E0,2.9163828E0,0E0,2.0501304E0,3.29299E0,7.483866E-1,1.6793728E-1,0E0,1.8279128E0,3.3994598E0,0E0,0E0,0E0,0E0,0E0,0E0,0E0,0E0,0E0,0E0],"parents":[2147483647,0,0,1,1,2,2,3,3,4,4,6,6,7,7,8,8,9,9,11,11,12,12],"right_children":[2,4,6,8,10,-1,12,14,16,18,-1,20,22,-1,-1,-1,-1,-1,-1,-1,-1,-1,-1],"split_conditions":[-4E0,-7.611E3,-8.218E3,3.299E-1,6.91E-2,3.7904333E-2,-4.0071E0,2.4251E0,4.596E-1,2.46E-2,4.6258146E-4,2.833E3,1.76E2,4.488876E-2,-1.1889131E-2,-4.7537837E-2,-9.2493985E-3,2.911667E-2,7.9263486E-2,-5.546276E-2,8.717915E-3,3.1374853E-2,-1.6588002E-2],"split_indices":[2,5,5,8,7,0,6,6,8,7,0,1,1,0,0,0,0,0,0,0,0,0,0],"split_type":[0,0,0,0,0,0,0,0,0,0,0,0,0,0,0,0,0,0,0,0,0,0,0],"sum_hessian":[6.009152E1,2.1810768E1,3.828075E1,1.3944442E1,7.8663273E0,1.3896406E0,3.689111E1,8.626533E0,5.3179092E0,5.875635E0,1.9906921E0,5.2646275E0,3.1626482E1,4.444347E0,4.182185E0,2.0620773E0,3.2558322E0,1.9302648E0,3.9453702E0,4.164669E0,1.0999585E0,3.2910266E0,2.8335455E1],"tree_param":{"num_deleted":"0","num_feature":"9","num_nodes":"23","size_leaf_vector":"1"}},{"base_weights":[-1.5195893E-2,4.0024033E-1,-2.5775915E-1,-8.2152647E-1,6.012153E-1,-1.1680309E-1,-7.1849406E-1,-4.75928E-2,-1.2952139E-2,9.6918297E-1,-1.3368167E-1,-5.869334E-1,1.7646392E-1,-9.8801523E-1,2.5158003E-2,7.481535E-2,9.121378E-3,-3.804E-2,3.3017993E-2,3.1540576E-2,-3.820889E-2,4.6173077E-2,-2.9118476E-3,-1.1610552E-2,-5.356726E-2],"categories":[],"categories_nodes":[],"categories_segments":[],"categories_sizes":[],"default_left":[0,0,0,0,0,0,0,0,0,0,0,0,0,0,0,0,0,0,0,0,0,0,0,0,0],"id":7,"left_children":[1,3,5,7,9,11,13,-1,-1,15,17,19,21,23,-1,-1,-1,-1,-1,-1,-1,-1,-1,-1,-1],"loss_changes":[6.235679E0,6.098673E0,2.4508815E0,2.0778418E-2,5.5863075E0,4.3888874E0,3.4438658E0,0E0,0E0,5.3537064E0,4.2925696E0,3.1091123E0,3.5444255E0,2.3424864E-1,0E0,0E0,0E0,0E0,0E0,0E0,0E0,0E0,0E0,0E0,0E0],"parents":[2147483647,0,0,1,1,2,2,3,3,4,4,5,5,6,6,9,9,10,10,11,11,12,12,13,13],"right_children":[2,4,6,8,10,12,14,-1,-1,16,18,20,22,24,-1,-1,-1,-1,-1,-1,-1,-1,-1,-1,-1],"split_conditions":[-4E0,8E0,5.414E-1,2.1E-1,2.6605E0,2.1E-1,2.833E3,-4.75928E-2,-1.2952139E-2,3.299E-1,7.7236E0,1.76E2,-1.894E3,9E0,2.5158003E-2,7.481535E-2,9.121378E-3,-3.804E-2,3.3017993E-2,3.1540576E-2,-3.820889E-2,4.6173077E-2,-2.9118476E-3,-1.1610552E-2,-5.356726E-2],"split_indices":[2,0,8,8,6,8,1,0,0,8,6,1,5,0,0,0,0,0,0,0,0,0,0,0,0],"split_type":[0,0,0,0,0,0,0,0,0,0,0,0,0,0,0,0,0,0,0,0,0,0,0,0,0],"sum_hessian":[5.985681E1,2.182583E1,3.803098E1,2.6469274E0,1.9178904E1,3.0081451E1,7.9495273E0,1.5869808E0,1.0599465E0,1.2567482E1,6.611421E0,1.1171419E1,1.8910032E1,6.669378E0,1.2801492E0,6.985408E0,5.582074E0,3.717375E0,2.8940458E0,1.0942767E0,1.0077143E1,3.8193405E0,1.50906925E1,1.0383319E0,5.631046E0],"tree_param":{"num_deleted":"0","num_feature":"9","num_nodes":"25","size_leaf_vector":"1"}},{"base_weights":[-1.4444953E-2,3.8005432E-1,-2.464789E-1,-1.722778E-2,1.002939E0,-8.2341594E-1,-1.3464372E-1,3.4065703E-1,-5.6860703E-1,1.2950743E0,-1.9880755E-4,-5.388498E-2,8.790653E-3,1.067737E-1,-5.041622E-1,3.1107644E-2,-2.9654155E-2,-4.6364956E-2,-9.030248E-3,2.6639814E-2,7.43137E-2,-3.628879E-3,4.6098363E-2,-5.2463617E-2,4.940116E-4],"categories":[],"categories_nodes":[],"categories_segments":[],"categories_sizes":[],"default_left":[0,0,0,0,0,0,0,0,0,0,0,0,0,0,0,0,0,0,0,0,0,0,0,0,0],"id":8,"left_children":[1,3,5,7,9,11,13,15,17,19,-1,-1,-1,21,23,-1,-1,-1,-1,-1,-1,-1,-1,-1,-1],"loss_changes":[5.64946E0,5.677024E0,2.3940642E0,3.1433246E0,2.6300783E0,1.7414813E0,3.0614705E0,2.9158494E0,7.034745E-1,2.166748E-1,0E0,0E0,0E0,3.1690123E0,3.7925043E0,0E0,0E0,0E0,0E0,0E0,0E0,0E0,0E0,0E0,0E0],"parents":[2147483647,0,0,1,1,2,2,3,3,4,4,5,5,6,6,7,7,8,8,9,9,13,13,14,14],"right_children":[2,4,6,8,10,12,14,16,18,20,-1,-1,-1,22,24,-1,-1,-1,-1,-1,-1,-1,-1,-1,-1],"split_conditions":[-4E0,-7.611E3,-4.0071E0,3.299E-1,6.91E-2,2.833E3,2.132E3,2.241E3,4.596E-1,2.46E-2,-1.9880755E-4,-5.388498E-2,8.790653E-3,1.9E1,1.391E3,3.1107644E-2,-2.9654155E-2,-4.6364956E-2,-9.030248E-3,2.6639814E-2,7.43137E-2,-3.628879E-3,4.6098363E-2,-5.2463617E-2,4.940116E-4],"split_indices":[2,5,6,8,7,1,5,1,8,7,0,0,0,0,1,0,0,0,0,0,0,0,0,0,0],"split_type":[0,0,0,0,0,0,0,0,0,0,0,0,0,0,0,0,0,0,0,0,0,0,0,0,0],"sum_hessian":[5.969426E1,2.1871265E1,3.7822994E1,1.3947654E1,7.923612E0,5.108164E0,3.2714832E1,8.689631E0,5.258023E0,5.9198976E0,2.0037143E0,4.0093374E0,1.0988263E0,2.021731E1,1.2497522E1,6.933176E0,1.7564555E0,2.009962E0,3.2480607E0,1.9464313E0,3.9734664E0,1.731811E1,2.8991997E0,5.560131E0,6.937391E0],"tree_param":{"num_deleted":"0","num_feature":"9","num_nodes":"25","size_leaf_vector":"1"}},{"base_weights":[-1.4057763E-2,3.629833E-1,-2.3699467E-1,-8.0620944E-1,5.5385095E-1,-8.0355763E-1,-1.2871009E-1,-4.6889495E-2,-1.2370395E-2,8.97305E-1,-1.3685423E-1,-5.287231E-2,8.546577E-3,1.0330003E-1,-4.874097E-1,5.7522934E-2,-1.8779999E-2,-3.737339E-2,3.126484E-2,-3.4618713E-3,4.3903288E-2,2.5320118E-2,-3.7039813E-2],"categories":[],"categories_nodes":[],"categories_segments":[],"categories_sizes":[],"default_left":[0,0,0,0,0,0,0,0,0,0,0,0,0,0,0,0,0,0,0,0,0,0,0],"id":9,"left_children":[1,3,5,7,9,11,13,-1,-1,15,17,-1,-1,19,21,-1,-1,-1,-1,-1,-1,-1,-1],"loss_changes":[5.1705346E0,5.5505085E0,2.2657871E0,3.3926964E-2,4.9276576E0,1.6666636E0,2.8476167E0,0E0,0E0,4.833934E0,4.0016418E0,0E0,0E0,2.8994858E0,3.7436032E0,0E0,0E0,0E0,0E0,0E0,0E0,0E0,0E0],"parents":[2147483647,0,0,1,1,2,2,3,3,4,4,5,5,6,6,9,9,10,10,13,13,14,14],"right_children":[2,4,6,8,10,12,14,-1,-1,16,18,-1,-1,20,22,-1,-1,-1,-1,-1,-1,-1,-1],"split_conditions":[-4E0,8E0,-4.0071E0,2.1E-1,2.6605E0,2.833E3,2.132E3,-4.6889495E-2,-1.2370395E-2,2.157E3,7.7236E0,-5.287231E-2,8.546577E-3,1.9E1,-2.085E-1,5.7522934E-2,-1.8779999E-2,-3.737339E-2,3.126484E-2,-3.4618713E-3,4.3903288E-2,2.5320118E-2,-3.7039813E-2],"split_indices":[2,0,6,8,6,1,5,0,0,1,6,0,0,0,6,0,0,0,0,0,0,0,0],"split_type":[0,0,0,0,0,0,0,0,0,0,0,0,0,0,0,0,0,0,0,0,0,0,0],"sum_hessian":[5.9489285E1,2.187132E1,3.761796E1,2.6169324E0,1.9254389E1,5.0058303E0,3.2612133E1,1.5692147E0,1.0477177E0,1.26600485E1,6.5943403E0,3.9036608E0,1.1021694E0,2.0235588E1,1.2376544E1,1.0640145E1,2.0199037E0,3.6718361E0,2.9225042E0,1.7294746E1,2.9408414E0,2.3116074E0,1.0064937E1],"tree_param":{"num_deleted":"0","num_feature":"9","num_nodes":"23","size_leaf_vector":"1"}},{"base_weights":[-1.42895095E-2,1.2711503E-1,-5.9213257E-1,4.6517292E-1,-2.3366493E-1,-7.553132E-1,1.6731512E-2,-5.6976867E-1,6.1680716E-1,-5.7948565E-1,1.1453004E-1,-1.2468352E-3,-9.279888E-1,-4.773736E-2,1.1075759E-2,4.6561446E-2,5.788011E-4,-3.4969603E-3,-3.6750697E-2,2.4585254E-2,-2.8978324E-2,-1.6359327E-2,-5.8242973E-2],"categories":[],"categories_nodes":[],"categories_segments":[],"categories_sizes":[],"default_left":[0,0,0,0,0,0,0,0,0,0,0,0,0,0,0,0,0,0,0,0,0,0,0],"id":10,"left_children":[1,3,5,7,9,11,-1,13,15,17,19,-1,21,-1,-1,-1,-1,-1,-1,-1,-1,-1,-1],"loss_changes":[5.002264E0,6.1175575E0,2.0722752E0,4.3954268E0,3.0162892E0,1.3057971E0,0E0,1.3729961E0,4.3577137E0,9.3572617E-1,3.6993823E0,0E0,8.2778454E-1,0E0,0E0,0E0,0E0,0E0,0E0,0E0,0E0,0E0,0E0],"parents":[2147483647,0,0,1,1,2,2,3,3,4,4,5,5,7,7,8,8,9,9,10,10,12,12],"right_children":[2,4,6,8,10,12,-1,14,16,18,20,-1,22,-1,-1,-1,-1,-1,-1,-1,-1,-1,-1],"split_conditions":[5.414E-1,0E0,2.833E3,8E0,4.64E-2,-6.1814E0,1.6731512E-2,3.4E-2,2.6605E0,9E-3,7.28E-2,-1.2468352E-3,3E0,-4.773736E-2,1.1075759E-2,4.6561446E-2,5.788011E-4,-3.4969603E-3,-3.6750697E-2,2.4585254E-2,-2.8978324E-2,-1.6359327E-2,-5.8242973E-2],"split_indices":[8,2,1,0,7,6,0,7,6,8,7,0,4,0,0,0,0,0,0,0,0,0,0],"split_type":[0,0,0,0,0,0,0,0,0,0,0,0,0,0,0,0,0,0,0,0,0,0,0],"sum_hessian":[5.929883E1,4.8267307E1,1.1031522E1,2.4768957E1,2.3498352E1,9.537241E0,1.4942803E0,2.812873E0,2.1956083E1,1.1456106E1,1.2042246E1,2.0424747E0,7.4947667E0,1.7532803E0,1.0595927E0,1.4094999E1,7.8610845E0,3.018031E0,8.438075E0,7.991318E0,4.050927E0,2.7926736E0,4.7020926E0],"tree_param":{"num_deleted":"0","num_feature":"9","num_nodes":"23","size_leaf_vector":"1"}},{"base_weights":[-1.5339689E-2,2.2891033E-1,-3.2937762E-1,-1.9792931E-1,7.94052E-1,-4.694283E-1,4.0345022E-1,6.760244E-1,-4.152953E-1,1.2085211E0,2.5814E-1,-8.633714E-2,-6.713193E-1,9.393086E-1,-3.8011666E-2,-1.7802531E-3,4.688459E-2,-2.8600171E-2,4.020056E-2,7.358873E-2,-2.9160727E-3,4.7110274E-2,-7.1802037E-3,-2.1369837E-2,2.3647323E-2,-1.0425837E-2,-5.4536935E-2,5.6141233E-3,6.24344E-2],"categories":[],"categories_nodes":[],"categories_segments":[],"categories_sizes":[],"default_left":[0,0,0,0,0,0,0,0,0,0,0,0,0,0,0,0,0,0,0,0,0,0,0,0,0,0,0,0,0],"id":11,"left_children":[1,3,5,7,9,11,13,15,17,19,21,23,25,27,-1,-1,-1,-1,-1,-1,-1,-1,-1,-1,-1,-1,-1,-1,-1],"loss_changes":[4.691085E0,8.464661E0,2.9334593E0,4.1600056E0,3.023859E0,1.7138891E0,3.724446E0,8.616235E-1,3.702966E0,2.8195477E0,2.2847152E0,1.9291868E0,2.6560497E0,8.200047E-1,0E0,0E0,0E0,0E0,0E0,0E0,0E0,0E0,0E0,0E0,0E0,0E0,0E0,0E0,0E0],"parents":[2147483647,0,0,1,1,2,2,3,3,4,4,5,5,6,6,7,7,8,8,9,9,10,10,11,11,12,12,13,13],"right_children":[2,4,6,8,10,12,14,16,18,20,22,24,26,28,-1,-1,-1,-1,-1,-1,-1,-1,-1,-1,-1,-1,-1,-1,-1],"split_conditions":[3.299E-1,2.1E-1,1.9E1,2.77E2,0E0,3E0,3.4641E0,1E1,9.1694E0,2.252E3,3E0,1.906E3,5.728E-1,5.69E-2,-3.8011666E-2,-1.7802531E-3,4.688459E-2,-2.8600171E-2,4.020056E-2,7.358873E-2,-2.9160727E-3,4.7110274E-2,-7.1802037E-3,-2.1369837E-2,2.3647323E-2,-1.0425837E-2,-5.4536935E-2,5.6141233E-3,6.24344E-2],"split_indices":[8,8,0,1,2,3,6,0,6,1,3,1,6,7,0,0,0,0,0,0,0,0,0,0,0,0,0,0,0],"split_type":[0,0,0,0,0,0,0,0,0,0,0,0,0,0,0,0,0,0,0,0,0,0,0,0,0,0,0,0,0],"sum_hessian":[5.9175488E1,3.3438793E1,2.5736694E1,1.9420595E1,1.4018198E1,2.190908E1,3.8276136E0,3.4478607E0,1.5972734E1,7.197019E0,6.8211794E0,8.054049E0,1.3855032E1,2.752804E0,1.0748096E0,1.1592095E0,2.2886512E0,1.462409E1,1.3486441E0,5.824836E0,1.3721833E0,2.026052E0,4.795127E0,5.1495743E0,2.9044743E0,7.2986226E0,6.55641E0,1.1204827E0,1.6323212E0],"tree_param":{"num_deleted":"0","num_feature":"9","num_nodes":"29","size_leaf_vector":"1"}},{"base_weights":[-1.258763E-2,1.1956162E-1,-5.6077313E-1,4.3118092E-1,-2.1727917E-1,-7.220966E-1,1.6537216E-2,-5.475585E-1,5.72527E-1,-5.5163914E-1,1.1375673E-1,-8.850267E-4,-8.9280933E-1,-4.6208605E-2,1.0549492E-2,3.8433675E-2,-1.2714947E-2,-3.1787648E-3,-3.515096E-2,2.3627046E-2,-2.7930453E-2,-1.5272523E-2,-5.6511074E-2],"categories":[],"categories_nodes":[],"categories_segments":[],"categories_sizes":[],"default_left":[0,0,0,0,0,0,0,0,0,0,0,0,0,0,0,0,0,0,0,0,0,0,0],"id":12,"left_children":[1,3,5,7,9,11,-1,13,15,17,19,-1,21,-1,-1,-1,-1,-1,-1,-1,-1,-1,-1],"loss_changes":[4.4109383E0,5.2517557E0,1.939265E0,3.8911114E0,2.7501278E0,1.2258501E0,0E0,1.2733139E0,3.9395843E0,8.603773E-1,3.4071054E0,0E0,8.109412E-1,0E0,0E0,0E0,0E0,0E0,0E0,0E0,0E0,0E0,0E0],"parents":[2147483647,0,0,1,1,2,2,3,3,4,4,5,5,7,7,8,8,9,9,10,10,12,12],"right_children":[2,4,6,8,10,12,-1,14,16,18,20,-1,22,-1,-1,-1,-1,-1,-1,-1,-1,-1,-1],"split_conditions":[5.414E-1,0E0,2.833E3,8E0,4.64E-2,-6.1814E0,1.6537216E-2,3.4E-2,2.252E3,9E-3,7.28E-2,-8.850267E-4,3E0,-4.6208605E-2,1.0549492E-2,3.8433675E-2,-1.2714947E-2,-3.1787648E-3,-3.515096E-2,2.3627046E-2,-2.7930453E-2,-1.5272523E-2,-5.6511074E-2],"split_indices":[8,2,1,0,7,6,0,7,1,8,7,0,4,0,0,0,0,0,0,0,0,0,0],"split_type":[0,0,0,0,0,0,0,0,0,0,0,0,0,0,0,0,0,0,0,0,0,0,0],"sum_hessian":[5.8963467E1,4.8140335E1,1.0823134E1,2.4860878E1,2.3279455E1,9.325657E0,1.497477E0,2.7745879E0,2.208629E1,1.1250043E1,1.2029411E1,2.034515E0,7.2911425E0,1.7081573E0,1.0664306E0,1.7908274E1,4.178016E0,2.9994624E0,8.250581E0,8.037618E0,3.9917936E0,2.7569695E0,4.534173E0],"tree_param":{"num_deleted":"0","num_feature":"9","num_nodes":"23","size_leaf_vector":"1"}},{"base_weights":[-1.3979742E-2,2.1786E-1,-3.1423387E-1,-1.8607269E-1,7.435215E-1,-4.500884E-1,3.882112E-1,6.396355E-1,-3.9462247E-1,9.297677E-1,-1.4723377E-1,-8.28471E-2,-6.46223E-1,8.97708E-1,-3.6940373E-2,-2.1375131E-3,4.4566896E-2,-2.7367253E-2,3.8291972E-2,6.85262E-2,-5.3336737E-3,-4.0803414E-2,3.5239268E-2,2.0171588E-2,-2.339266E-2,-9.814719E-3,-5.307572E-2,5.9954025E-2,5.131036E-3],"categories":[],"categories_nodes":[],"categories_segments":[],"categories_sizes":[],"default_left":[0,0,0,0,0,0,0,0,0,0,0,0,0,0,0,0,0,0,0,0,0,0,0,0,0,0,0,0,0],"id":13,"left_children":[1,3,5,7,9,11,13,15,17,19,21,23,25,27,-1,-1,-1,-1,-1,-1,-1,-1,-1,-1,-1,-1,-1,-1,-1],"loss_changes":[4.2331967E0,7.432217E0,2.7014956E0,3.735114E0,2.6464062E0,1.5778947E0,3.4354486E0,8.040904E-1,3.3904016E0,5.923814E0,2.5577831E0,1.8797905E0,2.5229073E0,7.818053E-1,0E0,0E0,0E0,0E0,0E0,0E0,0E0,0E0,0E0,0E0,0E0,0E0,0E0,0E0,0E0],"parents":[2147483647,0,0,1,1,2,2,3,3,4,4,5,5,6,6,7,7,8,8,9,9,10,10,11,11,12,12,13,13],"right_children":[2,4,6,8,10,12,14,16,18,20,22,24,26,28,-1,-1,-1,-1,-1,-1,-1,-1,-1,-1,-1,-1,-1,-1,-1],"split_conditions":[3.299E-1,2.1E-1,1.9E1,2.77E2,2.132E3,3E0,3.4641E0,1E1,9.1694E0,2.252E3,1.566E3,1.1E1,5.728E-1,5.327E-1,-3.6940373E-2,-2.1375131E-3,4.4566896E-2,-2.7367253E-2,3.8291972E-2,6.85262E-2,-5.3336737E-3,-4.0803414E-2,3.5239268E-2,2.0171588E-2,-2.339266E-2,-9.814719E-3,-5.307572E-2,5.9954025E-2,5.131036E-3],"split_indices":[8,8,0,1,5,3,6,0,6,1,1,0,6,8,0,0,0,0,0,0,0,0,0,0,0,0,0,0,0],"split_type":[0,0,0,0,0,0,0,0,0,0,0,0,0,0,0,0,0,0,0,0,0,0,0,0,0,0,0,0,0],"sum_hessian":[5.8828865E1,3.3351265E1,2.54776E1,1.9224586E1,1.41266775E1,2.1649744E1,3.827857E0,3.4596763E0,1.5764911E1,1.1647523E1,2.4791546E0,8.032373E0,1.3617371E1,2.7762506E0,1.0516065E0,1.155952E0,2.3037243E0,1.4398355E1,1.3665563E0,7.9460545E0,3.701469E0,1.4125212E0,1.0666333E0,3.5282223E0,4.5041504E0,7.2429695E0,6.374401E0,1.644719E0,1.1315315E0],"tree_param":{"num_deleted":"0","num_feature":"9","num_nodes":"29","size_leaf_vector":"1"}},{"base_weights":[-1.2314812E-2,2.1025929E-1,-3.0235037E-1,-1.7526062E-1,7.064401E-1,-4.344416E-1,3.7420708E-1,6.1486065E-1,-3.773347E-1,8.8208735E-1,-1.4214885E-1,-4.7950815E-2,-6.0836035E-1,8.656445E-1,-3.6271844E-2,4.3168984E-2,-2.225342E-3,-2.6342189E-2,3.6971673E-2,6.479878E-2,-5.1314533E-3,-4.0040612E-2,3.4089886E-2,-2.1161465E-2,3.7904378E-2,2.4149043E-3,-3.9249238E-2,4.5772605E-3,5.79798E-2],"categories":[],"categories_nodes":[],"categories_segments":[],"categories_sizes":[],"default_left":[0,0,0,0,0,0,0,0,0,0,0,0,0,0,0,0,0,0,0,0,0,0,0,0,0,0,0,0,0],"id":14,"left_children":[1,3,5,7,9,11,13,15,17,19,21,23,25,27,-1,-1,-1,-1,-1,-1,-1,-1,-1,-1,-1,-1,-1,-1,-1],"loss_changes":[3.91079E0,6.6868224E0,2.511758E0,3.4426932E0,2.3910632E0,1.4802561E0,3.2387562E0,7.718549E-1,3.1667821E0,5.322318E0,2.42807E0,2.7572474E0,1.824173E0,7.573638E-1,0E0,0E0,0E0,0E0,0E0,0E0,0E0,0E0,0E0,0E0,0E0,0E0,0E0,0E0,0E0],"parents":[2147483647,0,0,1,1,2,2,3,3,4,4,5,5,6,6,7,7,8,8,9,9,10,10,11,11,12,12,13,13],"right_children":[2,4,6,8,10,12,14,16,18,20,22,24,26,28,-1,-1,-1,-1,-1,-1,-1,-1,-1,-1,-1,-1,-1,-1,-1],"split_conditions":[3.299E-1,2.1E-1,1.9E1,2.77E2,2.132E3,3E0,3.4641E0,3.37E-2,9.1694E0,2.252E3,1.566E3,1.946E3,-4.7425E0,5.69E-2,-3.6271844E-2,4.3168984E-2,-2.225342E-3,-2.6342189E-2,3.6971673E-2,6.479878E-2,-5.1314533E-3,-4.0040612E-2,3.4089886E-2,-2.1161465E-2,3.7904378E-2,2.4149043E-3,-3.9249238E-2,4.5772605E-3,5.79798E-2],"split_indices":[8,8,0,1,5,4,6,8,6,1,1,1,6,7,0,0,0,0,0,0,0,0,0,0,0,0,0,0,0],"split_type":[0,0,0,0,0,0,0,0,0,0,0,0,0,0,0,0,0,0,0,0,0,0,0,0,0,0,0,0,0],"sum_hessian":[5.8596527E1,3.3309658E1,2.528687E1,1.9109129E1,1.4200529E1,2.1455713E1,3.831154E0,3.475801E0,1.5633328E1,1.173256E1,2.4679682E0,7.05452E0,1.4401194E1,2.7948947E0,1.0362595E0,2.2996464E0,1.1761546E0,1.4253378E1,1.3799503E0,8.038001E0,3.694559E0,1.3871539E0,1.0808142E0,5.1375065E0,1.9170136E0,3.2065094E0,1.1194685E1,1.1301522E0,1.6647425E0],"tree_param":{"num_deleted":"0","num_feature":"9","num_nodes":"29","size_leaf_vector":"1"}},{"base_weights":[-1.0059339E-2,1.10541955E-1,-5.1993626E-1,3.9308882E-1,-1.9900686E-1,-6.811099E-1,1.6899627E-2,-5.185783E-1,5.2248454E-1,-3.222452E-1,5.9245586E-1,-6.3828664E-4,-8.483262E-1,-4.4336706E-2,1.0152503E-2,4.0043596E-2,-2.9382345E-3,-2.12757E-2,2.531977E-2,5.077489E-2,-1.2056813E-2,-1.4242134E-2,-5.4223236E-2],"categories":[],"categories_nodes":[],"categories_segments":[],"categories_sizes":[],"default_left":[0,0,0,0,0,0,0,0,0,0,0,0,0,0,0,0,0,0,0,0,0,0,0],"id":15,"left_children":[1,3,5,7,9,11,-1,13,15,17,19,-1,21,-1,-1,-1,-1,-1,-1,-1,-1,-1,-1],"loss_changes":[3.7056675E0,4.3467393E0,1.8236873E0,3.320487E0,2.5272715E0,1.110445E0,0E0,1.1670082E0,3.7907677E0,2.0444767E0,1.5071713E0,0E0,7.568979E-1,0E0,0E0,0E0,0E0,0E0,0E0,0E0,0E0,0E0,0E0],"parents":[2147483647,0,0,1,1,2,2,3,3,4,4,5,5,7,7,8,8,9,9,10,10,12,12],"right_children":[2,4,6,8,10,12,-1,14,16,18,20,-1,22,-1,-1,-1,-1,-1,-1,-1,-1,-1,-1],"split_conditions":[5.414E-1,0E0,2.833E3,8E0,1.9E1,-6.1814E0,1.6899627E-2,3.4E-2,2.8007E0,1.8228E4,1E0,-6.3828664E-4,3E0,-4.4336706E-2,1.0152503E-2,4.0043596E-2,-2.9382345E-3,-2.12757E-2,2.531977E-2,5.077489E-2,-1.2056813E-2,-1.4242134E-2,-5.4223236E-2],"split_indices":[8,2,1,0,0,6,0,7,6,5,2,0,4,0,0,0,0,0,0,0,0,0,0],"split_type":[0,0,0,0,0,0,0,0,0,0,0,0,0,0,0,0,0,0,0,0,0,0,0],"sum_hessian":[5.83281E1,4.780417E1,1.05239315E1,2.4851025E1,2.2953144E1,9.03305E0,1.4908822E0,2.71495E0,2.2136074E1,2.0373625E1,2.5795205E0,2.0231395E0,7.0099096E0,1.6462703E0,1.0686798E0,1.4711976E1,7.4240975E0,1.854852E1,1.8251047E0,1.5663768E0,1.0131437E0,2.721649E0,4.2882605E0],"tree_param":{"num_deleted":"0","num_feature":"9","num_nodes":"23","size_leaf_vector":"1"}},{"base_weights":[-9.840469E-3,2.0004602E-1,-2.8554425E-1,-1.6664319E-1,6.6668296E-1,-4.1112474E-1,3.4784418E-1,-5.068169E-2,1.9643081E-2,8.2880384E-1,-1.2945367E-1,-6.295115E-2,-6.014885E-1,8.186265E-1,-3.567088E-2,4.2803198E-2,-1.5810821E-2,6.0952455E-2,-5.242211E-3,-3.8944032E-2,3.30684E-2,2.032898E-2,-2.2132559E-2,-8.273001E-3,-5.0847884E-2,5.488781E-2,4.2992714E-3],"categories":[],"categories_nodes":[],"categories_segments":[],"categories_sizes":[],"default_left":[0,0,0,0,0,0,0,0,0,0,0,0,0,0,0,0,0,0,0,0,0,0,0,0,0,0,0],"id":16,"left_children":[1,3,5,7,9,11,13,-1,15,17,19,21,23,25,-1,-1,-1,-1,-1,-1,-1,-1,-1,-1,-1,-1,-1],"loss_changes":[3.4787292E0,5.956228E0,2.2086465E0,3.1642885E0,2.0732121E0,1.4289546E0,3.0015192E0,0E0,5.135298E0,4.787719E0,2.2827692E0,1.7737577E0,2.4025302E0,6.8628144E-1,0E0,0E0,0E0,0E0,0E0,0E0,0E0,0E0,0E0,0E0,0E0,0E0,0E0],"parents":[2147483647,0,0,1,1,2,2,3,3,4,4,5,5,6,6,8,8,9,9,10,10,11,11,12,12,13,13],"right_children":[2,4,6,8,10,12,14,-1,16,18,20,22,24,26,-1,-1,-1,-1,-1,-1,-1,-1,-1,-1,-1,-1,-1],"split_conditions":[3.299E-1,2.1E-1,1.9E1,8E0,2.132E3,3E0,3.4641E0,-5.068169E-2,-8E0,2.252E3,1.566E3,1.1E1,5.728E-1,5.327E-1,-3.567088E-2,4.2803198E-2,-1.5810821E-2,6.0952455E-2,-5.242211E-3,-3.8944032E-2,3.30684E-2,2.032898E-2,-2.2132559E-2,-8.273001E-3,-5.0847884E-2,5.488781E-2,4.2992714E-3],"split_indices":[8,8,0,0,5,3,6,0,2,1,1,0,6,8,0,0,0,0,0,0,0,0,0,0,0,0,0],"split_type":[0,0,0,0,0,0,0,0,0,0,0,0,0,0,0,0,0,0,0,0,0,0,0,0,0,0,0],"sum_hessian":[5.8129333E1,3.315992E1,2.4969412E1,1.8928528E1,1.4231391E1,2.1130774E1,3.8386388E0,2.6118627E0,1.6316666E1,1.1789592E1,2.4417994E0,7.939743E0,1.31910305E1,2.8174357E0,1.0212032E0,4.2309866E0,1.2085679E1,8.098786E0,3.6908057E0,1.349051E0,1.0927484E0,3.5182912E0,4.421452E0,7.118511E0,6.072519E0,1.6792878E0,1.1381478E0],"tree_param":{"num_deleted":"0","num_feature":"9","num_nodes":"27","size_leaf_vector":"1"}},{"base_weights":[-9.753097E-3,1.0333388E-1,-4.9402437E-1,3.6218053E-1,-1.8313885E-1,-6.5379554E-1,1.6669713E-2,4.4261478E-2,7.5441206E-1,-3.0265927E-1,5.71149E-1,-4.7984658E-4,-8.1883615E-1,-2.676693E-2,1.2798979E-2,4.8781347E-2,1.6082779E-2,-2.0185525E-2,2.4533233E-2,4.1542845E-3,3.9516907E-2,-1.3533728E-2,-5.274881E-2],"categories":[],"categories_nodes":[],"categories_segments":[],"categories_sizes":[],"default_left":[0,0,0,0,0,0,0,0,0,0,0,0,0,0,0,0,0,0,0,0,0,0,0],"id":17,"left_children":[1,3,5,7,9,11,-1,13,15,17,19,-1,21,-1,-1,-1,-1,-1,-1,-1,-1,-1,-1],"loss_changes":[3.2750304E0,3.666575E0,1.714144E0,3.1890032E0,2.3104124E0,1.0365887E0,0E0,2.0188475E0,7.877178E-1,1.8912642E0,3.1833088E-1,0E0,7.2518015E-1,0E0,0E0,0E0,0E0,0E0,0E0,0E0,0E0,0E0,0E0],"parents":[2147483647,0,0,1,1,2,2,3,3,4,4,5,5,7,7,8,8,9,9,10,10,12,12],"right_children":[2,4,6,8,10,12,-1,14,16,18,20,-1,22,-1,-1,-1,-1,-1,-1,-1,-1,-1,-1],"split_conditions":[5.414E-1,0E0,2.833E3,-6.975E3,1.9E1,-6.1814E0,1.6669713E-2,9E0,-1.558E3,1.8228E4,5.69E-2,-4.7984658E-4,3E0,-2.676693E-2,1.2798979E-2,4.8781347E-2,1.6082779E-2,-2.0185525E-2,2.4533233E-2,4.1542845E-3,3.9516907E-2,-1.3533728E-2,-5.274881E-2],"split_indices":[8,2,1,5,0,6,0,0,5,5,7,0,4,0,0,0,0,0,0,0,0,0,0],"split_type":[0,0,0,0,0,0,0,0,0,0,0,0,0,0,0,0,0,0,0,0,0,0,0],"sum_hessian":[5.7869606E1,4.7551907E1,1.0317697E1,2.484162E1,2.2710289E1,8.823711E0,1.4939858E0,1.4335212E1,1.0506408E1,2.0120802E1,2.5894864E0,2.01536E0,6.808351E0,3.4264388E0,1.0908773E1,6.122357E0,4.3840513E0,1.8283073E1,1.8377277E0,1.2299175E0,1.359569E0,2.6960788E0,4.1122723E0],"tree_param":{"num_deleted":"0","num_feature":"9","num_nodes":"23","size_leaf_vector":"1"}},{"base_weights":[-8.583847E-3,1.894248E-1,-2.707081E-1,-1.625001E-1,6.336569E-1,-3.90094E-1,3.235101E-1,3.6831546E-1,-4.415649E-1,7.8473496E-1,-1.18836135E-1,-5.556136E-2,-5.75745E-1,7.7961475E-1,-3.5282582E-2,5.787464E-2,-6.1879246E-3,8.9984415E-3,-4.8549585E-2,5.7524312E-2,-4.94943E-3,-3.7953883E-2,3.2076284E-2,-1.9496633E-2,2.3846686E-2,-7.5114197E-3,-4.9517512E-2,3.8857346E-3,5.2312177E-2],"categories":[],"categories_nodes":[],"categories_segments":[],"categories_sizes":[],"default_left":[0,0,0,0,0,0,0,0,0,0,0,0,0,0,0,0,0,0,0,0,0,0,0,0,0,0,0,0,0],"id":18,"left_children":[1,3,5,7,9,11,13,15,17,19,21,23,25,27,-1,-1,-1,-1,-1,-1,-1,-1,-1,-1,-1,-1,-1,-1,-1],"loss_changes":[3.0971484E0,5.42136E0,1.9469161E0,3.0923052E0,1.8259826E0,1.3234625E0,2.8222587E0,3.0014002E0,4.5898314E0,4.259089E0,2.1503525E0,1.7699037E0,2.3085527E0,6.352947E-1,0E0,0E0,0E0,0E0,0E0,0E0,0E0,0E0,0E0,0E0,0E0,0E0,0E0,0E0,0E0],"parents":[2147483647,0,0,1,1,2,2,3,3,4,4,5,5,6,6,7,7,8,8,9,9,10,10,11,11,12,12,13,13],"right_children":[2,4,6,8,10,12,14,16,18,20,22,24,26,28,-1,-1,-1,-1,-1,-1,-1,-1,-1,-1,-1,-1,-1,-1,-1],"split_conditions":[3.299E-1,2.1E-1,1.9E1,9E-3,2.132E3,3E0,3.4641E0,-9E0,1.259E-1,2.252E3,1.566E3,1.906E3,5.728E-1,5.69E-2,-3.5282582E-2,5.787464E-2,-6.1879246E-3,8.9984415E-3,-4.8549585E-2,5.7524312E-2,-4.94943E-3,-3.7953883E-2,3.2076284E-2,-1.9496633E-2,2.3846686E-2,-7.5114197E-3,-4.9517512E-2,3.8857346E-3,5.2312177E-2],"split_indices":[8,8,0,8,5,3,6,2,6,1,1,1,6,7,0,0,0,0,0,0,0,0,0,0,0,0,0,0,0],"split_type":[0,0,0,0,0,0,0,0,0,0,0,0,0,0,0,0,0,0,0,0,0,0,0,0,0,0,0,0,0],"sum_hessian":[5.7684025E1,3.3018898E1,2.4665125E1,1.8777437E1,1.4241463E1,2.08247E1,3.8404257E0,6.360039E0,1.24173975E1,1.1824593E1,2.41687E0,7.8959403E0,1.292876E1,2.8290994E0,1.0113263E0,1.923269E0,4.43677E0,6.015464E0,6.401934E0,8.149751E0,3.6748414E0,1.3129913E0,1.1038789E0,5.014743E0,2.8811975E0,7.052745E0,5.8760147E0,1.1343626E0,1.6947368E0],"tree_param":{"num_deleted":"0","num_feature":"9","num_nodes":"29","size_leaf_vector":"1"}},{"base_weights":[-7.905095E-3,9.8392166E-2,-4.6878532E-1,6.175219E-1,-3.2834027E-2,-6.268506E-1,1.6388597E-2,1.2936028E-4,7.876953E-1,-3.4776E-1,1.7925918E-1,-9.295803E-2,-8.404716E-1,5.3061295E-2,4.0575974E-3,-2.4667738E-2,3.4953937E-2,3.2620236E-2,-9.341015E-3,2.6132429E-2,-2.6978908E-2,-1.7192848E-2,-5.1363792E-2],"categories":[],"categories_nodes":[],"categories_segments":[],"categories_sizes":[],"default_left":[0,0,0,0,0,0,0,0,0,0,0,0,0,0,0,0,0,0,0,0,0,0,0],"id":19,"left_children":[1,3,5,7,9,11,-1,-1,13,15,17,19,21,-1,-1,-1,-1,-1,-1,-1,-1,-1,-1],"loss_changes":[2.9069147E0,3.309102E0,1.6052525E0,1.0226221E0,2.699737E0,1.019047E0,0E0,0E0,1.395431E0,2.818693E0,4.3230634E0,1.3470087E0,2.7263832E-1,0E0,0E0,0E0,0E0,0E0,0E0,0E0,0E0,0E0,0E0],"parents":[2147483647,0,0,1,1,2,2,3,3,4,4,5,5,8,8,9,9,10,10,11,11,12,12],"right_children":[2,4,6,8,10,12,-1,-1,14,16,18,20,22,-1,-1,-1,-1,-1,-1,-1,-1,-1,-1],"split_conditions":[5.414E-1,2.77E2,2.833E3,1E1,2.1E-1,-6E0,1.6388597E-2,1.2936028E-4,3.077E-1,9.1694E0,2.992E-1,-6.1814E0,1.1E1,5.3061295E-2,4.0575974E-3,-2.4667738E-2,3.4953937E-2,3.2620236E-2,-9.341015E-3,2.6132429E-2,-2.6978908E-2,-1.7192848E-2,-5.1363792E-2],"split_indices":[8,1,1,0,8,2,0,0,8,6,8,6,0,0,0,0,0,0,0,0,0,0,0],"split_type":[0,0,0,0,0,0,0,0,0,0,0,0,0,0,0,0,0,0,0,0,0,0,0],"sum_hessian":[5.7395023E1,4.7277473E1,1.0117548E1,8.79172E0,3.8485752E1,8.62007E0,1.4974781E0,2.125666E0,6.6660542E0,1.5230756E1,2.3254997E1,2.8735363E0,5.746534E0,4.4437194E0,2.2223349E0,1.3835261E1,1.3954949E0,9.802916E0,1.3452082E1,1.1366224E0,1.736914E0,2.3472245E0,3.3993092E0],"tree_param":{"num_deleted":"0","num_feature":"9","num_nodes":"23","size_leaf_vector":"1"}},{"base_weights":[-6.9959965E-3,9.545533E-2,-4.5505977E-1,3.3132517E-1,-1.6799164E-1,-6.1086255E-1,1.5837833E-2,3.3162963E-2,6.982272E-1,-2.858313E-1,5.639954E-1,-8.893076E-2,-8.223986E-1,8.336345E-3,-4.049172E-2,4.5576002E-2,1.4217639E-2,-1.9260038E-2,2.3950301E-2,4.891595E-3,3.807429E-2,2.535445E-2,-2.6322544E-2,-1.669333E-2,-5.0436337E-2],"categories":[],"categories_nodes":[],"categories_segments":[],"categories_sizes":[],"default_left":[0,0,0,0,0,0,0,0,0,0,0,0,0,0,0,0,0,0,0,0,0,0,0,0,0],"id":20,"left_children":[1,3,5,7,9,11,-1,13,15,17,19,21,23,-1,-1,-1,-1,-1,-1,-1,-1,-1,-1,-1,-1],"loss_changes":[2.7147675E0,3.0501332E0,1.5166361E0,2.7951217E0,2.182012E0,9.7535014E-1,0E0,1.8534614E0,7.559695E-1,1.7685959E0,2.555381E-1,1.2735575E0,2.6731634E-1,0E0,0E0,0E0,0E0,0E0,0E0,0E0,0E0,0E0,0E0,0E0,0E0],"parents":[2147483647,0,0,1,1,2,2,3,3,4,4,5,5,7,7,8,8,9,9,10,10,11,11,12,12],"right_children":[2,4,6,8,10,12,-1,14,16,18,20,22,24,-1,-1,-1,-1,-1,-1,-1,-1,-1,-1,-1,-1],"split_conditions":[5.414E-1,0E0,2.833E3,-6.975E3,1.9E1,-6E0,1.5837833E-2,-8.218E3,-1.558E3,1.8228E4,5.69E-2,-6.1814E0,1.1E1,8.336345E-3,-4.049172E-2,4.5576002E-2,1.4217639E-2,-1.9260038E-2,2.3950301E-2,4.891595E-3,3.807429E-2,2.535445E-2,-2.6322544E-2,-1.669333E-2,-5.0436337E-2],"split_indices":[8,2,1,5,0,2,0,5,5,5,7,6,0,0,0,0,0,0,0,0,0,0,0,0,0],"split_type":[0,0,0,0,0,0,0,0,0,0,0,0,0,0,0,0,0,0,0,0,0,0,0,0,0],"sum_hessian":[5.7192913E1,4.718977E1,1.0003144E1,2.4762081E1,2.2427687E1,8.49653E0,1.506614E0,1.4262267E1,1.0499815E1,1.9842789E1,2.584898E0,2.8600972E0,5.6364326E0,1.3004124E1,1.2581433E0,6.1354604E0,4.3643546E0,1.8000486E1,1.8423023E0,1.2142091E0,1.3706889E0,1.1434306E0,1.7166665E0,2.3270311E0,3.3094015E0],"tree_param":{"num_deleted":"0","num_feature":"9","num_nodes":"25","size_leaf_vector":"1"}},{"base_weights":[-6.37524E-3,1.727221E-1,-2.4631833E-1,-1.5074177E-1,5.7443494E-1,-3.6122856E-1,3.1609222E-1,-4.8940185E-2,2.8521832E-2,7.168758E-1,-1.2912546E-1,-2.9088927E-3,-5.305003E-1,4.3163452E-2,-1.6480269E-2,3.93805E-2,-1.4189745E-2,5.3004097E-2,-5.421242E-3,-3.748795E-2,3.0084161E-2,-1.8404877E-2,3.703158E-2,3.915732E-3,-3.5177115E-2],"categories":[],"categories_nodes":[],"categories_segments":[],"categories_sizes":[],"default_left":[0,0,0,0,0,0,0,0,0,0,0,0,0,0,0,0,0,0,0,0,0,0,0,0,0],"id":21,"left_children":[1,3,5,7,9,11,13,-1,15,17,19,21,23,-1,-1,-1,-1,-1,-1,-1,-1,-1,-1,-1,-1],"loss_changes":[2.5352287E0,4.478795E0,1.7430139E0,2.9250095E0,1.6243792E0,1.2961042E0,1.983691E0,0E0,4.257421E0,3.7587075E0,2.0027263E0,2.4095006E0,1.5852904E0,0E0,0E0,0E0,0E0,0E0,0E0,0E0,0E0,0E0,0E0,0E0,0E0],"parents":[2147483647,0,0,1,1,2,2,3,3,4,4,5,5,6,6,8,8,9,9,10,10,11,11,12,12],"right_children":[2,4,6,8,10,12,14,-1,16,18,20,22,24,-1,-1,-1,-1,-1,-1,-1,-1,-1,-1,-1,-1],"split_conditions":[3.299E-1,2.1E-1,1.9E1,8E0,2.132E3,3E0,9.752E-1,-4.8940185E-2,-8E0,2.252E3,1.566E3,1.946E3,-4.7425E0,4.3163452E-2,-1.6480269E-2,3.93805E-2,-1.4189745E-2,5.3004097E-2,-5.421242E-3,-3.748795E-2,3.0084161E-2,-1.8404877E-2,3.703158E-2,3.915732E-3,-3.5177115E-2],"split_indices":[8,8,0,0,5,4,6,0,2,1,1,1,6,0,0,0,0,0,0,0,0,0,0,0,0],"split_type":[0,0,0,0,0,0,0,0,0,0,0,0,0,0,0,0,0,0,0,0,0,0,0,0,0],"sum_hessian":[5.7005585E1,3.2801888E1,2.4203697E1,1.8516743E1,1.4285146E1,2.0394468E1,3.8092299E0,2.501513E0,1.6015228E1,1.1864223E1,2.4209232E0,6.869686E0,1.3524781E1,1.8795265E0,1.9297034E0,4.224856E0,1.1790374E1,8.178617E0,3.685606E0,1.2951212E0,1.1258022E0,4.9456015E0,1.9240844E0,3.1144865E0,1.04102955E1],"tree_param":{"num_deleted":"0","num_feature":"9","num_nodes":"25","size_leaf_vector":"1"}},{"base_weights":[-5.6896033E-3,9.068889E-2,-4.32066E-1,5.419501E-1,-4.0469117E-2,2.7372047E-2,-7.231132E-1,7.852489E-1,-1.7989993E-2,-1.2047162E-1,6.317034E-1,6.0584676E-1,-5.596686E-1,-5.338389E-3,-4.45503E-2,2.7127115E-3,4.6029177E-2,7.2585666E-3,-2.6358798E-2,5.2639265E-2,-1.4975704E-2,8.785821E-3,3.6989294E-2,-8.461383E-3,-3.3650342E-2],"categories":[],"categories_nodes":[],"categories_segments":[],"categories_sizes":[],"default_left":[0,0,0,0,0,0,0,0,0,0,0,0,0,0,0,0,0,0,0,0,0,0,0,0,0],"id":22,"left_children":[1,3,5,7,9,11,13,15,-1,17,19,21,23,-1,-1,-1,-1,-1,-1,-1,-1,-1,-1,-1,-1],"loss_changes":[2.4105203E0,2.8565729E0,1.465622E0,2.664026E0,2.1216419E0,2.0902443E0,5.936074E-1,8.2682467E-1,0E0,3.8397708E0,1.9645753E0,4.7307014E-2,2.2370636E-2,0E0,0E0,0E0,0E0,0E0,0E0,0E0,0E0,0E0,0E0,0E0,0E0],"parents":[2147483647,0,0,1,1,2,2,3,3,4,4,5,5,6,6,7,7,9,9,10,10,11,11,12,12],"right_children":[2,4,6,8,10,12,14,16,-1,18,20,22,24,-1,-1,-1,-1,-1,-1,-1,-1,-1,-1,-1,-1],"split_conditions":[5.414E-1,3.95E2,1.1E1,5.48E2,8.0781E0,3E0,-6.1814E0,1E1,-1.7989993E-2,2.4251E0,1.7E1,2.1234E0,1.39E3,-5.338389E-3,-4.45503E-2,2.7127115E-3,4.6029177E-2,7.2585666E-3,-2.6358798E-2,5.2639265E-2,-1.4975704E-2,8.785821E-3,3.6989294E-2,-8.461383E-3,-3.3650342E-2],"split_indices":[8,1,0,5,6,3,6,0,0,6,0,6,1,0,0,0,0,0,0,0,0,0,0,0,0],"split_type":[0,0,0,0,0,0,0,0,0,0,0,0,0,0,0,0,0,0,0,0,0,0,0,0,0],"sum_hessian":[5.6705864E1,4.6893353E1,9.812511E0,9.854837E0,3.7038517E1,4.1567492E0,5.655762E0,7.8626347E0,1.9922026E0,3.3832516E1,3.2059999E0,2.0775142E0,2.079235E0,1.5610337E0,4.0947285E0,1.4471118E0,6.415523E0,2.0854347E1,1.29781685E1,2.1178117E0,1.0881882E0,1.0422759E0,1.0352384E0,1.0286705E0,1.0505645E0],"tree_param":{"num_deleted":"0","num_feature":"9","num_nodes":"25","size_leaf_vector":"1"}},{"base_weights":[-5.4673534E-3,8.728568E-2,-4.188597E-1,5.1768184E-1,-3.811524E-2,-5.7511944E-1,1.6260954E-2,7.504702E-1,-1.7464757E-2,-1.2124788E-1,6.0029995E-1,-6.225627E-2,-7.891089E-1,2.6323383E-3,4.3968156E-2,-1.0943331E-4,-5.095408E-2,-2.3846213E-2,6.710264E-2,2.434891E-2,-2.4226835E-2,-1.569182E-2,-4.874055E-2],"categories":[],"categories_nodes":[],"categories_segments":[],"categories_sizes":[],"default_left":[0,0,0,0,0,0,0,0,0,0,0,0,0,0,0,0,0,0,0,0,0,0,0],"id":23,"left_children":[1,3,5,7,9,11,-1,13,-1,15,17,19,21,-1,-1,-1,-1,-1,-1,-1,-1,-1,-1],"loss_changes":[2.2419138E0,2.5997806E0,1.4325712E0,2.4527445E0,2.0868711E0,9.621341E-1,0E0,7.518954E-1,0E0,3.6759236E0,4.2679405E0,1.1169341E0,2.6033998E-1,0E0,0E0,0E0,0E0,0E0,0E0,0E0,0E0,0E0,0E0],"parents":[2147483647,0,0,1,1,2,2,3,3,4,4,5,5,7,7,9,9,10,10,11,11,12,12],"right_children":[2,4,6,8,10,12,-1,14,-1,16,18,20,22,-1,-1,-1,-1,-1,-1,-1,-1,-1,-1],"split_conditions":[5.414E-1,3.95E2,2.833E3,5.48E2,4.596E-1,-6E0,1.6260954E-2,1E1,-1.7464757E-2,9.21E-2,1.2E1,-6.1814E0,1.1E1,2.6323383E-3,4.3968156E-2,-1.0943331E-4,-5.095408E-2,-2.3846213E-2,6.710264E-2,2.434891E-2,-2.4226835E-2,-1.569182E-2,-4.874055E-2],"split_indices":[8,1,1,5,8,2,0,0,0,7,0,6,0,0,0,0,0,0,0,0,0,0,0],"split_type":[0,0,0,0,0,0,0,0,0,0,0,0,0,0,0,0,0,0,0,0,0,0,0],"sum_hessian":[5.6515858E1,4.680341E1,9.712448E0,9.854155E0,3.6949257E1,8.21445E0,1.4979978E0,7.8742533E0,1.9799007E0,3.340892E1,3.540336E0,2.7984376E0,5.416013E0,1.4472619E0,6.4269915E0,3.038243E1,3.026491E0,1.5892904E0,1.9510455E0,1.1497793E0,1.6486583E0,2.2774003E0,3.1386125E0],"tree_param":{"num_deleted":"0","num_feature":"9","num_nodes":"23","size_leaf_vector":"1"}},{"base_weights":[-5.78438E-3,1.0079313E-1,-3.4982187E-1,6.047913E-1,-2.5706727E-2,-6.3222647E-1,5.221082E-2,9.9436283E-1,-3.0527613E-1,1.6354175E-1,-2.5193417E-1,1.7278524E-1,-5.237742E-2,-3.12138E-1,4.9547052E-1,1.2215952E-2,5.5916395E-2,-4.5192007E-2,2.0186095E-2,-1.0828237E-2,3.3441897E-2,-1.9794678E-2,4.6040908E-2,-2.8078934E-2,4.745015E-2,-4.364458E-2,3.128455E-2,3.8952526E-2,2.1887354E-3],"categories":[],"categories_nodes":[],"categories_segments":[],"categories_sizes":[],"default_left":[0,0,0,0,0,0,0,0,0,0,0,0,0,0,0,0,0,0,0,0,0,0,0,0,0,0,0,0,0],"id":24,"left_children":[1,3,5,7,9,11,13,15,17,19,21,23,-1,25,27,-1,-1,-1,-1,-1,-1,-1,-1,-1,-1,-1,-1,-1,-1],"loss_changes":[2.1380115E0,2.856531E0,1.5983657E0,3.4876995E0,1.607279E0,2.9141698E0,1.2225794E0,3.3335924E-1,1.832086E0,4.086794E0,3.243992E0,2.6081748E0,0E0,2.777409E0,3.9752716E-1,0E0,0E0,0E0,0E0,0E0,0E0,0E0,0E0,0E0,0E0,0E0,0E0,0E0,0E0],"parents":[2147483647,0,0,1,1,2,2,3,3,4,4,5,5,6,6,7,7,8,8,9,9,10,10,11,11,13,13,14,14],"right_children":[2,4,6,8,10,12,14,16,18,20,22,24,-1,26,28,-1,-1,-1,-1,-1,-1,-1,-1,-1,-1,-1,-1,-1,-1],"split_conditions":[4E0,3.95E2,1.391E3,6.28E-2,2.982E-1,1.48E2,1.4E1,1E1,9.21E-2,2.1E-1,2E1,7.5E1,-5.237742E-2,2.8007E0,1.6E1,1.2215952E-2,5.5916395E-2,-4.5192007E-2,2.0186095E-2,-1.0828237E-2,3.3441897E-2,-1.9794678E-2,4.6040908E-2,-2.8078934E-2,4.745015E-2,-4.364458E-2,3.128455E-2,3.8952526E-2,2.1887354E-3],"split_indices":[2,1,1,7,8,1,0,0,7,8,0,1,0,6,0,0,0,0,0,0,0,0,0,0,0,0,0,0,0],"split_type":[0,0,0,0,0,0,0,0,0,0,0,0,0,0,0,0,0,0,0,0,0,0,0,0,0,0,0,0,0],"sum_hessian":[5.6347794E1,4.3560463E1,1.2787331E1,7.981152E0,3.557931E1,7.1748447E0,5.6124864E0,5.523912E0,2.4572399E0,1.952388E1,1.605543E1,2.640595E0,4.53425E0,3.2427974E0,2.369689E0,1.2048578E0,4.319054E0,1.1833749E0,1.273865E0,1.1468311E1,8.055569E0,1.4890048E1,1.165381E0,1.4989694E0,1.1416256E0,2.0727096E0,1.1700876E0,1.0105376E0,1.3591515E0],"tree_param":{"num_deleted":"0","num_feature":"9","num_nodes":"29","size_leaf_vector":"1"}},{"base_weights":[-4.1238195E-3,9.805093E-2,-3.36778E-1,5.807919E-1,-2.3223132E-2,-6.1542904E-1,5.3835303E-2,9.576896E-1,-2.977512E-1,1.5635246E-1,-2.3951899E-1,1.6946582E-1,-5.151518E-2,3.3272542E-2,-1.9781055E-1,1.1881665E-2,5.3825933E-2,-4.4208415E-2,1.956028E-2,-1.0365437E-2,3.177635E-2,-1.902144E-2,4.4608943E-2,-2.7370198E-2,4.5974888E-2,-4.3665174E-2,2.19341E-2],"categories":[],"categories_nodes":[],"categories_segments":[],"categories_sizes":[],"default_left":[0,0,0,0,0,0,0,0,0,0,0,0,0,0,0,0,0,0,0,0,0,0,0,0,0,0,0],"id":25,"left_children":[1,3,5,7,9,11,13,15,17,19,21,23,-1,-1,25,-1,-1,-1,-1,-1,-1,-1,-1,-1,-1,-1,-1],"loss_changes":[1.9725803E0,2.614608E0,1.5171593E0,3.2517107E0,1.4540387E0,2.7920594E0,1.1468694E0,3.009181E-1,1.7407438E0,3.7096105E0,3.040627E0,2.4595473E0,0E0,0E0,2.72385E0,0E0,0E0,0E0,0E0,0E0,0E0,0E0,0E0,0E0,0E0,0E0,0E0],"parents":[2147483647,0,0,1,1,2,2,3,3,4,4,5,5,6,6,7,7,8,8,9,9,10,10,11,11,14,14],"right_children":[2,4,6,8,10,12,14,16,18,20,22,24,-1,-1,26,-1,-1,-1,-1,-1,-1,-1,-1,-1,-1,-1,-1],"split_conditions":[4E0,3.95E2,1.391E3,6.28E-2,2.982E-1,1.48E2,1.474E3,1E1,9.21E-2,2.1E-1,2E1,7.5E1,-5.151518E-2,3.3272542E-2,1.8228E4,1.1881665E-2,5.3825933E-2,-4.4208415E-2,1.956028E-2,-1.0365437E-2,3.177635E-2,-1.902144E-2,4.4608943E-2,-2.7370198E-2,4.5974888E-2,-4.3665174E-2,2.19341E-2],"split_indices":[2,1,1,7,8,1,1,0,7,8,0,1,0,0,5,0,0,0,0,0,0,0,0,0,0,0,0],"split_type":[0,0,0,0,0,0,0,0,0,0,0,0,0,0,0,0,0,0,0,0,0,0,0,0,0,0,0],"sum_hessian":[5.606455E1,4.3430206E1,1.2634343E1,7.9591393E0,3.5471066E1,7.0380664E0,5.5962768E0,5.506672E0,2.4524674E0,1.9532068E1,1.5938998E1,2.638276E0,4.3997903E0,1.1519974E0,4.444279E0,1.2049501E0,4.3017216E0,1.1717604E0,1.2807069E0,1.142706E1,8.105007E0,1.4764487E1,1.1745112E0,1.487093E0,1.1511831E0,1.9755856E0,2.4686937E0],"tree_param":{"num_deleted":"0","num_feature":"9","num_nodes":"27","size_leaf_vector":"1"}},{"base_weights":[-2.8913426E-3,8.171717E-2,-3.8680837E-1,2.5946465E-1,-1.9671082E-1,5.882277E-2,-6.7965144E-1,4.0058976E-1,-5.200026E-1,-4.0516657E-1,4.8438597E-1,6.08172E-1,-2.6225606E-2,-3.5724908E-3,-8.4362376E-1,-2.1367118E-2,2.557689E-2,4.6715033E-3,-3.7565734E-2,-4.1563395E-2,3.499303E-5,4.572003E-2,-2.0188913E-2,8.910395E-3,3.697411E-2,-4.8717644E-2,-8.88279E-3],"categories":[],"categories_nodes":[],"categories_segments":[],"categories_sizes":[],"default_left":[0,0,0,0,0,0,0,0,0,0,0,0,0,0,0,0,0,0,0,0,0,0,0,0,0,0,0],"id":26,"left_children":[1,3,5,7,9,11,13,15,17,19,21,23,-1,-1,25,-1,-1,-1,-1,-1,-1,-1,-1,-1,-1,-1,-1],"loss_changes":[1.8762327E0,2.3948069E0,1.4010218E0,3.4354076E0,2.896958E0,1.9392627E0,5.7531977E-1,2.5521698E0,7.700746E-1,2.613514E0,2.2456133E0,4.1377306E-2,0E0,0E0,2.5588536E-1,0E0,0E0,0E0,0E0,0E0,0E0,0E0,0E0,0E0,0E0,0E0,0E0],"parents":[2147483647,0,0,1,1,2,2,3,3,4,4,5,5,6,6,7,7,8,8,9,9,10,10,11,11,14,14],"right_children":[2,4,6,8,10,12,14,16,18,20,22,24,-1,-1,26,-1,-1,-1,-1,-1,-1,-1,-1,-1,-1,-1,-1],"split_conditions":[5.414E-1,2.6605E0,1.1E1,2.909E3,8.0781E0,3E0,5.44E-2,8E0,-3.853E0,4.26E-2,1.7E1,2.1234E0,-2.6225606E-2,-3.5724908E-3,2.46E3,-2.1367118E-2,2.557689E-2,4.6715033E-3,-3.7565734E-2,-4.1563395E-2,3.499303E-5,4.572003E-2,-2.0188913E-2,8.910395E-3,3.697411E-2,-4.8717644E-2,-8.88279E-3],"split_indices":[8,6,0,1,6,3,7,0,6,7,0,6,0,0,5,0,0,0,0,0,0,0,0,0,0,0,0],"split_type":[0,0,0,0,0,0,0,0,0,0,0,0,0,0,0,0,0,0,0,0,0,0,0,0,0,0,0],"sum_hessian":[5.578797E1,4.6358524E1,9.429448E0,2.8336626E1,1.8021896E1,4.056159E0,5.373289E0,2.4404232E1,3.9323945E0,1.4108875E1,3.9130208E0,2.0670035E0,1.9891557E0,1.4459083E0,3.9273808E0,2.546872E0,2.185736E1,1.2400106E0,2.6923838E0,6.3715425E0,7.737333E0,2.616617E0,1.2964041E0,1.0350316E0,1.0319718E0,2.8958623E0,1.0315185E0],"tree_param":{"num_deleted":"0","num_feature":"9","num_nodes":"27","size_leaf_vector":"1"}},{"base_weights":[-4.415185E-3,9.3803555E-2,-3.2584885E-1,5.4882115E-1,-2.0665238E-2,-5.9859574E-1,4.975905E-2,9.150731E-1,-2.987338E-1,1.4646709E-1,-2.2356465E-1,1.6429444E-1,-5.061039E-2,3.9908815E-2,-2.2730927E-1,1.5664985E-2,5.3683143E-2,-4.365516E-2,1.8820018E-2,2.3936221E-2,-1.6099501E-2,-1.812566E-2,4.3615248E-2,-2.6617557E-2,4.4339687E-2,-4.4185277E-2,2.1208562E-2],"categories":[],"categories_nodes":[],"categories_segments":[],"categories_sizes":[],"default_left":[0,0,0,0,0,0,0,0,0,0,0,0,0,0,0,0,0,0,0,0,0,0,0,0,0,0,0],"id":27,"left_children":[1,3,5,7,9,11,13,15,17,19,21,23,-1,-1,25,-1,-1,-1,-1,-1,-1,-1,-1,-1,-1,-1,-1],"loss_changes":[1.8183246E0,2.310909E0,1.4104431E0,3.0393784E0,1.2616615E0,2.6541076E0,1.5485071E0,2.8090048E-1,1.6635776E0,3.3410943E0,2.8688815E0,2.300243E0,0E0,0E0,2.7651997E0,0E0,0E0,0E0,0E0,0E0,0E0,0E0,0E0,0E0,0E0,0E0,0E0],"parents":[2147483647,0,0,1,1,2,2,3,3,4,4,5,5,6,6,7,7,8,8,9,9,10,10,11,11,14,14],"right_children":[2,4,6,8,10,12,14,16,18,20,22,24,-1,-1,26,-1,-1,-1,-1,-1,-1,-1,-1,-1,-1,-1,-1],"split_conditions":[4E0,3.95E2,1.391E3,6.28E-2,2.982E-1,1.48E2,1.462E3,-4.7425E0,9.21E-2,2.157E3,2E1,7.5E1,-5.061039E-2,3.9908815E-2,1.8228E4,1.5664985E-2,5.3683143E-2,-4.365516E-2,1.8820018E-2,2.3936221E-2,-1.6099501E-2,-1.812566E-2,4.3615248E-2,-2.6617557E-2,4.4339687E-2,-4.4185277E-2,2.1208562E-2],"split_indices":[2,1,1,7,8,1,1,6,7,1,0,1,0,0,5,0,0,0,0,0,0,0,0,0,0,0,0],"split_type":[0,0,0,0,0,0,0,0,0,0,0,0,0,0,0,0,0,0,0,0,0,0,0,0,0,0,0],"sum_hessian":[5.5626953E1,4.3150013E1,1.2476944E1,7.910597E0,3.5239414E1,6.884272E0,5.592672E0,5.4680424E0,2.4425545E0,1.9475327E1,1.5764089E1,2.632154E0,4.252118E0,1.0028851E0,4.5897865E0,1.7610863E0,3.7069561E0,1.1613276E0,1.2812269E0,1.1381195E1,8.0941305E0,1.4584125E1,1.1799638E0,1.4740409E0,1.1581131E0,2.1087089E0,2.4810777E0],"tree_param":{"num_deleted":"0","num_feature":"9","num_nodes":"27","size_leaf_vector":"1"}},{"base_weights":[-3.2444494E-3,9.1123745E-2,-3.1451225E-1,5.2827555E-1,-1.8829487E-2,-5.8322865E-1,4.9662475E-2,8.8351685E-1,-2.916783E-1,1.3947636E-1,-2.1232396E-1,1.6110569E-1,-4.9817353E-2,3.856945E-2,-2.2139427E-1,1.0454043E-2,4.9876887E-2,-4.2738505E-2,1.8243194E-2,-1.0403468E-2,2.9791385E-2,-1.7410917E-2,4.229673E-2,-2.5953053E-2,4.3012828E-2,-4.340474E-2,2.0318622E-2],"categories":[],"categories_nodes":[],"categories_segments":[],"categories_sizes":[],"default_left":[0,0,0,0,0,0,0,0,0,0,0,0,0,0,0,0,0,0,0,0,0,0,0,0,0,0,0],"id":28,"left_children":[1,3,5,7,9,11,13,15,17,19,21,23,-1,-1,25,-1,-1,-1,-1,-1,-1,-1,-1,-1,-1,-1,-1],"loss_changes":[1.6836222E0,2.125315E0,1.3336374E0,2.844023E0,1.1363325E0,2.5436084E0,1.4584365E0,2.869234E-1,1.5820704E0,3.3714712E0,2.6896992E0,2.171268E0,0E0,0E0,2.6108263E0,0E0,0E0,0E0,0E0,0E0,0E0,0E0,0E0,0E0,0E0,0E0,0E0],"parents":[2147483647,0,0,1,1,2,2,3,3,4,4,5,5,6,6,7,7,8,8,9,9,10,10,11,11,14,14],"right_children":[2,4,6,8,10,12,14,16,18,20,22,24,-1,-1,26,-1,-1,-1,-1,-1,-1,-1,-1,-1,-1,-1,-1],"split_conditions":[4E0,3.95E2,1.391E3,6.28E-2,2.982E-1,1.48E2,1.462E3,1E1,9.21E-2,2.1E-1,2E1,7.5E1,-4.9817353E-2,3.856945E-2,1.8228E4,1.0454043E-2,4.9876887E-2,-4.2738505E-2,1.8243194E-2,-1.0403468E-2,2.9791385E-2,-1.7410917E-2,4.229673E-2,-2.5953053E-2,4.3012828E-2,-4.340474E-2,2.0318622E-2],"split_indices":[2,1,1,7,8,1,1,0,7,8,0,1,0,0,5,0,0,0,0,0,0,0,0,0,0,0,0],"split_type":[0,0,0,0,0,0,0,0,0,0,0,0,0,0,0,0,0,0,0,0,0,0,0,0,0,0,0],"sum_hessian":[5.5341488E1,4.3009415E1,1.2332071E1,7.8791122E0,3.5130302E1,6.7499366E0,5.582135E0,5.443305E0,2.4358075E0,1.9475643E1,1.5654659E1,2.62692E0,4.123017E0,1.0201049E0,4.5620303E0,1.196961E0,4.246344E0,1.1486909E0,1.2871165E0,1.1364662E1,8.110982E0,1.446776E1,1.1868999E0,1.462102E0,1.1648178E0,2.0585566E0,2.5034738E0],"tree_param":{"num_deleted":"0","num_feature":"9","num_nodes":"27","size_leaf_vector":"1"}},{"base_weights":[-2.0936457E-3,1.2904912E-1,-2.233959E-1,-5.392893E-1,2.3790944E-1,-5.0957316E-1,1.4806375E-1,-4.7254797E-2,3.5559502E-3,6.1487967E-1,-3.2675713E-2,2.8141493E-1,-7.5315344E-1,5.1824797E-2,-1.6920428E-1,4.2501394E-2,-2.2363763E-2,-3.1048482E-2,7.675033E-3,-2.4503227E-2,4.3220297E-2,7.2576813E-3,-4.4075377E-2,-1.9109977E-2,3.305558E-2],"categories":[],"categories_nodes":[],"categories_segments":[],"categories_sizes":[],"default_left":[0,0,0,0,0,0,0,0,0,0,0,0,0,0,0,0,0,0,0,0,0,0,0,0,0],"id":29,"left_children":[1,3,5,7,9,11,13,-1,-1,15,17,19,21,-1,23,-1,-1,-1,-1,-1,-1,-1,-1,-1,-1],"loss_changes":[1.6555475E0,2.7350237E0,2.3314557E0,1.3861393E0,3.2335777E0,2.564896E0,2.9969022E0,0E0,0E0,3.6807237E0,2.2080162E0,2.0442495E0,1.2358956E0,0E0,1.7091719E0,0E0,0E0,0E0,0E0,0E0,0E0,0E0,0E0,0E0,0E0],"parents":[2147483647,0,0,1,1,2,2,3,3,4,4,5,5,6,6,9,9,10,10,11,11,12,12,14,14],"right_children":[2,4,6,8,10,12,14,-1,-1,16,18,20,22,-1,24,-1,-1,-1,-1,-1,-1,-1,-1,-1,-1],"split_conditions":[2.6605E0,8E0,1.946E3,-1.8603E0,-4E0,1.32E2,2.132E3,-4.7254797E-2,3.5559502E-3,2.157E3,-4.0071E0,1.1E1,1.13E-2,5.1824797E-2,3.267E3,4.2501394E-2,-2.2363763E-2,-3.1048482E-2,7.675033E-3,-2.4503227E-2,4.3220297E-2,7.2576813E-3,-4.4075377E-2,-1.9109977E-2,3.305558E-2],"split_indices":[6,0,1,6,2,1,1,0,0,1,6,0,7,0,1,0,0,0,0,0,0,0,0,0,0],"split_type":[0,0,0,0,0,0,0,0,0,0,0,0,0,0,0,0,0,0,0,0,0,0,0,0,0],"sum_hessian":[5.505085E1,3.48285E1,2.0222353E1,4.324521E0,3.0503977E1,1.1212379E1,9.009974E0,2.2682564E0,2.0562649E0,1.2214598E1,1.828938E1,2.603288E0,8.609092E0,1.7743622E0,7.235612E0,1.01641035E1,2.050495E0,3.8352108E0,1.4454167E1,1.1891142E0,1.4141738E0,1.0599532E0,7.549138E0,6.1879525E0,1.0476592E0],"tree_param":{"num_deleted":"0","num_feature":"9","num_nodes":"25","size_leaf_vector":"1"}},{"base_weights":[-2.1094996E-3,7.521566E-2,-3.57585E-1,1.5897048E-1,-3.9830515E-1,8.524622E-2,-6.558632E-1,3.6513865E-1,-1.723847E-1,-4.7000214E-2,7.604273E-2,6.052676E-1,-2.4561103E-2,-3.2400757E-3,-4.1324917E-2,1.5048244E-3,3.183404E-2,-1.9922508E-2,2.9683387E-2,-3.5923734E-2,2.5853077E-2,8.835897E-3,3.674387E-2],"categories":[],"categories_nodes":[],"categories_segments":[],"categories_sizes":[],"default_left":[0,0,0,0,0,0,0,0,0,0,0,0,0,0,0,0,0,0,0,0,0,0,0],"id":30,"left_children":[1,3,5,7,9,11,13,15,17,-1,19,21,-1,-1,-1,-1,-1,-1,-1,-1,-1,-1,-1],"loss_changes":[1.5601135E0,1.9130394E0,1.3951987E0,2.8191051E0,1.9459394E0,1.7859633E0,5.690851E-1,2.2726908E0,3.0340097E0,0E0,2.0584483E0,4.0029287E-2,0E0,0E0,0E0,0E0,0E0,0E0,0E0,0E0,0E0,0E0,0E0],"parents":[2147483647,0,0,1,1,2,2,3,3,4,4,5,5,6,6,7,7,8,8,10,10,11,11],"right_children":[2,4,6,8,10,12,14,16,18,-1,20,22,-1,-1,-1,-1,-1,-1,-1,-1,-1,-1,-1],"split_conditions":[5.414E-1,2.973E3,1.1E1,2.6605E0,3.201E3,3E0,-6.1814E0,-1.405E0,9.1694E0,-4.7000214E-2,3.3E-2,2.1234E0,-2.4561103E-2,-3.2400757E-3,-4.1324917E-2,1.5048244E-3,3.183404E-2,-1.9922508E-2,2.9683387E-2,-3.5923734E-2,2.5853077E-2,8.835897E-3,3.674387E-2],"split_indices":[8,1,0,6,1,3,6,6,6,0,7,6,0,0,0,0,0,0,0,0,0,0,0],"split_type":[0,0,0,0,0,0,0,0,0,0,0,0,0,0,0,0,0,0,0,0,0,0,0],"sum_hessian":[5.477932E1,4.563987E1,9.139449E0,3.9344948E1,6.294925E0,3.9658523E0,5.173597E0,2.4191261E1,1.5153685E1,2.480523E0,3.814402E0,2.0587416E0,1.9071107E0,1.4680825E0,3.7055144E0,1.132668E1,1.2864582E1,1.2071266E1,3.0824184E0,1.1369696E0,2.6774325E0,1.0268764E0,1.0318651E0],"tree_param":{"num_deleted":"0","num_feature":"9","num_nodes":"23","size_leaf_vector":"1"}},{"base_weights":[-2.806748E-3,2.2191551E-1,-1.2048037E-1,4.018543E-1,-3.4842685E-1,-4.1430406E-2,-6.0411595E-2,8.4228784E-1,-4.088047E-2,2.4377918E-2,-3.9290342E-2,2.7924272E-1,-2.0022492E-1,5.509298E-2,2.3441163E-3,2.8162334E-2,-1.4299477E-2,5.934566E-2,-2.77963E-4,-1.8529758E-2,1.6300803E-2],"categories":[],"categories_nodes":[],"categories_segments":[],"categories_sizes":[],"default_left":[0,0,0,0,0,0,0,0,0,0,0,0,0,0,0,0,0,0,0,0,0],"id":31,"left_children":[1,3,5,7,9,-1,11,13,15,-1,-1,17,19,-1,-1,-1,-1,-1,-1,-1,-1],"loss_changes":[1.4979306E0,2.138385E0,1.5306947E0,3.0113492E0,2.2865167E0,0E0,1.7339126E0,1.5380135E0,1.4296775E0,0E0,0E0,2.778138E0,2.417242E0,0E0,0E0,0E0,0E0,0E0,0E0,0E0,0E0],"parents":[2147483647,0,0,1,1,2,2,3,3,4,4,6,6,7,7,8,8,11,11,12,12],"right_children":[2,4,6,8,10,-1,12,14,16,-1,-1,18,20,-1,-1,-1,-1,-1,-1,-1,-1],"split_conditions":[3E0,3.4641E0,7E0,5.73E-2,1.32E2,-4.1430406E-2,1.1E1,5.32E2,-8.694E3,2.4377918E-2,-3.9290342E-2,-3.2278E0,2.74E3,5.509298E-2,2.3441163E-3,2.8162334E-2,-1.4299477E-2,5.934566E-2,-2.77963E-4,-1.8529758E-2,1.6300803E-2],"split_indices":[4,6,0,7,1,0,0,5,5,0,0,6,1,0,0,0,0,0,0,0,0],"split_type":[0,0,0,0,0,0,0,0,0,0,0,0,0,0,0,0,0,0,0,0,0],"sum_hessian":[5.4634575E1,1.8472202E1,3.6162373E1,1.4266609E1,4.2055936E0,1.8272538E0,3.4335117E1,6.699483E0,7.5671263E0,1.405146E0,2.8004477E0,9.72136E0,2.4613758E1,4.760626E0,1.938857E0,1.8094305E0,5.757696E0,1.5652786E0,8.156081E0,1.8817402E1,5.7963543E0],"tree_param":{"num_deleted":"0","num_feature":"9","num_nodes":"21","size_leaf_vector":"1"}},{"base_weights":[-1.4564078E-3,7.18617E-2,-3.421543E-1,1.5432169E-1,-3.953746E-1,-5.0573605E-1,1.83041E-2,3.4481835E-1,-1.556477E-1,-6.3599974E-1,2.389328E-2,-4.287806E-2,-7.100144E-1,-2.0506939E-2,2.2301996E-2,-1.8844543E-2,2.9045526E-2,-4.8151508E-2,-3.6639434E-3,2.3593614E-2,-2.2937264E-2,-1.2949066E-2,-4.487783E-2],"categories":[],"categories_nodes":[],"categories_segments":[],"categories_sizes":[],"default_left":[0,0,0,0,0,0,0,0,0,0,0,0,0,0,0,0,0,0,0,0,0,0,0],"id":32,"left_children":[1,3,5,7,9,11,-1,13,15,17,-1,19,21,-1,-1,-1,-1,-1,-1,-1,-1,-1,-1],"loss_changes":[1.4099035E0,1.8511853E0,1.3430744E0,2.4281733E0,1.8274809E0,7.7696157E-1,0E0,2.1099987E0,2.8255606E0,1.0544648E0,0E0,1.0040283E0,2.632568E-1,0E0,0E0,0E0,0E0,0E0,0E0,0E0,0E0,0E0,0E0],"parents":[2147483647,0,0,1,1,2,2,3,3,4,4,5,5,7,7,8,8,9,9,11,11,12,12],"right_children":[2,4,6,8,10,12,-1,14,16,18,-1,20,22,-1,-1,-1,-1,-1,-1,-1,-1,-1,-1],"split_conditions":[5.414E-1,2.973E3,2.833E3,2.6605E0,1.9E1,-6E0,1.83041E-2,8E0,9.1694E0,3.239E3,2.389328E-2,-6.1814E0,1.1E1,-2.0506939E-2,2.2301996E-2,-1.8844543E-2,2.9045526E-2,-4.8151508E-2,-3.6639434E-3,2.3593614E-2,-2.2937264E-2,-1.2949066E-2,-4.487783E-2],"split_indices":[8,1,1,6,0,2,0,0,6,1,0,6,0,0,0,0,0,0,0,0,0,0,0],"split_type":[0,0,0,0,0,0,0,0,0,0,0,0,0,0,0,0,0,0,0,0,0,0,0],"sum_hessian":[5.44585E1,4.546378E1,8.99472E0,3.9213005E1,6.2507753E0,7.539288E0,1.4554323E0,2.421739E1,1.4995615E1,5.1134267E0,1.1373484E0,2.679017E0,4.860271E0,2.502287E0,2.1715103E1,1.1907282E1,3.0883331E0,2.784062E0,2.3293648E0,1.1369982E0,1.542019E0,2.1266553E0,2.7336156E0],"tree_param":{"num_deleted":"0","num_feature":"9","num_nodes":"23","size_leaf_vector":"1"}},{"base_weights":[-2.4896355E-3,2.148574E-1,-1.1636173E-1,3.8456234E-1,-3.2980278E-1,-1.700036E-1,2.778928E-2,8.027477E-1,-3.8318384E-2,2.3919493E-2,-3.817088E-2,6.330763E-2,-4.5099872E-1,5.2442808E-2,2.3238456E-3,2.6987394E-2,-1.3731681E-2,-1.3840427E-2,2.5180003E-2,-2.9168779E-2,1.1697176E-2],"categories":[],"categories_nodes":[],"categories_segments":[],"categories_sizes":[],"default_left":[0,0,0,0,0,0,0,0,0,0,0,0,0,0,0,0,0,0,0,0,0],"id":33,"left_children":[1,3,5,7,9,11,-1,13,15,-1,-1,17,19,-1,-1,-1,-1,-1,-1,-1,-1],"loss_changes":[1.3930192E0,1.9157805E0,1.4256321E0,2.7219818E0,2.1651468E0,2.320292E0,0E0,1.3838773E0,1.312259E0,0E0,0E0,3.130787E0,1.5854785E0,0E0,0E0,0E0,0E0,0E0,0E0,0E0,0E0],"parents":[2147483647,0,0,1,1,2,2,3,3,4,4,5,5,7,7,8,8,11,11,12,12],"right_children":[2,4,6,8,10,12,-1,14,16,-1,-1,18,20,-1,-1,-1,-1,-1,-1,-1,-1],"split_conditions":[3E0,3.4641E0,2E1,5.73E-2,1.32E2,2.982E-1,2.778928E-2,5.32E2,-8.694E3,2.3919493E-2,-3.817088E-2,2.1E-1,1.6E-1,5.2442808E-2,2.3238456E-3,2.6987394E-2,-1.3731681E-2,-1.3840427E-2,2.5180003E-2,-2.9168779E-2,1.1697176E-2],"split_indices":[4,6,0,7,1,8,0,5,5,0,0,8,7,0,0,0,0,0,0,0,0],"split_type":[0,0,0,0,0,0,0,0,0,0,0,0,0,0,0,0,0,0,0,0,0],"sum_hessian":[5.427399E1,1.8354338E1,3.5919655E1,1.42181835E1,4.136153E0,3.3956753E1,1.9629022E0,6.6971297E0,7.5210543E0,1.4082072E0,2.727946E0,1.897579E1,1.4980961E1,4.760931E0,1.9361986E0,1.8098484E0,5.711206E0,1.0915283E1,8.060507E0,1.2678843E1,2.3021188E0],"tree_param":{"num_deleted":"0","num_feature":"9","num_nodes":"21","size_leaf_vector":"1"}},{"base_weights":[-1.0929718E-3,8.219388E-2,-2.7976257E-1,4.6434647E-1,-1.39962705E-2,-5.4412174E-1,6.442425E-2,7.994199E-1,-2.9175508E-1,-8.255543E-2,3.5870388E-1,1.6251622E-1,-4.7982406E-2,3.5934407E-2,-1.9430341E-1,7.925481E-3,4.574996E-2,-4.2018004E-2,1.7581765E-2,-7.947109E-3,3.2793503E-2,-2.1920132E-2,3.486495E-2,-2.4604464E-2,4.122635E-2,-4.2473987E-2,2.149091E-2],"categories":[],"categories_nodes":[],"categories_segments":[],"categories_sizes":[],"default_left":[0,0,0,0,0,0,0,0,0,0,0,0,0,0,0,0,0,0,0,0,0,0,0,0,0,0,0],"id":34,"left_children":[1,3,5,7,9,11,13,15,17,19,21,23,-1,-1,25,-1,-1,-1,-1,-1,-1,-1,-1,-1,-1,-1,-1],"loss_changes":[1.3003545E0,1.5924821E0,1.207991E0,2.4387236E0,9.3516946E-1,2.3278732E0,1.238943E0,3.2160568E-1,1.4976411E0,1.83852E0,1.8423312E0,1.963291E0,0E0,0E0,2.5899854E0,0E0,0E0,0E0,0E0,0E0,0E0,0E0,0E0,0E0,0E0,0E0,0E0],"parents":[2147483647,0,0,1,1,2,2,3,3,4,4,5,5,6,6,7,7,8,8,9,9,10,10,11,11,14,14],"right_children":[2,4,6,8,10,12,14,16,18,20,22,24,-1,-1,26,-1,-1,-1,-1,-1,-1,-1,-1,-1,-1,-1,-1],"split_conditions":[4E0,3.95E2,1.391E3,6.28E-2,1.9E1,1.48E2,1.462E3,1E1,9.21E-2,9.1694E0,-1.6086E4,7.5E1,-4.7982406E-2,3.5934407E-2,1.8228E4,7.925481E-3,4.574996E-2,-4.2018004E-2,1.7581765E-2,-7.947109E-3,3.2793503E-2,-2.1920132E-2,3.486495E-2,-2.4604464E-2,4.122635E-2,-4.2473987E-2,2.149091E-2],"split_indices":[2,1,1,7,0,1,1,0,7,6,5,1,0,0,5,0,0,0,0,0,0,0,0,0,0,0,0],"split_type":[0,0,0,0,0,0,0,0,0,0,0,0,0,0,0,0,0,0,0,0,0,0,0,0,0,0,0],"sum_hessian":[5.4036037E1,4.214506E1,1.1890977E1,7.7053194E0,3.4439743E1,6.396858E0,5.4941187E0,5.2995033E0,2.4058158E0,2.9746325E1,4.6934195E0,2.5941594E0,3.8026989E0,1.0531532E0,4.440965E0,1.1719943E0,4.127509E0,1.1333175E0,1.2724983E0,2.7668861E1,2.0774624E0,1.3114021E0,3.3820174E0,1.4334344E0,1.1607251E0,1.9904231E0,2.4505422E0],"tree_param":{"num_deleted":"0","num_feature":"9","num_nodes":"27","size_leaf_vector":"1"}},{"base_weights":[-2.1020763E-4,3.0713469E-2,-3.61183E-2,3.337309E-1,-5.3067148E-2,5.934793E-1,-2.8052717E-1,-6.1341685E-1,-3.439032E-5,-2.39925E-3,4.1910287E-2,2.2170862E-2,-3.5368975E-2,-4.0740124E-3,-4.3148752E-2,-1.5056453E-2,4.639278E-3],"categories":[],"categories_nodes":[],"categories_segments":[],"categories_sizes":[],"default_left":[0,0,0,0,0,0,0,0,0,0,0,0,0,0,0,0,0],"id":35,"left_children":[1,3,-1,5,7,9,11,13,15,-1,-1,-1,-1,-1,-1,-1,-1],"loss_changes":[1.2457657E0,1.3759252E0,0E0,2.0373068E0,1.2711197E0,1.3842604E0,1.6003327E0,4.206245E-1,1.1479897E0,0E0,0E0,0E0,0E0,0E0,0E0,0E0,0E0],"parents":[2147483647,0,0,1,1,3,3,4,4,5,5,6,6,7,7,8,8],"right_children":[2,4,-1,6,8,10,12,14,16,-1,-1,-1,-1,-1,-1,-1,-1],"split_conditions":[1.9E1,3.95E2,-3.61183E-2,6.94E-2,6.51E2,-4.7425E0,4.3E1,4.97E2,1.277E-1,-2.39925E-3,4.1910287E-2,2.2170862E-2,-3.5368975E-2,-4.0740124E-3,-4.3148752E-2,-1.5056453E-2,4.639278E-3],"split_indices":[2,1,0,7,1,6,1,1,8,0,0,0,0,0,0,0,0],"split_type":[0,0,0,0,0,0,0,0,0,0,0,0,0,0,0,0,0],"sum_hessian":[5.379111E1,5.2500443E1,1.2906694E0,1.0725414E1,4.177503E1,7.5616727E0,3.163741E0,2.698253E0,3.9076775E1,2.3102055E0,5.251467E0,1.1590972E0,2.0046437E0,1.2852416E0,1.4130112E0,8.679027E0,3.0397749E1],"tree_param":{"num_deleted":"0","num_feature":"9","num_nodes":"17","size_leaf_vector":"1"}},{"base_weights":[-1.4637943E-3,2.8429067E-2,-3.5937026E-2,-2.4082886E-2,7.568968E-1,8.520964E-2,-3.934419E-1,-1.6226137E-2,7.151277E-2,-2.2517795E-2,8.302308E-3,2.1532228E-2,-2.6210794E-2],"categories":[],"categories_nodes":[],"categories_segments":[],"categories_sizes":[],"default_left":[0,0,0,0,0,0,0,0,0,0,0,0,0],"id":36,"left_children":[1,3,-1,5,7,9,11,-1,-1,-1,-1,-1,-1],"loss_changes":[1.1931971E0,2.0636213E0,0E0,2.0859926E0,3.1045911E0,1.8089479E0,1.4960651E0,0E0,0E0,0E0,0E0,0E0,0E0],"parents":[2147483647,0,0,1,1,3,3,4,4,5,5,6,6],"right_children":[2,4,-1,6,8,10,12,-1,-1,-1,-1,-1,-1],"split_conditions":[1.631E-1,1.6E-1,-3.5937026E-2,6.94E-2,1.2E1,-1.7816E4,4.3E1,-1.6226137E-2,7.151277E-2,-2.2517795E-2,8.302308E-3,2.1532228E-2,-2.6210794E-2],"split_indices":[7,7,0,7,0,5,1,0,0,0,0,0,0],"split_type":[0,0,0,0,0,0,0,0,0,0,0,0,0],"sum_hessian":[5.3696102E1,5.2469765E1,1.2263379E0,4.9843697E1,2.6260672E0,3.905632E1,1.0787377E1,1.2064891E0,1.419578E0,4.522465E0,3.4533855E1,1.1633508E0,9.624026E0],"tree_param":{"num_deleted":"0","num_feature":"9","num_nodes":"13","size_leaf_vector":"1"}},{"base_weights":[-1.4378398E-3,7.851445E-2,-2.7121165E-1,2.0793314E-1,-1.8996821E-1,-5.351175E-1,6.580218E-2,4.4941443E-1,-1.3864419E-1,-5.0027758E-2,2.9185556E-2,1.43719E-1,-4.7115892E-2,3.45903E-2,-1.8588842E-1,3.961166E-3,4.7759723E-2,-1.4335185E-2,2.7063612E-2,-3.6872905E-2,1.6279643E-2,-2.4152143E-2,3.8899083E-2,-4.1652925E-2,2.0777052E-2],"categories":[],"categories_nodes":[],"categories_segments":[],"categories_sizes":[],"default_left":[0,0,0,0,0,0,0,0,0,0,0,0,0,0,0,0,0,0,0,0,0,0,0,0,0],"id":37,"left_children":[1,3,5,7,9,11,13,15,17,-1,19,21,-1,-1,23,-1,-1,-1,-1,-1,-1,-1,-1,-1,-1],"loss_changes":[1.1997434E0,1.5308652E0,1.1660914E0,2.5260558E0,2.601971E0,2.136869E0,1.1487294E0,3.2169456E0,1.449053E0,0E0,3.0515456E0,1.7999296E0,0E0,0E0,2.4503784E0,0E0,0E0,0E0,0E0,0E0,0E0,0E0,0E0,0E0,0E0],"parents":[2147483647,0,0,1,1,2,2,3,3,4,4,5,5,6,6,7,7,8,8,10,10,11,11,14,14],"right_children":[2,4,6,8,10,12,14,16,18,-1,20,22,-1,-1,24,-1,-1,-1,-1,-1,-1,-1,-1,-1,-1],"split_conditions":[4E0,2.252E3,1.391E3,3.077E-1,2.562E3,1.48E2,1.462E3,2.1E-1,1.6E-1,-5.0027758E-2,3.3E-2,7.5E1,-4.7115892E-2,3.45903E-2,1.8228E4,3.961166E-3,4.7759723E-2,-1.4335185E-2,2.7063612E-2,-3.6872905E-2,1.6279643E-2,-2.4152143E-2,3.8899083E-2,-4.1652925E-2,2.0777052E-2],"split_indices":[2,1,1,8,1,1,1,8,7,0,7,1,0,0,5,0,0,0,0,0,0,0,0,0,0],"split_type":[0,0,0,0,0,0,0,0,0,0,0,0,0,0,0,0,0,0,0,0,0,0,0,0,0],"sum_hessian":[5.363617E1,4.1921074E1,1.1715096E1,2.8438282E1,1.3482792E1,6.2405114E0,5.474585E0,1.6585466E1,1.1852815E1,2.1106315E0,1.137216E1,2.5824351E0,3.658076E0,1.0684656E0,4.4061193E0,1.0244174E1,6.341293E0,1.0208191E1,1.6446244E0,2.7559733E0,8.616187E0,1.4188162E0,1.163619E0,1.9368427E0,2.4692767E0],"tree_param":{"num_deleted":"0","num_feature":"9","num_nodes":"25","size_leaf_vector":"1"}},{"base_weights":[-1.9509665E-3,1.9916415E-1,-1.0745275E-1,3.6528778E-1,-3.3622015E-1,-3.926962E-2,-5.184454E-2,7.4802506E-1,-2.5937853E-2,2.1309756E-2,-3.722818E-2,2.7609697E-1,-1.885549E-1,3.616118E-3,5.0348807E-2,-1.0799533E-2,3.4188043E-2,5.7755828E-2,-2.2135284E-4,-1.756009E-2,1.5093694E-2],"categories":[],"categories_nodes":[],"categories_segments":[],"categories_sizes":[],"default_left":[0,0,0,0,0,0,0,0,0,0,0,0,0,0,0,0,0,0,0,0,0],"id":38,"left_children":[1,3,5,7,9,-1,11,13,15,-1,-1,17,19,-1,-1,-1,-1,-1,-1,-1,-1],"loss_changes":[1.1758873E0,1.8191044E0,1.329205E0,2.2707014E0,1.88555E0,0E0,1.6057202E0,1.2628355E0,1.2808914E0,0E0,0E0,2.6193833E0,2.1043787E0,0E0,0E0,0E0,0E0,0E0,0E0,0E0,0E0],"parents":[2147483647,0,0,1,1,2,2,3,3,4,4,6,6,7,7,8,8,11,11,12,12],"right_children":[2,4,6,8,10,-1,12,14,16,-1,-1,18,20,-1,-1,-1,-1,-1,-1,-1,-1],"split_conditions":[3E0,3.4641E0,7E0,5.73E-2,1.32E2,-3.926962E-2,1.1E1,1.1E1,1E1,2.1309756E-2,-3.722818E-2,-3.2278E0,2.74E3,3.616118E-3,5.0348807E-2,-1.0799533E-2,3.4188043E-2,5.7755828E-2,-2.2135284E-4,-1.756009E-2,1.5093694E-2],"split_indices":[4,6,0,7,1,0,0,0,2,0,0,6,1,0,0,0,0,0,0,0,0],"split_type":[0,0,0,0,0,0,0,0,0,0,0,0,0,0,0,0,0,0,0,0,0],"sum_hessian":[5.341071E1,1.8072268E1,3.533844E1,1.4035058E1,4.0372095E0,1.6840392E0,3.36544E1,6.63349E0,7.4015684E0,1.3928715E0,2.6443381E0,9.601851E0,2.405255E1,2.1922798E0,4.44121E0,6.386865E0,1.0147032E0,1.5686841E0,8.033168E0,1.8275507E1,5.777042E0],"tree_param":{"num_deleted":"0","num_feature":"9","num_nodes":"21","size_leaf_vector":"1"}},{"base_weights":[-4.991927E-4,2.9163886E-2,-3.5118185E-2,9.250995E-2,-3.5094473E-1,2.8186299E-2,7.3115355E-1,-4.1228693E-2,1.8865025E-1,9.782024E-3,-1.337977E-2,5.1155824E-2,3.04478E-3,-1.3410981E-2,3.3140972E-2],"categories":[],"categories_nodes":[],"categories_segments":[],"categories_sizes":[],"default_left":[0,0,0,0,0,0,0,0,0,0,0,0,0,0,0],"id":39,"left_children":[1,3,-1,5,7,9,11,-1,13,-1,-1,-1,-1,-1,-1],"loss_changes":[1.1498128E0,1.3087282E0,0E0,1.8782825E0,2.1439075E0,2.1838603E0,7.5755596E-1,0E0,1.1419339E0,0E0,0E0,0E0,0E0,0E0,0E0],"parents":[2147483647,0,0,1,1,3,3,4,4,5,5,6,6,8,8],"right_children":[2,4,-1,6,8,10,12,-1,14,-1,-1,-1,-1,-1,-1],"split_conditions":[1.9E1,2.997E3,-3.5118185E-2,2.74E3,3.239E3,2.6605E0,3.299E-1,-4.1228693E-2,6.457E-1,9.782024E-3,-1.337977E-2,5.1155824E-2,3.04478E-3,-1.3410981E-2,3.3140972E-2],"split_indices":[2,1,0,1,1,6,8,0,6,0,0,0,0,0,0],"split_type":[0,0,0,0,0,0,0,0,0,0,0,0,0,0,0],"sum_hessian":[5.3243916E1,5.2004486E1,1.2394309E0,4.5224354E1,6.7801304E0,4.2034782E1,3.1895733E0,3.3295157E0,3.4506145E0,2.7055893E1,1.49788885E1,1.855061E0,1.3345122E0,1.9785687E0,1.4720459E0],"tree_param":{"num_deleted":"0","num_feature":"9","num_nodes":"15","size_leaf_vector":"1"}},{"base_weights":[-6.4960355E-4,2.8225938E-2,-3.4963947E-2,-2.2701187E-2,7.254804E-1,8.050599E-2,-3.744222E-1,-1.5862899E-2,6.8460844E-2,1.6929429E-2,-3.9865742E-3,2.0908503E-2,-2.5140611E-2],"categories":[],"categories_nodes":[],"categories_segments":[],"categories_sizes":[],"default_left":[0,0,0,0,0,0,0,0,0,0,0,0,0],"id":40,"left_children":[1,3,-1,5,7,9,11,-1,-1,-1,-1,-1,-1],"loss_changes":[1.1123476E0,1.8974842E0,0E0,1.8573676E0,2.875108E0,1.6704249E0,1.3903378E0,0E0,0E0,0E0,0E0,0E0,0E0],"parents":[2147483647,0,0,1,1,3,3,4,4,5,5,6,6],"right_children":[2,4,-1,6,8,10,12,-1,-1,-1,-1,-1,-1],"split_conditions":[1.631E-1,1.6E-1,-3.4963947E-2,6.94E-2,1.2E1,-4E0,4.3E1,-1.5862899E-2,6.8460844E-2,1.6929429E-2,-3.9865742E-3,2.0908503E-2,-2.5140611E-2],"split_indices":[7,7,0,7,0,2,1,0,0,0,0,0,0],"split_type":[0,0,0,0,0,0,0,0,0,0,0,0,0],"sum_hessian":[5.3161182E1,5.197266E1,1.1885206E0,4.9336582E1,2.636078E0,3.874002E1,1.0596561E1,1.1997916E0,1.4362863E0,1.44130125E1,2.432701E1,1.1625768E0,9.433985E0],"tree_param":{"num_deleted":"0","num_feature":"9","num_nodes":"13","size_leaf_vector":"1"}},{"base_weights":[-1.7182014E-4,2.8597591E-2,-3.441296E-2,8.8890865E-2,-3.3680105E-1,2.6077658E-2,7.0863056E-1,-4.0328298E-2,1.8756029E-1,5.8182287E-3,-2.5291715E-2,4.939857E-2,3.0573034E-3,-1.2957312E-2,3.2398652E-2],"categories":[],"categories_nodes":[],"categories_segments":[],"categories_sizes":[],"default_left":[0,0,0,0,0,0,0,0,0,0,0,0,0,0,0],"id":41,"left_children":[1,3,-1,5,7,9,11,-1,13,-1,-1,-1,-1,-1,-1],"loss_changes":[1.0891638E0,1.1935626E0,0E0,1.7771735E0,2.0454457E0,2.1201262E0,7.004659E-1,0E0,1.0821211E0,0E0,0E0,0E0,0E0,0E0,0E0],"parents":[2147483647,0,0,1,1,3,3,4,4,5,5,6,6,8,8],"right_children":[2,4,-1,6,8,10,12,-1,14,-1,-1,-1,-1,-1,-1],"split_conditions":[1.9E1,2.997E3,-3.441296E-2,2.74E3,3.239E3,6.134E-1,3.299E-1,-4.0328298E-2,5.44E-2,5.8182287E-3,-2.5291715E-2,4.939857E-2,3.0573034E-3,-1.2957312E-2,3.2398652E-2],"split_indices":[2,1,0,1,1,8,8,0,7,0,0,0,0,0,0],"split_type":[0,0,0,0,0,0,0,0,0,0,0,0,0,0,0],"sum_hessian":[5.302547E1,5.1817387E1,1.208082E0,4.512773E1,6.689655E0,4.1920948E1,3.2067847E0,3.2446501E0,3.445005E0,3.650569E1,5.415255E0,1.8729056E0,1.3338792E0,1.970403E0,1.4746019E0],"tree_param":{"num_deleted":"0","num_feature":"9","num_nodes":"15","size_leaf_vector":"1"}},{"base_weights":[-6.434077E-4,1.909533E-1,-1.0141347E-1,3.4962934E-1,-3.2432246E-1,-3.811721E-2,-4.82984E-2,7.0682925E-1,-1.9159371E-2,2.0753557E-2,-3.6332697E-2,2.746847E-1,-1.833874E-1,2.9999267E-3,4.7868833E-2,-1.0355636E-2,3.3589143E-2,5.567297E-2,1.9431177E-4,-1.3259317E-2,3.369615E-2],"categories":[],"categories_nodes":[],"categories_segments":[],"categories_sizes":[],"default_left":[0,0,0,0,0,0,0,0,0,0,0,0,0,0,0,0,0,0,0,0,0],"id":42,"left_children":[1,3,5,7,9,-1,11,13,15,-1,-1,17,19,-1,-1,-1,-1,-1,-1,-1,-1],"loss_changes":[1.0606328E0,1.6615916E0,1.2268361E0,1.984044E0,1.7821659E0,0E0,1.55069E0,1.1782839E0,1.2213596E0,0E0,0E0,2.3899612E0,1.9210249E0,0E0,0E0,0E0,0E0,0E0,0E0,0E0,0E0],"parents":[2147483647,0,0,1,1,2,2,3,3,4,4,6,6,7,7,8,8,11,11,12,12],"right_children":[2,4,6,8,10,-1,12,14,16,-1,-1,18,20,-1,-1,-1,-1,-1,-1,-1,-1],"split_conditions":[3E0,3.4641E0,7E0,5.73E-2,1.32E2,-3.811721E-2,1.1E1,1.1E1,1E1,2.0753557E-2,-3.6332697E-2,-3.2278E0,1.6E-1,2.9999267E-3,4.7868833E-2,-1.0355636E-2,3.3589143E-2,5.567297E-2,1.9431177E-4,-1.3259317E-2,3.369615E-2],"split_indices":[4,6,0,7,1,0,0,0,2,0,0,6,7,0,0,0,0,0,0,0,0],"split_type":[0,0,0,0,0,0,0,0,0,0,0,0,0,0,0,0,0,0,0,0,0],"sum_hessian":[5.293153E1,1.7935453E1,3.499608E1,1.3958491E1,3.9769611E0,1.609967E0,3.338611E1,6.625026E0,7.3334656E0,1.3902794E0,2.5866816E0,9.541077E0,2.3845034E1,2.1957622E0,4.429264E0,6.3156886E0,1.0177772E0,1.5691149E0,7.9719615E0,2.2398584E1,1.4464499E0],"tree_param":{"num_deleted":"0","num_feature":"9","num_nodes":"21","size_leaf_vector":"1"}}]},"name":"gbtree"},"learner_model_param":{"base_score":"3.2956684E-1","boost_from_average":"1","num_class":"0","num_feature":"9","num_target":"1"},"objective":{"name":"binary:logistic","reg_loss_param":{"scale_pos_weight":"1"}}},"version":[2,1,4]}