{"learner":{"attributes":{"best_iteration":"3","best_score":"0.3027978374769813","scikit_learn":"{\"_estimator_type\": \"classifier\"}"},"feature_names":["yardline_100","game_seconds_remaining","score_differential","timeouts_pos","timeouts_def","leverage","cpoe_by_filter","target_share_by_filter","carry_share_by_filter"],"feature_types":["float","float","float","float","float","float","float","float","float"],"gradient_booster":{"model":{"gbtree_model_param":{"num_parallel_tree":"1","num_trees":"34"},"iteration_indptr":[0,1,2,3,4,5,6,7,8,9,10,11,12,13,14,15,16,17,18,19,20,21,22,23,24,25,26,27,28,29,30,31,32,33,34],"tree_info":[0,0,0,0,0,0,0,0,0,0,0,0,0,0,0,0,0,0,0,0,0,0,0,0,0,0,0,0,0,0,0,0,0,0],"trees":[{"base_weights":[5.4623073E-1,6.7254347E-1,-5.842712E-2,-2.9004645E-1,8.94149E-1,5.1906955E-1,-1.0104369E0,-5.1652608E-3,9.743306E-1,3.2430336E-2,6.507162E-3,-8.114148E-2,6.507162E-3,5.0802726E-2,6.507162E-3],"categories":[],"categories_nodes":[],"categories_segments":[],"categories_sizes":[],"default_left":[0,0,0,0,0,0,0,0,0,0,0,0,0,0,0],"id":0,"left_children":[1,3,-1,5,7,9,11,-1,13,-1,-1,-1,-1,-1,-1],"loss_changes":[6.5820813E0,5.7114487E0,0E0,3.7525058E0,1.7818451E0,8.0283225E-2,2.4945617E0,0E0,5.5646706E-1,0E0,0E0,0E0,0E0,0E0,0E0],"parents":[2147483647,0,0,1,1,3,3,4,4,5,5,6,6,8,8],"right_children":[2,4,-1,6,8,10,12,-1,14,-1,-1,-1,-1,-1,-1],"split_conditions":[4E0,-1.5624E4,-5.842712E-2,-1.405E0,-6.5162E0,1.525E3,1.4E1,-5.1652608E-3,6.578E-1,3.2430336E-2,6.507162E-3,-8.114148E-2,6.507162E-3,5.0802726E-2,6.507162E-3],"split_indices":[2,5,0,6,6,1,0,0,8,0,0,0,0,0,0],"split_type":[0,0,0,0,0,0,0,0,0,0,0,0,0,0,0],"sum_hessian":[2.5760147E1,2.4558897E1,1.2012503E0,4.538057E0,2.002084E1,2.2690284E0,2.2690284E0,1.468195E0,1.8552645E1,1.2012503E0,1.0677781E0,1.2012503E0,1.0677781E0,1.7484867E1,1.0677781E0],"tree_param":{"num_deleted":"0","num_feature":"9","num_nodes":"15","size_leaf_vector":"1"}},{"base_weights":[5.283973E-1,6.548906E-1,-5.558114E-2,-2.798318E-1,8.7776357E-1,5.1003236E-1,-9.634742E-1,-5.000864E-3,9.590814E-1,6.050656E-3,3.211452E-2,-7.6526456E-2,6.3540875E-3,5.0071623E-2,6.3540875E-3],"categories":[],"categories_nodes":[],"categories_segments":[],"categories_sizes":[],"default_left":[0,0,0,0,0,0,0,0,0,0,0,0,0,0,0],"id":1,"left_children":[1,3,-1,5,7,9,11,-1,13,-1,-1,-1,-1,-1,-1],"loss_changes":[6.171195E0,5.451419E0,0E0,3.4987926E0,1.7194967E0,8.886343E-2,2.2547653E0,0E0,5.4032326E-1,0E0,0E0,0E0,0E0,0E0,0E0],"parents":[2147483647,0,0,1,1,3,3,4,4,5,5,6,6,8,8],"right_children":[2,4,-1,6,8,10,12,-1,14,-1,-1,-1,-1,-1,-1],"split_conditions":[4E0,-1.5624E4,-5.558114E-2,-1.405E0,-6.5162E0,-2.868E4,1.4E1,-5.000864E-3,6.578E-1,6.050656E-3,3.211452E-2,-7.6526456E-2,6.3540875E-3,5.0071623E-2,6.3540875E-3],"split_indices":[2,5,0,6,6,5,0,0,8,0,0,0,0,0,0],"split_type":[0,0,0,0,0,0,0,0,0,0,0,0,0,0,0],"sum_hessian":[2.523844E1,2.398888E1,1.2495592E0,4.5693984E0,1.9419481E1,2.2378216E0,2.3315768E0,1.4733764E0,1.7946106E1,1.0536451E0,1.1841764E0,1.2685379E0,1.0630391E0,1.6883066E1,1.0630391E0],"tree_param":{"num_deleted":"0","num_feature":"9","num_nodes":"15","size_leaf_vector":"1"}},{"base_weights":[5.1119393E-1,6.377527E-1,-5.2912246E-2,-2.6963097E-1,8.6171913E-1,5.011603E-1,-9.190599E-1,-4.8418413E-3,9.4418806E-1,3.1806733E-2,5.602568E-3,-7.227298E-2,6.2046256E-3,4.9359497E-2,6.2046256E-3],"categories":[],"categories_nodes":[],"categories_segments":[],"categories_sizes":[],"default_left":[0,0,0,0,0,0,0,0,0,0,0,0,0,0,0],"id":2,"left_children":[1,3,-1,5,7,9,11,-1,13,-1,-1,-1,-1,-1,-1],"loss_changes":[5.785866E0,5.1981945E0,0E0,3.263311E0,1.6595201E0,9.71719E-2,2.0417502E0,0E0,5.2490425E-1,0E0,0E0,0E0,0E0,0E0,0E0],"parents":[2147483647,0,0,1,1,3,3,4,4,5,5,6,6,8,8],"right_children":[2,4,-1,6,8,10,12,-1,14,-1,-1,-1,-1,-1,-1],"split_conditions":[4E0,-1.5624E4,-5.2912246E-2,-1.405E0,-6.5162E0,-2.2E1,1.4E1,-4.8418413E-3,6.578E-1,3.1806733E-2,5.602568E-3,-7.227298E-2,6.2046256E-3,4.9359497E-2,6.2046256E-3],"split_indices":[2,5,0,6,6,2,0,0,8,0,0,0,0,0,0],"split_type":[0,0,0,0,0,0,0,0,0,0,0,0,0,0,0],"sum_hessian":[2.4731583E1,2.3435406E1,1.2961763E0,4.599E0,1.8836405E1,2.2073987E0,2.3916016E0,1.4783998E0,1.7358006E1,1.1675489E0,1.0398499E0,1.3331814E0,1.0584201E0,1.6299585E1,1.0584201E0],"tree_param":{"num_deleted":"0","num_feature":"9","num_nodes":"15","size_leaf_vector":"1"}},{"base_weights":[4.945884E-1,6.210998E-1,-5.0407644E-2,-2.5950837E-1,8.459794E-1,4.924494E-1,-8.7709373E-1,-4.68796E-3,9.2960936E-1,5.317151E-3,3.141847E-2,-6.834846E-2,6.0587074E-3,4.8664134E-2,6.0587074E-3],"categories":[],"categories_nodes":[],"categories_segments":[],"categories_sizes":[],"default_left":[0,0,0,0,0,0,0,0,0,0,0,0,0,0,0],"id":3,"left_children":[1,3,-1,5,7,9,11,-1,13,-1,-1,-1,-1,-1,-1],"loss_changes":[5.4245377E0,4.952159E0,0E0,3.044951E0,1.6017275E0,9.9943876E-2,1.8522711E0,0E0,5.101204E-1,0E0,0E0,0E0,0E0,0E0,0E0],"parents":[2147483647,0,0,1,1,3,3,4,4,5,5,6,6,8,8],"right_children":[2,4,-1,6,8,10,12,-1,14,-1,-1,-1,-1,-1,-1],"split_conditions":[4E0,-1.5624E4,-5.0407644E-2,-1.405E0,-6.5162E0,-2.868E4,1.4E1,-4.68796E-3,6.578E-1,5.317151E-3,3.141847E-2,-6.834846E-2,6.0587074E-3,4.8664134E-2,6.0587074E-3],"split_indices":[2,5,0,6,6,5,0,0,8,0,0,0,0,0,0],"split_type":[0,0,0,0,0,0,0,0,0,0,0,0,0,0,0],"sum_hessian":[2.4239466E1,2.2898405E1,1.3410616E0,4.626695E0,1.827171E1,2.1777446E0,2.4489503E0,1.4832712E0,1.6788439E1,1.031101E0,1.1466438E0,1.3950318E0,1.0539186E0,1.573452E1,1.0539186E0],"tree_param":{"num_deleted":"0","num_feature":"9","num_nodes":"15","size_leaf_vector":"1"}},{"base_weights":[4.785542E-1,7.6428586E-1,-2.3531857E-1,8.9790744E-1,-1.2539688E-1,-1.232274E0,4.1958308E-1,5.2673217E-2,4.66421E-1,-2.0416705E-2,9.372227E-3,-1.6420966E-2,-7.606775E-2,6.853594E-1,-1.7610282E-2,-1.0898399E-2,3.516508E-2,4.167274E-2,4.710911E-3],"categories":[],"categories_nodes":[],"categories_segments":[],"categories_sizes":[],"default_left":[0,0,0,0,0,0,0,0,0,0,0,0,0,0,0,0,0,0,0],"id":4,"left_children":[1,3,5,7,9,11,13,-1,15,-1,-1,-1,-1,17,-1,-1,-1,-1,-1],"loss_changes":[5.230702E0,2.242857E0,5.6375823E0,5.625696E-1,3.6132085E-1,3.7915564E-1,1.3653247E0,0E0,1.1187596E0,0E0,0E0,0E0,0E0,3.080058E-1,0E0,0E0,0E0,0E0,0E0],"parents":[2147483647,0,0,1,1,2,2,3,3,4,4,5,5,6,6,8,8,13,13],"right_children":[2,4,6,8,10,12,14,-1,16,-1,-1,-1,-1,18,-1,-1,-1,-1,-1],"split_conditions":[8.54E2,8.61E-2,1.427E3,3.41E-1,1.02E2,1.119E3,1.1493E0,5.2673217E-2,5.44E-2,-2.0416705E-2,9.372227E-3,-1.6420966E-2,-7.606775E-2,1.4E1,-1.7610282E-2,-1.0898399E-2,3.516508E-2,4.167274E-2,4.710911E-3],"split_indices":[1,7,1,8,1,1,6,0,7,0,0,0,0,0,0,0,0,0,0],"split_type":[0,0,0,0,0,0,0,0,0,0,0,0,0,0,0,0,0,0,0],"sum_hessian":[2.3761982E1,1.6919312E1,6.8426704E0,1.4701976E1,2.2173367E0,2.3633423E0,4.479328E0,9.746683E0,4.955292E0,1.0040342E0,1.2133025E0,1.0903332E0,1.2730091E0,3.4152308E0,1.0640974E0,1.2946534E0,3.6606386E0,2.40325E0,1.0119809E0],"tree_param":{"num_deleted":"0","num_feature":"9","num_nodes":"19","size_leaf_vector":"1"}},{"base_weights":[4.6331146E-1,7.4883896E-1,-2.306966E-1,8.838349E-1,-1.222635E-1,-1.1711072E0,4.0860775E-1,5.2108753E-2,4.5360738E-1,-1.975956E-2,9.149777E-3,-7.282599E-2,-1.5254053E-2,6.729854E-1,-1.704912E-2,4.086572E-2,-1.9622277E-3,4.105761E-2,4.6002725E-3],"categories":[],"categories_nodes":[],"categories_segments":[],"categories_sizes":[],"default_left":[0,0,0,0,0,0,0,0,0,0,0,0,0,0,0,0,0,0,0],"id":5,"left_children":[1,3,5,7,9,11,13,-1,15,-1,-1,-1,-1,17,-1,-1,-1,-1,-1],"loss_changes":[4.9951816E0,2.1633806E0,5.20301E0,5.664177E-1,3.4088987E-1,4.0565014E-1,1.3034706E0,0E0,1.0851011E0,0E0,0E0,0E0,0E0,2.98275E-1,0E0,0E0,0E0,0E0,0E0],"parents":[2147483647,0,0,1,1,2,2,3,3,4,4,5,5,6,6,8,8,13,13],"right_children":[2,4,6,8,10,12,14,-1,16,-1,-1,-1,-1,18,-1,-1,-1,-1,-1],"split_conditions":[8.54E2,8.61E-2,1.427E3,3.41E-1,1.02E2,4.26E-2,1.1493E0,5.2108753E-2,-1.3E1,-1.975956E-2,9.149777E-3,-7.282599E-2,-1.5254053E-2,1.4E1,-1.704912E-2,4.086572E-2,-1.9622277E-3,4.105761E-2,4.6002725E-3],"split_indices":[1,7,1,8,1,7,6,0,2,0,0,0,0,0,0,0,0,0,0],"split_type":[0,0,0,0,0,0,0,0,0,0,0,0,0,0,0,0,0,0,0],"sum_hessian":[2.3336224E1,1.6477907E1,6.858316E0,1.4254285E1,2.2236218E0,2.4388883E0,4.4194274E0,9.379786E0,4.8745E0,1.01844E0,1.2051818E0,1.3215185E0,1.1173698E0,3.3426745E0,1.0767531E0,2.4259207E0,2.448579E0,2.3340359E0,1.0086386E0],"tree_param":{"num_deleted":"0","num_feature":"9","num_nodes":"19","size_leaf_vector":"1"}},{"base_weights":[4.490502E-1,5.7771015E-1,-4.7503866E-2,-2.4990486E-1,8.063487E-1,4.6697325E-1,-8.0322194E-1,-5.8835777E-3,8.9466316E-1,4.9460987E-3,3.001687E-2,-6.340706E-2,6.8654157E-3,3.912711E-3,4.7142718E-2],"categories":[],"categories_nodes":[],"categories_segments":[],"categories_sizes":[],"default_left":[0,0,0,0,0,0,0,0,0,0,0,0,0,0,0],"id":6,"left_children":[1,3,-1,5,7,9,11,-1,13,-1,-1,-1,-1,-1,-1],"loss_changes":[4.857108E0,4.4665403E0,0E0,2.6131806E0,1.5657606E0,9.229821E-2,1.7273505E0,0E0,5.7350445E-1,0E0,0E0,0E0,0E0,0E0,0E0],"parents":[2147483647,0,0,1,1,3,3,4,4,5,5,6,6,8,8],"right_children":[2,4,-1,6,8,10,12,-1,14,-1,-1,-1,-1,-1,-1],"split_conditions":[4E0,-1.5624E4,-4.7503866E-2,-1.405E0,-6.5162E0,-2.868E4,1.4E1,-5.8835777E-3,7E0,4.9460987E-3,3.001687E-2,-6.340706E-2,6.8654157E-3,3.912711E-3,4.7142718E-2],"split_indices":[2,5,0,6,6,5,0,0,0,0,0,0,0,0,0],"split_type":[0,0,0,0,0,0,0,0,0,0,0,0,0,0,0],"sum_hessian":[2.2933113E1,2.1539494E1,1.3936204E0,4.6423445E0,1.6897148E1,2.0902555E0,2.5520887E0,1.4450806E0,1.5452068E1,1.0192171E0,1.0710382E0,1.4747636E0,1.0773252E0,1.0075164E0,1.4444551E1],"tree_param":{"num_deleted":"0","num_feature":"9","num_nodes":"15","size_leaf_vector":"1"}},{"base_weights":[4.3410903E-1,7.1966124E-1,-2.2637917E-1,8.5914546E-1,-1.396751E-1,-1.0945468E0,3.925779E-1,5.1226743E-2,4.2278916E-1,-1.971863E-2,8.100682E-3,-1.4075445E-2,-6.828638E-2,6.5568775E-1,-1.6450806E-2,-1.23258075E-2,3.340881E-2,5.328751E-3,3.9923284E-2],"categories":[],"categories_nodes":[],"categories_segments":[],"categories_sizes":[],"default_left":[0,0,0,0,0,0,0,0,0,0,0,0,0,0,0,0,0,0,0],"id":7,"left_children":[1,3,5,7,9,11,13,-1,15,-1,-1,-1,-1,17,-1,-1,-1,-1,-1],"loss_changes":[4.594804E0,2.1151295E0,4.6498117E0,6.104212E-1,3.085971E-1,3.9442062E-1,1.2259264E0,0E0,1.0971028E0,0E0,0E0,0E0,0E0,2.4679172E-1,0E0,0E0,0E0,0E0,0E0],"parents":[2147483647,0,0,1,1,2,2,3,3,4,4,5,5,6,6,8,8,13,13],"right_children":[2,4,6,8,10,12,14,-1,16,-1,-1,-1,-1,18,-1,-1,-1,-1,-1],"split_conditions":[8.54E2,8.61E-2,1.427E3,3.41E-1,1.02E2,1.259E-1,1.1493E0,5.1226743E-2,5.44E-2,-1.971863E-2,8.100682E-3,-1.4075445E-2,-6.828638E-2,1.79E-2,-1.6450806E-2,-1.23258075E-2,3.340881E-2,5.328751E-3,3.9923284E-2],"split_indices":[1,7,1,8,1,6,6,0,7,0,0,0,0,7,0,0,0,0,0],"split_type":[0,0,0,0,0,0,0,0,0,0,0,0,0,0,0,0,0,0,0],"sum_hessian":[2.2498396E1,1.5644947E1,6.853449E0,1.3460338E1,2.1846087E0,2.5326731E0,4.3207755E0,8.783319E0,4.677018E0,1.0179762E0,1.1666327E0,1.1432215E0,1.3894516E0,3.2332072E0,1.0875682E0,1.2534822E0,3.423536E0,1.027595E0,2.2056122E0],"tree_param":{"num_deleted":"0","num_feature":"9","num_nodes":"19","size_leaf_vector":"1"}},{"base_weights":[4.202085E-1,5.498234E-1,-4.5385927E-2,-2.3943682E-1,7.7984655E-1,4.485547E-1,-7.475093E-1,-6.3060685E-3,8.7110597E-1,4.532382E-3,2.9093897E-2,-5.8922898E-2,7.001158E-3,4.8237823E-2,1.777218E-2],"categories":[],"categories_nodes":[],"categories_segments":[],"categories_sizes":[],"default_left":[0,0,0,0,0,0,0,0,0,0,0,0,0,0,0],"id":8,"left_children":[1,3,-1,5,7,9,11,-1,13,-1,-1,-1,-1,-1,-1],"loss_changes":[4.4769955E0,4.1224933E0,0E0,2.312843E0,1.5171709E0,9.1750145E-2,1.5531266E0,0E0,4.0997124E-1,0E0,0E0,0E0,0E0,0E0,0E0],"parents":[2147483647,0,0,1,1,3,3,4,4,5,5,6,6,8,8],"right_children":[2,4,-1,6,8,10,12,-1,14,-1,-1,-1,-1,-1,-1],"split_conditions":[4E0,-1.5624E4,-4.5385927E-2,-1.405E0,-6.5162E0,-2.868E4,1.4E1,-6.3060685E-3,6.134E-1,4.532382E-3,2.9093897E-2,-5.8922898E-2,7.001158E-3,4.8237823E-2,1.777218E-2],"split_indices":[2,5,0,6,6,5,0,0,8,0,0,0,0,0,0],"split_type":[0,0,0,0,0,0,0,0,0,0,0,0,0,0,0],"sum_hessian":[2.211138E1,2.0678926E1,1.4324529E0,4.6574078E0,1.6021519E1,2.0281677E0,2.62924E0,1.4312207E0,1.4590299E1,1.0063972E0,1.0217705E0,1.5492147E0,1.0800254E0,1.1610743E1,2.979556E0],"tree_param":{"num_deleted":"0","num_feature":"9","num_nodes":"15","size_leaf_vector":"1"}},{"base_weights":[4.0657675E-1,6.9121015E-1,-2.2084941E-1,8.3487636E-1,-1.5185659E-1,-1.0251836E0,3.780445E-1,5.03554E-2,3.9630252E-1,-1.9571282E-2,7.2820075E-3,-1.24066565E-2,-6.481844E-2,6.392944E-1,-1.5790682E-2,-1.3311191E-2,3.238321E-2,5.1915124E-3,3.9099477E-2],"categories":[],"categories_nodes":[],"categories_segments":[],"categories_sizes":[],"default_left":[0,0,0,0,0,0,0,0,0,0,0,0,0,0,0,0,0,0,0],"id":9,"left_children":[1,3,5,7,9,11,13,-1,15,-1,-1,-1,-1,17,-1,-1,-1,-1,-1],"loss_changes":[4.2092295E0,2.048748E0,4.1673937E0,6.3661575E-1,2.8197315E-1,4.408033E-1,1.1496382E0,0E0,1.0908885E0,0E0,0E0,0E0,0E0,2.3428607E-1,0E0,0E0,0E0,0E0,0E0],"parents":[2147483647,0,0,1,1,2,2,3,3,4,4,5,5,6,6,8,8,13,13],"right_children":[2,4,6,8,10,12,14,-1,16,-1,-1,-1,-1,18,-1,-1,-1,-1,-1],"split_conditions":[8.54E2,8.61E-2,1.427E3,3.41E-1,1.02E2,1.119E3,1.1493E0,5.03554E-2,5.44E-2,-1.9571282E-2,7.2820075E-3,-1.24066565E-2,-6.481844E-2,1.79E-2,-1.5790682E-2,-1.3311191E-2,3.238321E-2,5.1915124E-3,3.9099477E-2],"split_indices":[1,7,1,8,1,1,6,0,7,0,0,0,0,7,0,0,0,0,0],"split_type":[0,0,0,0,0,0,0,0,0,0,0,0,0,0,0,0,0,0,0],"sum_hessian":[2.1714922E1,1.4868246E1,6.8466754E0,1.2711761E1,2.1564844E0,2.61835E0,4.2283254E0,8.196573E0,4.515188E0,1.0196481E0,1.1368363E0,1.172805E0,1.4455451E0,3.1288834E0,1.0994419E0,1.2256241E0,3.2895641E0,1.0218866E0,2.1069968E0],"tree_param":{"num_deleted":"0","num_feature":"9","num_nodes":"19","size_leaf_vector":"1"}},{"base_weights":[3.9343405E-1,5.233758E-1,-4.3109383E-2,-2.2796245E-1,7.541088E-1,2.1713337E-2,-7.001796E-1,-6.6779642E-3,8.4830797E-1,-5.5662226E-2,7.986909E-3,4.7284897E-2,1.6564138E-2],"categories":[],"categories_nodes":[],"categories_segments":[],"categories_sizes":[],"default_left":[0,0,0,0,0,0,0,0,0,0,0,0,0],"id":10,"left_children":[1,3,-1,5,7,-1,9,-1,11,-1,-1,-1,-1],"loss_changes":[4.0983644E0,3.7915025E0,0E0,2.078213E0,1.4683971E0,0E0,1.4901571E0,0E0,4.3128395E-1,0E0,0E0,0E0,0E0],"parents":[2147483647,0,0,1,1,3,3,4,4,6,6,8,8],"right_children":[2,4,-1,6,8,-1,10,-1,12,-1,-1,-1,-1],"split_conditions":[4E0,-1.5624E4,-4.3109383E-2,-1.405E0,-6.5162E0,2.1713337E-2,1.208E3,-6.6779642E-3,6.134E-1,-5.5662226E-2,7.986909E-3,4.7284897E-2,1.6564138E-2],"split_indices":[2,5,0,6,6,0,1,0,8,0,0,0,0],"split_type":[0,0,0,0,0,0,0,0,0,0,0,0,0],"sum_hessian":[2.1353325E1,1.9879236E1,1.474088E0,4.673354E0,1.5205882E1,1.9787524E0,2.6946018E0,1.4187473E0,1.3787135E1,1.621239E0,1.0733628E0,1.0904065E1,2.8830695E0],"tree_param":{"num_deleted":"0","num_feature":"9","num_nodes":"13","size_leaf_vector":"1"}},{"base_weights":[3.801548E-1,6.639929E-1,-2.1841654E-1,8.619007E-1,-8.923854E-3,-6.589286E-1,3.7831403E-2,8.283058E-3,4.6096724E-2,-4.235841E-2,5.0780123E-1,-1.1269951E0,3.1619485E-2,4.380001E-3,3.26163E-2,-6.8719596E-2,-1.1329397E-2],"categories":[],"categories_nodes":[],"categories_segments":[],"categories_sizes":[],"default_left":[0,0,0,0,0,0,0,0,0,0,0,0,0,0,0,0,0],"id":11,"left_children":[1,3,5,7,9,11,-1,-1,-1,-1,13,15,-1,-1,-1,-1,-1],"loss_changes":[3.879122E0,2.0261507E0,3.8583255E0,3.3723068E-1,2.3508599E0,4.292368E0,0E0,0E0,0E0,0E0,1.4742112E-1,7.369418E-1,0E0,0E0,0E0,0E0,0E0],"parents":[2147483647,0,0,1,1,2,2,3,3,4,4,5,5,10,10,11,11],"right_children":[2,4,6,8,10,12,-1,-1,-1,-1,14,16,-1,-1,-1,-1,-1],"split_conditions":[8.54E2,5.327E-1,5.88E-2,-6.5162E0,6.232E-1,2.214E3,3.7831403E-2,8.283058E-3,4.6096724E-2,-4.235841E-2,1E1,1.6E1,3.1619485E-2,4.380001E-3,3.26163E-2,-6.8719596E-2,-1.1329397E-2],"split_indices":[1,8,7,6,8,1,0,0,0,0,0,0,0,0,0,0,0],"split_type":[0,0,0,0,0,0,0,0,0,0,0,0,0,0,0,0,0],"sum_hessian":[2.0978539E1,1.4156388E1,6.8221507E0,1.0722121E1,3.434267E0,4.922457E0,1.8996934E0,1.1495636E0,9.572557E0,1.0658019E0,2.3684652E0,3.7062857E0,1.2161717E0,1.0171772E0,1.351288E0,2.4944859E0,1.2117996E0],"tree_param":{"num_deleted":"0","num_feature":"9","num_nodes":"17","size_leaf_vector":"1"}},{"base_weights":[3.6901066E-1,4.986583E-1,-4.0716123E-2,-2.098114E-1,7.28278E-1,-6.4108986E-1,2.156794E-2,-6.637702E-3,8.250112E-1,2.4954334E-3,-6.2714025E-2,4.6279438E-2,1.56624E-2],"categories":[],"categories_nodes":[],"categories_segments":[],"categories_sizes":[],"default_left":[0,0,0,0,0,0,0,0,0,0,0,0,0],"id":12,"left_children":[1,3,-1,5,7,9,-1,-1,11,-1,-1,-1,-1],"loss_changes":[3.7278702E0,3.4282374E0,0E0,1.8540242E0,1.3946686E0,1.6781439E0,0E0,0E0,4.311781E-1,0E0,0E0,0E0,0E0],"parents":[2147483647,0,0,1,1,3,3,4,4,5,5,8,8],"right_children":[2,4,-1,6,8,10,-1,-1,12,-1,-1,-1,-1],"split_conditions":[4E0,-1.5624E4,-4.0716123E-2,2.581E-1,-6.5162E0,1.902E-1,2.156794E-2,-6.637702E-3,6.134E-1,2.4954334E-3,-6.2714025E-2,4.6279438E-2,1.56624E-2],"split_indices":[2,5,0,8,6,8,0,0,8,0,0,0,0],"split_type":[0,0,0,0,0,0,0,0,0,0,0,0,0],"sum_hessian":[2.0652197E1,1.9134403E1,1.5177939E0,4.7047157E0,1.44296875E1,2.812819E0,1.8918965E0,1.419773E0,1.3009914E1,1.7544051E0,1.0584139E0,1.0197214E1,2.8127003E0],"tree_param":{"num_deleted":"0","num_feature":"9","num_nodes":"13","size_leaf_vector":"1"}},{"base_weights":[3.5587704E-1,6.366125E-1,-2.0976411E-1,7.8938776E-1,-1.8422063E-1,2.852601E-1,-5.2765127E-2,4.8825555E-2,3.436507E-1,6.6230013E-3,-2.1029128E-2,-2.8808624E-2,6.7633426E-1,3.7497997E-2,-7.424291E-3,6.896437E-3,4.016905E-2],"categories":[],"categories_nodes":[],"categories_segments":[],"categories_sizes":[],"default_left":[0,0,0,0,0,0,0,0,0,0,0,0,0,0,0,0,0],"id":13,"left_children":[1,3,5,7,9,11,-1,-1,13,-1,-1,-1,15,-1,-1,-1,-1],"loss_changes":[3.5145855E0,1.9609256E0,3.571875E0,6.9824696E-1,2.8644112E-1,2.3153343E0,0E0,0E0,1.1527283E0,0E0,0E0,0E0,1.8956947E-1,0E0,0E0,0E0,0E0],"parents":[2147483647,0,0,1,1,2,2,3,3,4,4,5,5,8,8,12,12],"right_children":[2,4,6,8,10,12,-1,-1,14,-1,-1,-1,16,-1,-1,-1,-1],"split_conditions":[8.54E2,8.61E-2,2.6605E0,3.41E-1,1.5E1,1.33E-2,-5.2765127E-2,4.8825555E-2,-1.3E1,6.6230013E-3,-2.1029128E-2,-2.8808624E-2,2.581E-1,3.7497997E-2,-7.424291E-3,6.896437E-3,4.016905E-2],"split_indices":[1,7,6,8,0,7,0,0,2,0,0,0,8,0,0,0,0],"split_type":[0,0,0,0,0,0,0,0,0,0,0,0,0,0,0,0,0],"sum_hessian":[2.0291828E1,1.347736E1,6.8144684E0,1.1394836E1,2.082523E0,4.716059E0,2.0984092E0,7.186936E0,4.2079005E0,1.0779119E0,1.0046114E0,1.3247278E0,3.3913314E0,2.0179718E0,2.189929E0,1.045654E0,2.3456771E0],"tree_param":{"num_deleted":"0","num_feature":"9","num_nodes":"17","size_leaf_vector":"1"}},{"base_weights":[3.4494346E-1,4.736146E-1,-3.8189817E-2,-2.0855623E-1,7.0438236E-1,2.0280143E-2,-6.202155E-1,-6.873247E-3,8.03831E-1,-5.007046E-2,8.582656E-3,4.535955E-2,1.49494605E-2],"categories":[],"categories_nodes":[],"categories_segments":[],"categories_sizes":[],"default_left":[0,0,0,0,0,0,0,0,0,0,0,0,0],"id":14,"left_children":[1,3,-1,5,7,-1,9,-1,11,-1,-1,-1,-1],"loss_changes":[3.3560247E0,3.204576E0,0E0,1.6879239E0,1.3447094E0,0E0,1.3179735E0,0E0,4.2435265E-1,0E0,0E0,0E0,0E0],"parents":[2147483647,0,0,1,1,3,3,4,4,6,6,8,8],"right_children":[2,4,-1,6,8,-1,10,-1,12,-1,-1,-1,-1],"split_conditions":[4E0,-1.5624E4,-3.8189817E-2,-1.405E0,-6.5162E0,2.0280143E-2,1.208E3,-6.873247E-3,6.134E-1,-5.007046E-2,8.582656E-3,4.535955E-2,1.49494605E-2],"split_indices":[2,5,0,6,6,0,1,0,8,0,0,0,0],"split_type":[0,0,0,0,0,0,0,0,0,0,0,0,0],"sum_hessian":[1.9988508E1,1.8423288E1,1.5652189E0,4.68127E0,1.3742019E1,1.88449E0,2.79678E0,1.411468E0,1.233055E1,1.7093222E0,1.0874578E0,9.573515E0,2.7570355E0],"tree_param":{"num_deleted":"0","num_feature":"9","num_nodes":"13","size_leaf_vector":"1"}},{"base_weights":[3.331235E-1,6.1116296E-1,-2.0493786E-1,8.1962144E-1,-3.7080742E-2,-5.932167E-1,3.62297E-2,4.4427734E-2,7.896505E-3,-4.215192E-2,4.840769E-1,-1.0028108E0,3.069443E-2,3.2001525E-2,3.2907412E-3,-6.1528165E-2,-9.472126E-3],"categories":[],"categories_nodes":[],"categories_segments":[],"categories_sizes":[],"default_left":[0,0,0,0,0,0,0,0,0,0,0,0,0,0,0,0,0],"id":15,"left_children":[1,3,5,7,9,11,-1,-1,-1,-1,13,15,-1,-1,-1,-1,-1],"loss_changes":[3.2159066E0,1.904921E0,3.2404141E0,3.4041452E-1,2.2277145E0,3.603266E0,0E0,0E0,0E0,0E0,1.709246E-1,6.7301035E-1,0E0,0E0,0E0,0E0,0E0],"parents":[2147483647,0,0,1,1,2,2,3,3,4,4,5,5,10,10,11,11],"right_children":[2,4,6,8,10,12,-1,-1,-1,-1,14,16,-1,-1,-1,-1,-1],"split_conditions":[8.54E2,5.327E-1,5.88E-2,1.9E1,6.232E-1,2.214E3,3.62297E-2,4.4427734E-2,7.896505E-3,-4.215192E-2,3E2,1.6E1,3.069443E-2,3.2001525E-2,3.2907412E-3,-6.1528165E-2,-9.472126E-3],"split_indices":[1,8,7,0,8,1,0,0,0,0,1,0,0,0,0,0,0],"split_type":[0,0,0,0,0,0,0,0,0,0,0,0,0,0,0,0,0],"sum_hessian":[1.9659145E1,1.2871846E1,6.787298E0,9.53974E0,3.3321066E0,5.042701E0,1.7445976E0,8.329175E0,1.2105651E0,1.0659753E0,2.2661314E0,3.8914874E0,1.1512133E0,1.2644522E0,1.0016792E0,2.63948E0,1.2520072E0],"tree_param":{"num_deleted":"0","num_feature":"9","num_nodes":"17","size_leaf_vector":"1"}},{"base_weights":[3.234527E-1,4.5139757E-1,-3.6268096E-2,-1.902297E-1,6.7935926E-1,-5.6326884E-1,1.9996887E-2,-7.535388E-3,7.822636E-1,3.2044516E-3,-5.5478223E-2,4.443519E-2,1.4170962E-2],"categories":[],"categories_nodes":[],"categories_segments":[],"categories_sizes":[],"default_left":[0,0,0,0,0,0,0,0,0,0,0,0,0],"id":16,"left_children":[1,3,-1,5,7,9,-1,-1,11,-1,-1,-1,-1],"loss_changes":[3.0617666E0,2.8757534E0,0E0,1.4809827E0,1.3200369E0,1.411144E0,0E0,0E0,4.21556E-1,0E0,0E0,0E0,0E0],"parents":[2147483647,0,0,1,1,3,3,4,4,5,5,8,8],"right_children":[2,4,-1,6,8,10,-1,-1,12,-1,-1,-1,-1],"split_conditions":[4E0,-1.5624E4,-3.6268096E-2,2.581E-1,-6.5162E0,1.902E-1,1.9996887E-2,-7.535388E-3,6.134E-1,3.2044516E-3,-5.5478223E-2,4.443519E-2,1.4170962E-2],"split_indices":[2,5,0,8,6,8,0,0,8,0,0,0,0],"split_type":[0,0,0,0,0,0,0,0,0,0,0,0,0],"sum_hessian":[1.9376566E1,1.7777502E1,1.5990651E0,4.703741E0,1.307376E1,2.9099607E0,1.7937802E0,1.3907639E0,1.1682997E1,1.7653468E0,1.144614E0,8.98443E0,2.6985657E0],"tree_param":{"num_deleted":"0","num_feature":"9","num_nodes":"13","size_leaf_vector":"1"}},{"base_weights":[3.117139E-1,5.847809E-1,-1.954915E-1,7.4669164E-1,-1.0750551E-2,2.6928902E-1,-9.4387984E-1,4.7431808E-2,2.9715914E-1,-2.6182735E-2,6.529399E-1,-5.597804E-2,-1.5213233E-2,-1.9360976E-2,2.9193146E-2,6.7768428E-3,3.8940948E-2],"categories":[],"categories_nodes":[],"categories_segments":[],"categories_sizes":[],"default_left":[0,0,0,0,0,0,0,0,0,0,0,0,0,0,0,0,0],"id":17,"left_children":[1,3,5,7,-1,9,11,-1,13,-1,15,-1,-1,-1,-1,-1,-1],"loss_changes":[2.89258E0,1.881527E0,2.9567084E0,7.417488E-1,0E0,2.036678E0,1.8776655E-2,0E0,1.1976308E0,0E0,1.6795588E-1,0E0,0E0,0E0,0E0,0E0,0E0],"parents":[2147483647,0,0,1,1,2,2,3,3,5,5,6,6,8,8,10,10],"right_children":[2,4,6,8,-1,10,12,-1,14,-1,16,-1,-1,-1,-1,-1,-1],"split_conditions":[8.54E2,8.61E-2,2.6605E0,3.41E-1,-1.0750551E-2,1.33E-2,-1.4E1,4.7431808E-2,5.44E-2,-2.6182735E-2,-2.3E1,-5.597804E-2,-1.5213233E-2,-1.9360976E-2,2.9193146E-2,6.7768428E-3,3.8940948E-2],"split_indices":[1,7,6,8,0,7,2,0,7,0,2,0,0,0,0,0,0],"split_type":[0,0,0,0,0,0,0,0,0,0,0,0,0,0,0,0,0],"sum_hessian":[1.905949E1,1.228994E1,6.7695503E0,1.0276039E1,2.0138998E0,4.5709643E0,2.1985857E0,6.324568E0,3.9514718E0,1.3714585E0,3.1995058E0,1.1361555E0,1.0624304E0,1.0631291E0,2.8883429E0,1.0324655E0,2.1670403E0],"tree_param":{"num_deleted":"0","num_feature":"9","num_nodes":"17","size_leaf_vector":"1"}},{"base_weights":[3.0064338E-1,4.2846304E-1,-3.4932356E-2,-1.8425062E-1,6.554784E-1,1.918718E-2,-5.486129E-1,-7.6162997E-3,7.608575E-1,-4.503059E-2,9.017443E-3,4.355972E-2,1.3165655E-2],"categories":[],"categories_nodes":[],"categories_segments":[],"categories_sizes":[],"default_left":[0,0,0,0,0,0,0,0,0,0,0,0,0],"id":18,"left_children":[1,3,-1,5,7,-1,9,-1,11,-1,-1,-1,-1],"loss_changes":[2.8248162E0,2.6453164E0,0E0,1.3875343E0,1.2619009E0,0E0,1.1570511E0,0E0,4.3353176E-1,0E0,0E0,0E0,0E0],"parents":[2147483647,0,0,1,1,3,3,4,4,6,6,8,8],"right_children":[2,4,-1,6,8,-1,10,-1,12,-1,-1,-1,-1],"split_conditions":[4E0,-1.5624E4,-3.4932356E-2,-1.405E0,-6.5162E0,1.918718E-2,1.208E3,-7.6162997E-3,6.134E-1,-4.503059E-2,9.017443E-3,4.355972E-2,1.3165655E-2],"split_indices":[2,5,0,6,6,0,1,0,8,0,0,0,0],"split_type":[0,0,0,0,0,0,0,0,0,0,0,0,0],"sum_hessian":[1.877212E1,1.7149725E1,1.6223953E0,4.6872454E0,1.2462479E1,1.8109747E0,2.8762708E0,1.3867286E0,1.107575E1,1.7808616E0,1.0954092E0,8.450709E0,2.625041E0],"tree_param":{"num_deleted":"0","num_feature":"9","num_nodes":"13","size_leaf_vector":"1"}},{"base_weights":[2.9013613E-1,5.5991143E-1,-1.9337374E-1,4.6394978E-2,1.4337541E-1,-5.416347E-1,3.479311E-2,3.6677986E-2,-2.1483491E-1,-9.041127E-1,2.9680947E-2,-4.2803723E-2,2.4096234E-2,-6.1285114E-3,-5.665E-2],"categories":[],"categories_nodes":[],"categories_segments":[],"categories_sizes":[],"default_left":[0,0,0,0,0,0,0,0,0,0,0,0,0,0,0],"id":19,"left_children":[1,3,5,-1,7,9,-1,-1,11,13,-1,-1,-1,-1,-1],"loss_changes":[2.6496809E0,1.8232093E0,2.7679744E0,0E0,1.6732236E0,3.0511582E0,0E0,0E0,2.7514277E0,7.6054907E-1,0E0,0E0,0E0,0E0,0E0],"parents":[2147483647,0,0,1,1,2,2,4,4,5,5,8,8,9,9],"right_children":[2,4,6,-1,8,10,-1,-1,12,14,-1,-1,-1,-1,-1],"split_conditions":[8.54E2,2.992E-1,5.88E-2,4.6394978E-2,-1.5E1,2.214E3,3.479311E-2,3.6677986E-2,-1.278E3,1.1E1,2.9680947E-2,-4.2803723E-2,2.4096234E-2,-6.1285114E-3,-5.665E-2],"split_indices":[1,8,7,0,2,1,0,0,5,0,0,0,0,0,0],"split_type":[0,0,0,0,0,0,0,0,0,0,0,0,0,0,0],"sum_hessian":[1.84835E1,1.17625475E1,6.720951E0,5.5934043E0,6.169143E0,5.110407E0,1.6105442E0,1.934323E0,4.2348204E0,4.0279236E0,1.0824833E0,2.0862021E0,2.148618E0,1.2602539E0,2.7676697E0],"tree_param":{"num_deleted":"0","num_feature":"9","num_nodes":"15","size_leaf_vector":"1"}},{"base_weights":[2.828042E-1,4.0940142E-1,-3.322879E-2,-1.6766836E-1,6.325386E-1,-4.977416E-1,1.9103272E-2,-8.026457E-3,7.4082446E-1,1.9602295E-2,-6.096631E-2,4.266927E-2,1.2707326E-2],"categories":[],"categories_nodes":[],"categories_segments":[],"categories_sizes":[],"default_left":[0,0,0,0,0,0,0,0,0,0,0,0,0],"id":20,"left_children":[1,3,-1,5,7,9,-1,-1,11,-1,-1,-1,-1],"loss_changes":[2.582343E0,2.3737152E0,0E0,1.224668E0,1.2275667E0,3.0440578E0,0E0,0E0,4.1510582E-1,0E0,0E0,0E0,0E0],"parents":[2147483647,0,0,1,1,3,3,4,4,5,5,8,8],"right_children":[2,4,-1,6,8,10,-1,-1,12,-1,-1,-1,-1],"split_conditions":[4E0,-1.5624E4,-3.322879E-2,1.6E1,-6.5162E0,1.1E1,1.9103272E-2,-8.026457E-3,6.134E-1,1.9602295E-2,-6.096631E-2,4.266927E-2,1.2707326E-2],"split_indices":[2,5,0,0,6,0,0,0,8,0,0,0,0],"split_type":[0,0,0,0,0,0,0,0,0,0,0,0,0],"sum_hessian":[1.8262535E1,1.6610723E1,1.6518114E0,4.701208E0,1.1909515E1,2.996572E0,1.7046362E0,1.372811E0,1.0536704E1,1.5463955E0,1.4501765E0,7.9455357E0,2.5911689E0],"tree_param":{"num_deleted":"0","num_feature":"9","num_nodes":"13","size_leaf_vector":"1"}},{"base_weights":[2.7250367E-1,3.9751342E-1,-3.186719E-2,-1.6285315E-1,6.19407E-1,1.8567048E-2,-4.973866E-1,-7.7684135E-3,7.284853E-1,-4.2070523E-2,9.813515E-3,4.213188E-2,1.2339087E-2],"categories":[],"categories_nodes":[],"categories_segments":[],"categories_sizes":[],"default_left":[0,0,0,0,0,0,0,0,0,0,0,0,0],"id":21,"left_children":[1,3,-1,5,7,-1,9,-1,11,-1,-1,-1,-1],"loss_changes":[2.413467E0,2.253652E0,0E0,1.2038393E0,1.1789131E0,0E0,1.1039913E0,0E0,4.0956402E-1,0E0,0E0,0E0,0E0],"parents":[2147483647,0,0,1,1,3,3,4,4,6,6,8,8],"right_children":[2,4,-1,6,8,-1,10,-1,12,-1,-1,-1,-1],"split_conditions":[4E0,-1.5624E4,-3.186719E-2,-1.405E0,-6.5162E0,1.8567048E-2,1.208E3,-7.7684135E-3,6.134E-1,-4.2070523E-2,9.813515E-3,4.213188E-2,1.2339087E-2],"split_indices":[2,5,0,6,6,0,1,0,8,0,0,0,0],"split_type":[0,0,0,0,0,0,0,0,0,0,0,0,0],"sum_hessian":[1.7991718E1,1.6313414E1,1.6783051E0,4.7028885E0,1.1610525E1,1.7686396E0,2.9342487E0,1.3805072E0,1.0230019E1,1.8190646E0,1.1151841E0,7.6644416E0,2.5655768E0],"tree_param":{"num_deleted":"0","num_feature":"9","num_nodes":"13","size_leaf_vector":"1"}},{"base_weights":[2.6293725E-1,5.2461964E-1,-1.8269162E-1,4.546322E-2,1.1121096E-1,-5.037179E-1,3.375338E-2,3.549553E-2,-2.3567066E-1,-8.341303E-1,2.8897453E-2,-4.2791937E-2,2.3225065E-2,-5.239583E-2,-6.2177614E-3],"categories":[],"categories_nodes":[],"categories_segments":[],"categories_sizes":[],"default_left":[0,0,0,0,0,0,0,0,0,0,0,0,0,0,0],"id":22,"left_children":[1,3,5,-1,7,9,-1,-1,11,13,-1,-1,-1,-1,-1],"loss_changes":[2.280045E0,1.8164454E0,2.4524436E0,0E0,1.6109838E0,2.6817942E0,0E0,0E0,2.634732E0,6.471951E-1,0E0,0E0,0E0,0E0,0E0],"parents":[2147483647,0,0,1,1,2,2,4,4,5,5,8,8,9,9],"right_children":[2,4,6,-1,8,10,-1,-1,12,14,-1,-1,-1,-1,-1],"split_conditions":[8.54E2,2.992E-1,5.88E-2,4.546322E-2,-1.5E1,2.214E3,3.375338E-2,3.549553E-2,-1.278E3,1.6E1,2.8897453E-2,-4.2791937E-2,2.3225065E-2,-5.239583E-2,-6.2177614E-3],"split_indices":[1,8,7,0,2,1,0,0,5,0,0,0,0,0,0],"split_type":[0,0,0,0,0,0,0,0,0,0,0,0,0,0,0],"sum_hessian":[1.7730309E1,1.1058988E1,6.6713204E0,5.10746E0,5.951528E0,5.154821E0,1.5164995E0,1.799366E0,4.152162E0,4.123944E0,1.0308769E0,2.083979E0,2.0681832E0,2.8032038E0,1.32074E0],"tree_param":{"num_deleted":"0","num_feature":"9","num_nodes":"15","size_leaf_vector":"1"}},{"base_weights":[2.5661677E-1,3.8057995E-1,-3.057973E-2,-1.4794375E-1,5.976584E-1,1.9776007E-2,-4.4237685E-1,-8.127205E-3,7.09414E-1,-5.636952E-2,1.840545E-2,4.1272905E-2,1.1952509E-2],"categories":[],"categories_nodes":[],"categories_segments":[],"categories_sizes":[],"default_left":[0,0,0,0,0,0,0,0,0,0,0,0,0],"id":23,"left_children":[1,3,-1,5,7,-1,9,-1,11,-1,-1,-1,-1],"loss_changes":[2.2265687E0,2.019017E0,0E0,1.0871627E0,1.1455336E0,0E0,2.729912E0,0E0,3.8991213E-1,0E0,0E0,0E0,0E0],"parents":[2147483647,0,0,1,1,3,3,4,4,6,6,8,8],"right_children":[2,4,-1,6,8,-1,10,-1,12,-1,-1,-1,-1],"split_conditions":[4E0,-1.5624E4,-3.057973E-2,1.1E1,-6.5162E0,1.9776007E-2,1.6E1,-8.127205E-3,6.134E-1,-5.636952E-2,1.840545E-2,4.1272905E-2,1.1952509E-2],"split_indices":[2,5,0,0,6,0,0,0,8,0,0,0,0],"split_type":[0,0,0,0,0,0,0,0,0,0,0,0,0],"sum_hessian":[1.7525293E1,1.5827146E1,1.6981487E0,4.7007203E0,1.1126425E1,1.5311675E0,3.1695528E0,1.3677852E0,9.75864E0,1.5058336E0,1.6637192E0,7.221964E0,2.5366762E0],"tree_param":{"num_deleted":"0","num_feature":"9","num_nodes":"13","size_leaf_vector":"1"}},{"base_weights":[2.4725865E-1,3.6947647E-1,-2.9354114E-2,-1.4356253E-1,5.8482814E-1,2.0544782E-1,-3.1563174E-2,-7.866057E-3,6.972102E-1,-1.2223322E-2,3.2428604E-2,4.073718E-2,1.1603587E-2],"categories":[],"categories_nodes":[],"categories_segments":[],"categories_sizes":[],"default_left":[0,0,0,0,0,0,0,0,0,0,0,0,0],"id":24,"left_children":[1,3,-1,5,7,9,-1,-1,11,-1,-1,-1,-1],"loss_changes":[2.080851E0,1.9132736E0,0E0,1.0995872E0,1.0987902E0,9.711337E-1,0E0,0E0,3.840537E-1,0E0,0E0,0E0,0E0],"parents":[2147483647,0,0,1,1,3,3,4,4,5,5,8,8],"right_children":[2,4,-1,6,8,10,-1,-1,12,-1,-1,-1,-1],"split_conditions":[4E0,-1.5624E4,-2.9354114E-2,2.2124E0,-6.5162E0,2.581E-1,-3.1563174E-2,-7.866057E-3,6.134E-1,-1.2223322E-2,3.2428604E-2,4.073718E-2,1.1603587E-2],"split_indices":[2,5,0,6,6,8,0,0,8,0,0,0,0],"split_type":[0,0,0,0,0,0,0,0,0,0,0,0,0],"sum_hessian":[1.727904E1,1.5557302E1,1.7217364E0,4.698139E0,1.0859163E1,3.0757802E0,1.622359E0,1.3755326E0,9.483631E0,1.7486484E0,1.3271316E0,6.9706416E0,2.5129893E0],"tree_param":{"num_deleted":"0","num_feature":"9","num_nodes":"13","size_leaf_vector":"1"}},{"base_weights":[2.3849903E-1,4.9102554E-1,-1.7241235E-1,4.4576004E-2,8.185815E-2,2.5125554E-1,-8.038645E-1,-2.537238E-1,3.484675E-2,-2.237088E-2,6.215198E-1,-4.82209E-2,-1.2391398E-2,2.9751057E-2,-3.182376E-2,8.0969995E-3,3.6388975E-2],"categories":[],"categories_nodes":[],"categories_segments":[],"categories_sizes":[],"default_left":[0,0,0,0,0,0,0,0,0,0,0,0,0,0,0,0,0],"id":25,"left_children":[1,3,5,-1,7,9,11,13,-1,-1,15,-1,-1,-1,-1,-1,-1],"loss_changes":[1.9571468E0,1.8011181E0,2.2375164E0,0E0,1.5717624E0,1.653151E0,5.499673E-2,2.0373166E0,0E0,0E0,7.224834E-2,0E0,0E0,0E0,0E0,0E0,0E0],"parents":[2147483647,0,0,1,1,2,2,4,4,5,5,6,6,7,7,10,10],"right_children":[2,4,6,-1,8,10,12,14,-1,-1,16,-1,-1,-1,-1,-1,-1],"split_conditions":[8.54E2,2.992E-1,2.6605E0,4.4576004E-2,2.2124E0,1.33E-2,-1.4E1,2E0,3.484675E-2,-2.237088E-2,2.581E-1,-4.82209E-2,-1.2391398E-2,2.9751057E-2,-3.182376E-2,8.0969995E-3,3.6388975E-2],"split_indices":[1,8,6,0,6,7,2,3,0,0,8,0,0,0,0,0,0],"split_type":[0,0,0,0,0,0,0,0,0,0,0,0,0,0,0,0,0],"sum_hessian":[1.7045292E1,1.0436531E1,6.6087604E0,4.6784163E0,5.758115E0,4.315445E0,2.2933154E0,4.105612E0,1.652503E0,1.4226295E0,2.8928156E0,1.2095976E0,1.0837177E0,1.1036646E0,3.0019474E0,1.0172305E0,1.8755851E0],"tree_param":{"num_deleted":"0","num_feature":"9","num_nodes":"17","size_leaf_vector":"1"}},{"base_weights":[2.3160835E-1,3.5202497E-1,-2.7960354E-2,-1.3861144E-1,5.643104E-1,1.9544344E-2,-4.2231873E-1,4.4175155E-2,2.1595083E-1,-5.3127963E-2,1.789037E-2,-1.6899252E-2,3.0602274E-2],"categories":[],"categories_nodes":[],"categories_segments":[],"categories_sizes":[],"default_left":[0,0,0,0,0,0,0,0,0,0,0,0,0],"id":26,"left_children":[1,3,-1,5,7,-1,9,-1,11,-1,-1,-1,-1],"loss_changes":[1.8971248E0,1.7560587E0,0E0,1.0165122E0,1.081404E0,0E0,2.4635377E0,0E0,1.6975795E0,0E0,0E0,0E0,0E0],"parents":[2147483647,0,0,1,1,3,3,4,4,6,6,8,8],"right_children":[2,4,-1,6,8,-1,10,-1,12,-1,-1,-1,-1],"split_conditions":[4E0,-1.5624E4,-2.7960354E-2,1.1E1,2.992E-1,1.9544344E-2,1.6E1,4.4175155E-2,-1.8603E0,-5.3127963E-2,1.789037E-2,-1.6899252E-2,3.0602274E-2],"split_indices":[2,5,0,0,8,0,0,0,6,0,0,0,0],"split_type":[0,0,0,0,0,0,0,0,0,0,0,0,0],"sum_hessian":[1.685485E1,1.5109067E1,1.7457834E0,4.667814E0,1.0441254E1,1.4966857E0,3.171128E0,4.6470766E0,5.7941766E0,1.5428741E0,1.628254E0,2.4769223E0,3.317254E0],"tree_param":{"num_deleted":"0","num_feature":"9","num_nodes":"13","size_leaf_vector":"1"}},{"base_weights":[2.2383656E-1,4.7103047E-1,-1.680799E-1,4.3793194E-2,7.823506E-2,2.4540469E-1,-7.721523E-1,3.419238E-2,-2.5478762E-1,-2.142297E-2,6.11342E-1,-4.6317443E-2,-1.1887904E-2,-4.2567458E-2,2.240128E-2,8.162442E-3,3.5723474E-2],"categories":[],"categories_nodes":[],"categories_segments":[],"categories_sizes":[],"default_left":[0,0,0,0,0,0,0,0,0,0,0,0,0,0,0,0,0],"id":27,"left_children":[1,3,5,-1,7,9,11,-1,13,-1,15,-1,-1,-1,-1,-1,-1],"loss_changes":[1.7886373E0,1.6939356E0,2.0782433E0,0E0,1.5302422E0,1.5560277E0,5.2826166E-2,0E0,2.505694E0,0E0,5.9568286E-2,0E0,0E0,0E0,0E0,0E0,0E0],"parents":[2147483647,0,0,1,1,2,2,4,4,5,5,6,6,8,8,10,10],"right_children":[2,4,6,-1,8,10,12,-1,14,-1,16,-1,-1,-1,-1,-1,-1],"split_conditions":[8.54E2,2.992E-1,2.6605E0,4.3793194E-2,-1.5E1,1.33E-2,-1.4E1,3.419238E-2,-1.278E3,-2.142297E-2,2.581E-1,-4.6317443E-2,-1.1887904E-2,-4.2567458E-2,2.240128E-2,8.162442E-3,3.5723474E-2],"split_indices":[1,8,6,0,2,7,2,0,5,0,8,0,0,0,0,0,0],"split_type":[0,0,0,0,0,0,0,0,0,0,0,0,0,0,0,0,0],"sum_hessian":[1.6645313E1,1.0083483E1,6.561831E0,4.36002E0,5.7234626E0,4.247908E0,2.313923E0,1.6568929E0,4.06657E0,1.4348377E0,2.8130708E0,1.2265519E0,1.0873709E0,2.085236E0,1.9813339E0,1.0095431E0,1.8035277E0],"tree_param":{"num_deleted":"0","num_feature":"9","num_nodes":"17","size_leaf_vector":"1"}},{"base_weights":[2.1665463E-1,3.3607695E-1,-2.7060479E-2,1.1179488E-1,4.2613216E-2,6.2368566E-1,-1.3270967E-1,6.6409833E-3,3.715876E-2,3.2655813E-3,-4.1361626E-2],"categories":[],"categories_nodes":[],"categories_segments":[],"categories_sizes":[],"default_left":[0,0,0,0,0,0,0,0,0,0,0],"id":28,"left_children":[1,3,-1,5,-1,7,9,-1,-1,-1,-1],"loss_changes":[1.76176E0,1.7219517E0,0E0,1.5963583E0,0E0,1.4086711E-1,1.2929938E0,0E0,0E0,0E0,0E0],"parents":[2147483647,0,0,1,1,3,3,5,5,6,6],"right_children":[2,4,-1,6,-1,8,10,-1,-1,-1,-1],"split_conditions":[4E0,-1.278E3,-2.7060479E-2,-2.2E1,4.2613216E-2,-3E1,1.9E1,6.6409833E-3,3.715876E-2,3.2655813E-3,-4.1361626E-2],"split_indices":[2,5,0,2,0,2,0,0,0,0,0],"split_type":[0,0,0,0,0,0,0,0,0,0,0],"sum_hessian":[1.645601E1,1.46966915E1,1.75932E0,1.1093271E1,3.6034198E0,3.0845966E0,8.008676E0,1.0172535E0,2.067343E0,6.9368215E0,1.0718539E0],"tree_param":{"num_deleted":"0","num_feature":"9","num_nodes":"11","size_leaf_vector":"1"}},{"base_weights":[2.0921643E-1,4.5319116E-1,-1.6961132E-1,4.316534E-2,6.961556E-2,-4.481106E-1,3.2025747E-2,-2.4967292E-1,3.3953216E-2,-7.738734E-1,1.876383E-2,2.8413463E-2,-3.0381933E-2,-5.0867844E-2,-4.5414343E-3],"categories":[],"categories_nodes":[],"categories_segments":[],"categories_sizes":[],"default_left":[0,0,0,0,0,0,0,0,0,0,0,0,0,0,0],"id":29,"left_children":[1,3,5,-1,7,9,-1,11,-1,13,-1,-1,-1,-1,-1],"loss_changes":[1.6755686E0,1.6378629E0,1.9800026E0,0E0,1.466492E0,1.9460386E0,0E0,1.8399768E0,0E0,6.974387E-1,0E0,0E0,0E0,0E0,0E0],"parents":[2147483647,0,0,1,1,2,2,4,4,5,5,7,7,9,9],"right_children":[2,4,6,-1,8,10,-1,12,-1,14,-1,-1,-1,-1,-1],"split_conditions":[8.54E2,2.992E-1,2.214E3,4.316534E-2,2.2124E0,5.73E-2,3.2025747E-2,-1.5E1,3.3953216E-2,1.6E1,1.876383E-2,2.8413463E-2,-3.0381933E-2,-5.0867844E-2,-4.5414343E-3],"split_indices":[1,8,1,0,6,7,0,2,0,0,0,0,0,0,0],"split_type":[0,0,0,0,0,0,0,0,0,0,0,0,0,0,0],"sum_hessian":[1.6297407E1,9.79371E0,6.503697E0,4.1286793E0,5.6650305E0,5.1724224E0,1.3312745E0,4.104844E0,1.5601861E0,3.7492237E0,1.4231989E0,1.0707388E0,3.0341053E0,2.4031384E0,1.3460853E0],"tree_param":{"num_deleted":"0","num_feature":"9","num_nodes":"15","size_leaf_vector":"1"}},{"base_weights":[2.0502886E-1,3.2147917E-1,-2.5623137E-2,1.01279825E-1,4.2048205E-2,6.073809E-1,-1.3308759E-1,6.446186E-3,3.628775E-2,-3.0170867E-2,7.0565827E-3],"categories":[],"categories_nodes":[],"categories_segments":[],"categories_sizes":[],"default_left":[0,0,0,0,0,0,0,0,0,0,0],"id":30,"left_children":[1,3,-1,5,-1,7,9,-1,-1,-1,-1],"loss_changes":[1.5974735E0,1.6727461E0,0E0,1.4958692E0,0E0,1.304692E-1,1.242585E0,0E0,0E0,0E0,0E0],"parents":[2147483647,0,0,1,1,3,3,5,5,6,6],"right_children":[2,4,-1,6,-1,8,10,-1,-1,-1,-1],"split_conditions":[4E0,-1.278E3,-2.5623137E-2,-2.2E1,4.2048205E-2,-3E1,-1.8603E0,6.446186E-3,3.628775E-2,-3.0170867E-2,7.0565827E-3],"split_indices":[2,5,0,2,0,2,6,0,0,0,0],"split_type":[0,0,0,0,0,0,0,0,0,0,0],"sum_hessian":[1.6147707E1,1.4367735E1,1.779972E0,1.092978E1,3.4379551E0,2.9556568E0,7.9741235E0,1.0005691E0,1.9550875E0,2.4947453E0,5.479378E0],"tree_param":{"num_deleted":"0","num_feature":"9","num_nodes":"11","size_leaf_vector":"1"}},{"base_weights":[1.9870476E-1,4.3860197E-1,-1.6643146E-1,4.257875E-2,6.5585986E-2,-6.616603E-1,2.962393E-1,-3.436974E-1,5.1796746E-1,-7.53905E-3,-4.960967E-2,-1.39870485E-2,2.827645E-2,2.9099477E-2,-4.357187E-2,3.3591323E-2,3.699035E-3],"categories":[],"categories_nodes":[],"categories_segments":[],"categories_sizes":[],"default_left":[0,0,0,0,0,0,0,0,0,0,0,0,0,0,0,0,0],"id":31,"left_children":[1,3,5,-1,7,9,11,13,15,-1,-1,-1,-1,-1,-1,-1,-1],"loss_changes":[1.5633565E0,1.5682652E0,1.9078434E0,0E0,1.4042833E0,5.119711E-1,8.644359E-1,2.4994798E0,1.9244331E-1,0E0,0E0,0E0,0E0,0E0,0E0,0E0,0E0],"parents":[2147483647,0,0,1,1,2,2,4,4,5,5,6,6,7,7,8,8],"right_children":[2,4,6,-1,8,10,12,14,16,-1,-1,-1,-1,-1,-1,-1,-1],"split_conditions":[8.54E2,2.992E-1,1.427E3,4.257875E-2,3E0,-1.9393E4,-1.9E1,2E0,6.94E-2,-7.53905E-3,-4.960967E-2,-1.39870485E-2,2.827645E-2,2.9099477E-2,-4.357187E-2,3.3591323E-2,3.699035E-3],"split_indices":[1,8,1,0,3,5,2,3,7,0,0,0,0,0,0,0,0],"split_type":[0,0,0,0,0,0,0,0,0,0,0,0,0,0,0,0,0],"sum_hessian":[1.6014177E1,9.543094E0,6.4710836E0,3.9201152E0,5.622978E0,2.9178336E0,3.55325E0,3.0782447E0,2.5447335E0,1.7182473E0,1.1995863E0,1.119645E0,2.433605E0,1.0803869E0,1.9978578E0,1.5087311E0,1.0360023E0],"tree_param":{"num_deleted":"0","num_feature":"9","num_nodes":"17","size_leaf_vector":"1"}},{"base_weights":[1.9231345E-1,2.9675385E-1,-2.9218584E-2,-2.3616992E-2,4.0440336E-1,5.099677E-1,-1.3381243E-2,-1.1367124E-2,3.0441443E-2],"categories":[],"categories_nodes":[],"categories_segments":[],"categories_sizes":[],"default_left":[0,0,0,0,0,0,0,0,0],"id":32,"left_children":[1,3,-1,-1,5,7,-1,-1,-1],"loss_changes":[1.5404564E0,1.4758164E0,0E0,0E0,1.14043E0,1.0549946E0,0E0,0E0,0E0],"parents":[2147483647,0,0,1,1,4,4,5,5],"right_children":[2,4,-1,-1,6,8,-1,-1,-1],"split_conditions":[2E1,-3.2952E4,-2.9218584E-2,-2.3616992E-2,4E0,7E0,-1.3381243E-2,-1.1367124E-2,3.0441443E-2],"split_indices":[0,5,0,0,2,0,0,0,0],"split_type":[0,0,0,0,0,0,0,0,0],"sum_hessian":[1.58526535E1,1.4518308E1,1.3343459E0,1.3666466E0,1.3151661E1,1.1574632E1,1.5770288E0,1.2148225E0,1.0359809E1],"tree_param":{"num_deleted":"0","num_feature":"9","num_nodes":"9","size_leaf_vector":"1"}},{"base_weights":[1.821192E-1,4.1910592E-1,-1.692292E-1,4.1956026E-2,5.230065E-2,2.3063536E-1,-7.2889346E-1,-2.5319862E-1,3.3009604E-2,-2.1333788E-2,5.832364E-1,-4.3766648E-2,-1.0971706E-2,2.7451163E-2,-2.9384557E-2,3.635932E-2,5.1380186E-3],"categories":[],"categories_nodes":[],"categories_segments":[],"categories_sizes":[],"default_left":[0,0,0,0,0,0,0,0,0,0,0,0,0,0,0,0,0],"id":33,"left_children":[1,3,5,-1,7,9,11,13,-1,-1,15,-1,-1,-1,-1,-1,-1],"loss_changes":[1.4590526E0,1.53427E0,1.8303478E0,0E0,1.3807039E0,1.4290131E0,5.6781888E-2,1.6836056E0,0E0,0E0,1.8371785E-1,0E0,0E0,0E0,0E0,0E0,0E0],"parents":[2147483647,0,0,1,1,2,2,4,4,5,5,6,6,7,7,10,10],"right_children":[2,4,6,-1,8,10,12,14,-1,-1,16,-1,-1,-1,-1,-1,-1],"split_conditions":[8.54E2,2.992E-1,2.6605E0,4.1956026E-2,2.2124E0,1.373E3,-1.4E1,-1.5E1,3.3009604E-2,-2.1333788E-2,1.5E1,-4.3766648E-2,-1.0971706E-2,2.7451163E-2,-2.9384557E-2,3.635932E-2,5.1380186E-3],"split_indices":[1,8,6,0,6,1,2,2,0,0,0,0,0,0,0,0,0],"split_type":[0,0,0,0,0,0,0,0,0,0,0,0,0,0,0,0,0],"sum_hessian":[1.5671221E1,9.243543E0,6.4276776E0,3.7089367E0,5.5346065E0,4.0919776E0,2.3357003E0,4.0717874E0,1.4628192E0,1.3553267E0,2.736651E0,1.2563989E0,1.0793014E0,1.0094457E0,3.0623415E0,1.7106663E0,1.0259845E0],"tree_param":{"num_deleted":"0","num_feature":"9","num_nodes":"17","size_leaf_vector":"1"}}]},"name":"gbtree"},"learner_model_param":{"base_score":"8.413616E-1","boost_from_average":"1","num_class":"0","num_feature":"9","num_target":"1"},"objective":{"name":"binary:logistic","reg_loss_param":{"scale_pos_weight":"1"}}},"version":[2,1,4]}