{"learner":{"attributes":{"best_iteration":"4","best_score":"0.671312239388345","scikit_learn":"{\"_estimator_type\": \"classifier\"}"},"feature_names":["yardline_100","game_seconds_remaining","score_differential","timeouts_pos","timeouts_def","leverage","cpoe_by_filter","target_share_by_filter","carry_share_by_filter"],"feature_types":["float","float","float","float","float","float","float","float","float"],"gradient_booster":{"model":{"gbtree_model_param":{"num_parallel_tree":"1","num_trees":"35"},"iteration_indptr":[0,1,2,3,4,5,6,7,8,9,10,11,12,13,14,15,16,17,18,19,20,21,22,23,24,25,26,27,28,29,30,31,32,33,34,35],"tree_info":[0,0,0,0,0,0,0,0,0,0,0,0,0,0,0,0,0,0,0,0,0,0,0,0,0,0,0,0,0,0,0,0,0,0,0],"trees":[{"base_weights":[-2.0883556E-3,-1.8104926E-1,3.088548E-1,5.6822115E-1,-2.5820008E-1,-2.67089E-1,4.3518808E-1,1.0550005E0,-7.1538575E-2,-4.0387145E-1,7.970139E-2,4.1568214E-1,-1.058062E0,9.950874E-1,2.393846E-1,6.2140424E-2,-3.0990536E-3,-3.6606435E-2,2.1958053E-2,-2.6470333E-2,4.834186E-3,-2.3365004E-2,1.2934009E-2,-1.383266E-2,6.793187E-2,-1.8632695E-2,-7.042142E-2,3.8055056E-3,6.479003E-2,2.3430118E-3,3.7408944E-2],"categories":[],"categories_nodes":[],"categories_segments":[],"categories_sizes":[],"default_left":[0,0,0,0,0,0,0,0,0,0,0,0,0,0,0,0,0,0,0,0,0,0,0,0,0,0,0,0,0,0,0],"id":0,"left_children":[1,3,5,7,9,11,13,15,17,19,21,23,25,27,29,-1,-1,-1,-1,-1,-1,-1,-1,-1,-1,-1,-1,-1,-1,-1,-1],"loss_changes":[1.4207963E1,9.514178E0,6.902788E0,4.8839664E0,7.297797E0,9.835924E0,8.189456E0,1.9298124E0,2.888296E0,6.5427113E0,4.555861E0,6.94076E0,1.478569E0,5.3181553E0,5.6730204E0,0E0,0E0,0E0,0E0,0E0,0E0,0E0,0E0,0E0,0E0,0E0,0E0,0E0,0E0,0E0,0E0],"parents":[2147483647,0,0,1,1,2,2,3,3,4,4,5,5,6,6,7,7,8,8,9,9,10,10,11,11,12,12,13,13,14,14],"right_children":[2,4,6,8,10,12,14,16,18,20,22,24,26,28,30,-1,-1,-1,-1,-1,-1,-1,-1,-1,-1,-1,-1,-1,-1,-1,-1],"split_conditions":[6.57E-2,2E0,3.71E2,1.813E3,2.371E3,-1E0,3E0,5.9102E0,1.508E-1,1.8E1,-2.055E0,-7.08E2,8E0,-1.0465E4,1.7E1,6.2140424E-2,-3.0990536E-3,-3.6606435E-2,2.1958053E-2,-2.6470333E-2,4.834186E-3,-2.3365004E-2,1.2934009E-2,-1.383266E-2,6.793187E-2,-1.8632695E-2,-7.042142E-2,3.8055056E-3,6.479003E-2,2.3430118E-3,3.7408944E-2],"split_indices":[7,3,1,1,1,2,4,6,8,0,6,5,2,5,0,0,0,0,0,0,0,0,0,0,0,0,0,0,0,0,0],"split_type":[0,0,0,0,0,0,0,0,0,0,0,0,0,0,0,0,0,0,0,0,0,0,0,0,0,0,0,0,0,0,0],"sum_hessian":[2.5331973E2,1.6104771E2,9.227202E1,1.4440449E1,1.4660727E2,1.6398476E1,7.587354E1,7.8321075E0,6.6083407E0,1.0230691E2,4.4300358E1,9.055874E0,7.342601E0,1.8601255E1,5.7272285E1,6.6083407E0,1.2237668E0,2.692287E0,3.9160538E0,8.174762E1,2.0559282E1,1.0524395E1,3.3775963E1,5.6293273E0,3.426547E0,3.1817937E0,4.160807E0,4.895067E0,1.3706188E1,4.234233E1,1.4929955E1],"tree_param":{"num_deleted":"0","num_feature":"9","num_nodes":"31","size_leaf_vector":"1"}},{"base_weights":[-1.708147E-3,-1.7221834E-1,2.9357496E-1,1.2577097E0,-2.0901668E-1,-2.5646073E-1,4.1364932E-1,1.8342055E-2,7.513838E-2,-3.620512E-1,9.141541E-2,3.0210656E-1,-1.1636153E0,9.4297296E-1,2.2771941E-1,-2.682334E-2,6.1250622E-3,5.8257885E-2,-4.8905023E-4,4.76357E-2,-1.1805915E-2,-6.933309E-2,-1.0176592E-2,3.6458026E-3,6.1278433E-2,2.2278053E-3,3.548212E-2],"categories":[],"categories_nodes":[],"categories_segments":[],"categories_sizes":[],"default_left":[0,0,0,0,0,0,0,0,0,0,0,0,0,0,0,0,0,0,0,0,0,0,0,0,0,0,0],"id":1,"left_children":[1,3,5,7,9,11,13,-1,-1,15,17,19,21,23,25,-1,-1,-1,-1,-1,-1,-1,-1,-1,-1,-1,-1],"loss_changes":[1.2851854E1,8.777157E0,6.277504E0,3.6610603E-1,7.325328E0,9.148401E0,7.3714046E0,0E0,0E0,8.96355E0,5.914278E0,4.2655125E0,1.1786785E0,4.759018E0,5.120082E0,0E0,0E0,0E0,0E0,0E0,0E0,0E0,0E0,0E0,0E0,0E0,0E0],"parents":[2147483647,0,0,1,1,2,2,3,3,4,4,5,5,6,6,9,9,10,10,11,11,12,12,13,13,14,14],"right_children":[2,4,6,8,10,12,14,-1,-1,16,18,20,22,24,26,-1,-1,-1,-1,-1,-1,-1,-1,-1,-1,-1,-1],"split_conditions":[6.57E-2,1E0,3.71E2,2.8E1,1.6E1,4.29E2,3E0,1.8342055E-2,7.513838E-2,2.474E3,2E0,3E0,2.38E2,-1.0465E4,1.7E1,-2.682334E-2,6.1250622E-3,5.8257885E-2,-4.8905023E-4,4.76357E-2,-1.1805915E-2,-6.933309E-2,-1.0176592E-2,3.6458026E-3,6.1278433E-2,2.2278053E-3,3.548212E-2],"split_indices":[7,3,1,1,0,5,4,0,0,1,3,3,1,5,0,0,0,0,0,0,0,0,0,0,0,0,0],"split_type":[0,0,0,0,0,0,0,0,0,0,0,0,0,0,0,0,0,0,0,0,0,0,0,0,0,0,0],"sum_hessian":[2.5325233E2,1.6080995E2,9.2442375E1,3.2021165E0,1.5760785E2,1.6360855E1,7.608152E1,1.2294837E0,1.9726326E0,1.0428295E2,5.3324894E1,1.0538749E1,5.8221073E0,1.8718939E1,5.7362583E1,7.660256E1,2.7680384E1,3.687279E0,4.963761E1,4.422598E0,6.116151E0,4.36396E0,1.4581475E0,4.897749E0,1.3821189E1,4.2356647E1,1.5005935E1],"tree_param":{"num_deleted":"0","num_feature":"9","num_nodes":"27","size_leaf_vector":"1"}},{"base_weights":[-9.2614605E-4,-1.6310814E-1,2.791102E-1,1.2119138E0,-1.9872431E-1,-2.4695194E-1,3.9342177E-1,1.7813621E-2,7.228025E-2,-3.451967E-1,8.786051E-2,3.8630855E-1,-9.932392E-1,8.9509237E-1,2.166764E-1,-2.5611714E-2,5.8245263E-3,5.5667322E-2,-4.6511367E-4,-1.3423721E-2,6.351101E-2,-1.725489E-2,-6.6480026E-2,3.4928762E-3,5.8086433E-2,2.118313E-3,3.3683054E-2],"categories":[],"categories_nodes":[],"categories_segments":[],"categories_sizes":[],"default_left":[0,0,0,0,0,0,0,0,0,0,0,0,0,0,0,0,0,0,0,0,0,0,0,0,0,0,0],"id":2,"left_children":[1,3,5,7,9,11,13,-1,-1,15,17,19,21,23,25,-1,-1,-1,-1,-1,-1,-1,-1,-1,-1,-1,-1],"loss_changes":[1.1585917E1,8.151962E0,5.7233176E0,3.2868385E-1,6.6761327E0,8.566824E0,6.6550817E0,0E0,0E0,8.155263E0,5.4253235E0,6.1790576E0,1.335022E0,4.276599E0,4.626533E0,0E0,0E0,0E0,0E0,0E0,0E0,0E0,0E0,0E0,0E0,0E0,0E0],"parents":[2147483647,0,0,1,1,2,2,3,3,4,4,5,5,6,6,9,9,10,10,11,11,12,12,13,13,14,14],"right_children":[2,4,6,8,10,12,14,-1,-1,16,18,20,22,24,26,-1,-1,-1,-1,-1,-1,-1,-1,-1,-1,-1,-1],"split_conditions":[6.57E-2,1E0,3.71E2,2.8E1,1.6E1,-1E0,3E0,1.7813621E-2,7.228025E-2,2.474E3,2E0,-7.08E2,8E0,-1.0465E4,1.7E1,-2.5611714E-2,5.8245263E-3,5.5667322E-2,-4.6511367E-4,-1.3423721E-2,6.351101E-2,-1.725489E-2,-6.6480026E-2,3.4928762E-3,5.8086433E-2,2.118313E-3,3.3683054E-2],"split_indices":[7,3,1,1,0,2,4,0,0,1,3,5,2,5,0,0,0,0,0,0,0,0,0,0,0,0,0],"split_type":[0,0,0,0,0,0,0,0,0,0,0,0,0,0,0,0,0,0,0,0,0,0,0,0,0,0,0],"sum_hessian":[2.5309935E2,1.6054048E2,9.255887E1,3.2194936E0,1.5732098E2,1.6315334E1,7.624354E1,1.2322509E0,1.9872427E0,1.0397517E2,5.334582E1,9.0869665E0,7.228367E0,1.8804605E1,5.743893E1,7.627098E1,2.7704184E1,3.7117977E0,4.9634026E1,5.620032E0,3.4669352E0,3.1618013E0,4.0665655E0,4.9002876E0,1.3904319E1,4.237016E1,1.5068771E1],"tree_param":{"num_deleted":"0","num_feature":"9","num_nodes":"27","size_leaf_vector":"1"}},{"base_weights":[-1.7696586E-4,-1.5448782E-1,2.6561207E-1,5.169889E-1,-2.2436659E-1,-2.3756549E-1,3.7438816E-1,9.530811E-1,-6.348972E-2,-3.5353875E-1,7.2322905E-2,3.7166175E-1,-9.6207285E-1,8.508847E-1,2.0621406E-1,5.6248784E-2,-3.46752E-3,-3.474438E-2,2.0971572E-2,-1.0223256E-2,-3.5455912E-2,-2.2347895E-2,1.206788E-2,-1.2876931E-2,6.0797777E-2,-1.6636912E-2,-6.45951E-2,3.3464313E-3,5.516684E-2,2.0142244E-3,3.1999018E-2],"categories":[],"categories_nodes":[],"categories_segments":[],"categories_sizes":[],"default_left":[0,0,0,0,0,0,0,0,0,0,0,0,0,0,0,0,0,0,0,0,0,0,0,0,0,0,0,0,0,0,0],"id":3,"left_children":[1,3,5,7,9,11,13,15,17,19,21,23,25,27,29,-1,-1,-1,-1,-1,-1,-1,-1,-1,-1,-1,-1,-1,-1,-1,-1],"loss_changes":[1.0453125E1,7.6820817E0,5.212979E0,3.9846196E0,5.6494923E0,7.9726505E0,6.0241394E0,1.6446791E0,2.6049962E0,5.283266E0,4.087775E0,5.674967E0,1.2637887E0,3.8571157E0,4.1849422E0,0E0,0E0,0E0,0E0,0E0,0E0,0E0,0E0,0E0,0E0,0E0,0E0,0E0,0E0,0E0,0E0],"parents":[2147483647,0,0,1,1,2,2,3,3,4,4,5,5,6,6,7,7,8,8,9,9,10,10,11,11,12,12,13,13,14,14],"right_children":[2,4,6,8,10,12,14,16,18,20,22,24,26,28,30,-1,-1,-1,-1,-1,-1,-1,-1,-1,-1,-1,-1,-1,-1,-1,-1],"split_conditions":[6.57E-2,2E0,3.71E2,1.813E3,2.371E3,-1E0,3E0,5.9102E0,1.508E-1,2.992E-1,-2.055E0,-7.08E2,8E0,-1.0465E4,1.7E1,5.6248784E-2,-3.46752E-3,-3.474438E-2,2.0971572E-2,-1.0223256E-2,-3.5455912E-2,-2.2347895E-2,1.206788E-2,-1.2876931E-2,6.0797777E-2,-1.6636912E-2,-6.45951E-2,3.3464313E-3,5.516684E-2,2.0142244E-3,3.1999018E-2],"split_indices":[7,3,1,1,1,2,4,6,8,8,6,5,2,5,0,0,0,0,0,0,0,0,0,0,0,0,0,0,0,0,0],"split_type":[0,0,0,0,0,0,0,0,0,0,0,0,0,0,0,0,0,0,0,0,0,0,0,0,0,0,0,0,0,0,0],"sum_hessian":[2.5286592E2,1.6024829E2,9.261762E1,1.4501603E1,1.4574669E2,1.6252525E1,7.63651E1,7.914125E0,6.587478E0,1.0140538E2,4.434131E1,9.093204E0,7.1593223E0,1.8862223E1,5.7502876E1,6.6892166E0,1.2249082E0,2.6646466E0,3.9228318E0,7.256017E1,2.8845203E1,1.0485447E1,3.385586E1,5.6084986E0,3.484705E0,3.152664E0,4.0066586E0,4.9026904E0,1.3959532E1,4.238292E1,1.511996E1],"tree_param":{"num_deleted":"0","num_feature":"9","num_nodes":"31","size_leaf_vector":"1"}},{"base_weights":[-4.1265266E-5,-1.4715768E-1,2.5289035E-1,1.1337907E0,-1.8063352E-1,-2.2876744E-1,3.5644707E-1,1.6379124E-2,6.786787E-2,-3.210535E-1,9.2965886E-2,3.5781914E-1,-9.326984E-1,8.0988824E-1,1.9629543E-1,-2.3828765E-2,5.2601E-3,5.2003484E-2,1.2065433E-4,-1.2352575E-2,5.829507E-2,-1.6041895E-2,-6.285003E-2,1.3625207E-2,5.8953386E-2,1.9152897E-3,3.0419065E-2],"categories":[],"categories_nodes":[],"categories_segments":[],"categories_sizes":[],"default_left":[0,0,0,0,0,0,0,0,0,0,0,0,0,0,0,0,0,0,0,0,0,0,0,0,0,0,0],"id":4,"left_children":[1,3,5,7,9,11,13,-1,-1,15,17,19,21,23,25,-1,-1,-1,-1,-1,-1,-1,-1,-1,-1,-1,-1],"loss_changes":[9.473748E0,7.107373E0,4.7516193E0,3.190441E-1,6.0898066E0,7.4264402E0,5.465474E0,0E0,0E0,6.9750757E0,4.6521E0,5.2209654E0,1.2009697E0,3.6257582E0,3.7889893E0,0E0,0E0,0E0,0E0,0E0,0E0,0E0,0E0,0E0,0E0,0E0,0E0],"parents":[2147483647,0,0,1,1,2,2,3,3,4,4,5,5,6,6,9,9,10,10,11,11,12,12,13,13,14,14],"right_children":[2,4,6,8,10,12,14,-1,-1,16,18,20,22,24,26,-1,-1,-1,-1,-1,-1,-1,-1,-1,-1,-1,-1],"split_conditions":[6.57E-2,1E0,3.71E2,2.8E1,1.6E1,-1E0,3E0,1.6379124E-2,6.786787E-2,2.474E3,2E0,-7.08E2,8E0,-3.138E3,1.7E1,-2.3828765E-2,5.2601E-3,5.2003484E-2,1.2065433E-4,-1.2352575E-2,5.829507E-2,-1.6041895E-2,-6.285003E-2,1.3625207E-2,5.8953386E-2,1.9152897E-3,3.0419065E-2],"split_indices":[7,3,1,1,0,2,4,0,0,1,3,5,2,5,0,0,0,0,0,0,0,0,0,0,0,0,0],"split_type":[0,0,0,0,0,0,0,0,0,0,0,0,0,0,0,0,0,0,0,0,0,0,0,0,0,0,0],"sum_hessian":[2.525994E2,1.5997116E2,9.262824E1,3.237046E0,1.5673412E2,1.6177092E1,7.645115E1,1.2379835E0,1.9990627E0,1.03461105E2,5.3273006E1,9.092218E0,7.0848727E0,1.8895336E1,5.7555817E1,7.57172E1,2.7743908E1,3.7338972E0,4.953911E1,5.596996E0,3.4952228E0,3.143449E0,3.9414237E0,8.402558E0,1.0492777E1,4.2394966E1,1.5160852E1],"tree_param":{"num_deleted":"0","num_feature":"9","num_nodes":"27","size_leaf_vector":"1"}},{"base_weights":[6.7940773E-4,7.063796E-2,-4.9062496E-1,6.4458585E-1,8.767745E-3,-7.067985E-1,-1.6374005E-2,-1.7790486E-1,8.359933E-1,-1.4777197E-1,2.6441836E-1,6.272373E-2,-8.775371E-1,-4.720535E-1,8.381299E-1,4.178087E-2,-3.698191E-2,5.9724607E-2,1.8019876E-2,-1.1114406E-2,1.6319253E-2,3.4508623E-2,5.700487E-3,-3.1296823E-2,4.9524825E-2,1.7381934E-2,-4.944394E-2,-3.679076E-2,1.05354395E-2,-2.5741232E-3,6.1125398E-2],"categories":[],"categories_nodes":[],"categories_segments":[],"categories_sizes":[],"default_left":[0,0,0,0,0,0,0,0,0,0,0,0,0,0,0,0,0,0,0,0,0,0,0,0,0,0,0,0,0,0,0],"id":5,"left_children":[1,3,5,7,9,11,13,15,17,19,21,23,25,27,29,-1,-1,-1,-1,-1,-1,-1,-1,-1,-1,-1,-1,-1,-1,-1,-1],"loss_changes":[8.739316E0,7.897636E0,3.2376056E0,3.5560684E0,8.119804E0,2.912201E0,4.6581283E0,3.413722E0,2.592987E0,4.520091E0,4.854904E0,3.739252E0,2.7806597E0,1.5559835E0,1.4880354E0,0E0,0E0,0E0,0E0,0E0,0E0,0E0,0E0,0E0,0E0,0E0,0E0,0E0,0E0,0E0,0E0],"parents":[2147483647,0,0,1,1,2,2,3,3,4,4,5,5,6,6,7,7,8,8,9,9,10,10,11,11,12,12,13,13,14,14],"right_children":[2,4,6,8,10,12,14,16,18,20,22,24,26,28,30,-1,-1,-1,-1,-1,-1,-1,-1,-1,-1,-1,-1,-1,-1,-1,-1],"split_conditions":[1.1E1,2E0,2.1725E4,-7.185E3,6.57E-2,1.131E-1,1.9E1,-1.9194E4,2E0,7.128E3,3E0,1.8E1,-5.7939E0,2.252E3,1.116E3,4.178087E-2,-3.698191E-2,5.9724607E-2,1.8019876E-2,-1.1114406E-2,1.6319253E-2,3.4508623E-2,5.700487E-3,-3.1296823E-2,4.9524825E-2,1.7381934E-2,-4.944394E-2,-3.679076E-2,1.05354395E-2,-2.5741232E-3,6.1125398E-2],"split_indices":[2,3,5,5,7,8,2,5,2,5,3,0,6,1,1,0,0,0,0,0,0,0,0,0,0,0,0,0,0,0,0],"split_type":[0,0,0,0,0,0,0,0,0,0,0,0,0,0,0,0,0,0,0,0,0,0,0,0,0,0,0,0,0,0,0],"sum_hessian":[2.5225632E2,2.2156335E2,3.0692963E1,2.0643417E1,2.0091994E2,2.0746105E1,9.946857E0,3.910458E0,1.673296E1,1.24877235E2,7.604271E1,3.8820877E0,1.6864017E1,6.779264E0,3.1675937E0,1.2205961E0,2.6898623E0,8.679146E0,8.053813E0,1.0837651E2,1.6500721E1,1.8914305E1,5.7128407E1,2.4149048E0,1.4671829E0,1.228096E0,1.5635922E1,4.83408E0,1.9451836E0,1.2170022E0,1.9505916E0],"tree_param":{"num_deleted":"0","num_feature":"9","num_nodes":"31","size_leaf_vector":"1"}},{"base_weights":[1.1875161E-3,6.767279E-2,-4.6811944E-1,6.152585E-1,8.543145E-3,-3.3267263E-2,-6.9465053E-1,1.3018023E0,3.6059025E-1,-1.4053755E-1,2.5137463E-1,-3.2516888E-1,4.1868278E-1,-9.6617067E-1,3.437411E-2,7.621015E-2,1.4952882E-2,-4.9579374E-2,2.6299292E-2,-1.0584466E-2,1.5509771E-2,3.2758668E-2,5.417034E-3,-3.5036884E-2,2.5984619E-2,-2.195747E-2,3.9691206E-2,-5.732134E-2,-3.705129E-3,-2.8788924E-2,2.574121E-2],"categories":[],"categories_nodes":[],"categories_segments":[],"categories_sizes":[],"default_left":[0,0,0,0,0,0,0,0,0,0,0,0,0,0,0,0,0,0,0,0,0,0,0,0,0,0,0,0,0,0,0],"id":6,"left_children":[1,3,5,7,9,11,13,15,17,19,21,23,25,27,29,-1,-1,-1,-1,-1,-1,-1,-1,-1,-1,-1,-1,-1,-1,-1,-1],"loss_changes":[7.92757E0,7.1999288E0,3.0825987E0,3.319971E0,7.3428235E0,1.6993022E0,4.126465E0,7.665329E-1,4.366496E0,4.0973353E0,4.38458E0,2.8270767E0,1.9856012E0,2.3433743E0,2.2245424E0,0E0,0E0,0E0,0E0,0E0,0E0,0E0,0E0,0E0,0E0,0E0,0E0,0E0,0E0,0E0,0E0],"parents":[2147483647,0,0,1,1,2,2,3,3,4,4,5,5,6,6,7,7,8,8,9,9,10,10,11,11,12,12,13,13,14,14],"right_children":[2,4,6,8,10,12,14,16,18,20,22,24,26,28,30,-1,-1,-1,-1,-1,-1,-1,-1,-1,-1,-1,-1,-1,-1,-1,-1],"split_conditions":[1.1E1,2E0,3E-2,7.5E1,6.57E-2,1.573E-1,9.91E-2,4.3494E0,1.2E2,7.128E3,3E0,1.8E1,1.79E-2,5.2653E0,6.73E2,7.621015E-2,1.4952882E-2,-4.9579374E-2,2.6299292E-2,-1.0584466E-2,1.5509771E-2,3.2758668E-2,5.417034E-3,-3.5036884E-2,2.5984619E-2,-2.195747E-2,3.9691206E-2,-5.732134E-2,-3.705129E-3,-2.8788924E-2,2.574121E-2],"split_indices":[2,3,7,1,7,8,7,6,1,5,3,0,7,6,1,0,0,0,0,0,0,0,0,0,0,0,0,0,0,0,0],"split_type":[0,0,0,0,0,0,0,0,0,0,0,0,0,0,0,0,0,0,0,0,0,0,0,0,0,0,0,0,0,0,0],"sum_hessian":[2.520572E2,2.215296E2,3.0527615E1,2.0673347E1,2.0085625E2,1.0848857E1,1.9678757E1,4.481149E0,1.6192198E1,1.2471293E2,7.614332E1,6.7619967E0,4.08686E0,1.410147E1,5.5772867E0,3.2420561E0,1.2390932E0,1.2203206E0,1.4971877E1,1.0816808E2,1.6544846E1,1.89801E1,5.716322E1,4.7991877E0,1.9628091E0,1.1915439E0,2.8953161E0,1.1493831E1,2.6076398E0,2.3695886E0,3.2076983E0],"tree_param":{"num_deleted":"0","num_feature":"9","num_nodes":"31","size_leaf_vector":"1"}},{"base_weights":[1.316899E-3,6.479187E-2,-4.488803E-1,5.8701783E-1,8.32108E-3,-6.573159E-1,3.2457272E-3,-1.8881205E-1,7.685643E-1,-1.3365696E-1,2.3902576E-1,7.27591E-2,-8.2175314E-1,-4.332774E-1,8.082255E-1,3.9715145E-2,-3.663338E-2,5.066925E-2,8.677839E-3,-1.00794295E-2,1.4743924E-2,3.1118825E-2,5.147911E-3,-2.9220939E-2,4.6993732E-2,1.7407691E-2,-4.653301E-2,-3.4547262E-2,1.1014992E-2,-2.4729276E-3,5.8799345E-2],"categories":[],"categories_nodes":[],"categories_segments":[],"categories_sizes":[],"default_left":[0,0,0,0,0,0,0,0,0,0,0,0,0,0,0,0,0,0,0,0,0,0,0,0,0,0,0,0,0,0,0],"id":7,"left_children":[1,3,5,7,9,11,13,15,17,19,21,23,25,27,29,-1,-1,-1,-1,-1,-1,-1,-1,-1,-1,-1,-1,-1,-1,-1,-1],"loss_changes":[7.254361E0,6.5559273E0,2.9584227E0,3.200841E0,6.6411495E0,2.6380615E0,4.1781454E0,3.210833E0,2.4138775E0,3.714311E0,3.9642582E0,3.3225307E0,2.567689E0,1.4513621E0,1.3764133E0,0E0,0E0,0E0,0E0,0E0,0E0,0E0,0E0,0E0,0E0,0E0,0E0,0E0,0E0,0E0,0E0],"parents":[2147483647,0,0,1,1,2,2,3,3,4,4,5,5,6,6,7,7,8,8,9,9,10,10,11,11,12,12,13,13,14,14],"right_children":[2,4,6,8,10,12,14,16,18,20,22,24,26,28,30,-1,-1,-1,-1,-1,-1,-1,-1,-1,-1,-1,-1,-1,-1,-1,-1],"split_conditions":[1.1E1,2E0,2.1725E4,-7.185E3,6.57E-2,1.131E-1,1.9E1,-1.9194E4,2.6605E0,7.128E3,3E0,1.8E1,-5.7939E0,2.252E3,1.116E3,3.9715145E-2,-3.663338E-2,5.066925E-2,8.677839E-3,-1.00794295E-2,1.4743924E-2,3.1118825E-2,5.147911E-3,-2.9220939E-2,4.6993732E-2,1.7407691E-2,-4.653301E-2,-3.4547262E-2,1.1014992E-2,-2.4729276E-3,5.8799345E-2],"split_indices":[2,3,5,5,7,8,2,5,6,5,3,0,6,1,1,0,0,0,0,0,0,0,0,0,0,0,0,0,0,0,0],"split_type":[0,0,0,0,0,0,0,0,0,0,0,0,0,0,0,0,0,0,0,0,0,0,0,0,0,0,0,0,0,0,0],"sum_hessian":[2.51842E2,2.2147194E2,3.0370068E1,2.0695032E1,2.007769E2,2.0476376E1,9.893692E0,3.9167917E0,1.677824E1,1.2454888E2,7.622802E1,3.86664E0,1.6609735E1,6.714382E0,3.1793103E0,1.2310137E0,2.6857781E0,1.1388999E1,5.389242E0,1.07963974E2,1.6584906E1,1.903254E1,5.7195477E1,2.385053E0,1.481587E0,1.2274418E0,1.5382294E1,4.774785E0,1.9395968E0,1.213869E0,1.9654413E0],"tree_param":{"num_deleted":"0","num_feature":"9","num_nodes":"31","size_leaf_vector":"1"}},{"base_weights":[1.7157802E-3,6.2030848E-2,-4.2850935E-1,5.60507E-1,8.101685E-3,-1.9470597E-2,-6.4411366E-1,1.2283896E0,3.160041E-1,-1.2711212E-1,2.273268E-1,-3.0502915E-1,4.1803154E-1,-9.065943E-1,4.999139E-2,7.187661E-2,1.4287031E-2,-4.9220186E-2,2.3819106E-2,-9.598105E-3,1.4018893E-2,2.9578865E-2,4.8923553E-3,-3.302174E-2,2.4193875E-2,-2.0826252E-2,3.8829155E-2,-5.4190826E-2,-2.3488065E-3,-2.6692182E-2,2.5010332E-2],"categories":[],"categories_nodes":[],"categories_segments":[],"categories_sizes":[],"default_left":[0,0,0,0,0,0,0,0,0,0,0,0,0,0,0,0,0,0,0,0,0,0,0,0,0,0,0,0,0,0,0],"id":8,"left_children":[1,3,5,7,9,11,13,15,17,19,21,23,25,27,29,-1,-1,-1,-1,-1,-1,-1,-1,-1,-1,-1,-1,-1,-1,-1,-1],"loss_changes":[6.5802794E0,5.9735622E0,2.7372704E0,3.1546664E0,6.0072784E0,1.6009037E0,3.7595835E0,6.671705E-1,4.061922E0,3.3672326E0,3.5877533E0,2.4824452E0,1.8434043E0,2.21064E0,1.9865412E0,0E0,0E0,0E0,0E0,0E0,0E0,0E0,0E0,0E0,0E0,0E0,0E0,0E0,0E0,0E0,0E0],"parents":[2147483647,0,0,1,1,2,2,3,3,4,4,5,5,6,6,7,7,8,8,9,9,10,10,11,11,12,12,13,13,14,14],"right_children":[2,4,6,8,10,12,14,16,18,20,22,24,26,28,30,-1,-1,-1,-1,-1,-1,-1,-1,-1,-1,-1,-1,-1,-1,-1,-1],"split_conditions":[1.1E1,2E0,3E-2,7.5E1,6.57E-2,1.573E-1,9.91E-2,4.3494E0,1.2E2,7.128E3,3E0,1.8E1,1.79E-2,5.2653E0,6.73E2,7.187661E-2,1.4287031E-2,-4.9220186E-2,2.3819106E-2,-9.598105E-3,1.4018893E-2,2.9578865E-2,4.8923553E-3,-3.302174E-2,2.4193875E-2,-2.0826252E-2,3.8829155E-2,-5.4190826E-2,-2.3488065E-3,-2.6692182E-2,2.5010332E-2],"split_indices":[2,3,7,1,7,8,7,6,1,5,3,0,7,6,1,0,0,0,0,0,0,0,0,0,0,0,0,0,0,0,0],"split_type":[0,0,0,0,0,0,0,0,0,0,0,0,0,0,0,0,0,0,0,0,0,0,0,0,0,0,0,0,0,0,0],"sum_hessian":[2.5156018E2,2.2137984E2,3.0180351E1,2.0695404E1,2.0068443E2,1.0793507E1,1.9386845E1,4.467628E0,1.6227776E1,1.24385826E2,7.62986E1,6.7140355E0,4.079471E0,1.3845093E1,5.541752E0,3.2267315E0,1.2408966E0,1.2175314E0,1.5010244E1,1.0776456E2,1.6621273E1,1.9073214E1,5.7225388E1,4.74103E0,1.9730053E0,1.1773678E0,2.9021032E0,1.1262383E1,2.582709E0,2.3319492E0,3.2098024E0],"tree_param":{"num_deleted":"0","num_feature":"9","num_nodes":"31","size_leaf_vector":"1"}},{"base_weights":[1.8050359E-3,5.9399176E-2,-4.1118452E-1,5.3538775E-1,7.885023E-3,-1.0077192E0,-2.503347E-1,1.1867957E0,2.984557E-1,-1.2088621E-1,2.1623698E-1,-1.2748339E-3,-6.181621E-2,3.8598815E-1,-4.7028396E-1,6.945493E-2,1.3885572E-2,-4.8047986E-2,2.2670103E-2,-9.8399995E-3,1.0692897E-2,4.805386E-2,7.7461447E-3,-1.9490993E-2,6.234665E-2,-6.1811715E-2,-3.5492906E-3],"categories":[],"categories_nodes":[],"categories_segments":[],"categories_sizes":[],"default_left":[0,0,0,0,0,0,0,0,0,0,0,0,0,0,0,0,0,0,0,0,0,0,0,0,0,0,0],"id":9,"left_children":[1,3,5,7,9,11,13,15,17,19,21,-1,-1,23,25,-1,-1,-1,-1,-1,-1,-1,-1,-1,-1,-1,-1],"loss_changes":[6.0249634E0,5.4459333E0,2.7224283E0,2.993639E0,5.4345074E0,1.3726406E0,3.7852192E0,6.1643744E-1,3.8003402E0,3.2242517E0,3.3839252E0,0E0,0E0,5.2705393E0,5.9022107E0,0E0,0E0,0E0,0E0,0E0,0E0,0E0,0E0,0E0,0E0,0E0,0E0],"parents":[2147483647,0,0,1,1,2,2,3,3,4,4,5,5,6,6,7,7,8,8,9,9,10,10,13,13,14,14],"right_children":[2,4,6,8,10,12,14,16,18,20,22,-1,-1,24,26,-1,-1,-1,-1,-1,-1,-1,-1,-1,-1,-1,-1],"split_conditions":[1.1E1,2E0,3.13E2,7.5E1,6.57E-2,2.93E-2,9.911E3,4.3494E0,1.2E2,1.8E1,7E0,-1.2748339E-3,-6.181621E-2,1.2E1,1.811E4,6.945493E-2,1.3885572E-2,-4.8047986E-2,2.2670103E-2,-9.8399995E-3,1.0692897E-2,4.805386E-2,7.7461447E-3,-1.9490993E-2,6.234665E-2,-6.1811715E-2,-3.5492906E-3],"split_indices":[2,3,1,1,7,7,5,6,1,0,0,0,0,0,5,0,0,0,0,0,0,0,0,0,0,0,0],"split_type":[0,0,0,0,0,0,0,0,0,0,0,0,0,0,0,0,0,0,0,0,0,0,0,0,0,0,0],"sum_hessian":[2.5127428E2,2.2127252E2,3.0001753E1,2.0691444E1,2.0058109E2,5.253484E0,2.4748268E1,4.449425E0,1.6242018E1,1.242244E2,7.635668E1,1.2017189E0,4.051765E0,6.1631393E0,1.8585129E1,3.2076027E0,1.2418226E0,1.2094704E0,1.5032548E1,1.0159632E2,2.2628082E1,4.691381E0,7.16653E1,3.5297008E0,2.6334383E0,5.6503587E0,1.2934771E1],"tree_param":{"num_deleted":"0","num_feature":"9","num_nodes":"27","size_leaf_vector":"1"}},{"base_weights":[1.8022533E-3,5.696495E-2,-3.9562002E-1,5.117113E-1,7.766064E-3,-9.8014367E-1,-2.3958763E-1,-2.1529889E-1,6.8485296E-1,-1.1498337E-1,2.0596218E-1,-1.2401959E-3,-6.0297336E-2,3.7190047E-1,-4.52389E-1,3.717265E-2,-3.695489E-2,5.0938666E-2,1.2815172E-2,-8.993278E-3,1.32353185E-2,2.7623618E-2,4.1452115E-3,-1.879985E-2,5.9614647E-2,-5.996836E-2,-3.3866677E-3],"categories":[],"categories_nodes":[],"categories_segments":[],"categories_sizes":[],"default_left":[0,0,0,0,0,0,0,0,0,0,0,0,0,0,0,0,0,0,0,0,0,0,0,0,0,0,0],"id":10,"left_children":[1,3,5,7,9,11,13,15,17,19,21,-1,-1,23,25,-1,-1,-1,-1,-1,-1,-1,-1,-1,-1,-1,-1],"loss_changes":[5.547361E0,4.9666343E0,2.5781002E0,2.8757372E0,4.925754E0,1.3020992E0,3.5082026E0,3.0252173E0,2.278164E0,3.128793E0,3.2555597E0,0E0,0E0,4.850756E0,5.5194016E0,0E0,0E0,0E0,0E0,0E0,0E0,0E0,0E0,0E0,0E0,0E0,0E0],"parents":[2147483647,0,0,1,1,2,2,3,3,4,4,5,5,6,6,7,7,8,8,9,9,10,10,13,13,14,14],"right_children":[2,4,6,8,10,12,14,16,18,20,22,-1,-1,24,26,-1,-1,-1,-1,-1,-1,-1,-1,-1,-1,-1,-1],"split_conditions":[1.1E1,2E0,3.13E2,-7.185E3,6.57E-2,2.93E-2,9.911E3,-1.9194E4,2E0,6.4074E0,3E0,-1.2401959E-3,-6.0297336E-2,1.2E1,1.811E4,3.717265E-2,-3.695489E-2,5.0938666E-2,1.2815172E-2,-8.993278E-3,1.32353185E-2,2.7623618E-2,4.1452115E-3,-1.879985E-2,5.9614647E-2,-5.996836E-2,-3.3866677E-3],"split_indices":[2,3,1,5,7,7,5,5,2,6,3,0,0,0,5,0,0,0,0,0,0,0,0,0,0,0,0],"split_type":[0,0,0,0,0,0,0,0,0,0,0,0,0,0,0,0,0,0,0,0,0,0,0,0,0,0,0],"sum_hessian":[2.510118E2,2.2116982E2,2.9841976E1,2.0674461E1,2.0049536E2,5.1747646E0,2.4667212E1,3.9298408E0,1.674462E1,1.240728E2,7.6422554E1,1.2014501E0,3.9733143E0,6.1751575E0,1.8492054E1,1.2402898E0,2.689551E0,8.637293E0,8.107327E0,1.0641471E2,1.7658092E1,1.9113283E1,5.7309273E1,3.5136669E0,2.661491E0,5.5657244E0,1.292633E1],"tree_param":{"num_deleted":"0","num_feature":"9","num_nodes":"27","size_leaf_vector":"1"}},{"base_weights":[1.7489059E-3,5.459344E-2,-3.808985E-1,-3.3938114E-2,2.9504165E-1,-9.5410174E-1,-2.294436E-1,9.131339E-1,-6.893394E-2,1.1967149E-1,1.3152648E0,-1.2065052E-3,-5.8875795E-2,3.585535E-1,-4.3535078E-1,5.3436246E-2,8.961504E-3,-1.611423E-3,-3.7605494E-2,1.4537873E-2,-2.3957668E-2,7.914733E-2,-8.051611E-3,-1.8133972E-2,5.708856E-2,-5.8246143E-2,-3.231426E-3],"categories":[],"categories_nodes":[],"categories_segments":[],"categories_sizes":[],"default_left":[0,0,0,0,0,0,0,0,0,0,0,0,0,0,0,0,0,0,0,0,0,0,0,0,0,0,0],"id":11,"left_children":[1,3,5,7,9,11,13,15,17,19,21,-1,-1,23,25,-1,-1,-1,-1,-1,-1,-1,-1,-1,-1,-1,-1],"loss_changes":[5.1105237E0,4.7366066E0,2.4435697E0,5.471407E0,1.0551812E1,1.2375593E0,3.2525907E0,4.8047447E-1,3.9452796E0,5.4848027E0,3.684887E0,0E0,0E0,4.470871E0,5.1701374E0,0E0,0E0,0E0,0E0,0E0,0E0,0E0,0E0,0E0,0E0,0E0,0E0],"parents":[2147483647,0,0,1,1,2,2,3,3,4,4,5,5,6,6,7,7,8,8,9,9,10,10,13,13,14,14],"right_children":[2,4,6,8,10,12,14,16,18,20,22,-1,-1,24,26,-1,-1,-1,-1,-1,-1,-1,-1,-1,-1,-1,-1],"split_conditions":[1.1E1,1.7E1,3.13E2,1E0,6.729E3,2.93E-2,9.911E3,1.4E1,8.0781E0,1E0,2.742E3,-1.2065052E-3,-5.8875795E-2,1.2E1,1.811E4,5.3436246E-2,8.961504E-3,-1.611423E-3,-3.7605494E-2,1.4537873E-2,-2.3957668E-2,7.914733E-2,-8.051611E-3,-1.8133972E-2,5.708856E-2,-5.8246143E-2,-3.231426E-3],"split_indices":[2,0,1,3,5,7,5,0,6,2,1,0,0,0,5,0,0,0,0,0,0,0,0,0,0,0,0],"split_type":[0,0,0,0,0,0,0,0,0,0,0,0,0,0,0,0,0,0,0,0,0,0,0,0,0,0,0],"sum_hessian":[2.507073E2,2.2103865E2,2.9668646E1,1.621828E2,5.8855854E1,5.0931816E0,2.4575464E1,4.8851852E0,1.5729762E2,5.1176266E1,7.67959E0,1.2011878E0,3.891994E0,6.1816254E0,1.8393839E1,3.6542487E0,1.2309368E0,1.5027107E2,7.026547E0,4.020425E1,1.0972015E1,6.4397035E0,1.2398866E0,3.4976866E0,2.6839385E0,5.4756303E0,1.2918209E1],"tree_param":{"num_deleted":"0","num_feature":"9","num_nodes":"27","size_leaf_vector":"1"}},{"base_weights":[1.63982E-3,-1.0581077E-1,1.8400675E-1,-2.2949535E-1,1.316011E-1,-2.7847594E-1,2.8243512E-1,-3.631798E-1,1.3961083E-1,6.0533035E-1,-4.6070363E-2,2.3338872E-1,-8.992362E-1,6.8944395E-1,1.3980147E-1,7.96869E-3,-2.443719E-2,5.6759495E-2,-2.0435264E-3,-5.984617E-3,4.119461E-2,-1.4752306E-2,2.2476805E-2,-1.4612908E-2,4.833834E-2,-1.8955199E-2,-5.8600403E-2,9.142553E-3,5.235948E-2,-4.29757E-4,2.6504526E-2],"categories":[],"categories_nodes":[],"categories_segments":[],"categories_sizes":[],"default_left":[0,0,0,0,0,0,0,0,0,0,0,0,0,0,0,0,0,0,0,0,0,0,0,0,0,0,0,0,0,0,0],"id":12,"left_children":[1,3,5,7,9,11,13,15,17,19,21,23,25,27,29,-1,-1,-1,-1,-1,-1,-1,-1,-1,-1,-1,-1,-1,-1,-1,-1],"loss_changes":[4.9471436E0,4.695351E0,4.339385E0,5.2228613E0,4.6616163E0,5.588705E0,4.412622E0,5.1450434E0,5.1839204E0,2.4892788E0,5.1876616E0,4.1651955E0,6.703267E-1,3.4152613E0,3.4083145E0,0E0,0E0,0E0,0E0,0E0,0E0,0E0,0E0,0E0,0E0,0E0,0E0,0E0,0E0,0E0,0E0],"parents":[2147483647,0,0,1,1,2,2,3,3,4,4,5,5,6,6,7,7,8,8,9,9,10,10,11,11,12,12,13,13,14,14],"right_children":[2,4,6,8,10,12,14,16,18,20,22,24,26,28,30,-1,-1,-1,-1,-1,-1,-1,-1,-1,-1,-1,-1,-1,-1,-1,-1],"split_conditions":[6.57E-2,1.6E1,3.71E2,2.474E3,3E0,-1E0,3E0,3.37E-2,2.585E3,1.21E2,2.6605E0,-7.08E2,8E0,-3.138E3,1.7E1,7.96869E-3,-2.443719E-2,5.6759495E-2,-2.0435264E-3,-5.984617E-3,4.119461E-2,-1.4752306E-2,2.2476805E-2,-1.4612908E-2,4.833834E-2,-1.8955199E-2,-5.8600403E-2,9.142553E-3,5.235948E-2,-4.29757E-4,2.6504526E-2],"split_indices":[7,0,1,1,4,2,4,8,1,1,6,5,2,5,0,0,0,0,0,0,0,0,0,0,0,0,0,0,0,0,0],"split_type":[0,0,0,0,0,0,0,0,0,0,0,0,0,0,0,0,0,0,0,0,0,0,0,0,0,0,0,0,0,0,0],"sum_hessian":[2.5047052E2,1.5787209E2,9.2598434E1,1.0381886E2,5.4053215E1,1.5928135E1,7.66703E1,7.6226776E1,2.7592085E1,1.4086653E1,3.9966564E1,9.07178E0,6.856354E0,1.8901297E1,5.7769005E1,1.4715736E1,6.151104E1,3.4225693E0,2.4169516E1,3.3676627E0,1.071899E1,2.6871777E1,1.3094787E1,5.6346498E0,3.4371305E0,3.1808343E0,3.6755202E0,8.448603E0,1.0452693E1,4.256342E1,1.52055855E1],"tree_param":{"num_deleted":"0","num_feature":"9","num_nodes":"31","size_leaf_vector":"1"}},{"base_weights":[2.0248964E-3,5.189835E-2,-3.6197934E-1,4.7833544E-1,5.9299385E-3,-5.5128175E-1,3.28317E-2,1.0942285E0,2.578524E-1,-1.750278E-1,1.19088136E-1,8.345618E-2,-6.998626E-1,-3.874494E-1,7.9057693E-1,6.689312E-2,1.302849E-2,-4.748329E-2,2.0416992E-2,3.482619E-3,-2.5039176E-2,2.8612844E-3,3.0569166E-2,-2.5655989E-2,4.2128835E-2,1.8769534E-2,-4.0374238E-2,-3.192198E-2,1.1582675E-2,-2.3399289E-3,5.7345893E-2],"categories":[],"categories_nodes":[],"categories_segments":[],"categories_sizes":[],"default_left":[0,0,0,0,0,0,0,0,0,0,0,0,0,0,0,0,0,0,0,0,0,0,0,0,0,0,0,0,0,0,0],"id":13,"left_children":[1,3,5,7,9,11,13,15,17,19,21,23,25,27,29,-1,-1,-1,-1,-1,-1,-1,-1,-1,-1,-1,-1,-1,-1,-1,-1],"loss_changes":[4.576714E0,4.3428373E0,2.2886474E0,2.6454735E0,4.1393323E0,2.0002851E0,3.7423782E0,7.4311686E-1,3.5104344E0,6.234993E0,3.7517881E0,2.6057115E0,2.246232E0,1.3305953E0,1.300416E0,0E0,0E0,0E0,0E0,0E0,0E0,0E0,0E0,0E0,0E0,0E0,0E0,0E0,0E0,0E0,0E0],"parents":[2147483647,0,0,1,1,2,2,3,3,4,4,5,5,6,6,7,7,8,8,9,9,10,10,11,11,12,12,13,13,14,14],"right_children":[2,4,6,8,10,12,14,16,18,20,22,24,26,28,30,-1,-1,-1,-1,-1,-1,-1,-1,-1,-1,-1,-1,-1,-1,-1,-1],"split_conditions":[1.1E1,2E0,2.1725E4,7.5E1,4.13E-2,1.131E-1,1.9E1,-6E0,1.2E2,2.39E-2,8.785E3,1.8E1,-5.7939E0,2.252E3,1.116E3,6.689312E-2,1.302849E-2,-4.748329E-2,2.0416992E-2,3.482619E-3,-2.5039176E-2,2.8612844E-3,3.0569166E-2,-2.5655989E-2,4.2128835E-2,1.8769534E-2,-4.0374238E-2,-3.192198E-2,1.1582675E-2,-2.3399289E-3,5.7345893E-2],"split_indices":[2,3,5,1,7,8,2,2,1,7,5,0,6,1,1,0,0,0,0,0,0,0,0,0,0,0,0,0,0,0,0],"split_type":[0,0,0,0,0,0,0,0,0,0,0,0,0,0,0,0,0,0,0,0,0,0,0,0,0,0,0,0,0,0,0],"sum_hessian":[2.5006812E2,2.2068828E2,2.9379826E1,2.0559294E1,2.00129E2,1.9590387E1,9.789438E0,4.3751006E0,1.6184193E1,7.678729E1,1.23341705E2,3.799068E0,1.579132E1,6.6112237E0,3.178214E0,2.917626E0,1.4574746E0,1.2049576E0,1.4979235E1,4.4299458E1,3.248783E1,1.1056429E2,1.277741E1,2.3087401E0,1.4903276E0,1.2103791E0,1.4580941E1,4.681903E0,1.9293208E0,1.2080506E0,1.9701636E0],"tree_param":{"num_deleted":"0","num_feature":"9","num_nodes":"31","size_leaf_vector":"1"}},{"base_weights":[2.2749808E-3,-9.73209E-2,1.7112938E-1,9.160268E-1,-1.2404138E-1,-2.7258104E-1,2.6474223E-1,7.920464E-3,5.899016E-2,-2.4466716E-1,1.080685E-1,2.1656732E-1,-8.708166E-1,6.521145E-1,1.2932502E-1,-1.9358752E-2,6.8379603E-3,-3.7002247E-3,2.4047043E-2,-1.4077674E-2,4.585998E-2,-1.8424964E-2,-5.6963682E-2,-1.6175201E-3,4.4112217E-2,-5.9623347E-4,2.5043625E-2],"categories":[],"categories_nodes":[],"categories_segments":[],"categories_sizes":[],"default_left":[0,0,0,0,0,0,0,0,0,0,0,0,0,0,0,0,0,0,0,0,0,0,0,0,0,0,0],"id":14,"left_children":[1,3,5,7,9,11,13,-1,-1,15,17,19,21,23,25,-1,-1,-1,-1,-1,-1,-1,-1,-1,-1,-1,-1],"loss_changes":[4.2338305E0,4.401784E0,3.951609E0,6.50028E-1,4.3712473E0,5.0943055E0,3.9880452E0,0E0,0E0,5.6200833E0,3.6854239E0,3.7566042E0,6.239877E-1,3.1570768E0,3.0903394E0,0E0,0E0,0E0,0E0,0E0,0E0,0E0,0E0,0E0,0E0,0E0,0E0],"parents":[2147483647,0,0,1,1,2,2,3,3,4,4,5,5,6,6,9,9,10,10,11,11,12,12,13,13,14,14],"right_children":[2,4,6,8,10,12,14,-1,-1,16,18,20,22,24,26,-1,-1,-1,-1,-1,-1,-1,-1,-1,-1,-1,-1],"split_conditions":[6.57E-2,1E0,3.71E2,2.8E1,1.6E1,-1E0,3E0,7.920464E-3,5.899016E-2,2.474E3,2.8007E0,-7.08E2,8E0,-1.0465E4,1.7E1,-1.9358752E-2,6.8379603E-3,-3.7002247E-3,2.4047043E-2,-1.4077674E-2,4.585998E-2,-1.8424964E-2,-5.6963682E-2,-1.6175201E-3,4.4112217E-2,-5.9623347E-4,2.5043625E-2],"split_indices":[7,3,1,1,0,2,4,0,0,1,6,5,2,5,0,0,0,0,0,0,0,0,0,0,0,0,0],"split_type":[0,0,0,0,0,0,0,0,0,0,0,0,0,0,0,0,0,0,0,0,0,0,0,0,0,0,0],"sum_hessian":[2.4976561E2,1.5736827E2,9.239735E1,3.187915E0,1.5418034E2,1.5764459E1,7.663289E1,1.2366261E0,1.9512889E0,1.01419365E2,5.2760986E1,9.023977E0,6.740482E0,1.886173E1,5.7771156E1,7.3822754E1,2.759661E1,3.5989098E1,1.6771893E1,5.6238174E0,3.4001598E0,3.1740627E0,3.566419E0,4.962227E0,1.3899504E1,4.255942E1,1.5211736E1],"tree_param":{"num_deleted":"0","num_feature":"9","num_nodes":"27","size_leaf_vector":"1"}},{"base_weights":[2.5386699E-3,4.9093917E-2,-3.4023505E-1,4.5414352E-1,5.577443E-3,-8.9842826E-1,-1.9728173E-1,1.0488274E0,2.4283016E-1,-4.3707955E-1,4.558708E-2,-1.606779E-3,-5.5722166E-2,3.773306E-1,-4.0048525E-1,6.442056E-2,1.2081574E-2,-4.6089046E-2,1.9377401E-2,-2.8086388E-2,1.2871881E-2,-4.4492114E-2,3.7609413E-3,-1.590774E-2,5.556149E-2,-5.5609472E-2,-2.3635994E-3],"categories":[],"categories_nodes":[],"categories_segments":[],"categories_sizes":[],"default_left":[0,0,0,0,0,0,0,0,0,0,0,0,0,0,0,0,0,0,0,0,0,0,0,0,0,0,0],"id":15,"left_children":[1,3,5,7,9,11,13,15,17,19,21,-1,-1,23,25,-1,-1,-1,-1,-1,-1,-1,-1,-1,-1,-1,-1],"loss_changes":[4.0110435E0,3.8972502E0,2.2211776E0,2.4409862E0,3.5761364E0,1.0583153E0,3.0947464E0,7.180519E-1,3.2440844E0,1.5937133E0,5.1964226E0,0E0,0E0,3.9780262E0,4.7511635E0,0E0,0E0,0E0,0E0,0E0,0E0,0E0,0E0,0E0,0E0,0E0,0E0],"parents":[2147483647,0,0,1,1,2,2,3,3,4,4,5,5,6,6,7,7,8,8,9,9,10,10,13,13,14,14],"right_children":[2,4,6,8,10,12,14,16,18,20,22,-1,-1,24,26,-1,-1,-1,-1,-1,-1,-1,-1,-1,-1,-1,-1],"split_conditions":[1.1E1,2E0,3.13E2,7.5E1,-2.25E4,2.93E-2,9.911E3,-6E0,1.2E2,1.048E-1,1E0,-1.606779E-3,-5.5722166E-2,1.2E1,1.811E4,6.442056E-2,1.2081574E-2,-4.6089046E-2,1.9377401E-2,-2.8086388E-2,1.2871881E-2,-4.4492114E-2,3.7609413E-3,-1.590774E-2,5.556149E-2,-5.5609472E-2,-2.3635994E-3],"split_indices":[2,3,1,1,5,7,5,2,1,7,4,0,0,0,5,0,0,0,0,0,0,0,0,0,0,0,0],"split_type":[0,0,0,0,0,0,0,0,0,0,0,0,0,0,0,0,0,0,0,0,0,0,0,0,0,0,0],"sum_hessian":[2.4930464E2,2.2024756E2,2.9057072E1,2.0451324E1,1.9979625E2,4.8468175E0,2.4210253E1,4.3227496E0,1.6128574E1,1.5739033E1,1.840572E2,1.1966432E0,3.6501741E0,6.101034E0,1.8109219E1,2.8736615E0,1.4490881E0,1.1891813E0,1.4939393E1,1.3506207E1,2.2328253E0,4.7600355E0,1.7929718E2,3.4233534E0,2.677681E0,5.2937818E0,1.2815437E1],"tree_param":{"num_deleted":"0","num_feature":"9","num_nodes":"27","size_leaf_vector":"1"}},{"base_weights":[2.0592904E-3,-9.258369E-2,1.6253941E-1,1.7222002E-1,-1.8941443E-1,-2.59408E-1,2.5053656E-1,-6.923143E-2,4.6965614E-1,-4.4300735E-1,-8.0455124E-2,1.3227522E-1,-9.470321E-1,6.206779E-1,1.21551014E-1,2.7693693E-2,-1.9235441E-2,-3.0318907E-2,2.955978E-2,1.3564779E-2,-3.1685963E-2,1.0396953E-2,-1.2467896E-2,2.0889673E-2,-3.2618772E-2,-5.961823E-2,-1.0603785E-3,7.743325E-3,4.766274E-2,-6.820013E-4,2.3865294E-2],"categories":[],"categories_nodes":[],"categories_segments":[],"categories_sizes":[],"default_left":[0,0,0,0,0,0,0,0,0,0,0,0,0,0,0,0,0,0,0,0,0,0,0,0,0,0,0,0,0,0,0],"id":16,"left_children":[1,3,5,7,9,11,13,15,17,19,21,23,25,27,29,-1,-1,-1,-1,-1,-1,-1,-1,-1,-1,-1,-1,-1,-1,-1,-1],"loss_changes":[3.8130183E0,4.082165E0,3.5228179E0,3.107067E0,3.1729116E0,4.585798E0,3.627761E0,5.0293784E0,2.8839025E0,4.895725E0,4.067748E0,2.8329654E0,1.3676796E0,2.91993E0,2.8327785E0,0E0,0E0,0E0,0E0,0E0,0E0,0E0,0E0,0E0,0E0,0E0,0E0,0E0,0E0,0E0,0E0],"parents":[2147483647,0,0,1,1,2,2,3,3,4,4,5,5,6,6,7,7,8,8,9,9,10,10,11,11,12,12,13,13,14,14],"right_children":[2,4,6,8,10,12,14,16,18,20,22,24,26,28,30,-1,-1,-1,-1,-1,-1,-1,-1,-1,-1,-1,-1,-1,-1,-1,-1],"split_conditions":[6.57E-2,8.76E-2,3.71E2,2.13E-2,-8.63E-2,4.29E2,3E0,-4E0,-1.9929E4,8.26E2,2.2124E0,2.38E2,2.38E2,-3.138E3,1.7E1,2.7693693E-2,-1.9235441E-2,-3.0318907E-2,2.955978E-2,1.3564779E-2,-3.1685963E-2,1.0396953E-2,-1.2467896E-2,2.0889673E-2,-3.2618772E-2,-5.961823E-2,-1.0603785E-3,7.743325E-3,4.766274E-2,-6.820013E-4,2.3865294E-2],"split_indices":[7,8,1,8,6,5,4,2,5,1,6,1,1,5,0,0,0,0,0,0,0,0,0,0,0,0,0,0,0,0,0],"split_type":[0,0,0,0,0,0,0,0,0,0,0,0,0,0,0,0,0,0,0,0,0,0,0,0,0,0,0,0,0,0,0],"sum_hessian":[2.4905864E2,1.5693152E2,9.212712E1,4.1811295E1,1.1512022E2,1.5561525E1,7.65656E1,2.3500994E1,1.83103E1,3.367617E1,8.1444046E1,1.0428752E1,5.132773E0,1.8801159E1,5.776444E1,7.645182E0,1.5855812E1,1.4534268E0,1.6856873E1,7.007469E0,2.6668701E1,2.9996021E1,5.1448025E1,7.989192E0,2.4395602E0,3.829979E0,1.302794E0,8.442351E0,1.0358808E1,4.255478E1,1.5209659E1],"tree_param":{"num_deleted":"0","num_feature":"9","num_nodes":"31","size_leaf_vector":"1"}},{"base_weights":[1.9034111E-3,6.7827904E-1,-2.0114595E-2,9.612069E-1,-2.4807012E-2,-1.0073072E-1,2.0003349E-1,1.1140808E0,7.0730955E-3,-4.030197E-2,-4.3054274E-1,-2.24899E-1,3.8421938E-1,6.515846E-2,1.1370789E-2,-3.7850954E-3,4.504456E-2,-2.9163772E-2,3.1111911E-2,5.144316E-3,-4.387487E-2,2.7631433E-3,3.709781E-2],"categories":[],"categories_nodes":[],"categories_segments":[],"categories_sizes":[],"default_left":[0,0,0,0,0,0,0,0,0,0,0,0,0,0,0,0,0,0,0,0,0,0,0],"id":17,"left_children":[1,3,5,7,-1,9,11,13,-1,15,17,19,21,-1,-1,-1,-1,-1,-1,-1,-1,-1,-1],"loss_changes":[3.7328699E0,3.102617E0,4.3298945E0,6.830983E-1,0E0,3.5384336E0,5.20695E0,6.2721205E-1,0E0,5.128853E0,4.7886157E0,4.457058E0,5.373506E0,0E0,0E0,0E0,0E0,0E0,0E0,0E0,0E0,0E0,0E0],"parents":[2147483647,0,0,1,1,2,2,3,3,5,5,6,6,7,7,9,9,10,10,11,11,12,12],"right_children":[2,4,6,8,-1,10,12,14,-1,16,18,20,22,-1,-1,-1,-1,-1,-1,-1,-1,-1,-1],"split_conditions":[1E0,1.9E1,1.7E1,4.596E-1,-2.4807012E-2,1.044E4,-1.405E0,2.6605E0,7.0730955E-3,8.785E3,2.749E3,-3.039E0,1.545E3,6.515846E-2,1.1370789E-2,-3.7850954E-3,4.504456E-2,-2.9163772E-2,3.1111911E-2,5.144316E-3,-4.387487E-2,2.7631433E-3,3.709781E-2],"split_indices":[3,0,0,8,0,5,6,6,0,5,1,6,1,0,0,0,0,0,0,0,0,0,0],"split_type":[0,0,0,0,0,0,0,0,0,0,0,0,0,0,0,0,0,0,0,0,0,0,0],"sum_hessian":[2.4873918E2,6.9022384E0,2.4183693E2,5.7085466E0,1.1936917E0,1.7741258E2,6.4424355E1,4.5086694E0,1.1998776E0,1.5088869E2,2.65239E1,1.9413868E1,4.5010487E1,3.3289928E0,1.1796763E0,1.4630545E2,4.5832376E0,2.3552916E1,2.9709835E0,1.3483671E1,5.930197E0,2.4049904E1,2.096058E1],"tree_param":{"num_deleted":"0","num_feature":"9","num_nodes":"23","size_leaf_vector":"1"}},{"base_weights":[2.2092108E-3,6.561257E-1,-1.8960595E-2,9.320905E-1,-2.418671E-2,-9.556928E-2,1.9000225E-1,1.0830193E0,6.2991376E-3,-3.702187E-2,-4.0700763E-1,7.5305745E-2,8.6945975E-1,6.211844E-2,1.842895E-2,-3.5994505E-3,5.0959684E-2,-2.7495146E-2,2.9897397E-2,-3.7049053E-3,3.168532E-2,6.2992044E-2,1.3008802E-2],"categories":[],"categories_nodes":[],"categories_segments":[],"categories_sizes":[],"default_left":[0,0,0,0,0,0,0,0,0,0,0,0,0,0,0,0,0,0,0,0,0,0,0],"id":18,"left_children":[1,3,5,7,-1,9,11,13,-1,15,17,19,21,-1,-1,-1,-1,-1,-1,-1,-1,-1,-1],"loss_changes":[3.4664273E0,2.920904E0,3.9026535E0,6.742606E-1,0E0,3.2346506E0,5.033584E0,1.6606903E-1,0E0,5.654712E0,4.364428E0,4.8085737E0,1.8973293E0,0E0,0E0,0E0,0E0,0E0,0E0,0E0,0E0,0E0,0E0],"parents":[2147483647,0,0,1,1,2,2,3,3,5,5,6,6,7,7,9,9,10,10,11,11,12,12],"right_children":[2,4,6,8,-1,10,12,14,-1,16,18,20,22,-1,-1,-1,-1,-1,-1,-1,-1,-1,-1],"split_conditions":[1E0,1.9E1,1.7E1,1.073E-1,-2.418671E-2,1.023E4,6.4074E0,2.6605E0,6.2991376E-3,8.785E3,2.749E3,6.729E3,0E0,6.211844E-2,1.842895E-2,-3.5994505E-3,5.0959684E-2,-2.7495146E-2,2.9897397E-2,-3.7049053E-3,3.168532E-2,6.2992044E-2,1.3008802E-2],"split_indices":[3,0,0,7,0,5,6,6,0,5,1,5,2,0,0,0,0,0,0,0,0,0,0],"split_type":[0,0,0,0,0,0,0,0,0,0,0,0,0,0,0,0,0,0,0,0,0,0,0],"sum_hessian":[2.4850629E2,6.85227E0,2.4165402E2,5.663411E0,1.188859E0,1.772239E2,6.44301E1,4.4809246E0,1.1824868E0,1.5012141E2,2.7102503E1,5.607512E1,8.354984E0,3.0595737E0,1.4213508E0,1.4621272E2,3.9086847E0,2.4124968E1,2.9775352E0,4.4922977E1,1.1152142E1,4.441488E0,3.9134963E0],"tree_param":{"num_deleted":"0","num_feature":"9","num_nodes":"23","size_leaf_vector":"1"}},{"base_weights":[2.9585895E-3,-8.704707E-2,1.5552981E-1,1.2130745E-1,-2.0102485E-1,8.5407114E-1,9.819843E-2,1.9245437E-1,-7.84984E-1,-9.974264E-1,-1.3947229E-1,6.586969E-2,4.4433132E-1,-2.9125574E-1,1.8463545E-1,-2.6550222E-2,1.3331897E-2,-1.0835885E-4,-5.435842E-2,-6.523685E-2,-5.5951118E-3,4.3975797E-2,-9.581031E-3,-1.6511949E-3,4.0813472E-2,3.702562E-3,-4.587154E-2,1.8162479E-3,2.8166473E-2],"categories":[],"categories_nodes":[],"categories_segments":[],"categories_sizes":[],"default_left":[0,0,0,0,0,0,0,0,0,0,0,0,0,0,0,0,0,0,0,0,0,0,0,0,0,0,0,0,0],"id":19,"left_children":[1,3,5,7,9,11,13,15,17,19,21,-1,23,25,27,-1,-1,-1,-1,-1,-1,-1,-1,-1,-1,-1,-1,-1,-1],"loss_changes":[3.4367766E0,3.7630234E0,3.6347468E0,3.7807593E0,4.867807E0,7.2697973E-1,2.980472E0,2.9858932E0,1.0134888E0,1.8038845E0,5.268448E0,0E0,9.4619834E-1,3.7688475E0,4.0099564E0,0E0,0E0,0E0,0E0,0E0,0E0,0E0,0E0,0E0,0E0,0E0,0E0,0E0,0E0],"parents":[2147483647,0,0,1,1,2,2,3,3,4,4,5,5,6,6,7,7,8,8,9,9,10,10,12,12,13,13,14,14],"right_children":[2,4,6,8,10,12,14,16,18,20,22,-1,24,26,28,-1,-1,-1,-1,-1,-1,-1,-1,-1,-1,-1,-1,-1,-1],"split_conditions":[6.57E-2,2.46E-2,7E0,2.849E-1,2.61E-2,6.94E-2,3.71E2,2E0,8E0,1.8E1,2.92E-2,6.586969E-2,4.596E-1,4.29E2,1.7E1,-2.6550222E-2,1.3331897E-2,-1.0835885E-4,-5.435842E-2,-6.523685E-2,-5.5951118E-3,4.3975797E-2,-9.581031E-3,-1.6511949E-3,4.0813472E-2,3.702562E-3,-4.587154E-2,1.8162479E-3,2.8166473E-2],"split_indices":[7,7,0,8,7,7,1,4,0,0,7,0,8,5,0,0,0,0,0,0,0,0,0,0,0,0,0,0,0],"split_type":[0,0,0,0,0,0,0,0,0,0,0,0,0,0,0,0,0,0,0,0,0,0,0,0,0,0,0,0,0],"sum_hessian":[2.4828416E2,1.56431E2,9.1853165E1,5.5291786E1,1.01139206E2,5.9128075E0,8.594036E1,5.1997456E1,3.2943287E0,6.165252E0,9.497395E1,1.7353383E0,4.177469E0,1.5179119E1,7.076124E1,4.2632337E0,4.7734222E1,1.1980135E0,2.0963151E0,4.225453E0,1.9397994E0,3.8513906E0,9.112257E1,2.2285283E0,1.9489408E0,1.014331E1,5.0358095E0,5.1635E1,1.912624E1],"tree_param":{"num_deleted":"0","num_feature":"9","num_nodes":"29","size_leaf_vector":"1"}},{"base_weights":[2.7391189E-3,4.471095E-2,-3.104037E-1,4.2819333E-1,3.861808E-3,-4.9919757E-1,7.288884E-2,9.618832E-1,2.0079136E-1,-1.5935542E-1,1.0577156E-1,-1.9463494E-1,-8.339027E-1,-3.334661E-1,7.8422093E-1,5.297539E-3,6.0765307E-2,-2.751786E-2,2.0399306E-2,2.8075785E-3,-2.3023104E-2,2.4183788E-3,2.8131006E-2,-4.3001007E-2,1.828849E-2,-3.8639647E-3,-5.263659E-2,1.5766716E-3,-4.0342174E-2,-1.9196331E-3,5.641027E-2],"categories":[],"categories_nodes":[],"categories_segments":[],"categories_sizes":[],"default_left":[0,0,0,0,0,0,0,0,0,0,0,0,0,0,0,0,0,0,0,0,0,0,0,0,0,0,0,0,0,0,0],"id":20,"left_children":[1,3,5,7,9,11,13,15,17,19,21,23,25,27,29,-1,-1,-1,-1,-1,-1,-1,-1,-1,-1,-1,-1,-1,-1,-1,-1],"loss_changes":[3.287045E0,3.45213E0,2.1754756E0,2.3816497E0,3.3479154E0,1.8695984E0,3.333515E0,1.189004E0,2.7365706E0,5.046846E0,3.2217097E0,4.6925006E0,1.4405618E0,1.3153548E0,1.2211006E0,0E0,0E0,0E0,0E0,0E0,0E0,0E0,0E0,0E0,0E0,0E0,0E0,0E0,0E0,0E0,0E0],"parents":[2147483647,0,0,1,1,2,2,3,3,4,4,5,5,6,6,7,7,8,8,9,9,10,10,11,11,12,12,13,13,14,14],"right_children":[2,4,6,8,10,12,14,16,18,20,22,24,26,28,30,-1,-1,-1,-1,-1,-1,-1,-1,-1,-1,-1,-1,-1,-1,-1,-1],"split_conditions":[1.1E1,2E0,2.1725E4,-9E0,4.13E-2,9.911E3,1.9E1,9E0,-7.185E3,2.46E-2,8.785E3,3.13E2,1E1,1.5E1,1.116E3,5.297539E-3,6.0765307E-2,-2.751786E-2,2.0399306E-2,2.8075785E-3,-2.3023104E-2,2.4183788E-3,2.8131006E-2,-4.3001007E-2,1.828849E-2,-3.8639647E-3,-5.263659E-2,1.5766716E-3,-4.0342174E-2,-1.9196331E-3,5.641027E-2],"split_indices":[2,3,5,2,7,5,2,0,5,7,5,1,0,2,1,0,0,0,0,0,0,0,0,0,0,0,0,0,0,0,0],"split_type":[0,0,0,0,0,0,0,0,0,0,0,0,0,0,0,0,0,0,0,0,0,0,0,0,0,0,0,0,0,0,0],"sum_hessian":[2.480392E2,2.1947878E2,2.8560429E1,2.0215736E1,1.9926303E2,1.893262E1,9.62781E0,5.0751004E0,1.5140636E1,7.6376236E1,1.22886795E2,1.0740703E1,8.191917E0,6.465527E0,3.1622827E0,1.4833125E0,3.591788E0,2.9153411E0,1.2225295E1,4.498981E1,3.1386427E1,1.10151855E2,1.2734941E1,4.6659913E0,6.0747113E0,2.1413016E0,6.050616E0,4.1776886E0,2.2878382E0,1.1943856E0,1.967897E0],"tree_param":{"num_deleted":"0","num_feature":"9","num_nodes":"31","size_leaf_vector":"1"}},{"base_weights":[2.5944693E-3,6.197432E-1,-1.7224535E-2,8.8935804E-1,-2.3926323E-2,-8.953647E-2,1.7995645E-1,1.0407187E0,5.505459E-3,4.849981E-1,-1.1922849E-1,6.97852E-2,8.304833E-1,6.1361548E-2,9.923563E-3,3.9211873E-2,-2.0197272E-2,-1.0295356E-2,2.5960284E-3,-3.6253126E-3,3.0106757E-2,5.013439E-2,-8.276945E-3],"categories":[],"categories_nodes":[],"categories_segments":[],"categories_sizes":[],"default_left":[0,0,0,0,0,0,0,0,0,0,0,0,0,0,0,0,0,0,0,0,0,0,0],"id":21,"left_children":[1,3,5,7,-1,9,11,13,-1,15,17,19,21,-1,-1,-1,-1,-1,-1,-1,-1,-1,-1],"loss_changes":[3.0530071E0,2.7252584E0,3.4662178E0,6.621351E-1,0E0,3.0893817E0,4.619074E0,6.040778E-1,0E0,2.6922429E0,2.529358E0,4.3536797E0,1.7713346E0,0E0,0E0,0E0,0E0,0E0,0E0,0E0,0E0,0E0,0E0],"parents":[2147483647,0,0,1,1,2,2,3,3,5,5,6,6,7,7,9,9,10,10,11,11,12,12],"right_children":[2,4,6,8,-1,10,12,14,-1,16,18,20,22,-1,-1,-1,-1,-1,-1,-1,-1,-1,-1],"split_conditions":[1E0,1.9E1,1.7E1,4.596E-1,-2.3926323E-2,-7.741E0,6.4074E0,2.6605E0,5.505459E-3,2.353E3,2.2E3,6.729E3,2.848E3,6.1361548E-2,9.923563E-3,3.9211873E-2,-2.0197272E-2,-1.0295356E-2,2.5960284E-3,-3.6253126E-3,3.0106757E-2,5.013439E-2,-8.276945E-3],"split_indices":[3,0,0,8,0,6,6,6,0,1,1,5,1,0,0,0,0,0,0,0,0,0,0],"split_type":[0,0,0,0,0,0,0,0,0,0,0,0,0,0,0,0,0,0,0,0,0,0,0],"sum_hessian":[2.4773389E2,6.7662997E0,2.4096759E2,5.585365E0,1.180935E0,1.7670917E2,6.4258415E1,4.395957E0,1.1894077E0,7.9300466E0,1.6877913E2,5.5898838E1,8.359582E0,3.224757E0,1.1712E0,6.0210176E0,1.9090292E0,1.1190277E2,5.6876358E1,4.479059E1,1.1108247E1,7.121618E0,1.2379644E0],"tree_param":{"num_deleted":"0","num_feature":"9","num_nodes":"23","size_leaf_vector":"1"}},{"base_weights":[2.9962459E-3,4.3505635E-2,-3.0087543E-1,4.0600443E-1,5.0566415E-3,-4.8436877E-1,6.918395E-2,9.28955E-1,1.843625E-1,-4.1926035E-1,4.3284226E-2,-1.8588759E-1,-8.1355125E-1,8.264257E-1,-2.9045933E-1,5.3184093E-3,5.868825E-2,2.169403E-2,-2.0281164E-2,-2.689658E-2,1.1941392E-2,-4.141407E-2,3.521194E-3,-4.172328E-2,1.7568326E-2,-3.680216E-3,-5.1461782E-2,-2.3002808E-3,6.329132E-2,4.947442E-3,-3.5267875E-2],"categories":[],"categories_nodes":[],"categories_segments":[],"categories_sizes":[],"default_left":[0,0,0,0,0,0,0,0,0,0,0,0,0,0,0,0,0,0,0,0,0,0,0,0,0,0,0,0,0,0,0],"id":22,"left_children":[1,3,5,7,9,11,13,15,17,19,21,23,25,27,29,-1,-1,-1,-1,-1,-1,-1,-1,-1,-1,-1,-1,-1,-1,-1,-1],"loss_changes":[3.072209E0,3.0664027E0,2.0270805E0,2.2742972E0,3.263173E0,1.7894893E0,3.128719E0,1.0900526E0,2.5411358E0,1.4270115E0,4.4207945E0,4.3544636E0,1.3760347E0,1.4672556E0,1.351232E0,0E0,0E0,0E0,0E0,0E0,0E0,0E0,0E0,0E0,0E0,0E0,0E0,0E0,0E0,0E0,0E0],"parents":[2147483647,0,0,1,1,2,2,3,3,4,4,5,5,6,6,7,7,8,8,9,9,10,10,11,11,12,12,13,13,14,14],"right_children":[2,4,6,8,10,12,14,16,18,20,22,24,26,28,30,-1,-1,-1,-1,-1,-1,-1,-1,-1,-1,-1,-1,-1,-1,-1,-1],"split_conditions":[1.1E1,2E0,2.1725E4,-9E0,-2.25E4,9.911E3,1.489E3,9E0,2.6605E0,1.048E-1,1E0,3.13E2,1E1,1.116E3,2.992E-1,5.3184093E-3,5.868825E-2,2.169403E-2,-2.0281164E-2,-2.689658E-2,1.1941392E-2,-4.141407E-2,3.521194E-3,-4.172328E-2,1.7568326E-2,-3.680216E-3,-5.1461782E-2,-2.3002808E-3,6.329132E-2,4.947442E-3,-3.5267875E-2],"split_indices":[2,3,5,2,5,5,1,0,6,7,4,1,0,1,8,0,0,0,0,0,0,0,0,0,0,0,0,0,0,0,0],"split_type":[0,0,0,0,0,0,0,0,0,0,0,0,0,0,0,0,0,0,0,0,0,0,0,0,0,0,0,0,0,0,0],"sum_hessian":[2.4751378E2,2.1915489E2,2.8358896E1,2.00992E1,1.9905568E2,1.87519E1,9.606996E0,5.032971E0,1.5066229E1,1.5627435E1,1.8342825E2,1.0655176E1,8.096724E0,2.6755748E0,6.9314213E0,1.4833281E0,3.5496428E0,1.0774179E1,4.292049E0,1.3394607E1,2.2328286E0,4.647839E0,1.7878041E2,4.576808E0,6.0783687E0,2.1301365E0,5.9665875E0,1.1960711E0,1.4795034E0,3.9683676E0,2.9630537E0],"tree_param":{"num_deleted":"0","num_feature":"9","num_nodes":"31","size_leaf_vector":"1"}},{"base_weights":[2.6805236E-3,-8.075418E-2,1.4391172E-1,1.6034381E-1,-1.6936731E-1,8.2158136E-1,8.812615E-2,-6.665666E-2,4.3857062E-1,-4.6018492E-2,-1.3261983E-1,6.393829E-2,4.220245E-1,3.5424706E-1,-4.190381E-2,2.6320443E-2,-1.8453928E-2,-3.0038571E-2,2.7830062E-2,-3.339811E-3,-2.251014E-2,-2.044357E-3,3.9259806E-2,2.865401E-2,-2.7666984E-2,-2.2135323E-2,6.233479E-3],"categories":[],"categories_nodes":[],"categories_segments":[],"categories_sizes":[],"default_left":[0,0,0,0,0,0,0,0,0,0,0,0,0,0,0,0,0,0,0,0,0,0,0,0,0,0,0],"id":23,"left_children":[1,3,5,7,9,11,13,15,17,-1,19,-1,21,23,25,-1,-1,-1,-1,-1,-1,-1,-1,-1,-1,-1,-1],"loss_changes":[2.9369488E0,3.3749695E0,3.4265366E0,2.721542E0,3.053628E0,7.243042E-1,3.012731E0,4.5604157E0,2.7001648E0,0E0,2.287651E0,0E0,9.037883E-1,5.9858847E0,4.0003967E0,0E0,0E0,0E0,0E0,0E0,0E0,0E0,0E0,0E0,0E0,0E0,0E0],"parents":[2147483647,0,0,1,1,2,2,3,3,4,4,5,5,6,6,7,7,8,8,10,10,12,12,13,13,14,14],"right_children":[2,4,6,8,10,12,14,16,18,-1,20,-1,22,24,26,-1,-1,-1,-1,-1,-1,-1,-1,-1,-1,-1,-1],"split_conditions":[6.57E-2,8.76E-2,7E0,2.13E-2,1.025E-1,6.94E-2,3E0,-4E0,-1.9929E4,-4.6018492E-2,8E0,6.393829E-2,4.596E-1,8E0,1.1E1,2.6320443E-2,-1.8453928E-2,-3.0038571E-2,2.7830062E-2,-3.339811E-3,-2.251014E-2,-2.044357E-3,3.9259806E-2,2.865401E-2,-2.7666984E-2,-2.2135323E-2,6.233479E-3],"split_indices":[7,8,0,8,8,7,3,2,5,0,2,0,8,2,0,0,0,0,0,0,0,0,0,0,0,0,0],"split_type":[0,0,0,0,0,0,0,0,0,0,0,0,0,0,0,0,0,0,0,0,0,0,0,0,0,0,0],"sum_hessian":[2.4725446E2,1.5570016E2,9.155428E1,4.1628403E1,1.1407176E2,5.919397E0,8.563489E1,2.3343372E1,1.8285032E1,4.1995907E0,1.0987218E2,1.7343938E0,4.185003E0,2.7542244E1,5.8092644E1,7.63334E0,1.57100315E1,1.4476342E0,1.6837399E1,9.201175E1,1.7860424E1,2.229992E0,1.9550111E0,2.248849E1,5.0537534E0,1.6568474E1,4.152417E1],"tree_param":{"num_deleted":"0","num_feature":"9","num_nodes":"27","size_leaf_vector":"1"}},{"base_weights":[2.6092438E-3,-7.725861E-2,1.3777523E-1,-1.8066901E-1,1.19032584E-1,7.947662E-1,8.363016E-2,-3.002768E-1,1.4150263E-1,5.517209E-1,-4.2471156E-2,6.2308338E-2,4.0527427E-1,3.3729696E-1,-4.0108893E-2,8.4520355E-3,-2.077192E-2,5.5494297E-2,-1.7600701E-3,7.780881E-3,4.8186574E-2,-1.2912348E-2,1.9075187E-2,3.2120172E-2,-2.4788713E-3,2.7310142E-2,-2.6687909E-2,-2.1148372E-2,5.9271827E-3],"categories":[],"categories_nodes":[],"categories_segments":[],"categories_sizes":[],"default_left":[0,0,0,0,0,0,0,0,0,0,0,0,0,0,0,0,0,0,0,0,0,0,0,0,0,0,0,0,0],"id":24,"left_children":[1,3,5,7,9,11,13,15,17,19,21,-1,23,25,27,-1,-1,-1,-1,-1,-1,-1,-1,-1,-1,-1,-1,-1,-1],"loss_changes":[2.6876543E0,3.1985087E0,3.2226925E0,4.007922E0,3.8394165E0,7.1203566E-1,2.729898E0,4.143558E0,4.9228854E0,2.2839546E0,3.8212767E0,0E0,5.9249556E-1,5.4740057E0,3.6375494E0,0E0,0E0,0E0,0E0,0E0,0E0,0E0,0E0,0E0,0E0,0E0,0E0,0E0,0E0],"parents":[2147483647,0,0,1,1,2,2,3,3,4,4,5,5,6,6,7,7,8,8,9,9,10,10,12,12,13,13,14,14],"right_children":[2,4,6,8,10,12,14,16,18,20,22,-1,24,26,28,-1,-1,-1,-1,-1,-1,-1,-1,-1,-1,-1,-1,-1,-1],"split_conditions":[6.57E-2,1.6E1,7E0,2.474E3,3E0,3E0,3E0,3.37E-2,2.585E3,5.66E2,2.6605E0,6.2308338E-2,1.206E-1,8E0,1.1E1,8.4520355E-3,-2.077192E-2,5.5494297E-2,-1.7600701E-3,7.780881E-3,4.8186574E-2,-1.2912348E-2,1.9075187E-2,3.2120172E-2,-2.4788713E-3,2.7310142E-2,-2.6687909E-2,-2.1148372E-2,5.9271827E-3],"split_indices":[7,0,0,1,4,4,3,8,1,1,6,0,7,2,0,0,0,0,0,0,0,0,0,0,0,0,0,0,0],"split_type":[0,0,0,0,0,0,0,0,0,0,0,0,0,0,0,0,0,0,0,0,0,0,0,0,0,0,0,0,0],"sum_hessian":[2.4697649E2,1.555138E2,9.146269E1,1.0190673E2,5.360706E1,5.922402E0,8.554029E1,7.436597E1,2.7540764E1,1.391389E1,3.969317E1,1.7244214E0,4.1979804E0,2.748001E1,5.8060284E1,1.4560361E1,5.9805607E1,3.4350061E0,2.4105757E1,7.7962995E0,6.1175904E0,2.6564465E1,1.3128704E1,2.4883735E0,1.7096069E0,2.2465122E1,5.0148873E0,1.6522463E1,4.153782E1],"tree_param":{"num_deleted":"0","num_feature":"9","num_nodes":"29","size_leaf_vector":"1"}},{"base_weights":[3.188708E-3,5.742639E-1,-1.4902061E-2,8.362923E-1,-2.3630591E-2,-8.1404015E-2,1.6600841E-1,1.0006138E0,2.2671057E-3,-2.6704917E-2,-3.7581977E-1,-2.2666216E-1,3.361511E-1,5.774333E-2,1.6506236E-2,-2.999547E-3,4.8521567E-2,-2.5573665E-2,2.7917866E-2,1.9082049E-2,-2.8012631E-2,1.7778922E-3,3.3084016E-2],"categories":[],"categories_nodes":[],"categories_segments":[],"categories_sizes":[],"default_left":[0,0,0,0,0,0,0,0,0,0,0,0,0,0,0,0,0,0,0,0,0,0,0],"id":25,"left_children":[1,3,5,7,-1,9,11,13,-1,15,17,19,21,-1,-1,-1,-1,-1,-1,-1,-1,-1,-1],"loss_changes":[2.5664241E0,2.487586E0,2.91247E0,7.944622E-1,0E0,2.8382115E0,4.4252863E0,1.6718626E-1,0E0,5.0444074E0,3.7875202E0,4.328387E0,4.4600453E0,0E0,0E0,0E0,0E0,0E0,0E0,0E0,0E0,0E0,0E0],"parents":[2147483647,0,0,1,1,2,2,3,3,5,5,6,6,7,7,9,9,10,10,11,11,12,12],"right_children":[2,4,6,8,-1,10,12,14,-1,16,18,20,22,-1,-1,-1,-1,-1,-1,-1,-1,-1,-1],"split_conditions":[1E0,1.9E1,1.7E1,1.073E-1,-2.3630591E-2,1.023E4,-1.405E0,2.6605E0,2.2671057E-3,8.785E3,2.749E3,3E0,1.545E3,5.774333E-2,1.6506236E-2,-2.999547E-3,4.8521567E-2,-2.5573665E-2,2.7917866E-2,1.9082049E-2,-2.8012631E-2,1.7778922E-3,3.3084016E-2],"split_indices":[3,0,0,7,0,5,6,6,0,5,1,3,1,0,0,0,0,0,0,0,0,0,0],"split_type":[0,0,0,0,0,0,0,0,0,0,0,0,0,0,0,0,0,0,0,0,0,0,0],"sum_hessian":[2.4658684E2,6.627628E0,2.3995921E2,5.461734E0,1.1658942E0,1.758628E2,6.409642E1,4.3027506E0,1.158983E0,1.4922853E2,2.6634262E1,1.9276405E1,4.482001E1,2.9106925E0,1.3920584E0,1.4531744E2,3.911095E0,2.3652176E1,2.9820867E0,6.77611E0,1.2500296E1,2.3879211E1,2.0940802E1],"tree_param":{"num_deleted":"0","num_feature":"9","num_nodes":"23","size_leaf_vector":"1"}},{"base_weights":[3.53779E-3,-7.280493E-2,1.3259357E-1,1.1160911E-1,-1.7447835E-1,7.724979E-1,7.9786465E-2,1.7883226E-1,-7.5268435E-1,-9.4176406E-1,-1.15959935E-1,6.064665E-2,3.9195347E-1,-2.9104367E-1,1.609234E-1,-1.3068688E-2,1.4756647E-2,-1.1722982E-4,-5.235958E-2,-6.214736E-2,-4.8275953E-3,4.271099E-2,-8.313236E-3,-2.494727E-3,3.7113402E-2,1.976177E-3,-4.3554727E-2,1.3485665E-3,2.5223723E-2],"categories":[],"categories_nodes":[],"categories_segments":[],"categories_sizes":[],"default_left":[0,0,0,0,0,0,0,0,0,0,0,0,0,0,0,0,0,0,0,0,0,0,0,0,0,0,0,0,0],"id":26,"left_children":[1,3,5,7,9,11,13,15,17,19,21,-1,23,25,27,-1,-1,-1,-1,-1,-1,-1,-1,-1,-1,-1,-1,-1,-1],"loss_changes":[2.4462836E0,2.9451518E0,3.0564919E0,3.3919523E0,4.4244766E0,6.842818E-1,2.6451254E0,2.781641E0,9.340277E-1,1.6656785E0,4.7763934E0,0E0,8.402812E-1,3.0752664E0,3.276668E0,0E0,0E0,0E0,0E0,0E0,0E0,0E0,0E0,0E0,0E0,0E0,0E0,0E0,0E0],"parents":[2147483647,0,0,1,1,2,2,3,3,4,4,5,5,6,6,7,7,8,8,9,9,10,10,12,12,13,13,14,14],"right_children":[2,4,6,8,10,12,14,16,18,20,22,-1,24,26,28,-1,-1,-1,-1,-1,-1,-1,-1,-1,-1,-1,-1,-1,-1],"split_conditions":[6.57E-2,2.46E-2,7E0,2.849E-1,2.61E-2,6.94E-2,3.71E2,-9.52E3,8E0,1.8E1,2.92E-2,6.064665E-2,4.596E-1,4.29E2,1.7E1,-1.3068688E-2,1.4756647E-2,-1.1722982E-4,-5.235958E-2,-6.214736E-2,-4.8275953E-3,4.271099E-2,-8.313236E-3,-2.494727E-3,3.7113402E-2,1.976177E-3,-4.3554727E-2,1.3485665E-3,2.5223723E-2],"split_indices":[7,7,0,8,7,7,1,5,0,0,7,0,8,5,0,0,0,0,0,0,0,0,0,0,0,0,0,0,0],"split_type":[0,0,0,0,0,0,0,0,0,0,0,0,0,0,0,0,0,0,0,0,0,0,0,0,0,0,0,0,0],"sum_hessian":[2.4631163E2,1.5503615E2,9.127548E1,5.5064E1,9.9972145E1,5.919209E0,8.535628E1,5.1826145E1,3.237853E0,6.0147014E0,9.395744E1,1.729804E0,4.189405E0,1.4858693E1,7.049758E1,1.0570121E1,4.1256023E1,1.1967521E0,2.041101E0,4.0875635E0,1.927138E0,3.8438537E0,9.011359E1,2.2319026E0,1.9575022E0,1.005836E1,4.8003325E0,5.1497135E1,1.900045E1],"tree_param":{"num_deleted":"0","num_feature":"9","num_nodes":"29","size_leaf_vector":"1"}},{"base_weights":[3.326281E-3,5.5906856E-1,-1.4149919E-2,8.1431323E-1,-2.2942705E-2,-7.562458E-2,1.5301588E-1,9.7641516E-1,2.1611296E-3,4.7492468E-1,-1.0433049E-1,-2.2130263E-1,3.149929E-1,5.6361254E-2,1.6138813E-2,3.8005102E-2,-1.9107303E-2,-3.8908345E-3,-3.0335072E-2,1.82084E-2,-2.715841E-2,1.5737818E-3,3.1101096E-2],"categories":[],"categories_nodes":[],"categories_segments":[],"categories_sizes":[],"default_left":[0,0,0,0,0,0,0,0,0,0,0,0,0,0,0,0,0,0,0,0,0,0,0],"id":27,"left_children":[1,3,5,7,-1,9,11,13,-1,15,17,19,21,-1,-1,-1,-1,-1,-1,-1,-1,-1,-1],"loss_changes":[2.407032E0,2.3367908E0,2.4826903E0,7.579422E-1,0E0,2.8386354E0,4.009779E0,1.5300035E-1,0E0,2.4720976E0,2.1978846E0,4.0070925E0,3.9645982E0,0E0,0E0,0E0,0E0,0E0,0E0,0E0,0E0,0E0,0E0],"parents":[2147483647,0,0,1,1,2,2,3,3,5,5,6,6,7,7,9,9,10,10,11,11,12,12],"right_children":[2,4,6,8,-1,10,12,14,-1,16,18,20,22,-1,-1,-1,-1,-1,-1,-1,-1,-1,-1],"split_conditions":[1E0,1.9E1,1.7E1,1.073E-1,-2.2942705E-2,-7.741E0,-1.405E0,2.6605E0,2.1611296E-3,2.353E3,8.0781E0,3E0,1.545E3,5.6361254E-2,1.6138813E-2,3.8005102E-2,-1.9107303E-2,-3.8908345E-3,-3.0335072E-2,1.82084E-2,-2.715841E-2,1.5737818E-3,3.1101096E-2],"split_indices":[3,0,0,7,0,6,6,6,0,1,6,3,1,0,0,0,0,0,0,0,0,0,0],"split_type":[0,0,0,0,0,0,0,0,0,0,0,0,0,0,0,0,0,0,0,0,0,0,0],"sum_hessian":[2.4601979E2,6.555788E0,2.3946399E2,5.4014063E0,1.1543814E0,1.7547958E2,6.398442E1,4.2431216E0,1.1582849E0,7.925837E0,1.6755374E2,1.9214556E1,4.4769863E1,2.8589554E0,1.3841662E0,6.0319395E0,1.8938973E0,1.6025102E2,7.302723E0,6.7694874E0,1.2445067E1,2.3849363E1,2.0920502E1],"tree_param":{"num_deleted":"0","num_feature":"9","num_nodes":"23","size_leaf_vector":"1"}},{"base_weights":[3.4030476E-3,-5.074225E-2,1.2555257E-2,4.0630412E-1,-1.7452868E-2,-1.1128784E-2,9.9322915E-1,-3.2393137E-1,3.7551433E-2,3.125253E-2,-1.9620903E-2,6.8966284E-2,2.9923415E-3,5.023819E-3,-3.158431E-2,-1.6521325E-2,4.274022E-3],"categories":[],"categories_nodes":[],"categories_segments":[],"categories_sizes":[],"default_left":[0,0,0,0,0,0,0,0,0,0,0,0,0,0,0,0,0],"id":28,"left_children":[1,-1,3,5,7,9,11,13,15,-1,-1,-1,-1,-1,-1,-1,-1],"loss_changes":[2.3125606E0,0E0,2.9086845E0,4.281734E0,3.874931E0,2.9560664E0,2.532291E0,4.6311026E0,3.4704208E0,0E0,0E0,0E0,0E0,0E0,0E0,0E0,0E0],"parents":[2147483647,0,0,2,2,3,3,4,4,5,5,6,6,7,7,8,8],"right_children":[2,-1,4,6,8,10,12,14,16,-1,-1,-1,-1,-1,-1,-1,-1],"split_conditions":[-4.1097E4,-5.074225E-2,-1.6E1,-1.3684E4,3.77E2,-2.9316E4,4.179E-1,-2E0,-8E0,3.125253E-2,-1.9620903E-2,6.8966284E-2,2.9923415E-3,5.023819E-3,-3.158431E-2,-1.6521325E-2,4.274022E-3],"split_indices":[5,0,2,5,1,5,8,2,2,0,0,0,0,0,0,0,0],"split_type":[0,0,0,0,0,0,0,0,0,0,0,0,0,0,0,0,0],"sum_hessian":[2.4578232E2,1.210588E0,2.4457173E2,1.6431217E1,2.2814052E2,1.0175345E1,6.255872E0,3.397059E1,1.9416992E2,3.5735636E0,6.6017823E0,4.087354E0,2.1685178E0,1.4562191E1,1.9408396E1,2.1696857E1,1.7247307E2],"tree_param":{"num_deleted":"0","num_feature":"9","num_nodes":"17","size_leaf_vector":"1"}},{"base_weights":[3.19225E-3,-6.988793E-2,1.2679198E-1,1.0680429E-1,-1.6754174E-1,7.522676E-1,7.508851E-2,1.7070894E-1,-7.2400033E-1,-9.1531974E-1,-1.110679E-1,5.9284814E-2,3.8116723E-1,3.1921777E-1,-4.3066997E-2,-2.604334E-2,1.203033E-2,5.7357544E-4,-5.0992835E-2,-6.0478326E-2,-4.992937E-3,4.0673897E-2,-7.965692E-3,3.0638693E-2,-2.8959631E-3,2.2464244E-2,-4.6061426E-2,-2.9995823E-2,2.8644695E-3],"categories":[],"categories_nodes":[],"categories_segments":[],"categories_sizes":[],"default_left":[0,0,0,0,0,0,0,0,0,0,0,0,0,0,0,0,0,0,0,0,0,0,0,0,0,0,0,0,0],"id":29,"left_children":[1,3,5,7,9,11,13,15,17,19,21,-1,23,25,27,-1,-1,-1,-1,-1,-1,-1,-1,-1,-1,-1,-1,-1,-1],"loss_changes":[2.2369888E0,2.703791E0,2.9191031E0,3.0977592E0,4.148493E0,6.601894E-1,2.4972444E0,2.6789489E0,9.2384124E-1,1.5417995E0,4.3543844E0,0E0,5.6418216E-1,4.9635005E0,3.325828E0,0E0,0E0,0E0,0E0,0E0,0E0,0E0,0E0,0E0,0E0,0E0,0E0,0E0,0E0],"parents":[2147483647,0,0,1,1,2,2,3,3,4,4,5,5,6,6,7,7,8,8,9,9,10,10,12,12,13,13,14,14],"right_children":[2,4,6,8,10,12,14,16,18,20,22,-1,24,26,28,-1,-1,-1,-1,-1,-1,-1,-1,-1,-1,-1,-1,-1,-1],"split_conditions":[6.57E-2,2.46E-2,7E0,2.849E-1,2.61E-2,3E0,3E0,2E0,8E0,1.8E1,2.92E-2,5.9284814E-2,1.206E-1,1.4E1,-1E1,-2.604334E-2,1.203033E-2,5.7357544E-4,-5.0992835E-2,-6.0478326E-2,-4.992937E-3,4.0673897E-2,-7.965692E-3,3.0638693E-2,-2.8959631E-3,2.2464244E-2,-4.6061426E-2,-2.9995823E-2,2.8644695E-3],"split_indices":[7,7,0,8,7,4,3,4,0,0,7,0,7,2,2,0,0,0,0,0,0,0,0,0,0,0,0,0,0],"split_type":[0,0,0,0,0,0,0,0,0,0,0,0,0,0,0,0,0,0,0,0,0,0,0,0,0,0,0,0,0],"sum_hessian":[2.456737E2,1.5466205E2,9.1011665E1,5.5018795E1,9.964325E1,5.914323E0,8.509734E1,5.182685E1,3.1919436E0,5.9289784E0,9.371427E1,1.7155521E0,4.198771E0,2.7198652E1,5.789869E1,4.165091E0,4.7661762E1,1.1914167E0,2.000527E0,4.001725E0,1.9272535E0,3.861157E0,8.985311E1,2.4898665E0,1.7089045E0,2.5194668E1,2.0039856E0,8.081095E0,4.9817596E1],"tree_param":{"num_deleted":"0","num_feature":"9","num_nodes":"29","size_leaf_vector":"1"}},{"base_weights":[2.764486E-3,-4.9256433E-2,1.1625612E-2,3.9539674E-1,-1.7625785E-2,-4.3827463E-3,9.542106E-1,-3.0752516E-1,3.4115404E-2,2.986369E-2,-1.8461196E-2,6.6185474E-2,2.915909E-3,4.8619076E-3,-3.0182973E-2,-2.2640682E-3,1.2297969E-2],"categories":[],"categories_nodes":[],"categories_segments":[],"categories_sizes":[],"default_left":[0,0,0,0,0,0,0,0,0,0,0,0,0,0,0,0,0],"id":30,"left_children":[1,-1,3,5,7,9,11,13,15,-1,-1,-1,-1,-1,-1,-1,-1],"loss_changes":[2.1683955E0,0E0,2.759515E0,3.8932195E0,3.442267E0,2.666646E0,2.3276277E0,4.223957E0,3.2916448E0,0E0,0E0,0E0,0E0,0E0,0E0,0E0,0E0],"parents":[2147483647,0,0,2,2,3,3,4,4,5,5,6,6,7,7,8,8],"right_children":[2,-1,4,6,8,10,12,14,16,-1,-1,-1,-1,-1,-1,-1,-1],"split_conditions":[-4.1097E4,-4.9256433E-2,-1.6E1,-1.3684E4,3.77E2,-2.9316E4,4.179E-1,-2E0,7.03E-2,2.986369E-2,-1.8461196E-2,6.6185474E-2,2.915909E-3,4.8619076E-3,-3.0182973E-2,-2.2640682E-3,1.2297969E-2],"split_indices":[5,0,2,5,1,5,8,2,7,0,0,0,0,0,0,0,0],"split_type":[0,0,0,0,0,0,0,0,0,0,0,0,0,0,0,0,0],"sum_hessian":[2.4539944E2,1.2021497E0,2.4419728E2,1.6408224E1,2.2778906E2,1.0143586E1,6.2646384E0,3.374978E1,1.9403929E2,3.5885913E0,6.554995E0,4.09725E0,2.1673882E0,1.45433E1,1.9206478E1,1.4171306E2,5.2326225E1],"tree_param":{"num_deleted":"0","num_feature":"9","num_nodes":"17","size_leaf_vector":"1"}},{"base_weights":[2.679229E-3,5.306445E-1,-1.3767776E-2,7.8486437E-1,-2.3358095E-2,-7.3888846E-2,1.4976545E-1,9.516524E-1,1.0912911E-3,-2.1233482E-2,-3.6690944E-1,4.92306E-2,7.418587E-1,5.6551844E-2,8.482105E-3,-3.702671E-3,2.4302727E-2,-2.5109986E-2,2.6601074E-2,-4.3601473E-3,2.8175056E-2,5.5600483E-2,8.697044E-3],"categories":[],"categories_nodes":[],"categories_segments":[],"categories_sizes":[],"default_left":[0,0,0,0,0,0,0,0,0,0,0,0,0,0,0,0,0,0,0,0,0,0,0],"id":31,"left_children":[1,3,5,7,-1,9,11,13,-1,15,17,19,21,-1,-1,-1,-1,-1,-1,-1,-1,-1,-1],"loss_changes":[2.1450891E0,2.259701E0,2.3680196E0,7.836335E-1,0E0,2.7070467E0,3.8191073E0,5.324559E-1,0E0,4.0609775E0,3.519348E0,4.009293E0,1.7680092E0,0E0,0E0,0E0,0E0,0E0,0E0,0E0,0E0,0E0,0E0],"parents":[2147483647,0,0,1,1,2,2,3,3,5,5,6,6,7,7,9,9,10,10,11,11,12,12],"right_children":[2,4,6,8,-1,10,12,14,-1,16,18,20,22,-1,-1,-1,-1,-1,-1,-1,-1,-1,-1],"split_conditions":[1E0,1.9E1,1.7E1,4.596E-1,-2.3358095E-2,1.044E4,6.4074E0,2.6605E0,1.0912911E-3,6.729E3,2.749E3,6.729E3,0E0,5.6551844E-2,8.482105E-3,-3.702671E-3,2.4302727E-2,-2.5109986E-2,2.6601074E-2,-4.3601473E-3,2.8175056E-2,5.5600483E-2,8.697044E-3],"split_indices":[3,0,0,8,0,5,6,6,0,5,1,5,2,0,0,0,0,0,0,0,0,0,0],"split_type":[0,0,0,0,0,0,0,0,0,0,0,0,0,0,0,0,0,0,0,0,0,0,0],"sum_hessian":[2.451906E2,6.4628477E0,2.3872775E2,5.3206654E0,1.1421822E0,1.7495557E2,6.377219E1,4.16342E0,1.1572453E0,1.4921442E2,2.5741144E1,5.5441597E1,8.330593E0,3.0235353E0,1.1398847E0,1.3591652E2,1.3297904E1,2.2757454E1,2.983689E0,4.447344E1,1.096816E1,4.4634266E0,3.867167E0],"tree_param":{"num_deleted":"0","num_feature":"9","num_nodes":"23","size_leaf_vector":"1"}},{"base_weights":[3.1665124E-3,4.111579E-2,-7.1467417E-3,-3.307988E-1,1.9641284E-2,2.6602975E-1,-8.700164E-1,-4.152348E-2,1.8912755E-1,4.1413736E-2,-2.0100433E-2,-8.946719E-3,-4.6639204E-2,1.137084E-3,-1.7700467E-2,3.2912206E-2,1.4967514E-3],"categories":[],"categories_nodes":[],"categories_segments":[],"categories_sizes":[],"default_left":[0,0,0,0,0,0,0,0,0,0,0,0,0,0,0,0,0],"id":32,"left_children":[1,-1,3,5,7,9,11,13,15,-1,-1,-1,-1,-1,-1,-1,-1],"loss_changes":[2.0835078E0,0E0,2.1207852E0,6.24858E0,2.3524163E0,3.9538925E0,2.6933527E-1,3.3619397E0,4.4726815E0,0E0,0E0,0E0,0E0,0E0,0E0,0E0,0E0],"parents":[2147483647,0,0,2,2,3,3,4,4,5,5,6,6,7,7,8,8],"right_children":[2,-1,4,6,8,10,12,14,16,-1,-1,-1,-1,-1,-1,-1,-1],"split_conditions":[2.3E1,4.111579E-2,1.53E2,-1.56E2,1.7E1,3E0,1E0,5.8457E0,3E0,4.1413736E-2,-2.0100433E-2,-8.946719E-3,-4.6639204E-2,1.137084E-3,-1.7700467E-2,3.2912206E-2,1.4967514E-3],"split_indices":[1,0,1,5,0,3,3,6,4,0,0,0,0,0,0,0,0],"split_type":[0,0,0,0,0,0,0,0,0,0,0,0,0,0,0,0,0],"sum_hessian":[2.4492892E2,2.0664124E0,2.4286252E2,1.7697165E1,2.2516534E2,8.640327E0,9.056838E0,1.6601009E2,5.9155266E1,4.561416E0,4.0789113E0,1.0747218E0,7.982116E0,1.384616E2,2.7548487E1,1.4193688E1,4.496158E1],"tree_param":{"num_deleted":"0","num_feature":"9","num_nodes":"17","size_leaf_vector":"1"}},{"base_weights":[3.099389E-3,-4.8320107E-2,1.1793298E-2,3.771938E-1,-1.6096698E-2,-2.5788997E-3,9.0758026E-1,-3.2323655E-1,2.7805135E-2,2.8589854E-2,-1.7688889E-2,6.316223E-2,2.4913664E-3,1.1684941E-2,-4.1002274E-2,-1.939906E-2,4.1679917E-3],"categories":[],"categories_nodes":[],"categories_segments":[],"categories_sizes":[],"default_left":[0,0,0,0,0,0,0,0,0,0,0,0,0,0,0,0,0],"id":33,"left_children":[1,-1,3,5,7,9,11,13,15,-1,-1,-1,-1,-1,-1,-1,-1],"loss_changes":[2.0822234E0,0E0,2.4976754E0,3.5028934E0,3.084842E0,2.4463277E0,2.150145E0,8.1069765E0,4.663765E0,0E0,0E0,0E0,0E0,0E0,0E0,0E0,0E0],"parents":[2147483647,0,0,2,2,3,3,4,4,5,5,6,6,7,7,8,8],"right_children":[2,-1,4,6,8,10,12,14,16,-1,-1,-1,-1,-1,-1,-1,-1],"split_conditions":[-4.1097E4,-4.8320107E-2,-1.6E1,-1.3684E4,3.13E2,-2.9316E4,4.179E-1,-2E0,-8E0,2.8589854E-2,-1.7688889E-2,6.316223E-2,2.4913664E-3,1.1684941E-2,-4.1002274E-2,-1.939906E-2,4.1679917E-3],"split_indices":[5,0,2,5,1,5,8,2,2,0,0,0,0,0,0,0,0],"split_type":[0,0,0,0,0,0,0,0,0,0,0,0,0,0,0,0,0],"sum_hessian":[2.4468584E2,1.1956385E0,2.4349019E2,1.6378826E1,2.2711137E2,1.012451E1,6.2543163E0,2.760718E1,1.995042E2,3.603294E0,6.521216E0,4.086943E0,2.1673732E0,1.3265651E1,1.4341529E1,2.2809319E1,1.7669487E2],"tree_param":{"num_deleted":"0","num_feature":"9","num_nodes":"17","size_leaf_vector":"1"}},{"base_weights":[2.8585873E-3,-4.720072E-2,1.1321483E-2,3.6303014E-1,-1.5517812E-2,7.9465157E-1,-6.134542E-2,-2.8058958E-1,3.1098021E-2,6.658799E-2,-6.050977E-3,2.7382288E-2,-2.574195E-2,3.758775E-3,-2.7268497E-2,-2.1843784E-3,1.1528876E-2],"categories":[],"categories_nodes":[],"categories_segments":[],"categories_sizes":[],"default_left":[0,0,0,0,0,0,0,0,0,0,0,0,0,0,0,0,0],"id":34,"left_children":[1,-1,3,5,7,9,11,13,15,-1,-1,-1,-1,-1,-1,-1,-1],"loss_changes":[1.9780456E0,0E0,2.3119693E0,3.22927E0,2.8255403E0,4.430158E0,2.95634E0,3.2620187E0,2.9156573E0,0E0,0E0,0E0,0E0,0E0,0E0,0E0,0E0],"parents":[2147483647,0,0,2,2,3,3,4,4,5,5,6,6,7,7,8,8],"right_children":[2,-1,4,6,8,10,12,14,16,-1,-1,-1,-1,-1,-1,-1,-1],"split_conditions":[-4.1097E4,-4.720072E-2,-1.6E1,7.94E2,3.77E2,4.179E-1,-2.9316E4,-2E0,7.03E-2,6.658799E-2,-6.050977E-3,2.7382288E-2,-2.574195E-2,3.758775E-3,-2.7268497E-2,-2.1843784E-3,1.1528876E-2],"split_indices":[5,0,2,1,1,8,5,2,7,0,0,0,0,0,0,0,0],"split_type":[0,0,0,0,0,0,0,0,0,0,0,0,0,0,0,0,0],"sum_hessian":[2.4451196E2,1.1867322E0,2.4332524E2,1.6363811E1,2.2696143E2,7.68008E0,8.683731E0,3.3193565E1,1.9376785E2,4.5542626E0,3.1258173E0,3.6178064E0,5.065925E0,1.4468899E1,1.8724667E1,1.4149998E2,5.226787E1],"tree_param":{"num_deleted":"0","num_feature":"9","num_nodes":"17","size_leaf_vector":"1"}}]},"name":"gbtree"},"learner_model_param":{"base_score":"4.275663E-1","boost_from_average":"1","num_class":"0","num_feature":"9","num_target":"1"},"objective":{"name":"binary:logistic","reg_loss_param":{"scale_pos_weight":"1"}}},"version":[2,1,4]}