{"learner":{"attributes":{"best_iteration":"68","best_score":"0.6451195887161554","scikit_learn":"{\"_estimator_type\": \"classifier\"}"},"feature_names":["yardline_100","game_seconds_remaining","score_differential","timeouts_pos","timeouts_def","leverage","cpoe_by_filter","target_share_by_filter","carry_share_by_filter"],"feature_types":["float","float","float","float","float","float","float","float","float"],"gradient_booster":{"model":{"gbtree_model_param":{"num_parallel_tree":"1","num_trees":"99"},"iteration_indptr":[0,1,2,3,4,5,6,7,8,9,10,11,12,13,14,15,16,17,18,19,20,21,22,23,24,25,26,27,28,29,30,31,32,33,34,35,36,37,38,39,40,41,42,43,44,45,46,47,48,49,50,51,52,53,54,55,56,57,58,59,60,61,62,63,64,65,66,67,68,69,70,71,72,73,74,75,76,77,78,79,80,81,82,83,84,85,86,87,88,89,90,91,92,93,94,95,96,97,98,99],"tree_info":[0,0,0,0,0,0,0,0,0,0,0,0,0,0,0,0,0,0,0,0,0,0,0,0,0,0,0,0,0,0,0,0,0,0,0,0,0,0,0,0,0,0,0,0,0,0,0,0,0,0,0,0,0,0,0,0,0,0,0,0,0,0,0,0,0,0,0,0,0,0,0,0,0,0,0,0,0,0,0,0,0,0,0,0,0,0,0,0,0,0,0,0,0,0,0,0,0,0,0],"trees":[{"base_weights":[7.295792E-5,6.8224746E-1,-9.7744465E-2,8.094185E-1,-4.066611E-1,3.400191E-1,-2.4195774E-1,1.3413172E0,5.8199835E-1,8.6467016E-1,-1.2788239E0,5.021213E-1,5.5272646E-2,-1.297063E-1,-7.520554E-1,2.4265958E-2,7.0276715E-2,6.994494E-2,2.4730602E-2,8.466095E-3,5.7210214E-2,-1.3784376E-2,-7.6967925E-2,4.6076872E-3,3.9927956E-2,-1.142321E-2,3.0023431E-2,2.8851701E-2,-9.075816E-3,-5.806713E-2,1.3922416E-2],"categories":[],"categories_nodes":[],"categories_segments":[],"categories_sizes":[],"default_left":[0,0,0,0,0,0,0,0,0,0,0,0,0,0,0,0,0,0,0,0,0,0,0,0,0,0,0,0,0,0,0],"id":0,"left_children":[1,3,5,7,9,11,13,15,17,19,21,23,25,27,29,-1,-1,-1,-1,-1,-1,-1,-1,-1,-1,-1,-1,-1,-1,-1,-1],"loss_changes":[3.596798E1,9.689898E0,2.9843794E1,6.581604E0,9.681918E0,5.383526E0,2.0240276E1,2.7776146E-1,2.477666E0,5.3394055E-1,8.7998676E-1,8.99029E0,6.8898563E0,1.0808859E1,2.7256065E1,0E0,0E0,0E0,0E0,0E0,0E0,0E0,0E0,0E0,0E0,0E0,0E0,0E0,0E0,0E0,0E0],"parents":[2147483647,0,0,1,1,2,2,3,3,4,4,5,5,6,6,7,7,8,8,9,9,10,10,11,11,12,12,13,13,14,14],"right_children":[2,4,6,8,10,12,14,16,18,20,22,24,26,28,30,-1,-1,-1,-1,-1,-1,-1,-1,-1,-1,-1,-1,-1,-1,-1,-1],"split_conditions":[-1.2E1,9.1694E0,8E0,4.9E2,1.2E1,2.134E3,9E0,-2.7E1,6.2E-3,9E0,3E0,9.94E2,2.961E3,2E0,2.496E4,2.4265958E-2,7.0276715E-2,6.994494E-2,2.4730602E-2,8.466095E-3,5.7210214E-2,-1.3784376E-2,-7.6967925E-2,4.6076872E-3,3.9927956E-2,-1.142321E-2,3.0023431E-2,2.8851701E-2,-9.075816E-3,-5.806713E-2,1.3922416E-2],"split_indices":[2,6,0,1,0,1,2,2,7,0,3,1,1,3,5,0,0,0,0,0,0,0,0,0,0,0,0,0,0,0,0],"split_type":[0,0,0,0,0,0,0,0,0,0,0,0,0,0,0,0,0,0,0,0,0,0,0,0,0,0,0,0,0,0,0],"sum_hessian":[5.3702E2,6.6597466E1,4.7042255E2,5.986289E1,6.734575E0,1.1623378E2,3.5418875E2,1.6462294E1,4.3400593E1,2.7437158E0,3.9908593E0,7.358147E1,4.265231E1,2.9133273E2,6.2856033E1,1.7460009E0,1.4716293E1,2.7437158E0,4.065688E1,1.2471435E0,1.4965723E0,1.2471435E0,2.7437158E0,3.1428017E1,4.215345E1,2.8434872E1,1.4217436E1,1.920601E1,2.721267E2,4.4897167E1,1.7958866E1],"tree_param":{"num_deleted":"0","num_feature":"9","num_nodes":"31","size_leaf_vector":"1"}},{"base_weights":[4.648288E-4,6.519234E-1,-9.275343E-2,7.738437E-1,-3.8946503E-1,3.2388863E-1,-2.2981638E-1,1.284917E0,5.558896E-1,8.4032655E-1,-1.231329E0,5.019781E-1,8.404892E-2,-1.2311551E-1,-7.1426857E-1,2.3514507E-2,6.728182E-2,5.4960724E-2,2.1695198E-2,7.4306326E-3,5.629433E-2,-1.3397196E-2,-7.402419E-2,4.385388E-3,4.3262415E-2,9.701478E-3,-5.16504E-2,-4.1835504E-3,-5.1000744E-2,-5.5119514E-2,1.3272216E-2],"categories":[],"categories_nodes":[],"categories_segments":[],"categories_sizes":[],"default_left":[0,0,0,0,0,0,0,0,0,0,0,0,0,0,0,0,0,0,0,0,0,0,0,0,0,0,0,0,0,0,0],"id":1,"left_children":[1,3,5,7,9,11,13,15,17,19,21,23,25,27,29,-1,-1,-1,-1,-1,-1,-1,-1,-1,-1,-1,-1,-1,-1,-1,-1],"loss_changes":[3.272765E1,8.866793E0,2.6998034E1,6.050087E0,9.043467E0,4.960374E0,1.8280363E1,2.2746086E-1,2.4613981E0,5.7100797E-1,8.029132E-1,1.0008831E1,6.4794064E0,1.0259632E1,2.4601925E1,0E0,0E0,0E0,0E0,0E0,0E0,0E0,0E0,0E0,0E0,0E0,0E0,0E0,0E0,0E0,0E0],"parents":[2147483647,0,0,1,1,2,2,3,3,4,4,5,5,6,6,7,7,8,8,9,9,10,10,11,11,12,12,13,13,14,14],"right_children":[2,4,6,8,10,12,14,16,18,20,22,24,26,28,30,-1,-1,-1,-1,-1,-1,-1,-1,-1,-1,-1,-1,-1,-1,-1,-1],"split_conditions":[-1.2E1,9.1694E0,8E0,4.9E2,1.2E1,1.942E3,9E0,-2.7E1,7E0,-2E1,3E0,9.94E2,1.6E-1,8.2333E0,2.496E4,2.3514507E-2,6.728182E-2,5.4960724E-2,2.1695198E-2,7.4306326E-3,5.629433E-2,-1.3397196E-2,-7.402419E-2,4.385388E-3,4.3262415E-2,9.701478E-3,-5.16504E-2,-4.1835504E-3,-5.1000744E-2,-5.5119514E-2,1.3272216E-2],"split_indices":[2,6,0,1,0,1,2,2,0,2,3,1,7,6,5,0,0,0,0,0,0,0,0,0,0,0,0,0,0,0,0],"split_type":[0,0,0,0,0,0,0,0,0,0,0,0,0,0,0,0,0,0,0,0,0,0,0,0,0,0,0,0,0,0,0],"sum_hessian":[5.3692755E2,6.646205E1,4.704655E2,5.97265E1,6.7355504E0,1.1612061E2,3.543449E2,1.6392624E1,4.3333874E1,2.7378848E0,3.9976656E0,6.601166E1,5.010896E1,2.9141476E2,6.2930138E1,1.7437207E0,1.4648904E1,6.476496E0,3.685738E1,1.2442807E0,1.4936041E0,1.2479064E0,2.7497592E0,3.1420927E1,3.459073E1,4.636988E1,3.739077E0,2.8018585E2,1.1228932E1,4.4984085E1,1.794605E1],"tree_param":{"num_deleted":"0","num_feature":"9","num_nodes":"31","size_leaf_vector":"1"}},{"base_weights":[5.554624E-4,6.232691E-1,-8.8314496E-2,7.401788E-1,-3.7344125E-1,3.0813724E-1,-2.1855345E-1,1.2331903E0,5.308089E-1,8.169767E-1,-1.1875516E0,4.785139E-1,7.9058036E-2,-1.12410024E-1,-6.6013646E-1,2.279024E-2,6.454561E-2,6.6912875E-2,2.227901E-2,6.9589764E-3,5.4975737E-2,-1.3021595E-2,-7.134575E-2,4.1738185E-3,4.1299477E-2,9.231511E-3,-4.9530003E-2,2.8569315E-2,-8.100664E-3,-4.9532384E-2,1.4660922E-2],"categories":[],"categories_nodes":[],"categories_segments":[],"categories_sizes":[],"default_left":[0,0,0,0,0,0,0,0,0,0,0,0,0,0,0,0,0,0,0,0,0,0,0,0,0,0,0,0,0,0,0],"id":2,"left_children":[1,3,5,7,9,11,13,15,17,19,21,23,25,27,29,-1,-1,-1,-1,-1,-1,-1,-1,-1,-1,-1,-1,-1,-1,-1,-1],"loss_changes":[2.9809717E1,8.115452E0,2.4406933E1,5.595093E0,8.458808E0,4.5278587E0,1.6584362E1,1.8753433E-1,2.4491606E0,5.614114E-1,7.371869E-1,9.11241E0,5.9525537E0,9.852367E0,2.1927944E1,0E0,0E0,0E0,0E0,0E0,0E0,0E0,0E0,0E0,0E0,0E0,0E0,0E0,0E0,0E0,0E0],"parents":[2147483647,0,0,1,1,2,2,3,3,4,4,5,5,6,6,7,7,8,8,9,9,10,10,11,11,12,12,13,13,14,14],"right_children":[2,4,6,8,10,12,14,16,18,20,22,24,26,28,30,-1,-1,-1,-1,-1,-1,-1,-1,-1,-1,-1,-1,-1,-1,-1,-1],"split_conditions":[-1.2E1,9.1694E0,8E0,4.9E2,1.2E1,1.942E3,8E0,-2.7E1,6.2E-3,-2.458E4,3E0,9.94E2,1.6E-1,2E0,1.715E3,2.279024E-2,6.454561E-2,6.6912875E-2,2.227901E-2,6.9589764E-3,5.4975737E-2,-1.3021595E-2,-7.134575E-2,4.1738185E-3,4.1299477E-2,9.231511E-3,-4.9530003E-2,2.8569315E-2,-8.100664E-3,-4.9532384E-2,1.4660922E-2],"split_indices":[2,6,0,1,0,1,2,2,7,5,3,1,7,3,1,0,0,0,0,0,0,0,0,0,0,0,0,0,0,0,0],"split_type":[0,0,0,0,0,0,0,0,0,0,0,0,0,0,0,0,0,0,0,0,0,0,0,0,0,0,0,0,0,0,0],"sum_hessian":[5.366651E2,6.627332E1,4.7039178E2,5.9546192E1,6.72713E0,1.1597971E2,3.5441208E2,1.629223E1,4.3253963E1,2.7306972E0,3.9964328E0,6.58874E1,5.0092323E1,2.867423E2,6.766977E1,1.7410266E0,1.4551204E1,2.7260168E0,4.0527946E1,1.2425281E0,1.4881692E0,1.2485348E0,2.7478979E0,3.1413876E1,3.447352E1,4.6345543E1,3.7467785E0,1.868227E1,2.6806003E2,5.0220196E1,1.7449572E1],"tree_param":{"num_deleted":"0","num_feature":"9","num_nodes":"31","size_leaf_vector":"1"}},{"base_weights":[8.140982E-4,5.965593E-1,-8.3939426E-2,7.0872235E-1,-3.5848412E-1,2.9322842E-1,-2.0765908E-1,4.672842E-1,1.1045507E0,7.9469645E-1,-1.1470411E0,8.640043E-1,2.2616743E-1,-4.340519E-1,-2.0051522E-2,5.456338E-2,1.6700936E-2,4.1175954E-2,7.248742E-2,6.2499144E-3,5.3939946E-2,-1.265716E-2,-6.889752E-2,5.018403E-2,-3.3055132E-3,3.3486653E-2,6.10564E-3,9.3207293E-4,-3.5478074E-2,-9.887136E-3,1.6415235E-2],"categories":[],"categories_nodes":[],"categories_segments":[],"categories_sizes":[],"default_left":[0,0,0,0,0,0,0,0,0,0,0,0,0,0,0,0,0,0,0,0,0,0,0,0,0,0,0,0,0,0,0],"id":3,"left_children":[1,3,5,7,9,11,13,15,17,19,21,23,25,27,29,-1,-1,-1,-1,-1,-1,-1,-1,-1,-1,-1,-1,-1,-1,-1,-1],"loss_changes":[2.7177593E1,7.4352283E0,2.2049967E1,5.2493286E0,7.9224253E0,4.275666E0,1.5087127E1,2.8956308E0,9.522915E-1,5.732608E-1,6.8075895E-1,1.6157837E0,4.805229E0,2.0095081E1,1.2160644E1,0E0,0E0,0E0,0E0,0E0,0E0,0E0,0E0,0E0,0E0,0E0,0E0,0E0,0E0,0E0,0E0],"parents":[2147483647,0,0,1,1,2,2,3,3,4,4,5,5,6,6,7,7,8,8,9,9,10,10,11,11,12,12,13,13,14,14],"right_children":[2,4,6,8,10,12,14,16,18,20,22,24,26,28,30,-1,-1,-1,-1,-1,-1,-1,-1,-1,-1,-1,-1,-1,-1,-1,-1],"split_conditions":[-1.2E1,9.1694E0,8E0,-1.1606E4,1.2E1,2E0,1.586E3,-2.4E1,5.79E-2,-2E1,3E0,1.942E3,8.76E-2,-1E0,1.7E1,5.456338E-2,1.6700936E-2,4.1175954E-2,7.248742E-2,6.2499144E-3,5.3939946E-2,-1.265716E-2,-6.889752E-2,5.018403E-2,-3.3055132E-3,3.3486653E-2,6.10564E-3,9.3207293E-4,-3.5478074E-2,-9.887136E-3,1.6415235E-2],"split_indices":[2,6,0,5,0,3,1,2,7,2,3,1,8,2,0,0,0,0,0,0,0,0,0,0,0,0,0,0,0,0,0],"split_type":[0,0,0,0,0,0,0,0,0,0,0,0,0,0,0,0,0,0,0,0,0,0,0,0,0,0,0,0,0,0,0],"sum_hessian":[5.362689E2,6.603815E1,4.7023077E2,5.932837E1,6.7097783E0,1.15809006E2,3.5442178E2,3.820531E1,2.1123058E1,2.7217393E0,3.988039E0,1.0926498E1,1.0488251E2,1.6001376E2,1.9440802E2,5.4585056E0,3.2746803E1,1.3509982E1,7.6130767E0,1.2396233E0,1.482116E0,1.2490387E0,2.7390003E0,9.431123E0,1.4953754E0,1.8896002E1,8.59865E1,6.0892635E1,9.912113E1,1.2902611E2,6.5381905E1],"tree_param":{"num_deleted":"0","num_feature":"9","num_nodes":"31","size_leaf_vector":"1"}},{"base_weights":[1.202462E-3,5.71488E-1,-7.963589E-2,6.7911625E-1,-3.444798E-1,2.796391E-1,-1.9735615E-1,4.6148807E-1,1.0923077E0,7.733434E-1,-1.1094134E0,4.2135903E-1,3.2280467E-2,-1.0396506E-1,-6.2234724E-1,4.4831585E-2,1.2702216E-2,3.77549E-2,7.094392E-2,5.8180164E-3,5.2746724E-2,-1.2303515E-2,-6.665008E-2,3.1206848E-3,3.4173682E-2,-1.1905207E-2,2.7720844E-2,-8.705466E-4,-2.4014344E-2,-4.8794236E-2,1.3362074E-2],"categories":[],"categories_nodes":[],"categories_segments":[],"categories_sizes":[],"default_left":[0,0,0,0,0,0,0,0,0,0,0,0,0,0,0,0,0,0,0,0,0,0,0,0,0,0,0,0,0,0,0],"id":4,"left_children":[1,3,5,7,9,11,13,15,17,19,21,23,25,27,29,-1,-1,-1,-1,-1,-1,-1,-1,-1,-1,-1,-1,-1,-1,-1,-1],"loss_changes":[2.4795683E1,6.8169537E0,1.9979586E1,4.899418E0,7.428872E0,4.076603E0,1.4041892E1,3.4814634E0,1.1309948E0,5.638647E-1,6.3200045E-1,6.928585E0,6.2848344E0,9.521783E0,2.033575E1,0E0,0E0,0E0,0E0,0E0,0E0,0E0,0E0,0E0,0E0,0E0,0E0,0E0,0E0,0E0,0E0],"parents":[2147483647,0,0,1,1,2,2,3,3,4,4,5,5,6,6,7,7,8,8,9,9,10,10,11,11,12,12,13,13,14,14],"right_children":[2,4,6,8,10,12,14,16,18,20,22,24,26,28,30,-1,-1,-1,-1,-1,-1,-1,-1,-1,-1,-1,-1,-1,-1,-1,-1],"split_conditions":[-1.2E1,9.1694E0,8E0,-1.0521E4,1.2E1,2.134E3,9E0,3E0,5.44E-2,-2.458E4,3E0,9.94E2,2.961E3,5.414E-1,2.496E4,4.4831585E-2,1.2702216E-2,3.77549E-2,7.094392E-2,5.8180164E-3,5.2746724E-2,-1.2303515E-2,-6.665008E-2,3.1206848E-3,3.4173682E-2,-1.1905207E-2,2.7720844E-2,-8.705466E-4,-2.4014344E-2,-4.8794236E-2,1.3362074E-2],"split_indices":[2,6,0,5,0,1,2,4,7,5,3,1,1,8,5,0,0,0,0,0,0,0,0,0,0,0,0,0,0,0,0],"split_type":[0,0,0,0,0,0,0,0,0,0,0,0,0,0,0,0,0,0,0,0,0,0,0,0,0,0,0,0,0,0,0],"sum_hessian":[5.358691E2,6.577569E1,4.700934E2,5.9090954E1,6.684736E0,1.1567746E2,3.5441595E2,4.009158E1,1.8999374E1,2.7114334E0,3.9733026E0,7.309531E1,4.258215E1,2.915852E2,6.2830738E1,1.1870074E1,2.8221504E1,1.0976985E1,8.022389E0,1.2374802E0,1.4739532E0,1.2494272E0,2.7238755E0,3.1371973E1,4.1723335E1,2.8412777E1,1.4169372E1,2.3791171E2,5.3673496E1,4.4892643E1,1.7938097E1],"tree_param":{"num_deleted":"0","num_feature":"9","num_nodes":"31","size_leaf_vector":"1"}},{"base_weights":[1.4149714E-3,5.476279E-1,-7.571353E-2,6.509087E-1,-3.3134016E-1,2.6657385E-1,-1.8771659E-1,1.1057142E0,4.6134198E-1,7.529189E-1,-1.0743397E0,8.16086E-1,2.0234849E-1,-4.6137688E-1,-5.4478645E-2,4.0410668E-2,7.151886E-2,6.330571E-2,1.8911991E-2,5.1556956E-3,5.181433E-2,-1.19602755E-2,-6.457859E-2,4.7426753E-2,-3.0464348E-3,3.1458553E-2,5.1290398E-3,4.7466173E-3,-3.9274074E-2,1.8836519E-2,-8.5109295E-3],"categories":[],"categories_nodes":[],"categories_segments":[],"categories_sizes":[],"default_left":[0,0,0,0,0,0,0,0,0,0,0,0,0,0,0,0,0,0,0,0,0,0,0,0,0,0,0,0,0,0,0],"id":5,"left_children":[1,3,5,7,9,11,13,15,17,19,21,23,25,27,29,-1,-1,-1,-1,-1,-1,-1,-1,-1,-1,-1,-1,-1,-1,-1,-1],"loss_changes":[2.2634344E1,6.25058E0,1.8099434E1,4.647789E0,6.973896E0,3.9460344E0,1.2930437E1,4.7472954E-1,2.4598312E0,5.743785E-1,5.896082E-1,1.4354868E0,4.433414E0,2.1028255E1,1.2047246E1,0E0,0E0,0E0,0E0,0E0,0E0,0E0,0E0,0E0,0E0,0E0,0E0,0E0,0E0,0E0,0E0],"parents":[2147483647,0,0,1,1,2,2,3,3,4,4,5,5,6,6,7,7,8,8,9,9,10,10,11,11,12,12,13,13,14,14],"right_children":[2,4,6,8,10,12,14,16,18,20,22,24,26,28,30,-1,-1,-1,-1,-1,-1,-1,-1,-1,-1,-1,-1,-1,-1,-1,-1],"split_conditions":[-1.2E1,9.1694E0,8E0,4.9E2,1.2E1,2E0,1.149E3,3.36E2,6.2E-3,-2E1,3E0,1.942E3,8.76E-2,-1E0,3E0,4.0410668E-2,7.151886E-2,6.330571E-2,1.8911991E-2,5.1556956E-3,5.181433E-2,-1.19602755E-2,-6.457859E-2,4.7426753E-2,-3.0464348E-3,3.1458553E-2,5.1290398E-3,4.7466173E-3,-3.9274074E-2,1.8836519E-2,-8.5109295E-3],"split_indices":[2,6,0,1,0,3,1,1,7,2,3,1,8,2,3,0,0,0,0,0,0,0,0,0,0,0,0,0,0,0,0],"split_type":[0,0,0,0,0,0,0,0,0,0,0,0,0,0,0,0,0,0,0,0,0,0,0,0,0,0,0,0,0,0,0],"sum_hessian":[5.352839E2,6.547799E1,4.6980588E2,5.8825336E1,6.6526494E0,1.1548806E2,3.543178E2,1.5883954E1,4.2941383E1,2.6996706E0,3.952979E0,1.0860345E1,1.04627716E2,1.1521416E2,2.3910365E2,1.0109569E1,5.774385E0,2.6867652E0,4.025462E1,1.2339419E0,1.4657286E0,1.249709E0,2.70327E0,9.364539E0,1.4958066E0,1.8817406E1,8.581031E1,4.267381E1,7.254035E1,5.011958E1,1.8898407E2],"tree_param":{"num_deleted":"0","num_feature":"9","num_nodes":"31","size_leaf_vector":"1"}},{"base_weights":[1.790469E-3,5.2549255E-1,-7.184479E-2,1.6902238E-2,7.005824E-1,2.5428945E-1,-1.7845747E-1,2.5033712E-1,-5.198732E-2,8.013377E-1,2.1253403E-1,4.088224E-1,4.8008077E-2,-9.2184216E-2,-5.727985E-1,4.1277803E-2,-1.0719868E-2,2.6297484E-2,5.159672E-2,5.2380826E-2,-3.0283951E-3,2.188443E-3,3.6689322E-2,7.4500763E-3,-4.831993E-2,-2.733659E-3,-4.732259E-2,-4.519562E-2,1.2814291E-2],"categories":[],"categories_nodes":[],"categories_segments":[],"categories_sizes":[],"default_left":[0,0,0,0,0,0,0,0,0,0,0,0,0,0,0,0,0,0,0,0,0,0,0,0,0,0,0,0,0],"id":6,"left_children":[1,3,5,7,9,11,13,15,-1,17,19,21,23,25,27,-1,-1,-1,-1,-1,-1,-1,-1,-1,-1,-1,-1,-1,-1],"loss_changes":[2.0696003E1,5.879427E0,1.6406237E1,4.6921573E0,2.2485294E0,3.688878E0,1.2031747E1,4.326512E0,0E0,2.0235424E0,2.293513E0,7.842264E0,5.3646607E0,9.325663E0,1.7683025E1,0E0,0E0,0E0,0E0,0E0,0E0,0E0,0E0,0E0,0E0,0E0,0E0,0E0,0E0],"parents":[2147483647,0,0,1,1,2,2,3,3,4,4,5,5,6,6,7,7,9,9,10,10,11,11,12,12,13,13,14,14],"right_children":[2,4,6,8,10,12,14,16,-1,18,20,22,24,26,28,-1,-1,-1,-1,-1,-1,-1,-1,-1,-1,-1,-1,-1,-1],"split_conditions":[-1.2E1,-2.6767E4,8E0,9.1694E0,6.2803E0,1.942E3,9E0,3.21E-2,-5.198732E-2,1.259E-1,2E0,9.94E2,1.6E-1,8.2333E0,2.496E4,4.1277803E-2,-1.0719868E-2,2.6297484E-2,5.159672E-2,5.2380826E-2,-3.0283951E-3,2.188443E-3,3.6689322E-2,7.4500763E-3,-4.831993E-2,-2.733659E-3,-4.732259E-2,-4.519562E-2,1.2814291E-2],"split_indices":[2,5,0,6,6,1,2,7,0,6,3,1,7,6,5,0,0,0,0,0,0,0,0,0,0,0,0,0,0],"split_type":[0,0,0,0,0,0,0,0,0,0,0,0,0,0,0,0,0,0,0,0,0,0,0,0,0,0,0,0,0],"sum_hessian":[5.347022E2,6.515761E1,4.695446E2,1.6967625E1,4.8189987E1,1.15337006E2,3.5420758E2,1.4522415E1,2.4452088E0,3.9411705E1,8.778282E0,6.5378044E1,4.9958965E1,2.9163742E2,6.2570164E1,6.1428194E0,8.379596E0,1.9456625E1,1.9955078E1,1.4644234E0,7.313859E0,3.1324196E1,3.4053844E1,4.6211323E1,3.7476447E0,2.8038947E2,1.124795E1,4.4648506E1,1.792166E1],"tree_param":{"num_deleted":"0","num_feature":"9","num_nodes":"29","size_leaf_vector":"1"}},{"base_weights":[1.7533292E-3,6.536379E-1,-5.4844882E-2,1.1396271E0,8.316553E-2,3.98548E-1,-1.16075054E-1,1.2483332E0,1.7050382E-1,-5.674019E-2,5.100517E-1,5.1712316E-1,-6.1654925E-1,-6.3589627E-1,-4.3112103E-2,3.4494975E-3,6.595922E-2,-1.5643176E-2,2.88964E-2,5.056436E-2,-6.4517516E-3,1.5476674E-2,4.63092E-2,2.4597827E-2,-5.9349146E-2,5.2447165E-3,-5.488017E-2,1.2346373E-2,-6.8293284E-3],"categories":[],"categories_nodes":[],"categories_segments":[],"categories_sizes":[],"default_left":[0,0,0,0,0,0,0,0,0,0,0,0,0,0,0,0,0,0,0,0,0,0,0,0,0,0,0,0,0],"id":7,"left_children":[1,3,5,7,9,11,13,15,17,-1,19,21,23,25,27,-1,-1,-1,-1,-1,-1,-1,-1,-1,-1,-1,-1,-1,-1],"loss_changes":[1.9774687E1,1.1775719E1,1.3737505E1,2.2145443E0,1.1380356E1,7.4088373E0,1.648148E1,1.6268768E0,8.6655325E-1,0E0,5.2792315E0,4.238266E0,4.7681594E0,1.8414644E1,1.0411116E1,0E0,0E0,0E0,0E0,0E0,0E0,0E0,0E0,0E0,0E0,0E0,0E0,0E0,0E0],"parents":[2147483647,0,0,1,1,2,2,3,3,4,4,5,5,6,6,7,7,8,8,10,10,11,11,12,12,13,13,14,14],"right_children":[2,4,6,8,10,12,14,16,18,-1,20,22,24,26,28,-1,-1,-1,-1,-1,-1,-1,-1,-1,-1,-1,-1,-1,-1],"split_conditions":[2E0,0E0,-1.2E1,6.578E-1,2.55E2,9.1694E0,4.78E2,-7.741E0,1.34E2,-5.674019E-2,1.837E3,-1.1606E4,1.2E1,-2E0,8E0,3.4494975E-3,6.595922E-2,-1.5643176E-2,2.88964E-2,5.056436E-2,-6.4517516E-3,1.5476674E-2,4.63092E-2,2.4597827E-2,-5.9349146E-2,5.2447165E-3,-5.488017E-2,1.2346373E-2,-6.8293284E-3],"split_indices":[3,2,2,8,1,6,1,6,1,0,1,5,0,2,0,0,0,0,0,0,0,0,0,0,0,0,0,0,0],"split_type":[0,0,0,0,0,0,0,0,0,0,0,0,0,0,0,0,0,0,0,0,0,0,0,0,0,0,0,0,0],"sum_hessian":[5.3399304E2,4.181614E1,4.9217694E2,2.2041307E1,1.9774832E1,5.7904053E1,4.342729E2,1.9559252E1,2.4820561E0,4.7017417E0,1.507309E1,5.22869E1,5.617151E0,5.2502914E1,3.8176996E2,1.2203201E0,1.8338932E1,1.2413795E0,1.2406765E0,8.121223E0,6.9518666E0,3.585032E1,1.6436584E1,1.9552157E0,3.6619353E0,2.0455574E1,3.204734E1,9.2649254E1,2.891207E2],"tree_param":{"num_deleted":"0","num_feature":"9","num_nodes":"29","size_leaf_vector":"1"}},{"base_weights":[1.7834841E-3,6.259254E-1,-5.2181207E-2,1.2277483E0,1.9097674E-1,1.6581098E-2,-4.2154765E-1,1.2923003E0,2.3279762E-2,-4.397813E-1,6.2456155E-1,5.9219714E-2,-6.760452E-1,-8.4312135E-1,9.4496004E-2,6.8470955E-2,2.4796508E-2,4.40174E-2,-4.105776E-2,6.5662734E-2,-6.367431E-3,2.520895E-2,-4.1602287E-4,-4.188899E-2,2.637094E-2,-6.684107E-2,-2.963542E-2,2.8373962E-2,-1.3915404E-2],"categories":[],"categories_nodes":[],"categories_segments":[],"categories_sizes":[],"default_left":[0,0,0,0,0,0,0,0,0,0,0,0,0,0,0,0,0,0,0,0,0,0,0,0,0,0,0,0,0],"id":8,"left_children":[1,3,5,7,9,11,13,15,-1,17,19,21,23,25,27,-1,-1,-1,-1,-1,-1,-1,-1,-1,-1,-1,-1,-1,-1],"loss_changes":[1.8029263E1,1.0916203E1,1.2521245E1,2.684765E-1,7.361184E0,1.2335919E1,1.6910995E1,2.8769684E-1,0E0,6.3327537E0,8.333067E0,1.1818609E1,5.157051E0,4.484396E0,6.4503355E0,0E0,0E0,0E0,0E0,0E0,0E0,0E0,0E0,0E0,0E0,0E0,0E0,0E0,0E0],"parents":[2147483647,0,0,1,1,2,2,3,3,4,4,5,5,6,6,7,7,9,9,10,10,11,11,12,12,13,13,14,14],"right_children":[2,4,6,8,10,12,14,16,-1,18,20,22,24,26,28,-1,-1,-1,-1,-1,-1,-1,-1,-1,-1,-1,-1,-1,-1],"split_conditions":[2E0,-4E0,8E0,1.868E3,5.12E2,8.2333E0,1.23E3,1.9E1,2.3279762E-2,4.3E1,1.837E3,-1.2E1,7.73E-2,3E0,1.1E1,6.8470955E-2,2.4796508E-2,4.40174E-2,-4.105776E-2,6.5662734E-2,-6.367431E-3,2.520895E-2,-4.1602287E-4,-4.188899E-2,2.637094E-2,-6.684107E-2,-2.963542E-2,2.8373962E-2,-1.3915404E-2],"split_indices":[3,2,2,1,1,6,1,0,0,1,1,2,7,4,0,0,0,0,0,0,0,0,0,0,0,0,0,0,0],"split_type":[0,0,0,0,0,0,0,0,0,0,0,0,0,0,0,0,0,0,0,0,0,0,0,0,0,0,0,0,0],"sum_hessian":[5.3331506E2,4.1598507E1,4.9171658E2,1.6686815E1,2.4911692E1,4.1534912E2,7.636746E1,1.4742572E1,1.9442434E0,1.0142534E1,1.4769156E1,3.9212415E2,2.322497E1,4.1682106E1,3.4685352E1,1.2784931E1,1.9576405E0,1.9800864E0,8.162448E0,7.3189716E0,7.4501853E0,5.082443E1,3.412997E2,2.0741377E1,2.4835923E0,1.2567081E1,2.9115025E1,1.5058355E1,1.9626999E1],"tree_param":{"num_deleted":"0","num_feature":"9","num_nodes":"29","size_leaf_vector":"1"}},{"base_weights":[1.9091002E-3,6.026969E-1,-4.9764927E-2,1.1852227E0,1.845084E-1,1.5789555E-2,-4.026541E-1,1.2475189E0,2.2568604E-2,-4.179559E-1,5.998988E-1,5.636016E-2,-6.430593E-1,-8.065674E-1,9.0279795E-2,6.610381E-2,2.4031697E-2,4.2688914E-2,-3.9240725E-2,6.334536E-2,-6.084284E-3,2.4079511E-2,-3.952761E-4,-3.9898492E-2,2.5449708E-2,2.2888798E-2,-4.3965578E-2,2.7106017E-2,-1.3252856E-2],"categories":[],"categories_nodes":[],"categories_segments":[],"categories_sizes":[],"default_left":[0,0,0,0,0,0,0,0,0,0,0,0,0,0,0,0,0,0,0,0,0,0,0,0,0,0,0,0,0],"id":9,"left_children":[1,3,5,7,9,11,13,15,-1,17,19,21,23,25,27,-1,-1,-1,-1,-1,-1,-1,-1,-1,-1,-1,-1,-1,-1],"loss_changes":[1.6596394E1,1.00952E1,1.1394611E1,2.3731995E-1,6.714896E0,1.1159205E1,1.543564E1,2.5489616E-1,0E0,5.863049E0,7.7102876E0,1.0741025E1,4.7282915E0,4.312353E0,5.8675113E0,0E0,0E0,0E0,0E0,0E0,0E0,0E0,0E0,0E0,0E0,0E0,0E0,0E0,0E0],"parents":[2147483647,0,0,1,1,2,2,3,3,4,4,5,5,6,6,7,7,9,9,10,10,11,11,12,12,13,13,14,14],"right_children":[2,4,6,8,10,12,14,16,-1,18,20,22,24,26,28,-1,-1,-1,-1,-1,-1,-1,-1,-1,-1,-1,-1,-1,-1],"split_conditions":[2E0,-4E0,8E0,1.868E3,5.12E2,8.2333E0,1.23E3,1.9E1,2.2568604E-2,4.3E1,1.837E3,-1.2E1,7.73E-2,6.2E-3,1.1E1,6.610381E-2,2.4031697E-2,4.2688914E-2,-3.9240725E-2,6.334536E-2,-6.084284E-3,2.4079511E-2,-3.952761E-4,-3.9898492E-2,2.5449708E-2,2.2888798E-2,-4.3965578E-2,2.7106017E-2,-1.3252856E-2],"split_indices":[3,2,2,1,1,6,1,0,0,1,1,2,7,7,0,0,0,0,0,0,0,0,0,0,0,0,0,0,0],"split_type":[0,0,0,0,0,0,0,0,0,0,0,0,0,0,0,0,0,0,0,0,0,0,0,0,0,0,0,0,0],"sum_hessian":[5.3262317E2,4.133845E1,4.9128473E2,1.650844E1,2.4830013E1,4.151244E2,7.6160355E1,1.4571509E1,1.9369304E0,1.0130703E1,1.4699309E1,3.9190604E2,2.3218338E1,4.1510292E1,3.4650063E1,1.2620568E1,1.9509413E0,1.970969E0,8.159734E0,7.2458043E0,7.4535055E0,5.0600613E1,3.4130545E2,2.0737259E1,2.4810789E0,1.9704019E0,3.953989E1,1.5022301E1,1.9627762E1],"tree_param":{"num_deleted":"0","num_feature":"9","num_nodes":"29","size_leaf_vector":"1"}},{"base_weights":[2.1590353E-3,5.80949E-1,-4.7322914E-2,1.0221586E0,7.196821E-2,6.4459674E-2,-2.3621693E-1,1.1272774E0,1.1845374E-1,-1.0335817E0,4.617956E-1,-7.097099E-2,8.595187E-2,-1.2213244E0,-9.1949925E-2,5.2329456E-4,5.9888314E-2,2.6099125E-2,-1.6785534E-2,-6.472407E-2,-2.465623E-2,4.6025354E-2,-5.6185364E-3,1.2194837E-2,-6.83812E-3,8.1583755E-3,-7.146117E-2,-1.2383728E-2,9.278616E-3],"categories":[],"categories_nodes":[],"categories_segments":[],"categories_sizes":[],"default_left":[0,0,0,0,0,0,0,0,0,0,0,0,0,0,0,0,0,0,0,0,0,0,0,0,0,0,0,0,0],"id":10,"left_children":[1,3,5,7,9,11,13,15,17,19,21,-1,23,25,27,-1,-1,-1,-1,-1,-1,-1,-1,-1,-1,-1,-1,-1,-1],"loss_changes":[1.5287708E1,9.367422E0,1.0399496E1,1.998558E0,9.354018E0,1.0000357E1,2.5902328E1,1.5609627E0,8.0862135E-1,1.6231155E-1,4.296053E0,0E0,1.0806752E1,6.94014E0,6.9929953E0,0E0,0E0,0E0,0E0,0E0,0E0,0E0,0E0,0E0,0E0,0E0,0E0,0E0,0E0],"parents":[2147483647,0,0,1,1,2,2,3,3,4,4,5,5,6,6,7,7,8,8,9,9,10,10,12,12,13,13,14,14],"right_children":[2,4,6,8,10,12,14,16,18,20,22,-1,24,26,28,-1,-1,-1,-1,-1,-1,-1,-1,-1,-1,-1,-1,-1,-1],"split_conditions":[2E0,0E0,1E0,6.578E-1,2.55E2,-1.35416E1,4.27E2,-7.741E0,1E1,3.21E-2,1.837E3,-7.097099E-2,2.2676E0,1.13E-2,6.57E-2,5.2329456E-4,5.9888314E-2,2.6099125E-2,-1.6785534E-2,-6.472407E-2,-2.465623E-2,4.6025354E-2,-5.6185364E-3,1.2194837E-2,-6.83812E-3,8.1583755E-3,-7.146117E-2,-1.2383728E-2,9.278616E-3],"split_indices":[3,2,2,8,1,6,1,6,0,7,1,0,6,7,7,0,0,0,0,0,0,0,0,0,0,0,0,0,0],"split_type":[0,0,0,0,0,0,0,0,0,0,0,0,0,0,0,0,0,0,0,0,0,0,0,0,0,0,0,0,0],"sum_hessian":[5.318352E2,4.104079E1,4.907944E2,2.1443907E1,1.9596884E1,3.0874554E2,1.8204887E2,1.898785E1,2.456058E0,4.678182E0,1.4918701E1,3.4793358E0,3.052662E2,2.230136E1,1.5974751E2,1.1954739E0,1.7792376E1,1.2214578E0,1.2346002E0,2.214161E0,2.4640214E0,7.957839E0,6.960862E0,1.7854808E2,1.26718124E2,2.9397054E0,1.9361652E1,1.02397354E2,5.7350155E1],"tree_param":{"num_deleted":"0","num_feature":"9","num_nodes":"29","size_leaf_vector":"1"}},{"base_weights":[1.8506619E-3,5.566474E-1,-4.525916E-2,1.1095574E0,1.6585758E-1,3.460239E-1,-9.747718E-2,1.1720014E0,2.0072512E-2,-4.0361997E-1,5.607818E-1,4.8527166E-1,-3.1927234E-1,-5.5642766E-1,-3.355103E-2,6.22414E-2,2.2086661E-2,4.0315527E-2,-3.7487537E-2,5.9794504E-2,-5.670061E-3,4.9851377E-2,1.4437123E-2,5.5709165E-3,-3.5188362E-2,5.0744E-3,-4.860589E-2,2.4146917E-3,-1.7155165E-2],"categories":[],"categories_nodes":[],"categories_segments":[],"categories_sizes":[],"default_left":[0,0,0,0,0,0,0,0,0,0,0,0,0,0,0,0,0,0,0,0,0,0,0,0,0,0,0,0,0],"id":11,"left_children":[1,3,5,7,9,11,13,15,-1,17,19,21,23,25,27,-1,-1,-1,-1,-1,-1,-1,-1,-1,-1,-1,-1,-1,-1],"loss_changes":[1.3936453E1,8.833432E0,1.0076541E1,2.8589058E-1,5.9899454E0,5.5366297E0,1.2727076E1,2.5845146E-1,0E0,5.2430644E0,6.7944117E0,4.5834055E0,1.8432807E0,1.46069145E1,9.704325E0,0E0,0E0,0E0,0E0,0E0,0E0,0E0,0E0,0E0,0E0,0E0,0E0,0E0,0E0],"parents":[2147483647,0,0,1,1,2,2,3,3,4,4,5,5,6,6,7,7,9,9,10,10,11,11,12,12,13,13,14,14],"right_children":[2,4,6,8,10,12,14,16,-1,18,20,22,24,26,28,-1,-1,-1,-1,-1,-1,-1,-1,-1,-1,-1,-1,-1,-1],"split_conditions":[2E0,-4E0,-1.2E1,1.868E3,5.12E2,6.6E0,4.78E2,1.9E1,2.0072512E-2,4.3E1,1.837E3,5.7E2,1.2E1,-2E0,5.327E-1,6.22414E-2,2.2086661E-2,4.0315527E-2,-3.7487537E-2,5.9794504E-2,-5.670061E-3,4.9851377E-2,1.4437123E-2,5.5709165E-3,-3.5188362E-2,5.0744E-3,-4.860589E-2,2.4146917E-3,-1.7155165E-2],"split_indices":[3,2,2,1,1,6,1,0,0,1,1,1,0,2,8,0,0,0,0,0,0,0,0,0,0,0,0,0,0],"split_type":[0,0,0,0,0,0,0,0,0,0,0,0,0,0,0,0,0,0,0,0,0,0,0,0,0,0,0,0,0],"sum_hessian":[5.3125665E2,4.0733677E1,4.9052298E2,1.6106329E1,2.4627348E1,5.7091938E1,4.3343103E2,1.4199074E1,1.9072559E0,1.0075925E1,1.4551422E1,4.7434418E1,9.657521E0,5.204876E1,3.813823E2,1.2270745E1,1.9283283E0,1.9455582E0,8.130366E0,7.0943837E0,7.457039E0,1.2031526E1,3.5402893E1,4.890106E0,4.767415E0,2.0445456E1,3.1603304E1,3.022991E2,7.908316E1],"tree_param":{"num_deleted":"0","num_feature":"9","num_nodes":"29","size_leaf_vector":"1"}},{"base_weights":[2.0388754E-3,2.805758E-1,-9.00498E-2,4.5223156E-1,1.7889204E-2,3.4381932E-1,-1.506138E-1,3.03147E-1,8.830971E-1,-2.2319998E-1,4.202935E-1,6.191353E-1,-9.410153E-2,-1.976585E-1,5.158228E-1,-4.3834798E-2,1.9422814E-2,1.7426496E-2,6.646492E-2,9.212786E-3,-2.216031E-2,2.897538E-2,-5.5841144E-2,1.920121E-2,4.8885964E-2,1.6582118E-2,-1.8420737E-2,-4.009041E-2,-7.010275E-3,-1.384796E-3,4.9813285E-2],"categories":[],"categories_nodes":[],"categories_segments":[],"categories_sizes":[],"default_left":[0,0,0,0,0,0,0,0,0,0,0,0,0,0,0,0,0,0,0,0,0,0,0,0,0,0,0,0,0,0,0],"id":12,"left_children":[1,3,5,7,9,11,13,15,17,19,21,23,25,27,29,-1,-1,-1,-1,-1,-1,-1,-1,-1,-1,-1,-1,-1,-1,-1,-1],"loss_changes":[1.3657082E1,5.957181E0,1.0566745E1,4.8690624E0,5.2670674E0,6.0047293E0,1.1132945E1,6.4736357E0,4.3153524E0,3.1294308E0,5.6213803E0,2.1886978E0,2.446998E0,1.1319858E1,6.157933E0,0E0,0E0,0E0,0E0,0E0,0E0,0E0,0E0,0E0,0E0,0E0,0E0,0E0,0E0,0E0,0E0],"parents":[2147483647,0,0,1,1,2,2,3,3,4,4,5,5,6,6,7,7,8,8,9,9,10,10,11,11,12,12,13,13,14,14],"right_children":[2,4,6,8,10,12,14,16,18,20,22,24,26,28,30,-1,-1,-1,-1,-1,-1,-1,-1,-1,-1,-1,-1,-1,-1,-1,-1],"split_conditions":[8E0,1.942E3,-1.1E1,1.485E3,2.835E3,2.2676E0,3.277E3,-7.0749E0,4.88E-2,-6.348E3,1.466E-1,-2.085E-1,8.43E2,-6.1814E0,5.9E-2,-4.3834798E-2,1.9422814E-2,1.7426496E-2,6.646492E-2,9.212786E-3,-2.216031E-2,2.897538E-2,-5.5841144E-2,1.920121E-2,4.8885964E-2,1.6582118E-2,-1.8420737E-2,-4.009041E-2,-7.010275E-3,-1.384796E-3,4.9813285E-2],"split_indices":[0,1,2,1,1,6,1,6,7,5,7,6,1,6,7,0,0,0,0,0,0,0,0,0,0,0,0,0,0,0,0],"split_type":[0,0,0,0,0,0,0,0,0,0,0,0,0,0,0,0,0,0,0,0,0,0,0,0,0,0,0,0,0,0,0],"sum_hessian":[5.3045276E2,1.3129208E2,3.991607E2,7.896796E1,5.232413E1,4.8321014E1,3.508397E2,5.9933746E1,1.9034208E1,3.2999027E1,1.9325102E1,2.9414583E1,1.8906431E1,3.2836346E2,2.247623E1,3.4158096E0,5.6517937E1,9.469941E0,9.564266E0,1.1627385E1,2.1371643E1,1.8075806E1,1.2492963E0,1.901684E1,1.0397744E1,7.3264804E0,1.1579951E1,2.738972E1,3.0097372E2,1.0988002E1,1.1488229E1],"tree_param":{"num_deleted":"0","num_feature":"9","num_nodes":"31","size_leaf_vector":"1"}},{"base_weights":[2.1257282E-3,5.351366E-1,-4.274934E-2,1.0694847E0,1.6137427E-1,1.9638649E-1,-1.1863796E-1,6.615007E-1,6.175932E-2,-3.8374838E-1,5.4090095E-1,5.963956E-1,9.358112E-2,-1.591903E-1,4.9254996E-1,5.5842727E-2,8.114973E-3,3.926589E-2,-3.590707E-2,5.7773918E-2,-5.1285084E-3,3.7794E-2,-1.0805926E-2,-8.417436E-3,1.3298414E-2,1.4429762E-2,-1.1288486E-2,-1.3213073E-3,4.7603928E-2],"categories":[],"categories_nodes":[],"categories_segments":[],"categories_sizes":[],"default_left":[0,0,0,0,0,0,0,0,0,0,0,0,0,0,0,0,0,0,0,0,0,0,0,0,0,0,0,0,0],"id":13,"left_children":[1,3,5,7,9,11,13,15,-1,17,19,21,23,25,27,-1,-1,-1,-1,-1,-1,-1,-1,-1,-1,-1,-1,-1,-1],"loss_changes":[1.2721489E1,8.075942E0,8.926595E0,3.200779E-1,5.479033E0,4.8198023E0,9.324265E0,1.4125576E0,0E0,4.881081E0,6.2230673E0,3.2804804E0,4.357213E0,1.0517263E1,5.6189213E0,0E0,0E0,0E0,0E0,0E0,0E0,0E0,0E0,0E0,0E0,0E0,0E0,0E0,0E0],"parents":[2147483647,0,0,1,1,2,2,3,3,4,4,5,5,6,6,7,7,9,9,10,10,11,11,12,12,13,13,14,14],"right_children":[2,4,6,8,10,12,14,16,-1,18,20,22,24,26,28,-1,-1,-1,-1,-1,-1,-1,-1,-1,-1,-1,-1,-1,-1],"split_conditions":[2E0,-4E0,8E0,-2.085E-1,5.12E2,2.26E-2,3.277E3,8.4E1,6.175932E-2,4.3E1,1.837E3,7.3933E0,5.44E-2,-1.1E1,5.9E-2,5.5842727E-2,8.114973E-3,3.926589E-2,-3.590707E-2,5.7773918E-2,-5.1285084E-3,3.7794E-2,-1.0805926E-2,-8.417436E-3,1.3298414E-2,1.4429762E-2,-1.1288486E-2,-1.3213073E-3,4.7603928E-2],"split_indices":[3,2,0,6,1,7,1,1,0,1,1,6,7,2,7,0,0,0,0,0,0,0,0,0,0,0,0,0,0],"split_type":[0,0,0,0,0,0,0,0,0,0,0,0,0,0,0,0,0,0,0,0,0,0,0,0,0,0,0,0,0],"sum_hessian":[5.299029E2,4.0300632E1,4.8960226E2,1.5820911E1,2.4479721E1,1.1756147E2,3.7204077E2,6.011571E0,9.8093405E0,1.0043251E1,1.443647E1,2.3054945E1,9.450652E1,3.4958533E2,2.2455465E1,2.4967968E0,3.514774E0,1.9338529E0,8.109399E0,6.9770317E0,7.459438E0,1.9330381E1,3.724563E0,3.7520405E1,5.6986122E1,4.4818714E1,3.047666E2,1.0988226E1,1.1467239E1],"tree_param":{"num_deleted":"0","num_feature":"9","num_nodes":"29","size_leaf_vector":"1"}},{"base_weights":[2.5433495E-3,5.1753455E-1,-4.0466353E-2,9.960914E-1,1.254112E-1,1.6325153E-2,-3.4807855E-1,-1.2933302E-3,1.0676008E0,-4.7939733E-1,5.3162605E-1,5.415774E-2,-5.983237E-1,-7.2392833E-1,1.04091346E-1,5.654492E-2,1.8039778E-2,3.4227885E-2,-3.9798766E-2,5.4563057E-2,-1.8966006E-3,-6.616575E-2,3.4966462E-3,-3.7298452E-2,2.4713278E-2,-5.971673E-2,-2.4524538E-2,2.6197825E-2,-1.1301416E-2],"categories":[],"categories_nodes":[],"categories_segments":[],"categories_sizes":[],"default_left":[0,0,0,0,0,0,0,0,0,0,0,0,0,0,0,0,0,0,0,0,0,0,0,0,0,0,0,0,0],"id":14,"left_children":[1,3,5,7,9,11,13,-1,15,17,19,21,23,25,27,-1,-1,-1,-1,-1,-1,-1,-1,-1,-1,-1,-1,-1,-1],"loss_changes":[1.1764731E1,7.5575304E0,8.570461E0,1.3645115E0,6.064235E0,9.678339E0,1.3068087E1,0E0,3.5795403E-1,4.2394495E0,4.7012763E0,8.60364E0,4.262041E0,4.0124645E0,5.0495467E0,0E0,0E0,0E0,0E0,0E0,0E0,0E0,0E0,0E0,0E0,0E0,0E0,0E0,0E0],"parents":[2147483647,0,0,1,1,2,2,3,3,4,4,5,5,6,6,8,8,9,9,10,10,11,11,12,12,13,13,14,14],"right_children":[2,4,6,8,10,12,14,-1,16,18,20,22,24,26,28,-1,-1,-1,-1,-1,-1,-1,-1,-1,-1,-1,-1,-1,-1],"split_conditions":[2E0,-3E0,8E0,-7.741E0,5.12E2,8.2333E0,1.23E3,-1.2933302E-3,1.868E3,4.3E1,1.837E3,-1.35416E1,7.73E-2,3E0,1.1E1,5.654492E-2,1.8039778E-2,3.4227885E-2,-3.9798766E-2,5.4563057E-2,-1.8966006E-3,-6.616575E-2,3.4966462E-3,-3.7298452E-2,2.4713278E-2,-5.971673E-2,-2.4524538E-2,2.6197825E-2,-1.1301416E-2],"split_indices":[3,2,2,6,1,6,1,0,1,1,1,6,7,4,0,0,0,0,0,0,0,0,0,0,0,0,0,0,0],"split_type":[0,0,0,0,0,0,0,0,0,0,0,0,0,0,0,0,0,0,0,0,0,0,0,0,0,0,0,0,0],"sum_hessian":[5.2920276E2,3.993959E1,4.8926315E2,1.7293695E1,2.2645895E1,4.1381192E2,7.5451225E1,1.172696E0,1.6120998E1,9.026415E0,1.361948E1,3.9067703E2,2.3134886E1,4.0874645E1,3.4576576E1,1.4245259E1,1.8757402E0,1.6815462E0,7.3448687E0,6.4075675E0,7.211913E0,3.4849944E0,3.8719205E2,2.0660244E1,2.4746416E0,1.2191314E1,2.8683332E1,1.4961064E1,1.961551E1],"tree_param":{"num_deleted":"0","num_feature":"9","num_nodes":"29","size_leaf_vector":"1"}},{"base_weights":[2.3808954E-3,2.534508E-1,-8.032698E-2,4.1766712E-1,4.345578E-3,-1.3560192E-2,-4.1236413E-1,2.7943963E-1,8.2283354E-1,-2.2473873E-1,3.8867807E-1,2.404047E-2,-6.4514303E-1,-6.705059E-1,3.0294222E-1,-4.1727927E-2,1.8042643E-2,1.4944612E-2,6.329203E-2,8.251506E-3,-2.1707723E-2,2.7196074E-2,-5.476267E-2,2.165744E-2,-1.8048929E-3,-3.9664444E-2,2.5492935E-2,-6.604551E-2,-2.1690432E-2,2.0950327E-2,-3.5864986E-2],"categories":[],"categories_nodes":[],"categories_segments":[],"categories_sizes":[],"default_left":[0,0,0,0,0,0,0,0,0,0,0,0,0,0,0,0,0,0,0,0,0,0,0,0,0,0,0,0,0,0,0],"id":15,"left_children":[1,3,5,7,9,11,13,15,17,19,21,23,25,27,29,-1,-1,-1,-1,-1,-1,-1,-1,-1,-1,-1,-1,-1,-1,-1,-1],"loss_changes":[1.1013403E1,5.3742075E0,8.839211E0,4.205407E0,4.7735133E0,7.9285593E0,1.2530517E1,5.7939496E0,4.178261E0,2.8453336E0,5.259247E0,7.7767143E0,3.6142273E0,7.0271454E0,2.4784873E0,0E0,0E0,0E0,0E0,0E0,0E0,0E0,0E0,0E0,0E0,0E0,0E0,0E0,0E0,0E0,0E0],"parents":[2147483647,0,0,1,1,2,2,3,3,4,4,5,5,6,6,7,7,8,8,9,9,10,10,11,11,12,12,13,13,14,14],"right_children":[2,4,6,8,10,12,14,16,18,20,22,24,26,28,30,-1,-1,-1,-1,-1,-1,-1,-1,-1,-1,-1,-1,-1,-1,-1,-1],"split_conditions":[8E0,1.942E3,8E0,1.485E3,2.835E3,8.2333E0,1.715E3,-7.0749E0,4.88E-2,-6.348E3,1.466E-1,-1.2E1,7.73E-2,3E0,2.579E3,-4.1727927E-2,1.8042643E-2,1.4944612E-2,6.329203E-2,8.251506E-3,-2.1707723E-2,2.7196074E-2,-5.476267E-2,2.165744E-2,-1.8048929E-3,-3.9664444E-2,2.5492935E-2,-6.604551E-2,-2.1690432E-2,2.0950327E-2,-3.5864986E-2],"split_indices":[0,1,2,1,1,6,1,6,7,5,7,2,7,4,1,0,0,0,0,0,0,0,0,0,0,0,0,0,0,0,0],"split_type":[0,0,0,0,0,0,0,0,0,0,0,0,0,0,0,0,0,0,0,0,0,0,0,0,0,0,0,0,0,0,0],"sum_hessian":[5.2839087E2,1.3042014E2,3.979707E2,7.819523E1,5.22249E1,3.3221E2,6.576071E1,5.956395E1,1.863128E1,3.2981358E1,1.924354E1,3.144514E2,1.7758615E1,4.8368122E1,1.739259E1,3.4265585E0,5.613739E1,9.303174E0,9.328108E0,1.1601101E1,2.1380259E1,1.7994484E1,1.2490568E0,3.950496E1,2.749464E2,1.601733E1,1.7412854E0,1.1683429E1,3.6684692E1,1.6145195E1,1.2473954E0],"tree_param":{"num_deleted":"0","num_feature":"9","num_nodes":"31","size_leaf_vector":"1"}},{"base_weights":[2.1099101E-3,4.9725252E-1,-3.882128E-2,1.0283488E0,1.6529796E-1,-5.557502E-1,-8.227721E-3,1.0971031E0,1.7255588E-2,-1.4608581E-1,6.2265265E-1,9.139157E-2,-1.2140418E0,3.3192003E-1,-5.657641E-2,5.9598844E-2,1.2756537E-2,-5.9704196E-2,7.1272813E-3,5.197504E-2,7.596371E-3,-3.2670457E-2,1.7876191E-2,-1.2098636E-2,-7.050579E-2,3.006101E-2,-4.6589696E-3,-4.4164876E-3,2.2192514E-2],"categories":[],"categories_nodes":[],"categories_segments":[],"categories_sizes":[],"default_left":[0,0,0,0,0,0,0,0,0,0,0,0,0,0,0,0,0,0,0,0,0,0,0,0,0,0,0,0,0],"id":16,"left_children":[1,3,5,7,9,11,13,15,-1,17,19,21,23,25,27,-1,-1,-1,-1,-1,-1,-1,-1,-1,-1,-1,-1,-1,-1],"loss_changes":[1.0729323E1,6.9563475E0,7.729293E0,3.4272575E-1,3.8030698E0,1.1745319E1,7.628535E0,7.737179E-1,0E0,5.10605E0,1.951096E0,3.1477191E0,2.2525349E0,6.6650887E0,6.490453E0,0E0,0E0,0E0,0E0,0E0,0E0,0E0,0E0,0E0,0E0,0E0,0E0,0E0,0E0],"parents":[2147483647,0,0,1,1,2,2,3,3,4,4,5,5,6,6,7,7,9,9,10,10,11,11,12,12,13,13,14,14],"right_children":[2,4,6,8,10,12,14,16,-1,18,20,22,24,26,28,-1,-1,-1,-1,-1,-1,-1,-1,-1,-1,-1,-1,-1,-1],"split_conditions":[2E0,-5E0,2.19E2,1.868E3,5.328E3,-2E0,7E0,1.9E1,1.7255588E-2,2.78E-2,1.837E3,-3.2278E0,8E0,2.103E3,3.277E3,5.9598844E-2,1.2756537E-2,-5.9704196E-2,7.1272813E-3,5.197504E-2,7.596371E-3,-3.2670457E-2,1.7876191E-2,-1.2098636E-2,-7.050579E-2,3.006101E-2,-4.6589696E-3,-4.4164876E-3,2.2192514E-2],"split_indices":[3,2,1,1,5,2,0,0,0,8,1,6,0,1,1,0,0,0,0,0,0,0,0,0,0,0,0,0,0],"split_type":[0,0,0,0,0,0,0,0,0,0,0,0,0,0,0,0,0,0,0,0,0,0,0,0,0,0,0,0,0],"sum_hessian":[5.27452E2,3.9421654E1,4.8803036E2,1.4355823E1,2.5065832E1,2.6310207E1,4.6172015E2,1.2492914E1,1.8629081E0,1.5317621E1,9.748211E0,1.3701726E1,1.2608481E1,5.6731518E1,4.0498865E2,1.0854166E1,1.6387484E0,2.6302686E0,1.2687353E1,4.5291495E0,5.2190614E0,3.223947E0,1.0477778E1,2.4913404E0,1.0117141E1,3.447642E1,2.2255096E1,3.8159872E2,2.3389914E1],"tree_param":{"num_deleted":"0","num_feature":"9","num_nodes":"29","size_leaf_vector":"1"}},{"base_weights":[2.1009815E-3,4.7872686E-1,-3.7015777E-2,8.6364603E-1,5.096544E-2,-5.3440195E-1,-7.7191293E-3,9.673745E-1,3.5933338E-2,-9.126712E-1,3.9353266E-1,8.59349E-2,-1.1701983E0,3.167526E-1,-5.370194E-2,-2.5609625E-3,5.18775E-2,2.1851918E-2,-1.8607369E-2,-5.904239E-2,-1.9955615E-2,4.0377438E-2,-4.992866E-3,-3.139919E-2,1.7092025E-2,-1.1670478E-2,-6.805633E-2,2.8750857E-2,-4.43419E-3,-8.181269E-3,4.4431174E-3],"categories":[],"categories_nodes":[],"categories_segments":[],"categories_sizes":[],"default_left":[0,0,0,0,0,0,0,0,0,0,0,0,0,0,0,0,0,0,0,0,0,0,0,0,0,0,0,0,0,0,0],"id":17,"left_children":[1,3,5,7,9,11,13,15,17,19,21,23,25,27,29,-1,-1,-1,-1,-1,-1,-1,-1,-1,-1,-1,-1,-1,-1,-1,-1],"loss_changes":[9.858653E0,6.559491E0,7.1174755E0,1.7722921E0,6.980624E0,1.0816895E1,6.9184012E0,1.3872986E0,7.1629447E-1,2.9470634E-1,3.2461336E0,2.897399E0,2.0944977E0,6.078082E0,6.3769674E0,0E0,0E0,0E0,0E0,0E0,0E0,0E0,0E0,0E0,0E0,0E0,0E0,0E0,0E0,0E0,0E0],"parents":[2147483647,0,0,1,1,2,2,3,3,4,4,5,5,6,6,7,7,8,8,9,9,10,10,11,11,12,12,13,13,14,14],"right_children":[2,4,6,8,10,12,14,16,18,20,22,24,26,28,30,-1,-1,-1,-1,-1,-1,-1,-1,-1,-1,-1,-1,-1,-1,-1,-1],"split_conditions":[2E0,0E0,2.19E2,6.578E-1,2.55E2,-2E0,7E0,-7.741E0,1E1,3.21E-2,1.837E3,-3.2278E0,8E0,2.103E3,5.88E-2,-2.5609625E-3,5.18775E-2,2.1851918E-2,-1.8607369E-2,-5.904239E-2,-1.9955615E-2,4.0377438E-2,-4.992866E-3,-3.139919E-2,1.7092025E-2,-1.1670478E-2,-6.805633E-2,2.8750857E-2,-4.43419E-3,-8.181269E-3,4.4431174E-3],"split_indices":[3,2,1,8,1,2,0,6,0,7,1,6,0,1,7,0,0,0,0,0,0,0,0,0,0,0,0,0,0,0,0],"split_type":[0,0,0,0,0,0,0,0,0,0,0,0,0,0,0,0,0,0,0,0,0,0,0,0,0,0,0,0,0,0,0],"sum_hessian":[5.268321E2,3.910546E1,4.877266E2,2.0047142E1,1.905832E1,2.6170685E1,4.615559E2,1.7664682E1,2.3824594E0,4.561808E0,1.4496511E1,1.3684128E1,1.2486557E1,5.655989E1,4.0499603E2,1.1559696E0,1.6508713E1,1.1657126E0,1.2167467E0,2.1432679E0,2.4185402E0,7.536069E0,6.9604425E0,3.2271485E0,1.045698E1,2.4903173E0,9.99624E0,3.4295353E1,2.226454E1,2.2859293E2,1.764031E2],"tree_param":{"num_deleted":"0","num_feature":"9","num_nodes":"31","size_leaf_vector":"1"}},{"base_weights":[1.8883934E-3,3.6295694E-1,-4.6967775E-2,-8.365227E-2,5.220396E-1,-4.5917147E-1,-3.2902686E-3,4.1081688E-1,-4.4172844E-1,5.748077E-2,4.4779894E-1,-6.047346E-1,7.548315E-1,-1.9689532E-1,8.509702E-2,4.399204E-2,-1.4746511E-2,2.6485423E-2,-3.241502E-2,5.1188343E-3,3.2874696E-2,9.583558E-3,-3.6944784E-2,1.5819542E-3,6.408749E-2,9.899995E-3,-2.2245876E-2,7.7391714E-3,-1.1554937E-2],"categories":[],"categories_nodes":[],"categories_segments":[],"categories_sizes":[],"default_left":[0,0,0,0,0,0,0,0,0,0,0,0,0,0,0,0,0,0,0,0,0,0,0,0,0,0,0,0,0],"id":18,"left_children":[1,3,5,7,9,11,13,15,17,-1,19,21,23,25,27,-1,-1,-1,-1,-1,-1,-1,-1,-1,-1,-1,-1,-1,-1],"loss_changes":[9.315955E0,4.515444E0,8.373889E0,3.2610226E0,1.6539259E0,8.331328E0,7.231836E0,2.8491035E0,2.4644353E0,0E0,3.0662642E0,4.4525414E0,1.9470518E0,1.3061386E1,6.4296494E0,0E0,0E0,0E0,0E0,0E0,0E0,0E0,0E0,0E0,0E0,0E0,0E0,0E0,0E0],"parents":[2147483647,0,0,1,1,2,2,3,3,4,4,5,5,6,6,7,7,8,8,10,10,11,11,12,12,13,13,14,14],"right_children":[2,4,6,8,10,12,14,16,18,-1,20,22,24,26,28,-1,-1,-1,-1,-1,-1,-1,-1,-1,-1,-1,-1,-1,-1],"split_conditions":[-1.2E1,-2.6767E4,-5.7939E0,3.21E-2,6.2E-3,3.141E3,1.149E3,1.1493E0,-6.1814E0,5.748077E-2,2.58E-1,7E0,1.7E1,-1E0,5.327E-1,4.399204E-2,-1.4746511E-2,2.6485423E-2,-3.241502E-2,5.1188343E-3,3.2874696E-2,9.583558E-3,-3.6944784E-2,1.5819542E-3,6.408749E-2,9.899995E-3,-2.2245876E-2,7.7391714E-3,-1.1554937E-2],"split_indices":[2,5,6,7,7,1,1,6,6,0,8,0,0,2,8,0,0,0,0,0,0,0,0,0,0,0,0,0,0],"split_type":[0,0,0,0,0,0,0,0,0,0,0,0,0,0,0,0,0,0,0,0,0,0,0,0,0,0,0,0,0],"sum_hessian":[5.261362E2,6.194039E1,4.6419583E2,1.6392942E1,4.554745E1,4.356271E1,4.2063312E2,6.82331E0,9.569632E0,3.2858999E0,4.226155E1,3.9346767E1,4.215945E0,1.3145787E2,2.8917523E2,3.9509296E0,2.8723805E0,1.4037936E0,8.165838E0,1.652643E1,2.573512E1,5.6108747E0,3.3735893E1,2.2238154E0,1.9921294E0,5.0791122E1,8.0666756E1,2.3737141E2,5.1803818E1],"tree_param":{"num_deleted":"0","num_feature":"9","num_nodes":"29","size_leaf_vector":"1"}},{"base_weights":[2.0739713E-3,4.5786014E-1,-3.493256E-2,9.6416885E-1,1.5018626E-1,1.42796645E-2,-3.0435833E-1,1.0349342E0,1.4886252E-2,-1.4777549E-1,5.8944744E-1,4.9157027E-2,-5.544222E-1,-6.4261574E-1,9.574716E-2,5.6481976E-2,1.134344E-2,-5.692151E-2,6.2613855E-3,4.9578518E-2,7.2009163E-3,-6.2156286E-2,3.1975284E-3,-3.449474E-2,2.2396712E-2,-3.6375698E-2,2.2164507E-2,2.4147673E-2,-1.03386715E-2],"categories":[],"categories_nodes":[],"categories_segments":[],"categories_sizes":[],"default_left":[0,0,0,0,0,0,0,0,0,0,0,0,0,0,0,0,0,0,0,0,0,0,0,0,0,0,0,0,0],"id":19,"left_children":[1,3,5,7,9,11,13,15,-1,17,19,21,23,25,27,-1,-1,-1,-1,-1,-1,-1,-1,-1,-1,-1,-1,-1,-1],"loss_changes":[8.895973E0,6.024987E0,6.4729314E0,3.8920498E-1,3.4665315E0,8.228342E0,1.026511E1,7.3574734E-1,0E0,4.519572E0,1.7623119E0,7.5447774E0,3.5644245E0,4.100855E0,4.247621E0,0E0,0E0,0E0,0E0,0E0,0E0,0E0,0E0,0E0,0E0,0E0,0E0,0E0,0E0],"parents":[2147483647,0,0,1,1,2,2,3,3,4,4,5,5,6,6,7,7,9,9,10,10,11,11,12,12,13,13,14,14],"right_children":[2,4,6,8,10,12,14,16,-1,18,20,22,24,26,28,-1,-1,-1,-1,-1,-1,-1,-1,-1,-1,-1,-1,-1,-1],"split_conditions":[2E0,-5E0,8E0,1.868E3,5.328E3,8.2333E0,1.23E3,1.9E1,1.4886252E-2,2.78E-2,1.837E3,-1.35416E1,7.73E-2,7.7236E0,1.1E1,5.6481976E-2,1.134344E-2,-5.692151E-2,6.2613855E-3,4.9578518E-2,7.2009163E-3,-6.2156286E-2,3.1975284E-3,-3.449474E-2,2.2396712E-2,-3.6375698E-2,2.2164507E-2,2.4147673E-2,-1.03386715E-2],"split_indices":[3,2,2,1,5,6,1,0,0,8,1,6,7,6,0,0,0,0,0,0,0,0,0,0,0,0,0,0,0],"split_type":[0,0,0,0,0,0,0,0,0,0,0,0,0,0,0,0,0,0,0,0,0,0,0,0,0,0,0,0,0],"sum_hessian":[5.254685E2,3.860632E1,4.8686218E2,1.378612E1,2.48202E1,4.124692E2,7.439297E1,1.1962934E1,1.823187E0,1.5184059E1,9.636142E0,3.8949576E2,2.2973442E1,3.998376E1,3.4409206E1,1.0351752E1,1.6111816E0,2.5955362E0,1.2588523E1,4.4198785E0,5.2162633E0,3.4685729E0,3.860272E2,2.0512783E1,2.4606588E0,3.7390533E1,2.5932243E0,1.4830596E1,1.957861E1],"tree_param":{"num_deleted":"0","num_feature":"9","num_nodes":"29","size_leaf_vector":"1"}},{"base_weights":[2.010041E-3,3.4587827E-1,-4.4242866E-2,-7.8752935E-2,4.9791706E-1,1.8068531E-1,-1.1718873E-1,3.985338E-1,-4.218035E-1,5.6405836E-1,-5.8822855E-2,5.564141E-1,9.346386E-2,-1.5715489E-1,4.5021123E-1,4.2388484E-2,-1.365197E-2,2.5327219E-2,-3.0855207E-2,1.5742851E-2,4.1821893E-2,-4.5128684E-2,2.4083836E-2,5.6352105E-2,1.4875556E-2,-1.01270955E-2,1.4659698E-2,-3.5413858E-2,-5.2490397E-3,-1.7175291E-3,4.4090208E-2],"categories":[],"categories_nodes":[],"categories_segments":[],"categories_sizes":[],"default_left":[0,0,0,0,0,0,0,0,0,0,0,0,0,0,0,0,0,0,0,0,0,0,0,0,0,0,0,0,0,0,0],"id":20,"left_children":[1,3,5,7,9,11,13,15,17,19,21,23,25,27,29,-1,-1,-1,-1,-1,-1,-1,-1,-1,-1,-1,-1,-1,-1,-1,-1],"loss_changes":[8.375846E0,4.070083E0,7.6379433E0,3.0047138E0,1.7311506E0,3.6864524E0,8.03363E0,2.5723274E0,2.228199E0,2.540596E0,3.080695E0,2.8100848E0,5.6041093E0,9.379529E0,4.9167023E0,0E0,0E0,0E0,0E0,0E0,0E0,0E0,0E0,0E0,0E0,0E0,0E0,0E0,0E0,0E0,0E0],"parents":[2147483647,0,0,1,1,2,2,3,3,4,4,5,5,6,6,7,7,8,8,9,9,10,10,11,11,12,12,13,13,14,14],"right_children":[2,4,6,8,10,12,14,16,18,20,22,24,26,28,30,-1,-1,-1,-1,-1,-1,-1,-1,-1,-1,-1,-1,-1,-1,-1,-1],"split_conditions":[-1.2E1,-2.6767E4,8E0,3.21E-2,9.91E-2,8.76E-2,3.277E3,1.1493E0,-6.1814E0,2.794E-1,1.206E-1,-2.394E3,5.44E-2,-6.1814E0,5.9E-2,4.2388484E-2,-1.365197E-2,2.5327219E-2,-3.0855207E-2,1.5742851E-2,4.1821893E-2,-4.5128684E-2,2.4083836E-2,5.6352105E-2,1.4875556E-2,-1.01270955E-2,1.4659698E-2,-3.5413858E-2,-5.2490397E-3,-1.7175291E-3,4.4090208E-2],"split_indices":[2,5,0,7,7,8,1,6,6,8,7,5,7,6,7,0,0,0,0,0,0,0,0,0,0,0,0,0,0,0,0],"split_type":[0,0,0,0,0,0,0,0,0,0,0,0,0,0,0,0,0,0,0,0,0,0,0,0,0,0,0,0,0,0,0],"sum_hessian":[5.246582E2,6.1435635E1,4.6322253E2,1.6324562E1,4.5111073E1,1.1307608E2,3.5014645E2,6.7590094E0,9.565554E0,4.030916E1,4.801916E0,2.0290447E1,9.278564E1,3.2778143E2,2.2365036E1,3.8926992E0,2.86631E0,1.3855891E0,8.179964E0,2.2176092E1,1.8133064E1,1.6134071E0,3.1885092E0,5.2862625E0,1.5004185E1,3.7377308E1,5.5408325E1,2.725957E1,3.0052185E2,1.0969581E1,1.1395454E1],"tree_param":{"num_deleted":"0","num_feature":"9","num_nodes":"31","size_leaf_vector":"1"}},{"base_weights":[2.1914681E-3,4.4010037E-1,-3.307287E-2,8.045215E-1,4.4497102E-2,-5.063415E-1,-5.4390575E-3,9.042379E-1,3.4182165E-2,-8.6471903E-1,3.6741284E-1,7.517057E-2,-1.1088696E0,2.8671062E-1,-4.6676874E-2,-3.3663083E-3,4.8686605E-2,-1.79287E-2,2.0886248E-2,-5.5976134E-2,-1.8961564E-2,3.850157E-2,-5.179797E-3,3.772245E-2,-9.994409E-3,-1.0650895E-2,-6.479585E-2,2.678273E-2,-4.9930904E-3,-7.561172E-3,4.4459756E-3],"categories":[],"categories_nodes":[],"categories_segments":[],"categories_sizes":[],"default_left":[0,0,0,0,0,0,0,0,0,0,0,0,0,0,0,0,0,0,0,0,0,0,0,0,0,0,0,0,0,0,0],"id":21,"left_children":[1,3,5,7,9,11,13,15,17,19,21,23,25,27,29,-1,-1,-1,-1,-1,-1,-1,-1,-1,-1,-1,-1,-1,-1,-1,-1],"loss_changes":[8.123087E0,5.615869E0,6.3646917E0,1.5320473E0,6.1473107E0,9.490651E0,5.5676365E0,1.2792349E0,6.57623E-1,2.5605202E-1,2.9913914E0,2.8785615E0,1.9441605E0,5.55483E0,5.752788E0,0E0,0E0,0E0,0E0,0E0,0E0,0E0,0E0,0E0,0E0,0E0,0E0,0E0,0E0,0E0,0E0],"parents":[2147483647,0,0,1,1,2,2,3,3,4,4,5,5,6,6,7,7,8,8,9,9,10,10,11,11,12,12,13,13,14,14],"right_children":[2,4,6,8,10,12,14,16,18,20,22,24,26,28,30,-1,-1,-1,-1,-1,-1,-1,-1,-1,-1,-1,-1,-1,-1,-1,-1],"split_conditions":[2E0,0E0,2.19E2,6.578E-1,2.55E2,-2E0,7E0,-7.741E0,1.34E2,3.21E-2,1.837E3,2.48E-2,8E0,2.103E3,5.88E-2,-3.3663083E-3,4.8686605E-2,-1.79287E-2,2.0886248E-2,-5.5976134E-2,-1.8961564E-2,3.850157E-2,-5.179797E-3,3.772245E-2,-9.994409E-3,-1.0650895E-2,-6.479585E-2,2.678273E-2,-4.9930904E-3,-7.561172E-3,4.4459756E-3],"split_indices":[3,2,1,8,1,2,0,6,1,7,1,7,0,1,7,0,0,0,0,0,0,0,0,0,0,0,0,0,0,0,0],"split_type":[0,0,0,0,0,0,0,0,0,0,0,0,0,0,0,0,0,0,0,0,0,0,0,0,0,0,0,0,0,0,0],"sum_hessian":[5.240766E2,3.8202454E1,4.8587418E2,1.9346876E1,1.8855577E1,2.584904E1,4.6002512E2,1.6975647E1,2.371228E0,4.50192E0,1.4353658E1,1.359931E1,1.2249729E1,5.616575E1,4.0385938E2,1.135263E0,1.58403845E1,1.2037065E0,1.1675215E0,2.095921E0,2.4059994E0,7.396376E0,6.9572816E0,3.4172611E0,1.0182049E1,2.4853158E0,9.764414E0,3.3929962E1,2.2235785E1,2.2797357E2,1.758858E2],"tree_param":{"num_deleted":"0","num_feature":"9","num_nodes":"31","size_leaf_vector":"1"}},{"base_weights":[2.0525302E-3,3.2765424E-1,-4.14999E-2,1.2799372E-1,6.360199E-1,2.2240296E-2,-2.9311886E-1,5.029705E-1,-4.2926036E-2,2.4652174E-1,8.536974E-1,-9.608617E-2,2.2709858E-1,-8.445194E-3,-4.6688727E-1,5.1066637E-2,-2.6685263E-3,8.602633E-3,-3.7378512E-2,-3.3167955E-2,2.6955232E-2,4.8548393E-2,-1.4404166E-2,1.6071603E-3,-1.4788096E-2,9.218316E-3,7.2130464E-2,-3.2609794E-2,9.610562E-3,-2.802871E-2,1.4605033E-2],"categories":[],"categories_nodes":[],"categories_segments":[],"categories_sizes":[],"default_left":[0,0,0,0,0,0,0,0,0,0,0,0,0,0,0,0,0,0,0,0,0,0,0,0,0,0,0,0,0,0,0],"id":22,"left_children":[1,3,5,7,9,11,13,15,17,19,21,23,25,27,29,-1,-1,-1,-1,-1,-1,-1,-1,-1,-1,-1,-1,-1,-1,-1,-1],"loss_changes":[7.4492993E0,3.734294E0,7.4382725E0,2.512803E0,1.8332844E0,9.006412E0,4.6325264E0,3.5868893E0,4.3127737E0,3.0325127E0,2.295824E0,6.043091E0,6.798169E0,4.8459992E0,4.3009624E0,0E0,0E0,0E0,0E0,0E0,0E0,0E0,0E0,0E0,0E0,0E0,0E0,0E0,0E0,0E0,0E0],"parents":[2147483647,0,0,1,1,2,2,3,3,4,4,5,5,6,6,7,7,8,8,9,9,10,10,11,11,12,12,13,13,14,14],"right_children":[2,4,6,8,10,12,14,16,18,20,22,24,26,28,30,-1,-1,-1,-1,-1,-1,-1,-1,-1,-1,-1,-1,-1,-1,-1,-1],"split_conditions":[-1.2E1,-1.2692E4,5.327E-1,3E0,1.259E-1,5.88E-2,-6.28E2,1.3E1,5.8457E0,-1.0521E4,1.01141E1,1.948E-1,2.7525E4,-6.1814E0,7.561E-1,5.1066637E-2,-2.6685263E-3,8.602633E-3,-3.7378512E-2,-3.3167955E-2,2.6955232E-2,4.8548393E-2,-1.4404166E-2,1.6071603E-3,-1.4788096E-2,9.218316E-3,7.2130464E-2,-3.2609794E-2,9.610562E-3,-2.802871E-2,1.4605033E-2],"split_indices":[2,5,8,4,6,7,5,0,6,5,6,8,5,6,8,0,0,0,0,0,0,0,0,0,0,0,0,0,0,0,0],"split_type":[0,0,0,0,0,0,0,0,0,0,0,0,0,0,0,0,0,0,0,0,0,0,0,0,0,0,0,0,0,0,0],"sum_hessian":[5.233519E2,6.097493E1,4.62377E2,3.7869965E1,2.3104965E1,3.6964902E2,9.2728E1,1.1248787E1,2.6621176E1,9.047844E0,1.4057121E1,2.3464732E2,1.350017E2,3.554518E1,5.718281E1,5.390484E0,5.858303E0,2.0977129E1,5.644046E0,1.8931701E0,7.154674E0,1.2883483E1,1.1736389E0,1.4339792E2,9.1249405E1,1.3152936E2,3.4723454E0,7.9118586E0,2.7633324E1,5.1132595E1,6.0502176E0],"tree_param":{"num_deleted":"0","num_feature":"9","num_nodes":"31","size_leaf_vector":"1"}},{"base_weights":[2.120179E-3,4.2093968E-1,-3.1253237E-2,7.749146E-1,4.190205E-2,-4.8672718E-1,-4.82932E-3,8.71147E-1,4.1264113E-2,-4.9934927E-1,5.638344E-1,6.946608E-2,-1.0685986E0,1.9791933E-2,-4.6104473E-1,-3.6811985E-3,4.7013354E-2,2.0915674E-2,-1.7051926E-2,-4.5438465E-2,1.1019601E-2,4.733457E-2,7.306988E-3,3.6201566E-2,-9.72628E-3,-2.6129521E-3,-6.0864236E-2,3.5619927E-3,-1.2820139E-2,-2.8824022E-2,2.695025E-2],"categories":[],"categories_nodes":[],"categories_segments":[],"categories_sizes":[],"default_left":[0,0,0,0,0,0,0,0,0,0,0,0,0,0,0,0,0,0,0,0,0,0,0,0,0,0,0,0,0,0,0],"id":23,"left_children":[1,3,5,7,9,11,13,15,17,19,21,23,25,27,29,-1,-1,-1,-1,-1,-1,-1,-1,-1,-1,-1,-1,-1,-1,-1,-1],"loss_changes":[7.334891E0,5.163826E0,5.848013E0,1.3739223E0,5.863594E0,8.697139E0,5.181195E0,1.2188253E0,6.2776935E-1,3.2150161E0,1.5454268E0,2.6570828E0,1.9133558E0,6.239721E0,3.037293E0,0E0,0E0,0E0,0E0,0E0,0E0,0E0,0E0,0E0,0E0,0E0,0E0,0E0,0E0,0E0,0E0],"parents":[2147483647,0,0,1,1,2,2,3,3,4,4,5,5,6,6,7,7,8,8,9,9,10,10,11,11,12,12,13,13,14,14],"right_children":[2,4,6,8,10,12,14,16,18,20,22,24,26,28,30,-1,-1,-1,-1,-1,-1,-1,-1,-1,-1,-1,-1,-1,-1,-1,-1],"split_conditions":[2E0,0E0,2.19E2,6.578E-1,5.328E3,-2E0,8.2333E0,-7.741E0,1E1,5.12E2,1.837E3,2.48E-2,-1.36E2,8E0,7.73E-2,-3.6811985E-3,4.7013354E-2,2.0915674E-2,-1.7051926E-2,-4.5438465E-2,1.1019601E-2,4.733457E-2,7.306988E-3,3.6201566E-2,-9.72628E-3,-2.6129521E-3,-6.0864236E-2,3.5619927E-3,-1.2820139E-2,-2.8824022E-2,2.695025E-2],"split_indices":[3,2,1,8,5,2,6,6,0,1,1,7,5,2,7,0,0,0,0,0,0,0,0,0,0,0,0,0,0,0,0],"split_type":[0,0,0,0,0,0,0,0,0,0,0,0,0,0,0,0,0,0,0,0,0,0,0,0,0,0,0,0,0,0,0],"sum_hessian":[5.2282526E2,3.772925E1,4.8509604E2,1.8969564E1,1.8759686E1,2.5644094E1,4.5945193E2,1.660419E1,2.3653738E0,9.230644E0,9.529041E0,1.3561594E1,1.20825E1,4.368333E2,2.2618614E1,1.1275157E0,1.5476675E1,1.1434457E0,1.2219281E0,5.7163205E0,3.5143242E0,4.3110685E0,5.2179728E0,3.39675E0,1.01648445E1,1.714507E0,1.0367993E1,3.6886533E2,6.7967995E1,2.065765E1,1.9609643E0],"tree_param":{"num_deleted":"0","num_feature":"9","num_nodes":"31","size_leaf_vector":"1"}},{"base_weights":[2.057281E-3,2.0316808E-1,-6.368445E-2,3.4530476E-1,-6.887214E-3,-9.459829E-2,4.3360344E-1,8.5879904E-1,2.3601493E-1,-1.6624004E-1,5.2231395E-1,2.5954372E-1,-1.4605215E-1,1.4180669E-1,1.1357747E0,6.226642E-2,2.6393626E-2,-6.760073E-3,2.7745843E-2,-4.1518368E-2,-3.7583634E-3,4.722405E-2,-3.1434596E-2,2.5373278E-2,-6.4170235E-3,-3.348369E-2,-4.809121E-3,2.9327074E-2,-2.0480052E-2,6.644612E-2,8.057978E-3],"categories":[],"categories_nodes":[],"categories_segments":[],"categories_sizes":[],"default_left":[0,0,0,0,0,0,0,0,0,0,0,0,0,0,0,0,0,0,0,0,0,0,0,0,0,0,0,0,0,0,0],"id":24,"left_children":[1,3,5,7,9,11,13,15,17,19,21,23,25,27,29,-1,-1,-1,-1,-1,-1,-1,-1,-1,-1,-1,-1,-1,-1,-1,-1],"loss_changes":[6.928155E0,3.8566508E0,6.112466E0,4.1192875E0,4.563003E0,6.8282614E0,4.611594E0,1.0228643E0,7.755357E0,2.4509187E0,6.6802177E0,4.64585E0,8.448715E0,4.5558147E0,1.0462389E0,0E0,0E0,0E0,0E0,0E0,0E0,0E0,0E0,0E0,0E0,0E0,0E0,0E0,0E0,0E0,0E0],"parents":[2147483647,0,0,1,1,2,2,3,3,4,4,5,5,6,6,7,7,8,8,9,9,10,10,11,11,12,12,13,13,14,14],"right_children":[2,4,6,8,10,12,14,16,18,20,22,24,26,28,30,-1,-1,-1,-1,-1,-1,-1,-1,-1,-1,-1,-1,-1,-1,-1,-1],"split_conditions":[8E0,1.942E3,3.277E3,8.76E-2,3.045E3,-1.1E1,1.8E1,-6E0,5.69E-2,2.059E3,4.179E-1,2.2676E0,-6.1814E0,1.1493E0,5.2653E0,6.226642E-2,2.6393626E-2,-6.760073E-3,2.7745843E-2,-4.1518368E-2,-3.7583634E-3,4.722405E-2,-3.1434596E-2,2.5373278E-2,-6.4170235E-3,-3.348369E-2,-4.809121E-3,2.9327074E-2,-2.0480052E-2,6.644612E-2,8.057978E-3],"split_indices":[0,1,1,8,1,2,0,2,7,1,8,6,6,6,6,0,0,0,0,0,0,0,0,0,0,0,0,0,0,0,0],"split_type":[0,0,0,0,0,0,0,0,0,0,0,0,0,0,0,0,0,0,0,0,0,0,0,0,0,0,0,0,0,0,0],"sum_hessian":[5.220332E2,1.2809299E2,3.939402E2,7.601355E1,5.207944E1,3.716466E2,2.2293596E1,1.2135822E1,6.3877728E1,4.0553772E1,1.1525668E1,4.6634007E1,3.250126E2,1.659802E1,5.695577E0,4.3231425E0,7.8126802E0,2.9783924E1,3.4093803E1,3.9116123E0,3.664216E1,8.563991E0,2.9616783E0,2.8261784E1,1.8372223E1,2.7181725E1,2.9783087E2,9.152448E0,7.445572E0,4.450123E0,1.2454541E0],"tree_param":{"num_deleted":"0","num_feature":"9","num_nodes":"31","size_leaf_vector":"1"}},{"base_weights":[2.2534472E-3,7.738787E-1,-1.4660286E-2,1.0011495E0,-1.0627021E-2,3.7686333E-2,-2.52297E-1,1.0999321E0,1.875148E-2,-6.525059E-2,2.0834191E-1,3.2774467E-2,-5.018387E-1,1.5187579E-2,5.9061408E-2,1.2074632E-2,-7.866365E-3,1.6816663E-2,-2.3634816E-3,-5.7447325E-2,7.223233E-3,-3.9835744E-2,-9.59314E-3],"categories":[],"categories_nodes":[],"categories_segments":[],"categories_sizes":[],"default_left":[0,0,0,0,0,0,0,0,0,0,0,0,0,0,0,0,0,0,0,0,0,0,0],"id":25,"left_children":[1,3,5,7,-1,9,11,13,-1,15,17,19,21,-1,-1,-1,-1,-1,-1,-1,-1,-1,-1],"loss_changes":[6.829209E0,2.7289762E0,6.3807015E0,1.6252041E-1,0E0,7.401989E0,6.6027417E0,1.2748241E-1,0E0,7.469182E0,5.2008004E0,5.9938536E0,4.3653336E0,0E0,0E0,0E0,0E0,0E0,0E0,0E0,0E0,0E0,0E0],"parents":[2147483647,0,0,1,1,2,2,3,3,5,5,6,6,7,7,9,9,10,10,11,11,12,12],"right_children":[2,4,6,8,-1,10,12,14,-1,16,18,20,22,-1,-1,-1,-1,-1,-1,-1,-1,-1,-1],"split_conditions":[1E0,9E0,5.414E-1,0E0,-1.0627021E-2,5.88E-2,-6.28E2,-6.1814E0,1.875148E-2,1.13E-2,1.048E-1,-9.5514E0,6.271E-1,1.5187579E-2,5.9061408E-2,1.2074632E-2,-7.866365E-3,1.6816663E-2,-2.3634816E-3,-5.7447325E-2,7.223233E-3,-3.9835744E-2,-9.59314E-3],"split_indices":[3,2,8,2,0,7,5,6,0,7,7,6,8,0,0,0,0,0,0,0,0,0,0],"split_type":[0,0,0,0,0,0,0,0,0,0,0,0,0,0,0,0,0,0,0,0,0,0,0],"sum_hessian":[5.2139905E2,1.0223767E1,5.111753E2,8.297168E0,1.9265994E0,4.195895E2,9.158577E1,6.5128903E0,1.7842776E0,2.621077E2,1.5748184E2,4.3155006E1,4.8430763E1,1.0422167E0,5.4706736E0,6.0138912E1,2.0196877E2,1.0472667E2,5.275516E1,2.9246187E0,4.0230385E1,2.4015179E1,2.4415583E1],"tree_param":{"num_deleted":"0","num_feature":"9","num_nodes":"23","size_leaf_vector":"1"}},{"base_weights":[2.152976E-3,3.965357E-1,-2.8829966E-2,8.398812E-1,1.15488514E-1,-4.6515888E-1,-3.6903434E-3,4.508063E-1,1.0154177E0,-3.3080482E-1,4.3078515E-1,6.8477236E-2,-1.030051E0,1.9574754E-2,-4.355846E-1,4.789709E-2,-1.630755E-3,5.3914357E-2,1.3829835E-2,3.490786E-2,-3.1150583E-2,4.960982E-2,-5.3820475E-3,3.5003435E-2,-9.279169E-3,-1.5145994E-2,-6.401792E-2,-3.199241E-5,3.245698E-2,-2.7361352E-2,2.6326958E-2],"categories":[],"categories_nodes":[],"categories_segments":[],"categories_sizes":[],"default_left":[0,0,0,0,0,0,0,0,0,0,0,0,0,0,0,0,0,0,0,0,0,0,0,0,0,0,0,0,0,0,0],"id":26,"left_children":[1,3,5,7,9,11,13,15,17,19,21,23,25,27,29,-1,-1,-1,-1,-1,-1,-1,-1,-1,-1,-1,-1,-1,-1,-1,-1],"loss_changes":[6.3900127E0,4.6491227E0,5.3174963E0,5.406599E-1,3.5860417E0,8.031588E0,4.625767E0,1.5863895E0,1.3258648E-1,3.6511908E0,4.572921E0,2.459534E0,1.9584627E0,5.561659E0,2.8156652E0,0E0,0E0,0E0,0E0,0E0,0E0,0E0,0E0,0E0,0E0,0E0,0E0,0E0,0E0,0E0,0E0],"parents":[2147483647,0,0,1,1,2,2,3,3,4,4,5,5,6,6,7,7,8,8,9,9,10,10,11,11,12,12,13,13,14,14],"right_children":[2,4,6,8,10,12,14,16,18,20,22,24,26,28,30,-1,-1,-1,-1,-1,-1,-1,-1,-1,-1,-1,-1,-1,-1,-1,-1],"split_conditions":[2E0,-4E0,2.19E2,-2.085E-1,5.12E2,-2E0,8.2333E0,8.4E1,1.85E3,4.3E1,1.837E3,2.48E-2,9E0,7.7236E0,7.73E-2,4.789709E-2,-1.630755E-3,5.3914357E-2,1.3829835E-2,3.490786E-2,-3.1150583E-2,4.960982E-2,-5.3820475E-3,3.5003435E-2,-9.279169E-3,-1.5145994E-2,-6.401792E-2,-3.199241E-5,3.245698E-2,-2.7361352E-2,2.6326958E-2],"split_indices":[3,2,1,6,1,2,6,1,1,1,1,7,0,6,7,0,0,0,0,0,0,0,0,0,0,0,0,0,0,0,0],"split_type":[0,0,0,0,0,0,0,0,0,0,0,0,0,0,0,0,0,0,0,0,0,0,0,0,0,0,0,0,0,0,0],"sum_hessian":[5.2101556E2,3.7090538E1,4.8392502E2,1.3618798E1,2.347174E1,2.5409475E1,4.5851556E2,5.34339E0,8.275409E0,9.696888E0,1.3774853E1,1.3518112E1,1.1891363E1,4.3598477E2,2.2530766E1,2.1286902E0,3.2146997E0,7.2030044E0,1.072404E0,1.8374234E0,7.8594646E0,6.330909E0,7.4439445E0,3.374251E0,1.0143862E1,3.6111975E0,8.280166E0,4.2338922E2,1.2595557E1,2.0574575E1,1.9561912E0],"tree_param":{"num_deleted":"0","num_feature":"9","num_nodes":"31","size_leaf_vector":"1"}},{"base_weights":[2.3228787E-3,1.9280452E-1,-5.9816327E-2,5.275924E-1,1.0694558E-1,-8.9563444E-2,4.1885144E-1,6.716238E-1,-1.811253E-1,-5.1337928E-2,1.362119E-1,2.4492262E-1,-1.379148E-1,1.373765E-1,1.0977525E0,5.1224448E-2,2.2720283E-2,-3.1479876E-2,1.1368926E-2,3.2899156E-2,3.8427748E-3,2.4093382E-2,-6.1790063E-3,-3.17733E-2,-4.5302757E-3,2.8150762E-2,-1.9469896E-2,6.438366E-2,7.4883937E-3],"categories":[],"categories_nodes":[],"categories_segments":[],"categories_sizes":[],"default_left":[0,0,0,0,0,0,0,0,0,0,0,0,0,0,0,0,0,0,0,0,0,0,0,0,0,0,0,0,0],"id":27,"left_children":[1,3,5,7,9,11,13,15,17,-1,19,21,23,25,27,-1,-1,-1,-1,-1,-1,-1,-1,-1,-1,-1,-1,-1,-1],"loss_changes":[6.18255E0,3.6366744E0,5.6459684E0,2.772606E0,3.5742502E0,6.0445566E0,4.286753E0,1.2051048E0,1.091047E0,0E0,3.1018527E0,4.189519E0,7.600973E0,4.1562123E0,1.006774E0,0E0,0E0,0E0,0E0,0E0,0E0,0E0,0E0,0E0,0E0,0E0,0E0,0E0,0E0],"parents":[2147483647,0,0,1,1,2,2,3,3,4,4,5,5,6,6,7,7,8,8,10,10,11,11,12,12,13,13,14,14],"right_children":[2,4,6,8,10,12,14,16,18,-1,20,22,24,26,28,-1,-1,-1,-1,-1,-1,-1,-1,-1,-1,-1,-1,-1,-1],"split_conditions":[8E0,2.26E-2,3.277E3,7.3933E0,2.39E-2,-1.1E1,1.8E1,-5.92E3,-3E0,-5.1337928E-2,2E0,2.2676E0,-6.1814E0,1.1493E0,5.2653E0,5.1224448E-2,2.2720283E-2,-3.1479876E-2,1.1368926E-2,3.2899156E-2,3.8427748E-3,2.4093382E-2,-6.1790063E-3,-3.17733E-2,-4.5302757E-3,2.8150762E-2,-1.9469896E-2,6.438366E-2,7.4883937E-3],"split_indices":[0,7,1,6,7,2,0,5,2,0,3,6,6,6,6,0,0,0,0,0,0,0,0,0,0,0,0,0,0],"split_type":[0,0,0,0,0,0,0,0,0,0,0,0,0,0,0,0,0,0,0,0,0,0,0,0,0,0,0,0,0],"sum_hessian":[5.203603E2,1.2748001E2,3.9288025E2,2.4970032E1,1.0250998E2,3.7065836E2,2.222191E1,2.0796032E1,4.1739993E0,1.7219679E0,1.0078802E2,4.629972E1,3.243586E2,1.6558884E1,5.663026E0,6.507831E0,1.42882E1,1.7316713E0,2.4423277E0,9.264381E0,9.1523636E1,2.7992851E1,1.830687E1,2.7084038E1,2.972746E2,9.120576E0,7.4383087E0,4.4193234E0,1.2437024E0],"tree_param":{"num_deleted":"0","num_feature":"9","num_nodes":"29","size_leaf_vector":"1"}},{"base_weights":[2.41826E-3,7.302643E-1,-1.3008494E-2,9.540495E-1,-1.0745977E-2,3.6652956E-2,-2.3870917E-1,1.0541458E0,1.728366E-2,-6.1985802E-2,2.0021792E-1,3.081572E-2,-4.7472832E-1,1.402563E-2,5.680845E-2,1.1422383E-2,-7.4488134E-3,8.402629E-3,6.0705762E-2,-5.511115E-2,6.872464E-3,-3.782567E-2,-8.969556E-3],"categories":[],"categories_nodes":[],"categories_segments":[],"categories_sizes":[],"default_left":[0,0,0,0,0,0,0,0,0,0,0,0,0,0,0,0,0,0,0,0,0,0,0],"id":28,"left_children":[1,3,5,7,-1,9,11,13,-1,15,17,19,21,-1,-1,-1,-1,-1,-1,-1,-1,-1,-1],"loss_changes":[5.8564215E0,2.4948049E0,5.735295E0,1.7982864E-1,0E0,6.782667E0,5.8845024E0,1.3730192E-1,0E0,6.6669097E0,4.9519086E0,5.46982E0,3.9634628E0,0E0,0E0,0E0,0E0,0E0,0E0,0E0,0E0,0E0,0E0],"parents":[2147483647,0,0,1,1,2,2,3,3,5,5,6,6,7,7,9,9,10,10,11,11,12,12],"right_children":[2,4,6,8,-1,10,12,14,-1,16,18,20,22,-1,-1,-1,-1,-1,-1,-1,-1,-1,-1],"split_conditions":[1E0,9E0,5.414E-1,0E0,-1.0745977E-2,5.88E-2,-6.28E2,-6.1814E0,1.728366E-2,1.13E-2,2.7525E4,-9.5514E0,6.271E-1,1.402563E-2,5.680845E-2,1.1422383E-2,-7.4488134E-3,8.402629E-3,6.0705762E-2,-5.511115E-2,6.872464E-3,-3.782567E-2,-8.969556E-3],"split_indices":[3,2,8,2,0,7,5,6,0,7,5,6,8,0,0,0,0,0,0,0,0,0,0],"split_type":[0,0,0,0,0,0,0,0,0,0,0,0,0,0,0,0,0,0,0,0,0,0,0],"sum_hessian":[5.197307E2,9.825357E0,5.0990536E2,7.9368253E0,1.8885318E0,4.1863068E2,9.127469E1,6.1862755E0,1.7505494E0,2.6153287E2,1.5709781E2,4.301856E1,4.8256126E1,1.0167091E0,5.1695666E0,5.990454E1,2.0162833E2,1.5339713E2,3.700693E0,2.8972437E0,4.0121315E1,2.389555E1,2.4360577E1],"tree_param":{"num_deleted":"0","num_feature":"9","num_nodes":"23","size_leaf_vector":"1"}},{"base_weights":[2.412641E-3,1.8397595E-1,-5.6734156E-2,3.1822476E-1,-1.2353941E-2,-7.1086152E-3,-3.3072495E-1,8.047877E-1,2.1618551E-1,-2.288513E-1,3.5349214E-1,2.4861079E-2,-5.631782E-1,-6.0806507E-1,3.131822E-1,5.94727E-2,2.4364106E-2,-6.4528473E-3,2.577557E-2,6.610417E-3,-2.1032412E-2,2.5257377E-2,-5.3755905E-2,-4.3871623E-4,2.3868753E-2,-6.395658E-3,-4.7213286E-2,-3.580138E-2,3.5158213E-2,-2.7138656E-2,2.4573242E-2],"categories":[],"categories_nodes":[],"categories_segments":[],"categories_sizes":[],"default_left":[0,0,0,0,0,0,0,0,0,0,0,0,0,0,0,0,0,0,0,0,0,0,0,0,0,0,0,0,0,0,0],"id":29,"left_children":[1,3,5,7,9,11,13,15,17,19,21,23,25,27,29,-1,-1,-1,-1,-1,-1,-1,-1,-1,-1,-1,-1,-1,-1,-1,-1],"loss_changes":[5.598245E0,3.380035E0,5.3445487E0,3.604783E0,4.277221E0,5.9509735E0,1.0955418E1,9.870205E-1,6.7095633E0,2.4025793E0,4.8956313E0,4.825486E0,2.8979044E0,6.516141E0,3.1368039E0,0E0,0E0,0E0,0E0,0E0,0E0,0E0,0E0,0E0,0E0,0E0,0E0,0E0,0E0,0E0,0E0],"parents":[2147483647,0,0,1,1,2,2,3,3,4,4,5,5,6,6,7,7,8,8,9,9,10,10,11,11,12,12,13,13,14,14],"right_children":[2,4,6,8,10,12,14,16,18,20,22,24,26,28,30,-1,-1,-1,-1,-1,-1,-1,-1,-1,-1,-1,-1,-1,-1,-1,-1],"split_conditions":[8E0,1.942E3,9E0,8.76E-2,2.835E3,8.2333E0,2.496E4,-6E0,5.69E-2,-6.348E3,1.466E-1,3.277E3,-7.435E3,7.3933E0,1.349E3,5.94727E-2,2.4364106E-2,-6.4528473E-3,2.577557E-2,6.610417E-3,-2.1032412E-2,2.5257377E-2,-5.3755905E-2,-4.3871623E-4,2.3868753E-2,-6.395658E-3,-4.7213286E-2,-3.580138E-2,3.5158213E-2,-2.7138656E-2,2.4573242E-2],"split_indices":[0,1,2,8,1,6,5,2,7,5,7,1,5,6,1,0,0,0,0,0,0,0,0,0,0,0,0,0,0,0,0],"split_type":[0,0,0,0,0,0,0,0,0,0,0,0,0,0,0,0,0,0,0,0,0,0,0,0,0,0,0,0,0,0,0],"sum_hessian":[5.193339E2,1.27091095E2,3.9224283E2,7.511036E1,5.1980732E1,3.3296225E2,5.928058E1,1.1827098E1,6.328326E1,3.2891144E1,1.9089588E1,3.1576358E2,1.719867E1,4.1473156E1,1.7807425E1,4.1061482E0,7.72095E0,2.9651762E1,3.36315E1,1.1518374E1,2.137277E1,1.7841965E1,1.2476231E0,2.948295E2,2.0934092E1,8.652144E0,8.546526E0,3.8737553E1,2.7356033E0,2.7172315E0,1.5090193E1],"tree_param":{"num_deleted":"0","num_feature":"9","num_nodes":"31","size_leaf_vector":"1"}},{"base_weights":[2.3463096E-3,3.7258434E-1,-2.6248457E-2,7.6315385E-1,8.385153E-2,-4.4180548E-1,-2.4932676E-3,8.669782E-1,1.2995907E-3,-4.1236264E-1,4.214531E-1,7.002841E-2,-9.9231005E-1,4.4540234E-2,-1.8636335E-1,4.8600793E-2,1.5322283E-2,2.9895812E-2,-3.4281384E-2,4.652148E-2,-2.453815E-3,1.509616E-2,-2.990289E-2,-1.4698896E-2,-6.185473E-2,-2.0999205E-3,1.09027345E-2,2.6468772E-3,-1.9579943E-2],"categories":[],"categories_nodes":[],"categories_segments":[],"categories_sizes":[],"default_left":[0,0,0,0,0,0,0,0,0,0,0,0,0,0,0,0,0,0,0,0,0,0,0,0,0,0,0,0,0],"id":30,"left_children":[1,3,5,7,9,11,13,15,-1,17,19,21,23,25,27,-1,-1,-1,-1,-1,-1,-1,-1,-1,-1,-1,-1,-1,-1],"loss_changes":[5.5099077E0,4.1438766E0,4.7689705E0,1.1818628E0,3.9559789E0,7.4301476E0,3.969859E0,5.1244354E-1,0E0,3.0731397E0,3.381856E0,2.422521E0,1.799077E0,5.4986687E0,4.6129007E0,0E0,0E0,0E0,0E0,0E0,0E0,0E0,0E0,0E0,0E0,0E0,0E0,0E0,0E0],"parents":[2147483647,0,0,1,1,2,2,3,3,4,4,5,5,6,6,7,7,9,9,10,10,11,11,12,12,13,13,14,14],"right_children":[2,4,6,8,10,12,14,16,-1,18,20,22,24,26,28,-1,-1,-1,-1,-1,-1,-1,-1,-1,-1,-1,-1,-1,-1],"split_conditions":[2E0,-3E0,2.19E2,1.868E3,5.12E2,-2E0,5.327E-1,1.9E1,1.2995907E-3,4.3E1,1.837E3,1.88E2,9E0,5.9E-2,0E0,4.8600793E-2,1.5322283E-2,2.9895812E-2,-3.4281384E-2,4.652148E-2,-2.453815E-3,1.509616E-2,-2.990289E-2,-1.4698896E-2,-6.185473E-2,-2.0999205E-3,1.09027345E-2,2.6468772E-3,-1.9579943E-2],"split_indices":[3,2,1,1,1,2,8,0,0,1,1,1,0,7,2,0,0,0,0,0,0,0,0,0,0,0,0,0,0],"split_type":[0,0,0,0,0,0,0,0,0,0,0,0,0,0,0,0,0,0,0,0,0,0,0,0,0,0,0,0,0],"sum_hessian":[5.1852356E2,3.6313637E1,4.822099E2,1.4736468E1,2.1577168E1,2.5123219E1,4.5708667E2,1.2762809E1,1.9736596E0,8.646664E0,1.2930504E1,1.3471152E1,1.1652067E1,3.6458463E2,9.250206E1,1.0130392E1,2.6324167E0,1.587931E0,7.0587325E0,5.7419586E0,7.1885457E0,1.0406946E1,3.064206E0,3.5955353E0,8.056532E0,2.4376643E2,1.20818184E2,4.304935E1,4.9452705E1],"tree_param":{"num_deleted":"0","num_feature":"9","num_nodes":"29","size_leaf_vector":"1"}},{"base_weights":[2.2481792E-3,6.989588E-1,-1.2065964E-2,9.141449E-1,-9.829438E-3,3.423174E-2,-2.2271898E-1,5.074305E-2,1.6128462E-2,-5.5916585E-2,1.8391106E-1,2.1759676E-2,-4.3726557E-1,1.0866213E-2,-6.880481E-3,3.0778503E-2,5.7021305E-3,-5.3392E-2,6.2049157E-3,-3.5357993E-2,-7.7970694E-3],"categories":[],"categories_nodes":[],"categories_segments":[],"categories_sizes":[],"default_left":[0,0,0,0,0,0,0,0,0,0,0,0,0,0,0,0,0,0,0,0,0],"id":31,"left_children":[1,3,5,7,-1,9,11,-1,-1,13,15,17,19,-1,-1,-1,-1,-1,-1,-1,-1],"loss_changes":[5.182307E0,2.1956916E0,4.9750547E0,1.857233E-1,0E0,5.6563053E0,4.8301797E0,0E0,0E0,5.8763223E0,4.68038E0,5.0287447E0,3.609952E0,0E0,0E0,0E0,0E0,0E0,0E0,0E0,0E0],"parents":[2147483647,0,0,1,1,2,2,3,3,5,5,6,6,9,9,10,10,11,11,12,12],"right_children":[2,4,6,8,-1,10,12,-1,-1,14,16,18,20,-1,-1,-1,-1,-1,-1,-1,-1],"split_conditions":[1E0,9E0,5.414E-1,0E0,-9.829438E-3,5.88E-2,-6.28E2,5.074305E-2,1.6128462E-2,1.13E-2,2.794E-1,-9.5514E0,6.271E-1,1.0866213E-2,-6.880481E-3,3.0778503E-2,5.7021305E-3,-5.3392E-2,6.2049157E-3,-3.5357993E-2,-7.7970694E-3],"split_indices":[3,2,8,2,0,7,5,0,0,7,8,6,8,0,0,0,0,0,0,0,0],"split_type":[0,0,0,0,0,0,0,0,0,0,0,0,0,0,0,0,0,0,0,0,0],"sum_hessian":[5.1779767E2,9.461251E0,5.083364E2,7.611549E0,1.8497025E0,4.174303E2,9.090609E1,5.8927784E0,1.718771E0,2.609142E2,1.5651607E2,4.290914E1,4.799695E1,5.9670956E1,2.0124327E2,2.071638E1,1.3579968E2,2.87411E0,4.003503E1,2.372357E1,2.427338E1],"tree_param":{"num_deleted":"0","num_feature":"9","num_nodes":"21","size_leaf_vector":"1"}},{"base_weights":[2.1575894E-3,2.746594E-1,-3.3577282E-2,8.596586E-2,5.739432E-1,-3.1425393E-1,1.13571305E-2,-1.8717837E-1,2.9959527E-1,1.7212093E-1,8.0344594E-1,1.6384801E-1,-7.56211E-1,7.43775E-2,-2.3346317E-1,1.9850552E-2,-3.7422072E-2,4.42219E-2,1.4430066E-4,-3.3466596E-2,2.3122324E-2,4.5786586E-2,-1.3328758E-2,-2.4662178E-2,1.6609939E-2,-5.9276868E-2,-2.1177182E-2,-1.1850622E-3,1.23115415E-2,-1.5204134E-2,2.2137692E-2],"categories":[],"categories_nodes":[],"categories_segments":[],"categories_sizes":[],"default_left":[0,0,0,0,0,0,0,0,0,0,0,0,0,0,0,0,0,0,0,0,0,0,0,0,0,0,0,0,0,0,0],"id":32,"left_children":[1,3,5,7,9,11,13,15,17,19,21,23,25,27,29,-1,-1,-1,-1,-1,-1,-1,-1,-1,-1,-1,-1,-1,-1,-1,-1],"loss_changes":[5.056831E0,3.350502E0,5.794362E0,2.2792516E0,1.9922948E0,1.3519814E1,6.138696E0,5.98139E0,3.7740173E0,2.6721888E0,1.9781046E0,3.623591E0,4.228466E0,5.3369064E0,4.024847E0,0E0,0E0,0E0,0E0,0E0,0E0,0E0,0E0,0E0,0E0,0E0,0E0,0E0,0E0,0E0,0E0],"parents":[2147483647,0,0,1,1,2,2,3,3,4,4,5,5,6,6,7,7,8,8,9,9,10,10,11,11,12,12,13,13,14,14],"right_children":[2,4,6,8,10,12,14,16,18,20,22,24,26,28,30,-1,-1,-1,-1,-1,-1,-1,-1,-1,-1,-1,-1,-1,-1,-1,-1],"split_conditions":[-1.2E1,-1.2692E4,4.78E2,-1.7E1,1.259E-1,0E0,5.327E-1,-2.1E1,3E0,-1.0521E4,1.01141E1,2E0,6.457E-1,5.88E-2,7.561E-1,1.9850552E-2,-3.7422072E-2,4.42219E-2,1.4430066E-4,-3.3466596E-2,2.3122324E-2,4.5786586E-2,-1.3328758E-2,-2.4662178E-2,1.6609939E-2,-5.9276868E-2,-2.1177182E-2,-1.1850622E-3,1.23115415E-2,-1.5204134E-2,2.2137692E-2],"split_indices":[2,5,1,2,6,2,8,2,4,5,6,4,6,7,8,0,0,0,0,0,0,0,0,0,0,0,0,0,0,0,0],"split_type":[0,0,0,0,0,0,0,0,0,0,0,0,0,0,0,0,0,0,0,0,0,0,0,0,0,0,0,0,0,0,0],"sum_hessian":[5.173511E2,5.920304E1,4.5814804E2,3.7099594E1,2.2103449E1,6.239743E1,3.9575058E2,1.6336166E1,2.0763426E1,8.671327E0,1.3432122E1,3.0275335E1,3.2122097E1,3.152872E2,8.0463394E1,8.147993E0,8.188173E0,6.3217735E0,1.4441652E1,1.889505E0,6.7818213E0,1.2286948E1,1.1451743E0,5.781122E0,2.4494213E1,1.2904439E1,1.9217657E1,2.0127771E2,1.140095E2,7.3353195E1,7.1101937E0],"tree_param":{"num_deleted":"0","num_feature":"9","num_nodes":"31","size_leaf_vector":"1"}},{"base_weights":[2.0175679E-3,1.739051E-1,-5.3883728E-2,4.2083284E-1,7.206533E-2,-8.144299E-2,3.9016244E-1,1.0521133E0,1.370876E-1,-2.4932255E-1,2.2720234E-1,-4.8378084E-2,-4.9657843E-1,-3.0343175E-1,6.3513345E-1,-1.6015025E-3,6.275404E-2,-7.190974E-3,2.9616475E-2,4.865635E-3,-3.250115E-2,1.3868644E-2,-6.266167E-2,-1.9287717E-2,-1.1955005E-4,-3.779337E-2,9.825739E-3,1.2166287E-2,-5.358107E-2,1.810014E-2,6.088957E-2],"categories":[],"categories_nodes":[],"categories_segments":[],"categories_sizes":[],"default_left":[0,0,0,0,0,0,0,0,0,0,0,0,0,0,0,0,0,0,0,0,0,0,0,0,0,0,0,0,0,0,0],"id":33,"left_children":[1,3,5,7,9,11,13,15,17,19,21,23,25,27,29,-1,-1,-1,-1,-1,-1,-1,-1,-1,-1,-1,-1,-1,-1,-1,-1],"loss_changes":[4.9827604E0,3.1698275E0,4.820745E0,6.4747987E0,4.609043E0,5.0450277E0,4.107636E0,2.5286913E0,3.4923768E0,4.25822E0,4.9602757E0,5.3231273E0,5.0251307E0,3.0708764E0,2.3203435E0,0E0,0E0,0E0,0E0,0E0,0E0,0E0,0E0,0E0,0E0,0E0,0E0,0E0,0E0,0E0,0E0],"parents":[2147483647,0,0,1,1,2,2,3,3,4,4,5,5,6,6,7,7,8,8,9,9,10,10,11,11,12,12,13,13,14,14],"right_children":[2,4,6,8,10,12,14,16,18,20,22,24,26,28,30,-1,-1,-1,-1,-1,-1,-1,-1,-1,-1,-1,-1,-1,-1,-1,-1],"split_conditions":[8E0,1.508E-1,3.277E3,-5.92E3,5.44E-2,3.03E3,2.143E-1,-2.795E4,5E0,2.2124E0,3.322E3,-4.8291E0,1.8E1,1.25E-1,1.8E1,-1.6015025E-3,6.275404E-2,-7.190974E-3,2.9616475E-2,4.865635E-3,-3.250115E-2,1.3868644E-2,-6.266167E-2,-1.9287717E-2,-1.1955005E-4,-3.779337E-2,9.825739E-3,1.2166287E-2,-5.358107E-2,1.810014E-2,6.088957E-2],"split_indices":[0,8,1,5,7,1,8,5,2,6,1,6,0,8,0,0,0,0,0,0,0,0,0,0,0,0,0,0,0,0,0],"split_type":[0,0,0,0,0,0,0,0,0,0,0,0,0,0,0,0,0,0,0,0,0,0,0,0,0,0,0,0,0,0,0],"sum_hessian":[5.165904E2,1.2625759E2,3.9033282E2,3.5952465E1,9.030512E1,3.6829175E2,2.2041056E1,1.030897E1,2.5643496E1,2.9202003E1,6.110312E1,3.421561E2,2.6135675E1,5.6905565E0,1.6350498E1,1.7584531E0,8.550518E0,1.6281237E1,9.362259E0,1.6063255E1,1.3138748E1,5.9886272E1,1.2168468E0,4.015771E1,3.0199838E2,1.8954245E1,7.1814313E0,3.7235646E0,1.9669921E0,1.2235976E1,4.114523E0],"tree_param":{"num_deleted":"0","num_feature":"9","num_nodes":"31","size_leaf_vector":"1"}},{"base_weights":[1.9275858E-3,3.551329E-1,-2.4890833E-2,7.83487E-1,1.2126435E-1,-4.1983375E-1,-2.5695248E-3,8.5791665E-1,9.553272E-3,-1.5616834E-1,5.293806E-1,5.6666657E-2,-9.423214E-1,1.8645236E-2,-3.975199E-1,4.8175406E-2,5.274895E-3,-5.3784776E-2,4.919668E-3,4.8924834E-2,8.41904E-3,3.3470545E-2,-9.41304E-3,-1.3087801E-2,-5.9427362E-2,-3.1740474E-5,3.0865345E-2,-3.6013664E-3,-3.887715E-2],"categories":[],"categories_nodes":[],"categories_segments":[],"categories_sizes":[],"default_left":[0,0,0,0,0,0,0,0,0,0,0,0,0,0,0,0,0,0,0,0,0,0,0,0,0,0,0,0,0],"id":34,"left_children":[1,3,5,7,9,11,13,15,-1,17,19,21,23,25,27,-1,-1,-1,-1,-1,-1,-1,-1,-1,-1,-1,-1,-1,-1],"loss_changes":[4.9083915E0,3.5682855E0,4.2452126E0,3.9743853E-1,2.8947964E0,6.466969E0,3.8358097E0,7.741604E-1,0E0,3.74755E0,1.50176E0,2.2896438E0,1.7574472E0,5.016402E0,2.8306482E0,0E0,0E0,0E0,0E0,0E0,0E0,0E0,0E0,0E0,0E0,0E0,0E0,0E0,0E0],"parents":[2147483647,0,0,1,1,2,2,3,3,4,4,5,5,6,6,7,7,9,9,10,10,11,11,12,12,13,13,14,14],"right_children":[2,4,6,8,10,12,14,16,-1,18,20,22,24,26,28,-1,-1,-1,-1,-1,-1,-1,-1,-1,-1,-1,-1,-1,-1],"split_conditions":[2E0,-5E0,2.19E2,1.868E3,5.328E3,-2E0,8.2333E0,1.9E1,9.553272E-3,2.78E-2,1.2747E4,2.48E-2,9E0,7.7236E0,1.4E1,4.8175406E-2,5.274895E-3,-5.3784776E-2,4.919668E-3,4.8924834E-2,8.41904E-3,3.3470545E-2,-9.41304E-3,-1.3087801E-2,-5.9427362E-2,-3.1740474E-5,3.0865345E-2,-3.6013664E-3,-3.887715E-2],"split_indices":[3,2,1,1,5,2,6,0,0,8,5,7,0,6,0,0,0,0,0,0,0,0,0,0,0,0,0,0,0],"split_type":[0,0,0,0,0,0,0,0,0,0,0,0,0,0,0,0,0,0,0,0,0,0,0,0,0,0,0,0,0],"sum_hessian":[5.1624457E2,3.5567642E1,4.806769E2,1.1731002E1,2.383664E1,2.4760872E1,4.5591605E2,1.002353E1,1.707472E0,1.4557776E1,9.278863E0,1.3416648E1,1.1344223E1,4.3357913E2,2.2336916E1,8.543958E0,1.4795722E0,2.4569848E0,1.2100792E1,3.3725686E0,5.906295E0,3.3365006E0,1.0080147E1,3.5619907E0,7.7822323E0,4.2101904E2,1.2560082E1,1.2672424E1,9.664491E0],"tree_param":{"num_deleted":"0","num_feature":"9","num_nodes":"29","size_leaf_vector":"1"}},{"base_weights":[1.8540983E-3,6.762198E-1,-1.1577603E-2,8.826605E-1,-8.494372E-3,-3.6079744E-1,1.2614353E-2,9.80242E-1,1.573769E-2,8.838934E-2,-9.1147196E-1,2.5136864E-1,-2.085374E-2,5.268174E-2,1.5155137E-2,-9.684089E-3,3.7986E-2,1.3698689E-3,-5.1606473E-2,2.571013E-2,-7.962509E-3,-1.6818851E-3,3.629144E-2],"categories":[],"categories_nodes":[],"categories_segments":[],"categories_sizes":[],"default_left":[0,0,0,0,0,0,0,0,0,0,0,0,0,0,0,0,0,0,0,0,0,0,0],"id":35,"left_children":[1,3,5,7,-1,9,11,13,-1,15,17,19,21,-1,-1,-1,-1,-1,-1,-1,-1,-1,-1],"loss_changes":[4.6877236E0,1.9152775E0,4.2925677E0,1.5063715E-1,0E0,8.222683E0,3.8059337E0,8.533001E-3,0E0,3.7527032E0,1.7134743E0,6.4012985E0,4.0153036E0,0E0,0E0,0E0,0E0,0E0,0E0,0E0,0E0,0E0,0E0],"parents":[2147483647,0,0,1,1,2,2,3,3,5,5,6,6,7,7,9,9,10,10,11,11,12,12],"right_children":[2,4,6,8,-1,10,12,14,-1,16,18,20,22,-1,-1,-1,-1,-1,-1,-1,-1,-1,-1],"split_conditions":[1E0,9E0,2.19E2,0E0,-8.494372E-3,-2E0,7E0,6.578E-1,1.573769E-2,-3.3E2,-1.36E2,2.103E3,3.424E3,5.268174E-2,1.5155137E-2,-9.684089E-3,3.7986E-2,1.3698689E-3,-5.1606473E-2,2.571013E-2,-7.962509E-3,-1.6818851E-3,3.629144E-2],"split_indices":[3,2,1,2,0,2,0,8,0,5,5,1,1,0,0,0,0,0,0,0,0,0,0],"split_type":[0,0,0,0,0,0,0,0,0,0,0,0,0,0,0,0,0,0,0,0,0,0,0],"sum_hessian":[5.156656E2,9.106574E0,5.0655902E2,7.285735E0,1.8208394E0,3.1916636E1,4.746424E2,5.597819E0,1.687916E0,1.8040464E1,1.387617E1,5.7553955E1,4.1708844E2,4.548783E0,1.0490361E0,1.3204051E1,4.8364134E0,1.6682202E0,1.220795E1,3.4938087E1,2.2615868E1,4.1100653E2,6.081898E0],"tree_param":{"num_deleted":"0","num_feature":"9","num_nodes":"23","size_leaf_vector":"1"}},{"base_weights":[1.9725685E-3,2.5943217E-1,-3.1584136E-2,-1.1192521E-1,3.9673242E-1,-3.320293E-1,7.911878E-3,4.4606927E-1,-4.025086E-1,4.6441925E-1,-1.470525E-1,-4.4160601E-1,6.2896854E-1,3.6224902E-1,-3.704422E-2,4.0154886E-2,-3.1225253E-2,9.374834E-3,-3.1648546E-2,1.0398454E-2,3.7552007E-2,-4.6752367E-2,1.9628836E-2,-2.6110796E-2,3.3778753E-2,-4.090601E-3,6.235685E-2,3.6983784E-2,5.337898E-3,-5.386406E-3,6.163996E-3],"categories":[],"categories_nodes":[],"categories_segments":[],"categories_sizes":[],"default_left":[0,0,0,0,0,0,0,0,0,0,0,0,0,0,0,0,0,0,0,0,0,0,0,0,0,0,0,0,0,0,0],"id":36,"left_children":[1,3,5,7,9,11,13,15,17,19,21,23,25,27,29,-1,-1,-1,-1,-1,-1,-1,-1,-1,-1,-1,-1,-1,-1,-1,-1],"loss_changes":[4.4667764E0,3.084066E0,5.430953E0,2.9152176E0,1.6783829E0,5.8769765E0,6.469397E0,2.891161E0,1.6986985E0,2.7209167E0,2.7490811E0,4.7040825E0,2.674554E0,4.3300705E0,4.09925E0,0E0,0E0,0E0,0E0,0E0,0E0,0E0,0E0,0E0,0E0,0E0,0E0,0E0,0E0,0E0,0E0],"parents":[2147483647,0,0,1,1,2,2,3,3,4,4,5,5,6,6,7,7,8,8,9,9,10,10,11,11,12,12,13,13,14,14],"right_children":[2,4,6,8,10,12,14,16,18,20,22,24,26,28,30,-1,-1,-1,-1,-1,-1,-1,-1,-1,-1,-1,-1,-1,-1,-1,-1],"split_conditions":[-1.2E1,-2.6767E4,-4.8291E0,2.92E-2,9.91E-2,3.141E3,-3.039E0,-3.0998E4,3E0,2.794E-1,1.206E-1,1.8768E4,1.7E1,1.1E1,6.91E-2,4.0154886E-2,-3.1225253E-2,9.374834E-3,-3.1648546E-2,1.0398454E-2,3.7552007E-2,-4.6752367E-2,1.9628836E-2,-2.6110796E-2,3.3778753E-2,-4.090601E-3,6.235685E-2,3.6983784E-2,5.337898E-3,-5.386406E-3,6.163996E-3],"split_indices":[2,5,6,7,7,1,6,5,4,8,7,5,0,0,7,0,0,0,0,0,0,0,0,0,0,0,0,0,0,0,0],"split_type":[0,0,0,0,0,0,0,0,0,0,0,0,0,0,0,0,0,0,0,0,0,0,0,0,0,0,0,0,0,0,0],"sum_hessian":[5.150698E2,5.861586E1,4.5645398E2,1.5871871E1,4.2743988E1,5.217249E1,4.042815E2,5.251865E0,1.0620007E1,3.814224E1,4.601748E0,4.7317623E1,4.8548665E0,4.4723083E1,3.595584E2,4.125789E0,1.1260755E0,3.0354362E0,7.58457E0,2.1041357E1,1.7100883E1,1.5725985E0,3.0291495E0,4.462992E1,2.687702E0,2.661864E0,2.1930025E0,1.7288446E1,2.7434637E1,2.4976831E2,1.0979009E2],"tree_param":{"num_deleted":"0","num_feature":"9","num_nodes":"31","size_leaf_vector":"1"}},{"base_weights":[2.1156357E-3,3.398826E-1,-2.3211291E-2,6.953523E-1,8.7357886E-2,2.2753444E-1,-5.6233797E-2,7.984969E-1,4.2034342E-4,-2.5566864E-1,5.1313E-1,6.1346924E-1,1.0953749E-1,-1.9211035E-2,-4.062868E-1,2.3147156E-2,5.2135568E-2,2.712841E-3,-5.036093E-2,-1.00668995E-2,3.4620974E-2,4.034565E-2,-3.3555295E-2,1.6263133E-2,-1.4181775E-2,-2.4948632E-3,1.8977972E-2,-3.4718554E-2,2.3864783E-2],"categories":[],"categories_nodes":[],"categories_segments":[],"categories_sizes":[],"default_left":[0,0,0,0,0,0,0,0,0,0,0,0,0,0,0,0,0,0,0,0,0,0,0,0,0,0,0,0,0],"id":37,"left_children":[1,3,5,7,9,11,13,15,-1,17,19,21,23,25,27,-1,-1,-1,-1,-1,-1,-1,-1,-1,-1,-1,-1,-1,-1],"loss_changes":[4.418449E0,3.173221E0,3.9918754E0,1.0433402E0,3.374585E0,2.4884808E0,5.5057383E0,5.7231045E-1,0E0,3.0747814E0,1.4512603E0,3.7528992E0,3.8409357E0,4.7397404E0,1.0676588E1,0E0,0E0,0E0,0E0,0E0,0E0,0E0,0E0,0E0,0E0,0E0,0E0,0E0,0E0],"parents":[2147483647,0,0,1,1,2,2,3,3,4,4,5,5,6,6,7,7,9,9,10,10,11,11,12,12,13,13,14,14],"right_children":[2,4,6,8,10,12,14,16,-1,18,20,22,24,26,28,-1,-1,-1,-1,-1,-1,-1,-1,-1,-1,-1,-1,-1,-1],"split_conditions":[2E0,-3E0,1.13E-2,1.868E3,5.328E3,-7.435E3,1.2E1,2.19E2,4.2034342E-4,4.179E-1,-8.63E-2,2.743E3,1.5E1,2E1,1.566E3,2.3147156E-2,5.2135568E-2,2.712841E-3,-5.036093E-2,-1.00668995E-2,3.4620974E-2,4.034565E-2,-3.3555295E-2,1.6263133E-2,-1.4181775E-2,-2.4948632E-3,1.8977972E-2,-3.4718554E-2,2.3864783E-2],"split_indices":[3,2,7,1,5,5,2,1,0,8,6,1,0,0,1,0,0,0,0,0,0,0,0,0,0,0,0,0,0],"split_type":[0,0,0,0,0,0,0,0,0,0,0,0,0,0,0,0,0,0,0,0,0,0,0,0,0,0,0,0,0],"sum_hessian":[5.1457764E2,3.5027065E1,4.7955057E2,1.3819818E1,2.1207249E1,5.512051E1,4.2443005E2,1.1874482E1,1.945336E0,1.1966147E1,9.2411E0,1.1923401E1,4.319711E1,3.8478842E2,3.9641617E1,6.2215867E0,5.6528955E0,9.129228E0,2.83692E0,1.8291134E0,7.4119873E0,1.0686038E1,1.2373624E0,2.8004435E1,1.5192677E1,3.5810626E2,2.6682161E1,3.00562E1,9.585416E0],"tree_param":{"num_deleted":"0","num_feature":"9","num_nodes":"29","size_leaf_vector":"1"}},{"base_weights":[2.1494632E-3,6.495203E-1,-1.0430087E-2,8.5463154E-1,-8.465159E-3,3.0485708E-2,-1.9690645E-1,4.7640383E-2,1.5107225E-2,-5.0298776E-2,1.6470502E-1,2.7228681E-2,-3.945169E-1,1.0153453E-2,-6.2902034E-3,6.7191604E-3,5.6481708E-2,-5.072227E-2,6.1955987E-3,-3.25458E-2,-6.4550526E-3],"categories":[],"categories_nodes":[],"categories_segments":[],"categories_sizes":[],"default_left":[0,0,0,0,0,0,0,0,0,0,0,0,0,0,0,0,0,0,0,0,0],"id":38,"left_children":[1,3,5,7,-1,9,11,-1,-1,13,15,17,19,-1,-1,-1,-1,-1,-1,-1,-1],"loss_changes":[4.200564E0,1.7959719E0,3.8678074E0,1.4755154E-1,0E0,4.518236E0,4.050448E0,0E0,0E0,5.007573E0,4.427623E0,4.523915E0,3.2189827E0,0E0,0E0,0E0,0E0,0E0,0E0,0E0,0E0],"parents":[2147483647,0,0,1,1,2,2,3,3,5,5,6,6,9,9,10,10,11,11,12,12],"right_children":[2,4,6,8,-1,10,12,-1,-1,14,16,18,20,-1,-1,-1,-1,-1,-1,-1,-1],"split_conditions":[1E0,9E0,5.414E-1,0E0,-8.465159E-3,5.88E-2,-6.28E2,4.7640383E-2,1.5107225E-2,1.13E-2,2.7525E4,-9.5514E0,6.271E-1,1.0153453E-2,-6.2902034E-3,6.7191604E-3,5.6481708E-2,-5.072227E-2,6.1955987E-3,-3.25458E-2,-6.4550526E-3],"split_indices":[3,2,8,2,0,7,5,0,0,7,5,6,8,0,0,0,0,0,0,0,0],"split_type":[0,0,0,0,0,0,0,0,0,0,0,0,0,0,0,0,0,0,0,0,0],"sum_hessian":[5.1397766E2,8.831979E0,5.051457E2,7.0278144E0,1.8041643E0,4.1493832E2,9.020737E1,5.3521643E0,1.6756504E0,2.5942175E2,1.555166E2,4.2670982E1,4.753638E1,5.9172207E1,2.0024953E2,1.518831E2,3.6334898E0,2.8179276E0,3.9853054E1,2.3440125E1,2.4096254E1],"tree_param":{"num_deleted":"0","num_feature":"9","num_nodes":"21","size_leaf_vector":"1"}},{"base_weights":[2.1221284E-3,1.577366E-1,-4.8323307E-2,3.911322E-1,6.2022414E-2,-7.3978044E-2,3.6520284E-1,1.0074168E0,1.17846936E-1,-2.4064778E-1,2.0891912E-1,-4.2375434E-2,-4.6928743E-1,-2.9745167E-1,6.012451E-1,-3.089573E-3,6.0518067E-2,-7.916596E-3,2.8310437E-2,4.2534336E-3,-3.0710021E-2,1.28731495E-2,-6.018094E-2,-1.7622447E-2,-1.0490593E-5,-3.580245E-2,9.531608E-3,1.1457381E-2,-5.176517E-2,1.707701E-2,5.8022298E-2],"categories":[],"categories_nodes":[],"categories_segments":[],"categories_sizes":[],"default_left":[0,0,0,0,0,0,0,0,0,0,0,0,0,0,0,0,0,0,0,0,0,0,0,0,0,0,0,0,0,0,0],"id":39,"left_children":[1,3,5,7,9,11,13,15,17,19,21,23,25,27,29,-1,-1,-1,-1,-1,-1,-1,-1,-1,-1,-1,-1,-1,-1,-1,-1],"loss_changes":[4.046658E0,2.7948442E0,4.157374E0,6.0307727E0,4.082131E0,4.570198E0,3.762469E0,2.4800262E0,3.3621712E0,3.7140174E0,4.532917E0,4.4624796E0,4.549421E0,2.8353336E0,2.1051264E0,0E0,0E0,0E0,0E0,0E0,0E0,0E0,0E0,0E0,0E0,0E0,0E0,0E0,0E0,0E0,0E0],"parents":[2147483647,0,0,1,1,2,2,3,3,4,4,5,5,6,6,7,7,8,8,9,9,10,10,11,11,12,12,13,13,14,14],"right_children":[2,4,6,8,10,12,14,16,18,20,22,24,26,28,30,-1,-1,-1,-1,-1,-1,-1,-1,-1,-1,-1,-1,-1,-1,-1,-1],"split_conditions":[8E0,1.508E-1,3.277E3,-5.92E3,5.44E-2,3.03E3,2.143E-1,-2.795E4,5E0,2.2124E0,3.322E3,-4.8291E0,1.8E1,1.25E-1,1.8E1,-3.089573E-3,6.0518067E-2,-7.916596E-3,2.8310437E-2,4.2534336E-3,-3.0710021E-2,1.28731495E-2,-6.018094E-2,-1.7622447E-2,-1.0490593E-5,-3.580245E-2,9.531608E-3,1.1457381E-2,-5.176517E-2,1.707701E-2,5.8022298E-2],"split_indices":[0,8,1,5,7,1,8,5,2,6,1,6,0,8,0,0,0,0,0,0,0,0,0,0,0,0,0,0,0,0,0],"split_type":[0,0,0,0,0,0,0,0,0,0,0,0,0,0,0,0,0,0,0,0,0,0,0,0,0,0,0,0,0,0,0],"sum_hessian":[5.135242E2,1.25194954E2,3.8832922E2,3.5512512E1,8.968245E1,3.6641812E2,2.1911102E1,1.0084552E1,2.5427958E1,2.9095348E1,6.0587097E1,3.4031888E2,2.6099257E1,5.686608E0,1.6224493E1,1.7197287E0,8.364823E0,1.6135677E1,9.29228E0,1.5955414E1,1.3139934E1,5.9364677E1,1.2224207E0,3.9857796E1,3.004611E2,1.8934198E1,7.165058E0,3.7206483E0,1.9659595E0,1.2179047E1,4.0454464E0],"tree_param":{"num_deleted":"0","num_feature":"9","num_nodes":"31","size_leaf_vector":"1"}},{"base_weights":[2.0216228E-3,6.3392717E-1,-1.0083844E-2,8.355927E-1,-7.975455E-3,-3.4137535E-1,1.2659624E-2,9.336708E-1,1.467442E-2,8.659747E-2,-8.7361526E-1,1.6832918E-1,-3.6281426E-2,5.043095E-2,1.4030012E-2,1.5090003E-2,-3.6561076E-2,-1.2771844E-2,-5.5153828E-2,1.9732866E-2,1.1317324E-3,6.253434E-4,-1.21927885E-2],"categories":[],"categories_nodes":[],"categories_segments":[],"categories_sizes":[],"default_left":[0,0,0,0,0,0,0,0,0,0,0,0,0,0,0,0,0,0,0,0,0,0,0],"id":40,"left_children":[1,3,5,7,-1,9,11,13,-1,15,17,19,21,-1,-1,-1,-1,-1,-1,-1,-1,-1,-1],"loss_changes":[3.9392452E0,1.6821334E0,3.8127558E0,1.4486122E-1,0E0,7.4800816E0,3.6169202E0,2.1082401E-2,0E0,3.5519257E0,1.7861595E0,3.7350488E0,3.6630628E0,0E0,0E0,0E0,0E0,0E0,0E0,0E0,0E0,0E0,0E0],"parents":[2147483647,0,0,1,1,2,2,3,3,5,5,6,6,7,7,9,9,10,10,11,11,12,12],"right_children":[2,4,6,8,-1,10,12,14,-1,16,18,20,22,-1,-1,-1,-1,-1,-1,-1,-1,-1,-1],"split_conditions":[1E0,9E0,2.19E2,0E0,-7.975455E-3,-2E0,3E0,6.578E-1,1.467442E-2,1.88E2,9E0,-5.1E2,5.414E-1,5.043095E-2,1.4030012E-2,1.5090003E-2,-3.6561076E-2,-1.2771844E-2,-5.5153828E-2,1.9732866E-2,1.1317324E-3,6.253434E-4,-1.21927885E-2],"split_indices":[3,2,1,2,0,2,3,8,0,1,0,5,8,0,0,0,0,0,0,0,0,0,0],"split_type":[0,0,0,0,0,0,0,0,0,0,0,0,0,0,0,0,0,0,0,0,0,0,0],"sum_hessian":[5.131312E2,8.679775E0,5.0445142E2,6.878384E0,1.8013912E0,3.1506329E1,4.729451E2,5.2129436E0,1.6654404E0,1.792787E1,1.357846E1,1.12540794E2,3.604043E2,4.187903E0,1.025041E0,1.4692598E1,3.235271E0,4.2478304E0,9.33063E0,4.3404926E1,6.913587E1,2.9257678E2,6.782752E1],"tree_param":{"num_deleted":"0","num_feature":"9","num_nodes":"23","size_leaf_vector":"1"}},{"base_weights":[1.9039462E-3,7.923786E-1,-7.239883E-3,1.1398194E-2,4.722276E-2,-4.294724E-1,2.0539783E-2,3.9972836E-1,-6.796127E-1,4.4445914E-1,-1.9461332E-3,5.6457352E-2,-8.204717E-3,-6.125353E-3,-5.0484337E-2,3.5454884E-2,-5.501023E-4,9.1880467E-4,-1.9049907E-2],"categories":[],"categories_nodes":[],"categories_segments":[],"categories_sizes":[],"default_left":[0,0,0,0,0,0,0,0,0,0,0,0,0,0,0,0,0,0,0],"id":41,"left_children":[1,3,5,-1,-1,7,9,11,13,15,17,-1,-1,-1,-1,-1,-1,-1,-1],"loss_changes":[3.7179008E0,2.8957605E-1,5.9756255E0,0E0,0E0,6.79455E0,4.559678E0,3.4416153E0,4.387102E0,2.9119735E0,3.5131717E0,0E0,0E0,0E0,0E0,0E0,0E0,0E0,0E0],"parents":[2147483647,0,0,1,1,2,2,5,5,6,6,7,7,8,8,9,9,10,10],"right_children":[2,4,6,-1,-1,8,10,12,14,16,18,-1,-1,-1,-1,-1,-1,-1,-1],"split_conditions":[4.3E1,1.963E-1,2.19E2,1.1398194E-2,4.722276E-2,-1.122E3,2E0,3.75E-2,9E0,1.868E3,8.2333E0,5.6457352E-2,-8.204717E-3,-6.125353E-3,-5.0484337E-2,3.5454884E-2,-5.501023E-4,9.1880467E-4,-1.9049907E-2],"split_indices":[1,8,1,0,0,5,3,7,0,1,6,0,0,0,0,0,0,0,0],"split_type":[0,0,0,0,0,0,0,0,0,0,0,0,0,0,0,0,0,0,0],"sum_hessian":[5.125836E2,4.8820057E0,5.0770157E2,1.5666333E0,3.3153722E0,3.0448261E1,4.7725333E2,6.9178777E0,2.3530384E1,2.3094498E1,4.541588E2,2.5788937E0,4.338984E0,9.264583E0,1.42658E1,1.4254985E1,8.839512E0,4.3195197E2,2.2206846E1],"tree_param":{"num_deleted":"0","num_feature":"9","num_nodes":"19","size_leaf_vector":"1"}},{"base_weights":[1.9422624E-3,2.3666161E-1,-2.841445E-2,6.1723344E-2,5.207011E-1,-3.548606E-1,2.2276556E-3,-1.3591795E-1,3.4212342E-1,1.23767525E-1,7.528377E-1,-4.570673E-1,5.0938916E-1,-1.4690943E-1,6.8709396E-2,1.885148E-2,-2.2098636E-2,2.3853414E-2,-3.1036953E-2,2.408981E-2,-2.8103108E-2,5.4408975E-2,1.3447239E-2,-2.8723553E-2,2.0069243E-2,-1.8329195E-3,5.0656926E-2,4.8017353E-3,-1.8563854E-2,-3.9780085E-4,1.4775783E-2],"categories":[],"categories_nodes":[],"categories_segments":[],"categories_sizes":[],"default_left":[0,0,0,0,0,0,0,0,0,0,0,0,0,0,0,0,0,0,0,0,0,0,0,0,0,0,0,0,0,0,0],"id":42,"left_children":[1,3,5,7,9,11,13,15,17,19,21,23,25,27,29,-1,-1,-1,-1,-1,-1,-1,-1,-1,-1,-1,-1,-1,-1,-1,-1],"loss_changes":[3.6623862E0,2.8926976E0,4.554062E0,2.1281152E0,1.9616814E0,3.6836624E0,4.1458354E0,3.737821E0,2.3508744E0,2.585343E0,1.9587817E0,3.8046613E0,1.3036733E0,7.063502E0,5.0309057E0,0E0,0E0,0E0,0E0,0E0,0E0,0E0,0E0,0E0,0E0,0E0,0E0,0E0,0E0,0E0,0E0],"parents":[2147483647,0,0,1,1,2,2,3,3,4,4,5,5,6,6,7,7,8,8,9,9,10,10,11,11,12,12,13,13,14,14],"right_children":[2,4,6,8,10,12,14,16,18,20,22,24,26,28,30,-1,-1,-1,-1,-1,-1,-1,-1,-1,-1,-1,-1,-1,-1,-1,-1],"split_conditions":[-1.2E1,-1.2692E4,-6.1814E0,-1.5E1,1.259E-1,3.141E3,1.149E3,-2.1E1,-1.3755E4,-2.2083E0,5.2653E0,1.0822E4,1.7E1,1E0,1.7E1,1.885148E-2,-2.2098636E-2,2.3853414E-2,-3.1036953E-2,2.408981E-2,-2.8103108E-2,5.4408975E-2,1.3447239E-2,-2.8723553E-2,2.0069243E-2,-1.8329195E-3,5.0656926E-2,4.8017353E-3,-1.8563854E-2,-3.9780085E-4,1.4775783E-2],"split_indices":[2,5,6,2,6,1,1,2,5,6,6,5,0,2,0,0,0,0,0,0,0,0,0,0,0,0,0,0,0,0,0],"split_type":[0,0,0,0,0,0,0,0,0,0,0,0,0,0,0,0,0,0,0,0,0,0,0,0,0,0,0,0,0,0,0],"sum_hessian":[5.1205316E2,5.7862427E1,4.541907E2,3.6561638E1,2.1300793E1,3.8066616E1,4.1612408E2,2.174784E1,1.4813795E1,8.426084E0,1.2874709E1,3.446223E1,3.6043851E0,1.2793051E2,2.8819357E2,8.0403385E0,1.3707502E1,1.3435365E1,1.3784307E0,5.731517E0,2.6945665E0,6.867012E0,6.007697E0,3.060714E1,3.8550909E0,2.1745136E0,1.4298717E0,6.1697136E1,6.6233376E1,2.16109E2,7.208459E1],"tree_param":{"num_deleted":"0","num_feature":"9","num_nodes":"31","size_leaf_vector":"1"}},{"base_weights":[2.0412626E-3,1.4919536E-1,-4.5614544E-2,4.463193E-1,7.438439E-2,-5.8767945E-2,6.766745E-1,5.7813454E-1,-1.7374077E-1,-4.9441304E-2,1.0268113E-1,-1.3082287E-1,6.514456E-2,9.040637E-1,-5.0208657E-3,4.5222938E-2,1.8578773E-2,-2.9327963E-2,1.0275408E-2,6.309087E-3,-4.3722592E-2,-8.67807E-3,1.6581558E-2,1.7647218E-2,-4.719037E-3,-3.638206E-3,6.334119E-2],"categories":[],"categories_nodes":[],"categories_segments":[],"categories_sizes":[],"default_left":[0,0,0,0,0,0,0,0,0,0,0,0,0,0,0,0,0,0,0,0,0,0,0,0,0,0,0],"id":43,"left_children":[1,3,5,7,9,11,13,15,17,-1,19,21,23,25,-1,-1,-1,-1,-1,-1,-1,-1,-1,-1,-1,-1,-1],"loss_changes":[3.6003957E0,2.758436E0,3.7245257E0,2.1487818E0,3.1560717E0,3.4176955E0,1.3306248E0,1.0726042E0,9.2879415E-1,0E0,2.402133E0,4.8360105E0,6.5096602E0,2.0511022E0,0E0,0E0,0E0,0E0,0E0,0E0,0E0,0E0,0E0,0E0,0E0,0E0,0E0],"parents":[2147483647,0,0,1,1,2,2,3,3,4,4,5,5,6,6,7,7,8,8,10,10,11,11,12,12,13,13],"right_children":[2,4,6,8,10,12,14,16,18,-1,20,22,24,26,-1,-1,-1,-1,-1,-1,-1,-1,-1,-1,-1,-1,-1],"split_conditions":[8E0,2.26E-2,3.424E3,7.3933E0,2.39E-2,6.57E-2,4.703E-1,3E0,-3E0,-4.9441304E-2,3.322E3,2E1,4.171E-1,1.3E1,-5.0208657E-3,4.5222938E-2,1.8578773E-2,-2.9327963E-2,1.0275408E-2,6.309087E-3,-4.3722592E-2,-8.67807E-3,1.6581558E-2,1.7647218E-2,-4.719037E-3,-3.638206E-3,6.334119E-2],"split_indices":[0,7,1,6,7,7,8,3,2,0,1,0,8,0,0,0,0,0,0,0,0,0,0,0,0,0,0],"split_type":[0,0,0,0,0,0,0,0,0,0,0,0,0,0,0,0,0,0,0,0,0,0,0,0,0,0,0],"sum_hessian":[5.114369E2,1.24590164E2,3.868467E2,2.4061203E1,1.0052896E2,3.8083017E2,6.0165515E0,1.9898668E1,4.1625347E0,1.7261567E0,9.88028E1,2.407681E2,1.4006206E2,4.52815E0,1.4884013E0,6.4035616E0,1.3495108E1,1.7313255E0,2.4312093E0,9.733276E1,1.4700431E0,2.2097133E2,1.9796774E1,4.951661E1,9.054544E1,1.4427035E0,3.0854468E0],"tree_param":{"num_deleted":"0","num_feature":"9","num_nodes":"27","size_leaf_vector":"1"}},{"base_weights":[2.0157564E-3,6.0588133E-1,-9.2379255E-3,1.6445278E-1,5.183059E-2,-3.1334835E-1,1.1279277E-2,3.8500827E-2,-4.678085E-2,8.3414376E-2,-8.2019234E-1,1.573377E-1,-3.4512483E-2,-9.325153E-3,3.654E-2,-4.77099E-2,1.8559374E-3,1.8448642E-2,1.0843825E-3,-3.0074845E-4,-1.8231623E-2],"categories":[],"categories_nodes":[],"categories_segments":[],"categories_sizes":[],"default_left":[0,0,0,0,0,0,0,0,0,0,0,0,0,0,0,0,0,0,0,0,0],"id":44,"left_children":[1,3,5,7,-1,9,11,-1,-1,13,15,17,19,-1,-1,-1,-1,-1,-1,-1,-1],"loss_changes":[3.4852366E0,1.6135323E0,3.1460676E0,4.5990973E0,0E0,6.4767036E0,3.167546E0,0E0,0E0,3.418293E0,1.6535196E0,3.236801E0,3.391678E0,0E0,0E0,0E0,0E0,0E0,0E0,0E0,0E0],"parents":[2147483647,0,0,1,1,2,2,3,3,5,5,6,6,9,9,10,10,11,11,12,12],"right_children":[2,4,6,8,-1,10,12,-1,-1,14,16,18,20,-1,-1,-1,-1,-1,-1,-1,-1],"split_conditions":[1E0,3.48E2,2.19E2,-2E0,5.183059E-2,-2E0,3E0,3.8500827E-2,-4.678085E-2,-3.3E2,7.7236E0,-5.1E2,1.2E1,-9.325153E-3,3.654E-2,-4.77099E-2,1.8559374E-3,1.8448642E-2,1.0843825E-3,-3.0074845E-4,-1.8231623E-2],"split_indices":[3,1,1,2,0,2,3,0,0,5,6,5,2,0,0,0,0,0,0,0,0],"split_type":[0,0,0,0,0,0,0,0,0,0,0,0,0,0,0,0,0,0,0,0,0],"sum_hessian":[5.110346E2,8.382754E0,5.0265186E2,4.822389E0,3.5603647E0,3.0866686E1,4.7178516E2,3.3037682E0,1.5186211E0,1.7782099E1,1.3084587E1,1.1202662E2,3.5975854E2,1.3052129E1,4.72997E0,1.1218084E1,1.8665032E0,4.30859E1,6.894072E1,3.3210767E2,2.7650879E1],"tree_param":{"num_deleted":"0","num_feature":"9","num_nodes":"21","size_leaf_vector":"1"}},{"base_weights":[1.968025E-3,7.551407E-1,-6.539948E-3,1.0128995E-2,4.5459613E-2,-3.9497256E-1,1.85923E-2,3.84653E-1,-6.329298E-1,4.164918E-1,-2.227601E-3,5.5395193E-2,-8.33603E-3,-5.124841E-3,-4.7705688E-2,3.379266E-2,-1.0079765E-3,8.5565675E-4,-1.8152699E-2],"categories":[],"categories_nodes":[],"categories_segments":[],"categories_sizes":[],"default_left":[0,0,0,0,0,0,0,0,0,0,0,0,0,0,0,0,0,0,0],"id":45,"left_children":[1,3,5,-1,-1,7,9,11,13,15,17,-1,-1,-1,-1,-1,-1,-1,-1],"loss_changes":[3.282235E0,3.0283546E-1,4.954028E0,0E0,0E0,5.9644785E0,3.9515176E0,3.3085093E0,3.9918213E0,2.699606E0,3.1756613E0,0E0,0E0,0E0,0E0,0E0,0E0,0E0,0E0],"parents":[2147483647,0,0,1,1,2,2,5,5,6,6,7,7,8,8,9,9,10,10],"right_children":[2,4,6,-1,-1,8,10,12,14,16,18,-1,-1,-1,-1,-1,-1,-1,-1],"split_conditions":[4.3E1,1.963E-1,2.19E2,1.0128995E-2,4.5459613E-2,-1.122E3,2E0,3.75E-2,9E0,1.868E3,8.2333E0,5.5395193E-2,-8.33603E-3,-5.124841E-3,-4.7705688E-2,3.379266E-2,-1.0079765E-3,8.5565675E-4,-1.8152699E-2],"split_indices":[1,8,1,0,0,5,3,7,0,1,6,0,0,0,0,0,0,0,0],"split_type":[0,0,0,0,0,0,0,0,0,0,0,0,0,0,0,0,0,0,0],"sum_hessian":[5.104404E2,4.7213755E0,5.0571902E2,1.5340331E0,3.1873426E0,2.9838163E1,4.7588086E2,6.833361E0,2.30048E1,2.271717E1,4.531637E2,2.519334E0,4.3140273E0,9.173672E0,1.383113E1,1.39081955E1,8.808974E0,4.3101343E2,2.2150276E1],"tree_param":{"num_deleted":"0","num_feature":"9","num_nodes":"19","size_leaf_vector":"1"}},{"base_weights":[2.0001328E-3,2.2300743E-1,-2.646286E-2,-1.2701255E-1,3.5435623E-1,-2.8957212E-1,8.06097E-3,4.1442227E-1,-4.0496832E-1,2.7342987E-1,4.3891415E-2,-3.9002192E-1,5.887951E-1,3.381141E-1,-3.375576E-2,3.842872E-2,-3.150342E-2,1.3914156E-2,-2.821751E-2,2.3026256E-2,-8.327506E-3,-2.3353491E-2,3.3107948E-2,-3.9615477E-3,5.88548E-2,3.458618E-2,4.9852375E-3,-9.401379E-3,1.2660753E-3],"categories":[],"categories_nodes":[],"categories_segments":[],"categories_sizes":[],"default_left":[0,0,0,0,0,0,0,0,0,0,0,0,0,0,0,0,0,0,0,0,0,0,0,0,0,0,0,0,0],"id":46,"left_children":[1,3,5,7,9,11,13,15,17,19,-1,21,23,25,27,-1,-1,-1,-1,-1,-1,-1,-1,-1,-1,-1,-1,-1,-1],"loss_changes":[3.2198186E0,2.7298434E0,4.1218596E0,2.676722E0,1.5700135E0,4.873499E0,5.5581E0,2.7589688E0,1.4117231E0,3.2425387E0,0E0,4.1869855E0,2.3725846E0,3.7485175E0,3.2639174E0,0E0,0E0,0E0,0E0,0E0,0E0,0E0,0E0,0E0,0E0,0E0,0E0,0E0,0E0],"parents":[2147483647,0,0,1,1,2,2,3,3,4,4,5,5,6,6,7,7,8,8,9,9,11,11,12,12,13,13,14,14],"right_children":[2,4,6,8,10,12,14,16,18,20,-1,22,24,26,28,-1,-1,-1,-1,-1,-1,-1,-1,-1,-1,-1,-1,-1,-1],"split_conditions":[-1.2E1,-2.6767E4,-4.8291E0,2.92E-2,1.447E3,3.141E3,-3.039E0,-3.0998E4,7E0,9.2E2,4.3891415E-2,1.8768E4,1.7E1,1.1E1,1.011E3,3.842872E-2,-3.150342E-2,1.3914156E-2,-2.821751E-2,2.3026256E-2,-8.327506E-3,-2.3353491E-2,3.3107948E-2,-3.9615477E-3,5.88548E-2,3.458618E-2,4.9852375E-3,-9.401379E-3,1.2660753E-3],"split_indices":[2,5,6,7,1,1,6,5,0,1,0,5,0,0,1,0,0,0,0,0,0,0,0,0,0,0,0,0,0],"split_type":[0,0,0,0,0,0,0,0,0,0,0,0,0,0,0,0,0,0,0,0,0,0,0,0,0,0,0,0,0],"sum_hessian":[5.099136E2,5.739811E1,4.525155E2,1.5670958E1,4.1727154E1,5.1632435E1,4.008831E2,5.149396E0,1.0521562E1,3.745857E1,4.268584E0,4.6832638E1,4.799797E0,4.4282486E1,3.566006E2,4.042785E0,1.1066108E0,1.8490187E0,8.672543E0,2.6249603E1,1.1208966E1,4.4155373E1,2.6772645E0,2.6528084E0,2.1469884E0,1.70671E1,2.7215385E1,9.813981E1,2.584608E2],"tree_param":{"num_deleted":"0","num_feature":"9","num_nodes":"29","size_leaf_vector":"1"}},{"base_weights":[2.2031793E-3,7.4046457E-1,-6.059644E-3,1.0052118E-2,4.4567224E-2,-3.7476182E-1,1.7581386E-2,-3.3821605E-2,-8.967796E-1,1.7279753E-1,-3.281039E-2,2.1029897E-2,-1.850204E-2,-5.454087E-2,-1.9494903E-3,1.9090349E-2,1.9387801E-3,-2.7637868E-4,-1.7478684E-2],"categories":[],"categories_nodes":[],"categories_segments":[],"categories_sizes":[],"default_left":[0,0,0,0,0,0,0,0,0,0,0,0,0,0,0,0,0,0,0],"id":47,"left_children":[1,3,5,-1,-1,7,9,11,13,15,17,-1,-1,-1,-1,-1,-1,-1,-1],"loss_changes":[3.11762E0,2.8119397E-1,4.414371E0,0E0,0E0,5.4006724E0,3.730069E0,3.1346872E0,1.9575996E0,3.2587132E0,3.1118982E0,0E0,0E0,0E0,0E0,0E0,0E0,0E0,0E0],"parents":[2147483647,0,0,1,1,2,2,5,5,6,6,7,7,8,8,9,9,10,10],"right_children":[2,4,6,-1,-1,8,10,12,14,16,18,-1,-1,-1,-1,-1,-1,-1,-1],"split_conditions":[4.3E1,1.963E-1,2.19E2,1.0052118E-2,4.4567224E-2,-9E1,3E0,9E0,2.202E3,-5.1E2,1.2E1,2.1029897E-2,-1.850204E-2,-5.454087E-2,-1.9494903E-3,1.9090349E-2,1.9387801E-3,-2.7637868E-4,-1.7478684E-2],"split_indices":[1,8,1,0,0,5,3,0,5,5,2,0,0,0,0,0,0,0,0],"split_type":[0,0,0,0,0,0,0,0,0,0,0,0,0,0,0,0,0,0,0],"sum_hessian":[5.093394E2,4.6567545E0,5.0468265E2,1.52764E0,3.1291144E0,2.951522E1,4.7516742E2,1.8498362E1,1.1016859E1,1.158619E2,3.593055E2,7.7597075E0,1.0738653E1,8.762959E0,2.2539005E0,4.4544758E1,7.131715E1,3.317494E2,2.755612E1],"tree_param":{"num_deleted":"0","num_feature":"9","num_nodes":"19","size_leaf_vector":"1"}},{"base_weights":[2.098222E-3,5.827831E-1,-8.312442E-3,1.5292536E-1,5.0135233E-2,-8.1796664E-1,-1.0900316E-3,7.4353635E-1,-4.5024782E-2,-5.5219352E-2,-4.34055E-4,1.3793722E-1,-4.5304693E-2,1.2082851E-2,4.218333E-2,1.3499953E-2,-1.887083E-3,-1.1626324E-3,-2.3618296E-2],"categories":[],"categories_nodes":[],"categories_segments":[],"categories_sizes":[],"default_left":[0,0,0,0,0,0,0,0,0,0,0,0,0,0,0,0,0,0,0],"id":48,"left_children":[1,3,5,7,-1,9,11,13,-1,-1,-1,15,17,-1,-1,-1,-1,-1,-1],"loss_changes":[3.0869672E0,1.4700563E0,2.9337134E0,4.1686883E0,0E0,1.0185916E0,3.0699801E0,4.745722E-3,0E0,0E0,0E0,2.8060458E0,3.557323E0,0E0,0E0,0E0,0E0,0E0,0E0],"parents":[2147483647,0,0,1,1,2,2,3,3,5,5,6,6,7,7,11,11,12,12],"right_children":[2,4,6,8,-1,10,12,14,-1,-1,-1,16,18,-1,-1,-1,-1,-1,-1],"split_conditions":[1E0,3.48E2,-1.35416E1,-2E0,5.0135233E-2,-1E0,8E0,-6.28E2,-4.5024782E-2,-5.5219352E-2,-4.34055E-4,1.942E3,8.2333E0,1.2082851E-2,4.218333E-2,1.3499953E-2,-1.887083E-3,-1.1626324E-3,-2.3618296E-2],"split_indices":[3,1,6,2,0,2,0,5,0,0,0,1,6,0,0,0,0,0,0],"split_type":[0,0,0,0,0,0,0,0,0,0,0,0,0,0,0,0,0,0,0],"sum_hessian":[5.088366E2,7.993555E0,5.0084305E2,4.624157E0,3.369398E0,3.4357085E0,4.9740735E2,3.1514401E0,1.4727166E0,2.2682798E0,1.1674287E0,1.19508545E2,3.778988E2,1.0919123E0,2.0595279E0,6.791694E1,5.159161E1,3.6034616E2,1.7552649E1],"tree_param":{"num_deleted":"0","num_feature":"9","num_nodes":"19","size_leaf_vector":"1"}},{"base_weights":[1.981451E-3,5.717407E-1,-8.039803E-3,1.4922175E-1,4.9279857E-2,-1.4280363E-2,4.596513E-2,7.301457E-1,-4.4106316E-2,-4.7682475E-2,-6.3880063E-3,1.18080545E-2,4.1491468E-2,6.56772E-3,-2.518304E-3],"categories":[],"categories_nodes":[],"categories_segments":[],"categories_sizes":[],"default_left":[0,0,0,0,0,0,0,0,0,0,0,0,0,0,0],"id":49,"left_children":[1,3,5,7,-1,9,-1,11,-1,-1,13,-1,-1,-1,-1],"loss_changes":[2.9128902E0,1.3948503E0,2.9156196E0,3.9643161E0,0E0,3.6947038E0,0E0,5.530119E-3,0E0,0E0,3.0113404E0,0E0,0E0,0E0,0E0],"parents":[2147483647,0,0,1,1,2,2,3,3,5,5,7,7,10,10],"right_children":[2,4,6,8,-1,10,-1,12,-1,-1,14,-1,-1,-1,-1],"split_conditions":[1E0,3.48E2,3.466E3,-2E0,4.9279857E-2,-1.35416E1,4.596513E-2,-6.28E2,-4.4106316E-2,-4.7682475E-2,8E0,1.18080545E-2,4.1491468E-2,6.56772E-3,-2.518304E-3],"split_indices":[3,1,1,2,0,6,0,5,0,0,0,0,0,0,0],"split_type":[0,0,0,0,0,0,0,0,0,0,0,0,0,0,0],"sum_hessian":[5.0835995E2,7.817932E0,5.0054202E2,4.541716E0,3.276216E0,4.9817413E2,2.367867E0,3.0920913E0,1.4496247E0,3.1522563E0,4.9502188E2,1.0849084E0,2.007183E0,1.1931915E2,3.7570273E2],"tree_param":{"num_deleted":"0","num_feature":"9","num_nodes":"15","size_leaf_vector":"1"}},{"base_weights":[2.0085506E-3,2.1013014E-1,-2.4644319E-2,-1.2739015E-1,3.374287E-1,-3.165813E-1,2.6607667E-3,3.9679718E-1,-3.94116E-1,4.8956662E-2,2.7040368E-1,-4.1224405E-1,4.8675025E-1,-6.036244E-2,1.2846544E-1,3.7023272E-2,-3.0509848E-2,7.25405E-3,-2.9754965E-2,-1.5959851E-2,1.9341715E-2,-2.4643283E-2,3.219252E-2,-1.2545584E-3,4.8035797E-2,3.6920705E-3,-9.563279E-3,1.7322997E-2,-1.0157438E-3],"categories":[],"categories_nodes":[],"categories_segments":[],"categories_sizes":[],"default_left":[0,0,0,0,0,0,0,0,0,0,0,0,0,0,0,0,0,0,0,0,0,0,0,0,0,0,0,0,0],"id":50,"left_children":[1,3,5,7,9,11,13,15,17,-1,19,21,23,25,27,-1,-1,-1,-1,-1,-1,-1,-1,-1,-1,-1,-1,-1,-1],"loss_changes":[2.8285093E0,2.5301542E0,3.6046386E0,2.474409E0,1.5549083E0,3.1728883E0,3.293503E0,2.5592265E0,1.3314861E0,0E0,2.847981E0,3.306068E0,1.1337693E0,4.8765326E0,4.5034385E0,0E0,0E0,0E0,0E0,0E0,0E0,0E0,0E0,0E0,0E0,0E0,0E0,0E0,0E0],"parents":[2147483647,0,0,1,1,2,2,3,3,4,4,5,5,6,6,7,7,8,8,10,10,11,11,12,12,13,13,14,14],"right_children":[2,4,6,8,10,12,14,16,18,-1,20,22,24,26,28,-1,-1,-1,-1,-1,-1,-1,-1,-1,-1,-1,-1,-1,-1],"split_conditions":[-1.2E1,-2.6767E4,-6.1814E0,2.92E-2,6.2E-3,3.141E3,6.57E-2,-3.0998E4,3E0,4.8956662E-2,1.25E-1,1.8768E4,1.7E1,2.2124E0,4.179E-1,3.7023272E-2,-3.0509848E-2,7.25405E-3,-2.9754965E-2,-1.5959851E-2,1.9341715E-2,-2.4643283E-2,3.219252E-2,-1.2545584E-3,4.8035797E-2,3.6920705E-3,-9.563279E-3,1.7322997E-2,-1.0157438E-3],"split_indices":[2,5,6,7,7,1,7,5,4,0,8,5,0,6,8,0,0,0,0,0,0,0,0,0,0,0,0,0,0],"split_type":[0,0,0,0,0,0,0,0,0,0,0,0,0,0,0,0,0,0,0,0,0,0,0,0,0,0,0,0,0],"sum_hessian":[5.079799E2,5.6887127E1,4.5109277E2,1.5579311E1,4.1307816E1,3.767627E1,4.134165E2,5.089476E0,1.0489836E1,2.6195445E0,3.8688274E1,3.4102135E1,3.5741355E0,2.7578116E2,1.3763535E2,3.99182E0,1.097656E0,2.92386E0,7.565975E0,6.092837E0,3.2595436E1,3.217893E1,1.9232068E0,2.1737437E0,1.4003918E0,1.36389E2,1.3939214E2,5.5292103E1,8.234324E1],"tree_param":{"num_deleted":"0","num_feature":"9","num_nodes":"29","size_leaf_vector":"1"}},{"base_weights":[2.1178196E-3,7.0863E-1,-5.6078807E-3,2.6612124E-1,4.7651883E-2,-3.6090744E-1,1.6960124E-2,-5.839797E-3,2.4561409E-2,3.6968294E-1,-5.865039E-1,3.861743E-1,-2.0163793E-3,5.4594923E-2,-8.746888E-3,-4.516101E-3,-4.463157E-2,3.1933855E-2,