{"learner":{"attributes":{"best_iteration":"34","best_score":"0.6844194961918725","scikit_learn":"{\"_estimator_type\": \"classifier\"}"},"feature_names":["yardline_100","game_seconds_remaining","score_differential","timeouts_pos","timeouts_def","leverage","cpoe_by_filter","target_share_by_filter","carry_share_by_filter"],"feature_types":["float","float","float","float","float","float","float","float","float"],"gradient_booster":{"model":{"gbtree_model_param":{"num_parallel_tree":"1","num_trees":"65"},"iteration_indptr":[0,1,2,3,4,5,6,7,8,9,10,11,12,13,14,15,16,17,18,19,20,21,22,23,24,25,26,27,28,29,30,31,32,33,34,35,36,37,38,39,40,41,42,43,44,45,46,47,48,49,50,51,52,53,54,55,56,57,58,59,60,61,62,63,64,65],"tree_info":[0,0,0,0,0,0,0,0,0,0,0,0,0,0,0,0,0,0,0,0,0,0,0,0,0,0,0,0,0,0,0,0,0,0,0,0,0,0,0,0,0,0,0,0,0,0,0,0,0,0,0,0,0,0,0,0,0,0,0,0,0,0,0,0,0],"trees":[{"base_weights":[2.9379392E-2,6.4538854E-1,-3.8664824E-1,-2.1576475E-2,8.151901E-1,3.9008912E-1,-7.751541E-1,1.077453E0,-3.2937345E-3,-3.2776557E-2,8.271411E-1,-9.957944E-1,3.9385986E-2,5.7572454E-2,1.5682908E-2,-3.2776557E-2,3.9385986E-2,-8.020172E-3,5.6650426E-2,-6.896937E-2,2.05551E-2],"categories":[],"categories_nodes":[],"categories_segments":[],"categories_sizes":[],"default_left":[0,0,0,0,0,0,0,0,0,0,0,0,0,0,0,0,0,0,0,0,0],"id":0,"left_children":[1,3,5,-1,7,9,11,13,15,-1,17,19,-1,-1,-1,-1,-1,-1,-1,-1,-1],"loss_changes":[7.8413053E0,2.6039462E0,5.8268633E0,0E0,2.3615408E0,3.6356022E0,5.1079493E0,1.0919285E-1,2.4060318E0,0E0,1.7572219E0,6.73483E0,0E0,0E0,0E0,0E0,0E0,0E0,0E0,0E0,0E0],"parents":[2147483647,0,0,1,1,2,2,4,4,5,5,6,6,7,7,8,8,10,10,11,11],"right_children":[2,4,6,-1,8,10,12,14,16,-1,18,20,-1,-1,-1,-1,-1,-1,-1,-1,-1],"split_conditions":[-3.186E3,1.2E1,3E0,-2.1576475E-2,2.325E3,1.4E1,1.673E4,5.8457E0,2.69E3,-3.2776557E-2,-3.039E0,6.193E-1,3.9385986E-2,5.7572454E-2,1.5682908E-2,-3.2776557E-2,3.9385986E-2,-8.020172E-3,5.6650426E-2,-6.896937E-2,2.05551E-2],"split_indices":[5,0,3,0,1,0,5,6,1,0,6,8,0,0,0,0,0,0,0,0,0],"split_type":[0,0,0,0,0,0,0,0,0,0,0,0,0,0,0,0,0,0,0,0,0],"sum_hessian":[2.8623308E1,1.1316192E1,1.7307117E1,1.3313167E0,9.984875E0,5.769039E0,1.1538078E1,7.322242E0,2.6626334E0,1.5532027E0,4.215836E0,1.0428647E1,1.1094306E0,6.212811E0,1.1094306E0,1.5532027E0,1.1094306E0,1.1094306E0,3.1064055E0,8.209786E0,2.218861E0],"tree_param":{"num_deleted":"0","num_feature":"9","num_nodes":"21","size_leaf_vector":"1"}},{"base_weights":[3.0555686E-2,3.96954E-1,-6.2212116E-1,6.539016E-1,-4.9244303E-2,-1.1839986E0,2.3927401E-1,5.9985906E-2,2.3522061E-1,-6.8812364E-1,5.4461646E-1,-8.498988E-2,-5.59163E-1,-3.1403556E-2,6.3010365E-1,-2.5464082E-2,2.9571945E-2,-5.022713E-2,5.3794053E-4,5.2408326E-2,-2.1213057E-2,2.650177E-2,-6.486877E-2,-8.292795E-3,4.9096968E-2],"categories":[],"categories_nodes":[],"categories_segments":[],"categories_sizes":[],"default_left":[0,0,0,0,0,0,0,0,0,0,0,0,0,0,0,0,0,0,0,0,0,0,0,0,0],"id":1,"left_children":[1,3,5,7,9,11,13,-1,15,17,19,-1,21,-1,23,-1,-1,-1,-1,-1,-1,-1,-1,-1,-1],"loss_changes":[7.3296733E0,2.2769587E0,5.625773E0,2.5730948E0,3.4421592E0,1.2567911E0,2.154918E0,0E0,2.5062964E0,9.69789E-1,2.7612414E0,0E0,4.37605E0,0E0,1.3045241E0,0E0,0E0,0E0,0E0,0E0,0E0,0E0,0E0,0E0,0E0],"parents":[2147483647,0,0,1,1,2,2,3,3,4,4,5,5,6,6,8,8,9,9,10,10,12,12,14,14],"right_children":[2,4,6,8,10,12,14,-1,16,18,20,-1,22,-1,24,-1,-1,-1,-1,-1,-1,-1,-1,-1,-1],"split_conditions":[1E0,6.91E-2,8.799E3,6.054E-1,-1.8603E0,4.873E3,-2.2083E0,5.9985906E-2,1.53E-2,-1.694E3,4.703E-1,-8.498988E-2,7.11E3,-3.1403556E-2,2.879E-1,-2.5464082E-2,2.9571945E-2,-5.022713E-2,5.3794053E-4,5.2408326E-2,-2.1213057E-2,2.650177E-2,-6.486877E-2,-8.292795E-3,4.9096968E-2],"split_indices":[2,7,5,6,6,5,6,0,7,5,8,0,5,0,8,0,0,0,0,0,0,0,0,0,0],"split_type":[0,0,0,0,0,0,0,0,0,0,0,0,0,0,0,0,0,0,0,0,0,0,0,0,0],"sum_hessian":[2.8617498E1,1.8579298E1,1.00382E1,1.14945545E1,7.0847445E0,5.8486714E0,4.189529E0,4.1799107E0,7.3146434E0,3.336542E0,3.7482028E0,2.2614567E0,3.587215E0,1.1128427E0,3.0766861E0,2.228128E0,5.0865154E0,1.9956541E0,1.3408878E0,2.41252E0,1.335683E0,1.5630332E0,2.0241816E0,1.1051342E0,1.9715519E0],"tree_param":{"num_deleted":"0","num_feature":"9","num_nodes":"25","size_leaf_vector":"1"}},{"base_weights":[2.7139759E-2,6.08849E-1,-3.5616237E-1,-2.1288788E-2,7.765699E-1,3.666279E-1,-7.0814234E-1,1.0369647E0,-1.7836235E-2,-3.177582E-2,7.962333E-1,-9.108795E-1,3.8232815E-2,1.454058E-2,5.5558946E-2,-3.197313E-2,3.7874274E-2,-7.1204244E-3,5.469377E-2,-6.289437E-2,1.9930346E-2],"categories":[],"categories_nodes":[],"categories_segments":[],"categories_sizes":[],"default_left":[0,0,0,0,0,0,0,0,0,0,0,0,0,0,0,0,0,0,0,0,0],"id":2,"left_children":[1,3,5,-1,7,9,11,13,15,-1,17,19,-1,-1,-1,-1,-1,-1,-1,-1,-1],"loss_changes":[6.806536E0,2.431715E0,4.952465E0,0E0,2.2470045E0,3.390489E0,4.5024333E0,1.2708282E-1,2.239972E0,0E0,1.5899436E0,5.799897E0,0E0,0E0,0E0,0E0,0E0,0E0,0E0,0E0,0E0],"parents":[2147483647,0,0,1,1,2,2,4,4,5,5,6,6,7,7,8,8,10,10,11,11],"right_children":[2,4,6,-1,8,10,12,14,16,-1,18,20,-1,-1,-1,-1,-1,-1,-1,-1,-1],"split_conditions":[-3.186E3,1.2E1,3E0,-2.1288788E-2,2.325E3,1.4E1,1.673E4,1.13E-2,2.69E3,-3.177582E-2,-3.039E0,6.193E-1,3.8232815E-2,1.454058E-2,5.5558946E-2,-3.197313E-2,3.7874274E-2,-7.1204244E-3,5.469377E-2,-6.289437E-2,1.9930346E-2],"split_indices":[5,0,3,0,1,0,5,7,1,0,6,8,0,0,0,0,0,0,0,0,0],"split_type":[0,0,0,0,0,0,0,0,0,0,0,0,0,0,0,0,0,0,0,0,0],"sum_hessian":[2.855409E1,1.1107949E1,1.744614E1,1.3348745E0,9.773075E0,5.699864E0,1.1746277E1,7.130476E0,2.642599E0,1.5664618E0,4.1334023E0,1.0660363E1,1.085914E0,1.0900099E0,6.040466E0,1.5639261E0,1.078673E0,1.1207039E0,3.0126982E0,8.458344E0,2.2020185E0],"tree_param":{"num_deleted":"0","num_feature":"9","num_nodes":"21","size_leaf_vector":"1"}},{"base_weights":[2.8438604E-2,3.769114E-1,-5.8067447E-1,6.27913E-1,-5.3923983E-2,-1.0849954E0,2.1836545E-1,5.8239967E-2,2.2329433E-1,-6.529639E-1,5.1721203E-1,-7.795012E-2,-5.0916326E-1,-3.0128509E-2,5.9896827E-1,-2.37827E-2,2.8236961E-2,-4.807338E-2,1.1306136E-3,5.063128E-2,-2.0418955E-2,2.6337067E-2,-6.014061E-2,-9.0793045E-3,4.763853E-2],"categories":[],"categories_nodes":[],"categories_segments":[],"categories_sizes":[],"default_left":[0,0,0,0,0,0,0,0,0,0,0,0,0,0,0,0,0,0,0,0,0,0,0,0,0],"id":3,"left_children":[1,3,5,7,9,11,13,-1,15,17,19,-1,21,-1,23,-1,-1,-1,-1,-1,-1,-1,-1,-1,-1],"loss_changes":[6.481682E0,2.1290386E0,4.7223663E0,2.4165406E0,3.0929906E0,1.1145191E0,1.966738E0,0E0,2.2406917E0,9.330646E-1,2.5598383E0,0E0,3.9688578E0,0E0,1.2812339E0,0E0,0E0,0E0,0E0,0E0,0E0,0E0,0E0,0E0,0E0],"parents":[2147483647,0,0,1,1,2,2,3,3,4,4,5,5,6,6,8,8,9,9,10,10,12,12,14,14],"right_children":[2,4,6,8,10,12,14,-1,16,18,20,-1,22,-1,24,-1,-1,-1,-1,-1,-1,-1,-1,-1,-1],"split_conditions":[1E0,6.91E-2,8.799E3,6.054E-1,-1.8603E0,4.873E3,-2.2083E0,5.8239967E-2,1.53E-2,-1.694E3,4.703E-1,-7.795012E-2,7.11E3,-3.0128509E-2,2.024E3,-2.37827E-2,2.8236961E-2,-4.807338E-2,1.1306136E-3,5.063128E-2,-2.0418955E-2,2.6337067E-2,-6.014061E-2,-9.0793045E-3,4.763853E-2],"split_indices":[2,7,5,6,6,5,6,0,7,5,8,0,5,0,1,0,0,0,0,0,0,0,0,0,0],"split_type":[0,0,0,0,0,0,0,0,0,0,0,0,0,0,0,0,0,0,0,0,0,0,0,0,0],"sum_hessian":[2.8505507E1,1.8374622E1,1.0130884E1,1.1321415E1,7.0532064E0,5.991453E0,4.1394315E0,4.05805E0,7.263365E0,3.3725803E0,3.6806262E0,2.3497896E0,3.6416636E0,1.1264825E0,3.012949E0,2.2547529E0,5.008612E0,2.0247781E0,1.3478022E0,2.3361783E0,1.3444477E0,1.5570167E0,2.084647E0,1.091548E0,1.921401E0],"tree_param":{"num_deleted":"0","num_feature":"9","num_nodes":"25","size_leaf_vector":"1"}},{"base_weights":[2.5472859E-2,3.6324775E-1,-5.586407E-1,6.0811317E-1,-5.3117875E-2,-7.192317E-2,-9.114325E-2,5.6958556E-2,2.1367508E-1,-6.267321E-1,5.02111E-1,-4.8227087E-2,2.58295E-1,-2.2841588E-2,2.7297502E-2,-4.60043E-2,1.0983939E-3,4.9563263E-2,-1.9758884E-2,-2.0297281E-2,4.138302E-2],"categories":[],"categories_nodes":[],"categories_segments":[],"categories_sizes":[],"default_left":[0,0,0,0,0,0,0,0,0,0,0,0,0,0,0,0,0,0,0,0,0],"id":4,"left_children":[1,3,5,7,9,-1,11,-1,13,15,17,-1,19,-1,-1,-1,-1,-1,-1,-1,-1],"loss_changes":[6.0053787E0,1.993885E0,4.463072E0,2.3111525E0,2.87678E0,0E0,2.8010604E0,0E0,2.082703E0,8.578255E-1,2.4295936E0,0E0,2.8929272E0,0E0,0E0,0E0,0E0,0E0,0E0,0E0,0E0],"parents":[2147483647,0,0,1,1,2,2,3,3,4,4,6,6,8,8,9,9,10,10,12,12],"right_children":[2,4,6,8,10,-1,12,-1,14,16,18,-1,20,-1,-1,-1,-1,-1,-1,-1,-1],"split_conditions":[1E0,6.91E-2,9.42E2,6.054E-1,-1.8603E0,-7.192317E-2,-4.8291E0,5.6958556E-2,1.53E-2,-1.694E3,4.703E-1,-4.8227087E-2,8.493E3,-2.2841588E-2,2.7297502E-2,-4.60043E-2,1.0983939E-3,4.9563263E-2,-1.9758884E-2,-2.0297281E-2,4.138302E-2],"split_indices":[2,7,1,6,6,0,6,0,7,5,8,0,5,0,0,0,0,0,0,0,0],"split_type":[0,0,0,0,0,0,0,0,0,0,0,0,0,0,0,0,0,0,0,0,0],"sum_hessian":[2.8409462E1,1.823997E1,1.0169492E1,1.1195404E1,7.0445657E0,2.8079784E0,7.3615136E0,3.966695E0,7.228709E0,3.401574E0,3.6429918E0,1.600615E0,5.7608986E0,2.271045E0,4.9576645E0,2.054251E0,1.347323E0,2.2899168E0,1.3530751E0,2.7913902E0,2.9695082E0],"tree_param":{"num_deleted":"0","num_feature":"9","num_nodes":"21","size_leaf_vector":"1"}},{"base_weights":[2.2783754E-2,5.620697E-1,-3.2189977E-1,-2.1371042E-2,7.288659E-1,-8.082952E-1,1.275586E-1,9.906933E-1,-4.606271E-2,3.962272E-2,-1.1331483E0,-4.5987654E-2,4.9115875E-1,1.3867895E-2,5.3139824E-2,-3.156617E-2,3.580257E-2,1.5161579E-2,-7.032941E-2,5.228737E-2,3.6277291E-3],"categories":[],"categories_nodes":[],"categories_segments":[],"categories_sizes":[],"default_left":[0,0,0,0,0,0,0,0,0,0,0,0,0,0,0,0,0,0,0,0,0],"id":5,"left_children":[1,3,5,-1,7,9,11,13,15,-1,17,-1,19,-1,-1,-1,-1,-1,-1,-1,-1],"loss_changes":[5.627838E0,2.2574158E0,4.1502604E0,0E0,2.1677475E0,5.5922613E0,4.4446173E0,1.096015E-1,2.0564258E0,0E0,3.535615E0,0E0,1.8823717E0,0E0,0E0,0E0,0E0,0E0,0E0,0E0,0E0],"parents":[2147483647,0,0,1,1,2,2,4,4,5,5,6,6,7,7,8,8,10,10,12,12],"right_children":[2,4,6,-1,8,10,12,14,16,-1,18,-1,20,-1,-1,-1,-1,-1,-1,-1,-1],"split_conditions":[-3.186E3,1.2E1,1.545E3,-2.1371042E-2,2.325E3,1.2E1,1.4E1,1.13E-2,2.69E3,3.962272E-2,2.34E2,-4.5987654E-2,2.334E3,1.3867895E-2,5.3139824E-2,-3.156617E-2,3.580257E-2,1.5161579E-2,-7.032941E-2,5.228737E-2,3.6277291E-3],"split_indices":[5,0,1,0,1,0,0,7,1,0,1,0,1,0,0,0,0,0,0,0,0],"split_type":[0,0,0,0,0,0,0,0,0,0,0,0,0,0,0,0,0,0,0,0,0],"sum_hessian":[2.8302887E1,1.0790138E1,1.7512749E1,1.3310971E0,9.459042E0,8.027339E0,9.485411E0,6.8620944E0,2.5969467E0,1.1113949E0,6.9159436E0,2.0502656E0,7.4351454E0,1.0748643E0,5.7872305E0,1.5659789E0,1.030968E0,1.0885959E0,5.8273478E0,2.553697E0,4.8814483E0],"tree_param":{"num_deleted":"0","num_feature":"9","num_nodes":"21","size_leaf_vector":"1"}},{"base_weights":[2.3552405E-2,5.442939E-1,-3.0509102E-1,-2.0676268E-2,7.086875E-1,-9.9746585E-1,-4.447035E-3,9.665677E-1,-4.243772E-2,-4.7843816E-4,-1.2942338E0,6.401436E-1,-3.7439448E-1,1.3545498E-2,5.188003E-2,-3.0415004E-2,3.517054E-2,-2.5606638E-2,-7.9149775E-2,5.503264E-2,-3.0631155E-2,-5.241219E-2,1.447716E-3],"categories":[],"categories_nodes":[],"categories_segments":[],"categories_sizes":[],"default_left":[0,0,0,0,0,0,0,0,0,0,0,0,0,0,0,0,0,0,0,0,0,0,0],"id":6,"left_children":[1,3,5,-1,7,9,11,13,15,-1,17,19,21,-1,-1,-1,-1,-1,-1,-1,-1,-1,-1],"loss_changes":[5.1669545E0,2.1299036E0,3.858123E0,0E0,2.040996E0,1.6333461E0,3.56444E0,1.0079384E-1,1.9459132E0,0E0,1.6250086E-1,3.8202252E0,2.6095183E0,0E0,0E0,0E0,0E0,0E0,0E0,0E0,0E0,0E0,0E0],"parents":[2147483647,0,0,1,1,2,2,4,4,5,5,6,6,7,7,8,8,10,10,11,11,12,12],"right_children":[2,4,6,-1,8,10,12,14,16,-1,18,20,22,-1,-1,-1,-1,-1,-1,-1,-1,-1,-1],"split_conditions":[-3.186E3,1.2E1,2.92E-2,-2.0676268E-2,2.325E3,-4.523E-1,3E0,1.13E-2,2.69E3,-4.7843816E-4,1.13E-2,1.048E-1,9.63E2,1.3545498E-2,5.188003E-2,-3.0415004E-2,3.517054E-2,-2.5606638E-2,-7.9149775E-2,5.503264E-2,-3.0631155E-2,-5.241219E-2,1.447716E-3],"split_indices":[5,0,7,0,1,6,3,7,1,0,7,7,1,0,0,0,0,0,0,0,0,0,0],"split_type":[0,0,0,0,0,0,0,0,0,0,0,0,0,0,0,0,0,0,0,0,0,0,0],"sum_hessian":[2.8221375E1,1.0665505E1,1.755587E1,1.3403957E0,9.3251095E0,4.6134524E0,1.2942418E1,6.7282915E0,2.5968182E0,1.304201E0,3.3092513E0,4.453079E0,8.489339E0,1.069366E0,5.6589255E0,1.5814319E0,1.0153862E0,1.6402469E0,1.6690043E0,3.344927E0,1.1081522E0,2.5800912E0,5.9092474E0],"tree_param":{"num_deleted":"0","num_feature":"9","num_nodes":"23","size_leaf_vector":"1"}},{"base_weights":[1.9923035E-2,3.3105606E-1,-5.033294E-1,5.751369E-1,-7.77884E-2,-6.800966E-2,-1.1009921E-1,5.478975E-2,1.9855075E-1,-6.142543E-1,4.6107775E-1,-4.607035E-2,2.0187554E-1,-2.0979611E-2,2.5646016E-2,-4.4383857E-2,4.020738E-4,4.7252286E-2,-1.9374957E-2,-3.6980823E-2,2.7782544E-2],"categories":[],"categories_nodes":[],"categories_segments":[],"categories_sizes":[],"default_left":[0,0,0,0,0,0,0,0,0,0,0,0,0,0,0,0,0,0,0,0,0],"id":7,"left_children":[1,3,5,7,9,-1,11,-1,13,15,17,-1,19,-1,-1,-1,-1,-1,-1,-1,-1],"loss_changes":[4.9027233E0,1.9254725E0,3.6390462E0,2.1197019E0,2.5745685E0,0E0,2.4122303E0,0E0,1.7967446E0,7.5592613E-1,2.224758E0,0E0,2.8001277E0,0E0,0E0,0E0,0E0,0E0,0E0,0E0,0E0],"parents":[2147483647,0,0,1,1,2,2,3,3,4,4,6,6,8,8,9,9,10,10,12,12],"right_children":[2,4,6,8,10,-1,12,-1,14,16,18,-1,20,-1,-1,-1,-1,-1,-1,-1,-1],"split_conditions":[1E0,6.91E-2,4.873E3,6.054E-1,-1.8603E0,-6.800966E-2,-4.8291E0,5.478975E-2,1.53E-2,-1.694E3,4.703E-1,-4.607035E-2,2.26E-2,-2.0979611E-2,2.5646016E-2,-4.4383857E-2,4.020738E-4,4.7252286E-2,-1.9374957E-2,-3.6980823E-2,2.7782544E-2],"split_indices":[2,7,5,6,6,0,6,0,7,5,8,0,7,0,0,0,0,0,0,0,0],"split_type":[0,0,0,0,0,0,0,0,0,0,0,0,0,0,0,0,0,0,0,0,0],"sum_hessian":[2.8091286E1,1.7846704E1,1.0244582E1,1.0920443E1,6.926261E0,2.4490285E0,7.795554E0,3.7818892E0,7.1385536E0,3.4007537E0,3.5255072E0,1.6225517E0,6.1730022E0,2.2937186E0,4.844835E0,2.0663779E0,1.3343759E0,2.172681E0,1.3528259E0,1.3881419E0,4.7848606E0],"tree_param":{"num_deleted":"0","num_feature":"9","num_nodes":"21","size_leaf_vector":"1"}},{"base_weights":[1.6499572E-2,5.15642E-1,-2.9277518E-1,-2.0354928E-2,6.7865235E-1,3.1914198E-1,-5.7461256E-1,9.3567115E-1,-5.277521E-2,-2.9174654E-2,7.3023635E-1,-7.513556E-1,3.6805682E-2,5.0305445E-2,1.301063E-2,-3.0560011E-2,2.2335742E-2,-5.7151043E-3,5.062892E-2,-5.2407425E-2,1.97548E-2],"categories":[],"categories_nodes":[],"categories_segments":[],"categories_sizes":[],"default_left":[0,0,0,0,0,0,0,0,0,0,0,0,0,0,0,0,0,0,0,0,0],"id":8,"left_children":[1,3,5,-1,7,9,11,13,15,-1,17,19,-1,-1,-1,-1,-1,-1,-1,-1,-1],"loss_changes":[4.620488E0,1.9968328E0,3.3763762E0,0E0,1.9473743E0,2.831066E0,3.5723424E0,9.61895E-2,1.269322E0,0E0,1.2834857E0,4.4901886E0,0E0,0E0,0E0,0E0,0E0,0E0,0E0,0E0,0E0],"parents":[2147483647,0,0,1,1,2,2,4,4,5,5,6,6,7,7,8,8,10,10,11,11],"right_children":[2,4,6,-1,8,10,12,14,16,-1,18,20,-1,-1,-1,-1,-1,-1,-1,-1,-1],"split_conditions":[-3.186E3,1.2E1,3E0,-2.0354928E-2,2.325E3,1.4E1,1.673E4,5.8457E0,9.537E-1,-2.9174654E-2,-3.039E0,6.193E-1,3.6805682E-2,5.0305445E-2,1.301063E-2,-3.0560011E-2,2.2335742E-2,-5.7151043E-3,5.062892E-2,-5.2407425E-2,1.97548E-2],"split_indices":[5,0,3,0,1,0,5,6,6,0,6,8,0,0,0,0,0,0,0,0,0],"split_type":[0,0,0,0,0,0,0,0,0,0,0,0,0,0,0,0,0,0,0,0,0],"sum_hessian":[2.7952898E1,1.0438619E1,1.751428E1,1.3424023E0,9.096216E0,5.4812293E0,1.2033051E1,6.5243597E0,2.5718563E0,1.5839671E0,3.8972623E0,1.0979322E1,1.0537277E0,5.464948E0,1.059412E0,1.1086962E0,1.46316E0,1.1255859E0,2.7716765E0,8.789616E0,2.1897068E0],"tree_param":{"num_deleted":"0","num_feature":"9","num_nodes":"21","size_leaf_vector":"1"}},{"base_weights":[1.7918594E-2,3.1550753E-1,-4.7615546E-1,5.533021E-1,-7.860229E-2,-8.009819E-1,3.302173E-1,5.347243E-2,1.8711719E-1,-5.85269E-1,4.417796E-1,-1.0082048E0,1.47981215E-2,-1.027542E-2,2.9834053E-2,3.5951268E-2,-8.722004E-3,-4.2646203E-2,8.884838E-4,4.5910496E-2,-1.8500475E-2,-6.3393675E-2,-1.1842962E-2],"categories":[],"categories_nodes":[],"categories_segments":[],"categories_sizes":[],"default_left":[0,0,0,0,0,0,0,0,0,0,0,0,0,0,0,0,0,0,0,0,0,0,0],"id":9,"left_children":[1,3,5,7,9,11,13,-1,15,17,19,21,-1,-1,-1,-1,-1,-1,-1,-1,-1,-1,-1],"loss_changes":[4.3894563E0,1.7862113E0,3.2077303E0,2.0154352E0,2.3344545E0,2.1855235E0,6.843095E-1,0E0,1.6772767E0,7.284757E-1,2.0623684E0,1.1437659E0,0E0,0E0,0E0,0E0,0E0,0E0,0E0,0E0,0E0,0E0,0E0],"parents":[2147483647,0,0,1,1,2,2,3,3,4,4,5,5,6,6,8,8,9,9,10,10,11,11],"right_children":[2,4,6,8,10,12,14,-1,16,18,20,22,-1,-1,-1,-1,-1,-1,-1,-1,-1,-1,-1],"split_conditions":[1E0,6.91E-2,1.4568E4,6.054E-1,-1.8603E0,6.232E-1,8E0,5.347243E-2,-7E0,-1.694E3,4.703E-1,1.545E3,1.47981215E-2,-1.027542E-2,2.9834053E-2,3.5951268E-2,-8.722004E-3,-4.2646203E-2,8.884838E-4,4.5910496E-2,-1.8500475E-2,-6.3393675E-2,-1.1842962E-2],"split_indices":[2,7,5,6,6,8,2,0,2,5,8,1,0,0,0,0,0,0,0,0,0,0,0],"split_type":[0,0,0,0,0,0,0,0,0,0,0,0,0,0,0,0,0,0,0,0,0,0,0],"sum_hessian":[2.7832193E1,1.7595531E1,1.0236662E1,1.0722159E1,6.8733716E0,7.3019466E0,2.934715E0,3.6528559E0,7.069304E0,3.4194012E0,3.4539707E0,6.209762E0,1.0921848E0,1.0508122E0,1.8839028E0,2.4606328E0,4.608671E0,2.0812664E0,1.3381346E0,2.0939562E0,1.3600144E0,4.1641955E0,2.0455663E0],"tree_param":{"num_deleted":"0","num_feature":"9","num_nodes":"23","size_leaf_vector":"1"}},{"base_weights":[1.8197998E-2,3.0578607E-1,-4.5544502E-1,5.3816193E-1,-7.6475054E-2,-5.778388E-2,-6.740696E-2,5.2446425E-2,1.8176754E-1,-5.627378E-1,4.298771E-1,-4.329018E-2,2.607899E-1,-1.98054E-2,2.4119189E-2,-4.0920954E-2,8.6320116E-4,4.5047592E-2,-1.7912118E-2,-1.5830917E-2,3.8590606E-2],"categories":[],"categories_nodes":[],"categories_segments":[],"categories_sizes":[],"default_left":[0,0,0,0,0,0,0,0,0,0,0,0,0,0,0,0,0,0,0,0,0],"id":10,"left_children":[1,3,5,7,9,-1,11,-1,13,15,17,-1,19,-1,-1,-1,-1,-1,-1,-1,-1],"loss_changes":[4.0495653E0,1.6809237E0,2.9781022E0,1.9218905E0,2.1759045E0,0E0,2.4003043E0,0E0,1.5886805E0,6.7255116E-1,1.9618158E0,0E0,2.2064672E0,0E0,0E0,0E0,0E0,0E0,0E0,0E0,0E0],"parents":[2147483647,0,0,1,1,2,2,3,3,4,4,6,6,8,8,9,9,10,10,12,12],"right_children":[2,4,6,8,10,-1,12,-1,14,16,18,-1,20,-1,-1,-1,-1,-1,-1,-1,-1],"split_conditions":[1E0,6.91E-2,9.42E2,6.054E-1,-1.8603E0,-5.778388E-2,-4.8291E0,5.2446425E-2,1.53E-2,-1.694E3,4.703E-1,-4.329018E-2,8.493E3,-1.98054E-2,2.4119189E-2,-4.0920954E-2,8.6320116E-4,4.5047592E-2,-1.7912118E-2,-1.5830917E-2,3.8590606E-2],"split_indices":[2,7,1,6,6,0,6,0,7,5,8,0,5,0,0,0,0,0,0,0,0],"split_type":[0,0,0,0,0,0,0,0,0,0,0,0,0,0,0,0,0,0,0,0,0],"sum_hessian":[2.7706991E1,1.745998E1,1.0247011E1,1.0605237E1,6.854743E0,2.948339E0,7.298672E0,3.5600233E0,7.045213E0,3.4399323E0,3.4148107E0,1.6490374E0,5.649635E0,2.3021433E0,4.74307E0,2.1021726E0,1.3377599E0,2.0476954E0,1.3671153E0,2.8311343E0,2.8185005E0],"tree_param":{"num_deleted":"0","num_feature":"9","num_nodes":"21","size_leaf_vector":"1"}},{"base_weights":[1.6397035E-2,4.7798663E-1,-2.6266557E-1,1.3781168E-1,5.165589E-2,-8.763332E-1,9.413385E-3,-2.8873116E-2,3.3880356E-1,-8.453449E-4,-1.1201878E0,2.6752895E-1,-8.189823E-1,3.3589683E-2,-1.4425854E-2,-2.0647282E-2,-7.033956E-2,5.2280735E-2,-8.151623E-3,-7.992516E-3,-5.2193362E-2],"categories":[],"categories_nodes":[],"categories_segments":[],"categories_sizes":[],"default_left":[0,0,0,0,0,0,0,0,0,0,0,0,0,0,0,0,0,0,0,0,0],"id":11,"left_children":[1,3,5,7,-1,9,11,-1,13,-1,15,17,19,-1,-1,-1,-1,-1,-1,-1,-1],"loss_changes":[3.8028986E0,1.9558401E0,3.0866213E0,1.3519777E0,0E0,1.1701984E0,3.161946E0,0E0,1.63708E0,0E0,3.1187534E-1,3.9384482E0,3.5428524E-1,0E0,0E0,0E0,0E0,0E0,0E0,0E0,0E0],"parents":[2147483647,0,0,1,1,2,2,3,3,5,5,6,6,8,8,10,10,11,11,12,12],"right_children":[2,4,6,8,-1,10,12,-1,14,-1,16,18,20,-1,-1,-1,-1,-1,-1,-1,-1],"split_conditions":[-3.186E3,-7.539E3,2.92E-2,1.2E1,5.165589E-2,-4.523E-1,1.073E-1,-2.8873116E-2,2.325E3,-8.453449E-4,1.13E-2,3E0,4.703E-1,3.3589683E-2,-1.4425854E-2,-2.0647282E-2,-7.033956E-2,5.2280735E-2,-8.151623E-3,-7.992516E-3,-5.2193362E-2],"split_indices":[5,5,7,0,0,6,7,0,1,0,7,3,8,0,0,0,0,0,0,0,0],"split_type":[0,0,0,0,0,0,0,0,0,0,0,0,0,0,0,0,0,0,0,0,0],"sum_hessian":[2.7548088E1,1.0110977E1,1.743711E1,7.0432453E0,3.0677311E0,4.674042E0,1.2763069E1,1.1341302E0,5.9091153E0,1.2694392E0,3.404603E0,1.0247237E1,2.5158324E0,3.8138041E0,2.0953112E0,1.6856945E0,1.7189085E0,3.1415384E0,7.1056986E0,1.0752146E0,1.4406177E0],"tree_param":{"num_deleted":"0","num_feature":"9","num_nodes":"21","size_leaf_vector":"1"}},{"base_weights":[1.3542975E-2,2.8858164E-1,-4.3355873E-1,5.1362085E-1,-7.679433E-2,-5.890877E-2,-8.6093485E-2,5.1012676E-2,1.68328E-1,-5.447811E-1,4.183317E-1,-4.153147E-2,2.0694539E-1,3.4081694E-2,-8.580912E-3,-3.9474692E-2,7.583031E-4,4.3904424E-2,-1.668926E-2,-3.1607985E-2,2.650695E-2],"categories":[],"categories_nodes":[],"categories_segments":[],"categories_sizes":[],"default_left":[0,0,0,0,0,0,0,0,0,0,0,0,0,0,0,0,0,0,0,0,0],"id":12,"left_children":[1,3,5,7,9,-1,11,-1,13,15,17,-1,19,-1,-1,-1,-1,-1,-1,-1,-1],"loss_changes":[3.6178076E0,1.5347245E0,2.8007886E0,1.8197544E0,2.035581E0,0E0,2.0759597E0,0E0,1.5072973E0,6.210511E-1,1.7995067E0,0E0,2.2505429E0,0E0,0E0,0E0,0E0,0E0,0E0,0E0,0E0],"parents":[2147483647,0,0,1,1,2,2,3,3,4,4,6,6,8,8,9,9,10,10,12,12],"right_children":[2,4,6,8,10,-1,12,-1,14,16,18,-1,20,-1,-1,-1,-1,-1,-1,-1,-1],"split_conditions":[1E0,6.91E-2,4.873E3,6.054E-1,-1.8603E0,-5.890877E-2,-4.8291E0,5.1012676E-2,-7E0,-1.694E3,4.703E-1,-4.153147E-2,2.26E-2,3.4081694E-2,-8.580912E-3,-3.9474692E-2,7.583031E-4,4.3904424E-2,-1.668926E-2,-3.1607985E-2,2.650695E-2],"split_indices":[2,7,5,6,6,0,6,0,2,5,8,0,7,0,0,0,0,0,0,0,0],"split_type":[0,0,0,0,0,0,0,0,0,0,0,0,0,0,0,0,0,0,0,0,0],"sum_hessian":[2.7402727E1,1.7185476E1,1.0217251E1,1.0384074E1,6.8014026E0,2.4901333E0,7.7271175E0,3.4164793E0,6.967595E0,3.4449716E0,3.3564308E0,1.6642227E0,6.062895E0,2.375523E0,4.592072E0,2.1120172E0,1.3329546E0,1.9791309E0,1.3772998E0,1.4200504E0,4.6428447E0],"tree_param":{"num_deleted":"0","num_feature":"9","num_nodes":"21","size_leaf_vector":"1"}},{"base_weights":[1.1693624E-2,2.800883E-1,-4.2201954E-1,4.999556E-1,-7.447461E-2,-6.744835E-1,3.9808357E-1,5.009693E-2,1.6368267E-1,-5.2427846E-1,4.0757337E-1,-8.880724E-1,1.778042E-2,-8.191494E-3,3.755916E-2,3.3247735E-2,-8.209798E-3,-3.792971E-2,7.367473E-4,4.3115456E-2,-1.6165016E-2,-5.6032926E-2,-1.4152847E-2],"categories":[],"categories_nodes":[],"categories_segments":[],"categories_sizes":[],"default_left":[0,0,0,0,0,0,0,0,0,0,0,0,0,0,0,0,0,0,0,0,0,0,0],"id":13,"left_children":[1,3,5,7,9,11,13,-1,15,17,19,21,-1,-1,-1,-1,-1,-1,-1,-1,-1,-1,-1],"loss_changes":[3.4058857E0,1.4441774E0,2.5864768E0,1.7383261E0,1.9002169E0,2.2808528E0,7.706939E-1,0E0,1.4148145E0,5.7460904E-1,1.713616E0,7.63989E-1,0E0,0E0,0E0,0E0,0E0,0E0,0E0,0E0,0E0,0E0,0E0],"parents":[2147483647,0,0,1,1,2,2,3,3,4,4,5,5,6,6,8,8,9,9,10,10,11,11],"right_children":[2,4,6,8,10,12,14,-1,16,18,20,22,-1,-1,-1,-1,-1,-1,-1,-1,-1,-1,-1],"split_conditions":[1E0,6.91E-2,1.673E4,6.054E-1,-1.8603E0,6.232E-1,1.5E1,5.009693E-2,-7E0,-1.694E3,4.703E-1,1.545E3,1.778042E-2,-8.191494E-3,3.755916E-2,3.3247735E-2,-8.209798E-3,-3.792971E-2,7.367473E-4,4.3115456E-2,-1.6165016E-2,-5.6032926E-2,-1.4152847E-2],"split_indices":[2,7,5,6,6,8,0,0,2,5,8,1,0,0,0,0,0,0,0,0,0,0,0],"split_type":[0,0,0,0,0,0,0,0,0,0,0,0,0,0,0,0,0,0,0,0,0,0,0],"sum_hessian":[2.7243172E1,1.7047733E1,1.0195438E1,1.0269483E1,6.77825E0,7.9313736E0,2.2640646E0,3.3255754E0,6.943907E0,3.4610777E0,3.3171728E0,6.683438E0,1.2479359E0,1.080542E0,1.1835226E0,2.339361E0,4.604546E0,2.128442E0,1.3326355E0,1.9340256E0,1.3831471E0,4.211955E0,2.471483E0],"tree_param":{"num_deleted":"0","num_feature":"9","num_nodes":"23","size_leaf_vector":"1"}},{"base_weights":[1.2832328E-2,4.452313E-1,-2.4312359E-1,1.133537E-1,4.999813E-2,-8.1554395E-1,1.3255143E-2,-2.8016815E-2,3.1004348E-1,-1.0290805E-3,-1.0349461E0,2.628454E-1,-7.7640283E-1,3.186153E-2,-1.4259686E-2,-1.8456563E-2,-6.573319E-2,5.063088E-2,-7.0810714E-3,-7.715934E-3,-4.914637E-2],"categories":[],"categories_nodes":[],"categories_segments":[],"categories_sizes":[],"default_left":[0,0,0,0,0,0,0,0,0,0,0,0,0,0,0,0,0,0,0,0,0],"id":14,"left_children":[1,3,5,7,-1,9,11,-1,13,-1,15,17,19,-1,-1,-1,-1,-1,-1,-1,-1],"loss_changes":[3.2174783E0,1.8748405E0,2.6955712E0,1.2185214E0,0E0,9.685147E-1,2.8882518E0,0E0,1.4956865E0,0E0,3.3924723E-1,3.5081382E0,3.0102706E-1,0E0,0E0,0E0,0E0,0E0,0E0,0E0,0E0],"parents":[2147483647,0,0,1,1,2,2,3,3,5,5,6,6,8,8,10,10,11,11,12,12],"right_children":[2,4,6,8,-1,10,12,-1,14,-1,16,18,20,-1,-1,-1,-1,-1,-1,-1,-1],"split_conditions":[-3.186E3,-7.539E3,2.92E-2,1.2E1,4.999813E-2,-4.523E-1,1.073E-1,-2.8016815E-2,2.325E3,-1.0290805E-3,1.13E-2,3E0,4.703E-1,3.186153E-2,-1.4259686E-2,-1.8456563E-2,-6.573319E-2,5.063088E-2,-7.0810714E-3,-7.715934E-3,-4.914637E-2],"split_indices":[5,5,7,0,0,6,7,0,1,0,7,3,8,0,0,0,0,0,0,0,0],"split_type":[0,0,0,0,0,0,0,0,0,0,0,0,0,0,0,0,0,0,0,0,0],"sum_hessian":[2.7093338E1,9.799341E0,1.7293995E1,6.8847566E0,2.9145849E0,4.675014E0,1.2618981E1,1.1380259E0,5.746731E0,1.2477679E0,3.4272459E0,1.009527E1,2.5237112E0,3.66282E0,2.0839105E0,1.7001107E0,1.7271352E0,3.0106862E0,7.084584E0,1.0644972E0,1.4592141E0],"tree_param":{"num_deleted":"0","num_feature":"9","num_nodes":"21","size_leaf_vector":"1"}},{"base_weights":[1.0334027E-2,2.6586077E-1,-3.9789984E-1,4.7914138E-1,-7.422306E-2,-5.4377474E-2,-7.49917E-2,4.8819702E-2,1.5397984E-1,-5.082806E-1,3.9787975E-1,-3.947817E-2,2.0939447E-1,-1.7261507E-2,2.2852654E-2,-3.664779E-2,6.3140126E-4,4.2076472E-2,-1.5042144E-2,-2.830916E-2,2.5537962E-2],"categories":[],"categories_nodes":[],"categories_segments":[],"categories_sizes":[],"default_left":[0,0,0,0,0,0,0,0,0,0,0,0,0,0,0,0,0,0,0,0,0],"id":15,"left_children":[1,3,5,7,9,-1,11,-1,13,15,17,-1,19,-1,-1,-1,-1,-1,-1,-1,-1],"loss_changes":[3.0199525E0,1.3252906E0,2.402617E0,1.6382401E0,1.7840482E0,0E0,1.9275602E0,0E0,1.3493437E0,5.313171E-1,1.5732409E0,0E0,1.9237771E0,0E0,0E0,0E0,0E0,0E0,0E0,0E0,0E0],"parents":[2147483647,0,0,1,1,2,2,3,3,4,4,6,6,8,8,9,9,10,10,12,12],"right_children":[2,4,6,8,10,-1,12,-1,14,16,18,-1,20,-1,-1,-1,-1,-1,-1,-1,-1],"split_conditions":[1E0,6.91E-2,4.873E3,6.054E-1,-1.8603E0,-5.4377474E-2,-4.8291E0,4.8819702E-2,3.4334E0,-1.694E3,4.703E-1,-3.947817E-2,2.26E-2,-1.7261507E-2,2.2852654E-2,-3.664779E-2,6.3140126E-4,4.2076472E-2,-1.5042144E-2,-2.830916E-2,2.5537962E-2],"split_indices":[2,7,5,6,6,0,6,0,6,5,8,0,7,0,0,0,0,0,0,0,0],"split_type":[0,0,0,0,0,0,0,0,0,0,0,0,0,0,0,0,0,0,0,0,0],"sum_hessian":[2.6936306E1,1.6781178E1,1.0155127E1,1.0061995E1,6.719184E0,2.4833465E0,7.6717806E0,3.1864007E0,6.875593E0,3.4607208E0,3.2584634E0,1.67832E0,5.9934607E0,2.5448012E0,4.330792E0,2.1334586E0,1.3272622E0,1.8680032E0,1.39046E0,1.4312737E0,4.5621867E0],"tree_param":{"num_deleted":"0","num_feature":"9","num_nodes":"21","size_leaf_vector":"1"}},{"base_weights":[8.195431E-3,4.24385E-1,-2.3503578E-1,1.010294E-1,4.8775535E-2,-8.1513107E-1,-1.8842147E-4,-1.1975757E-1,3.6654938E-2,-5.443083E-3,-4.8595767E-2,2.2980437E-1,-7.434996E-1,1.2111213E-2,-4.9721263E-2,4.9445532E-2,-7.3264726E-3,-7.48021E-3,-4.68698E-2],"categories":[],"categories_nodes":[],"categories_segments":[],"categories_sizes":[],"default_left":[0,0,0,0,0,0,0,0,0,0,0,0,0,0,0,0,0,0,0],"id":16,"left_children":[1,3,5,7,-1,9,11,13,-1,-1,-1,15,17,-1,-1,-1,-1,-1,-1],"loss_changes":[2.910612E0,1.7901931E0,2.4750228E0,1.1756097E0,0E0,4.7393584E-1,2.5528016E0,2.342122E0,0E0,0E0,0E0,3.4029264E0,2.6608372E-1,0E0,0E0,0E0,0E0,0E0,0E0],"parents":[2147483647,0,0,1,1,2,2,3,3,5,5,6,6,7,7,11,11,12,12],"right_children":[2,4,6,8,-1,10,12,14,-1,-1,-1,16,18,-1,-1,-1,-1,-1,-1],"split_conditions":[-3.186E3,-7.539E3,2.26E-2,2.69E3,4.8775535E-2,9.3E-3,1.073E-1,2.325E3,3.6654938E-2,-5.443083E-3,-4.8595767E-2,3E0,4.703E-1,1.2111213E-2,-4.9721263E-2,4.9445532E-2,-7.3264726E-3,-7.48021E-3,-4.68698E-2],"split_indices":[5,5,7,1,0,7,7,1,0,0,0,3,8,0,0,0,0,0,0],"split_type":[0,0,0,0,0,0,0,0,0,0,0,0,0,0,0,0,0,0,0],"sum_hessian":[2.6767048E1,9.598466E0,1.7168583E1,6.795018E0,2.8034477E0,4.235528E0,1.2933055E1,5.6366286E0,1.1583893E0,1.0772333E0,3.1582947E0,1.04045515E1,2.5285034E0,4.4981384E0,1.1384906E0,2.909011E0,7.49554E0,1.0583614E0,1.4701421E0],"tree_param":{"num_deleted":"0","num_feature":"9","num_nodes":"19","size_leaf_vector":"1"}},{"base_weights":[7.3342826E-3,2.5300434E-1,-3.813674E-1,4.579142E-1,-7.022926E-2,-6.2144136E-1,3.962131E-1,4.7706183E-2,1.4097288E-1,-4.8786217E-1,3.8958937E-1,-8.141579E-1,1.6318075E-2,-6.468297E-3,3.621069E-2,2.770541E-2,-1.1171082E-2,-3.5060767E-2,5.427964E-4,4.113553E-2,-1.4014549E-2,-6.028564E-2,-1.9883519E-2],"categories":[],"categories_nodes":[],"categories_segments":[],"categories_sizes":[],"default_left":[0,0,0,0,0,0,0,0,0,0,0,0,0,0,0,0,0,0,0,0,0,0,0],"id":17,"left_children":[1,3,5,7,9,11,13,-1,15,17,19,21,-1,-1,-1,-1,-1,-1,-1,-1,-1,-1,-1],"loss_changes":[2.7342398E0,1.1930075E0,2.3176115E0,1.5733664E0,1.6624006E0,1.8854747E0,6.5022236E-1,0E0,1.2980734E0,4.8236215E-1,1.4506903E0,7.689686E-1,0E0,0E0,0E0,0E0,0E0,0E0,0E0,0E0,0E0,0E0,0E0],"parents":[2147483647,0,0,1,1,2,2,3,3,4,4,5,5,6,6,8,8,9,9,10,10,11,11],"right_children":[2,4,6,8,10,12,14,-1,16,18,20,22,-1,-1,-1,-1,-1,-1,-1,-1,-1,-1,-1],"split_conditions":[1E0,6.91E-2,1.673E4,6.054E-1,-1.8603E0,6.232E-1,1.5E1,4.7706183E-2,1.6E1,-1.694E3,4.703E-1,1.259E-1,1.6318075E-2,-6.468297E-3,3.621069E-2,2.770541E-2,-1.1171082E-2,-3.5060767E-2,5.427964E-4,4.113553E-2,-1.4014549E-2,-6.028564E-2,-1.9883519E-2],"split_indices":[2,7,5,6,6,8,0,0,0,5,8,6,0,0,0,0,0,0,0,0,0,0,0],"split_type":[0,0,0,0,0,0,0,0,0,0,0,0,0,0,0,0,0,0,0,0,0,0,0],"sum_hessian":[2.6622654E1,1.6526537E1,1.0096117E1,9.859539E0,6.666997E0,7.867781E0,2.228336E0,3.0593503E0,6.800189E0,3.4618049E0,3.2051923E0,6.655521E0,1.2122604E0,1.0889791E0,1.139357E0,2.942958E0,3.8572307E0,2.1401896E0,1.3216151E0,1.8080345E0,1.3971579E0,2.4537277E0,4.201793E0],"tree_param":{"num_deleted":"0","num_feature":"9","num_nodes":"23","size_leaf_vector":"1"}},{"base_weights":[7.988928E-3,4.0595686E-1,-2.2183265E-1,8.9085765E-2,4.7764644E-2,-7.74749E-1,3.4552957E-3,-2.7736029E-2,2.8468183E-1,-4.9363966E-3,-4.6247344E-2,2.2644755E-1,-7.1073E-1,3.010051E-2,-1.375145E-2,4.8267674E-2,-6.6001727E-3,-6.9194795E-3,-4.493167E-2],"categories":[],"categories_nodes":[],"categories_segments":[],"categories_sizes":[],"default_left":[0,0,0,0,0,0,0,0,0,0,0,0,0,0,0,0,0,0,0],"id":18,"left_children":[1,3,5,7,-1,9,11,-1,13,-1,-1,15,17,-1,-1,-1,-1,-1,-1],"loss_changes":[2.602763E0,1.7270606E0,2.2526014E0,1.1281925E0,0E0,4.4006467E-1,2.363288E0,0E0,1.3325765E0,0E0,0E0,3.1195042E0,2.5549233E-1,0E0,0E0,0E0,0E0,0E0,0E0],"parents":[2147483647,0,0,1,1,2,2,3,3,5,5,6,6,8,8,11,11,12,12],"right_children":[2,4,6,8,-1,10,12,-1,14,-1,-1,16,18,-1,-1,-1,-1,-1,-1],"split_conditions":[-3.186E3,-7.539E3,2.26E-2,1.2E1,4.7764644E-2,9.3E-3,1.073E-1,-2.7736029E-2,2.325E3,-4.9363966E-3,-4.6247344E-2,3E0,4.703E-1,3.010051E-2,-1.375145E-2,4.8267674E-2,-6.6001727E-3,-6.9194795E-3,-4.493167E-2],"split_indices":[5,5,7,0,0,7,7,0,1,0,0,3,8,0,0,0,0,0,0],"split_type":[0,0,0,0,0,0,0,0,0,0,0,0,0,0,0,0,0,0,0],"sum_hessian":[2.6472818E1,9.410622E0,1.7062197E1,6.705111E0,2.7055104E0,4.233395E0,1.2828802E1,1.1345794E0,5.5705314E0,1.0708697E0,3.1625254E0,1.0296746E1,2.5320556E0,3.5067844E0,2.0637472E0,2.8103678E0,7.4863787E0,1.055023E0,1.4770327E0],"tree_param":{"num_deleted":"0","num_feature":"9","num_nodes":"19","size_leaf_vector":"1"}},{"base_weights":[6.8884976E-3,2.4131028E-1,-3.5999143E-1,4.1506577E-2,1.2274523E-1,-5.919855E-1,3.922643E-1,3.5482302E-1,-2.3752849E-1,-5.7778127E-2,-1.9478261E-1,-5.647862E-3,3.5379294E-2,-2.0409208E-2,2.5970003E-2,-5.3239055E-2,1.2478016E-2,-4.468251E-2,1.2513078E-2],"categories":[],"categories_nodes":[],"categories_segments":[],"categories_sizes":[],"default_left":[0,0,0,0,0,0,0,0,0,0,0,0,0,0,0,0,0,0,0],"id":19,"left_children":[1,3,5,-1,7,9,11,13,15,-1,17,-1,-1,-1,-1,-1,-1,-1,-1],"loss_changes":[2.4363716E0,1.1035606E0,2.1609197E0,0E0,1.3841219E0,1.7549477E0,5.9072685E-1,1.449705E0,2.9613771E0,0E0,2.2114692E0,0E0,0E0,0E0,0E0,0E0,0E0,0E0,0E0],"parents":[2147483647,0,0,1,1,2,2,4,4,5,5,6,6,7,7,8,8,10,10],"right_children":[2,4,6,-1,8,10,12,14,16,-1,18,-1,-1,-1,-1,-1,-1,-1,-1],"split_conditions":[1E0,2.84E2,1.673E4,4.1506577E-2,-3.315E3,1.259E-1,1.5E1,1.2E1,1.128E3,-5.7778127E-2,7.5E2,-5.647862E-3,3.5379294E-2,-2.0409208E-2,2.5970003E-2,-5.3239055E-2,1.2478016E-2,-4.468251E-2,1.2513078E-2],"split_indices":[2,1,5,0,5,6,0,0,1,0,1,0,0,0,0,0,0,0,0],"split_type":[0,0,0,0,0,0,0,0,0,0,0,0,0,0,0,0,0,0,0],"sum_hessian":[2.6318316E1,1.6266762E1,1.0051555E1,1.7205634E0,1.4546197E1,7.8451724E0,2.206382E0,8.856335E0,5.6898623E0,2.4540122E0,5.3911605E0,1.0944996E0,1.1118824E0,1.3087142E0,7.547621E0,1.6691066E0,4.020756E0,1.7052875E0,3.6858728E0],"tree_param":{"num_deleted":"0","num_feature":"9","num_nodes":"19","size_leaf_vector":"1"}},{"base_weights":[4.696514E-3,2.3152116E-1,-3.484802E-1,4.3141383E-1,-7.913726E-2,-5.736032E-1,3.8416234E-1,4.6221398E-2,1.2627354E-1,-4.813137E-1,3.7384143E-1,-7.53649E-1,1.5704207E-2,-5.495775E-3,3.4776483E-2,2.657539E-2,-1.1265963E-2,-3.410992E-2,-1.04931705E-5,3.9762374E-2,-1.3014458E-2,-5.5761453E-2,-1.8370124E-2],"categories":[],"categories_nodes":[],"categories_segments":[],"categories_sizes":[],"default_left":[0,0,0,0,0,0,0,0,0,0,0,0,0,0,0,0,0,0,0,0,0,0,0],"id":20,"left_children":[1,3,5,7,9,11,13,-1,15,17,19,21,-1,-1,-1,-1,-1,-1,-1,-1,-1,-1,-1],"loss_changes":[2.2558062E0,1.0981548E0,2.0375538E0,1.475036E0,1.5560099E0,1.64781E0,5.6698334E-1,0E0,1.215969E0,4.288E-1,1.3066893E0,6.564803E-1,0E0,0E0,0E0,0E0,0E0,0E0,0E0,0E0,0E0,0E0,0E0],"parents":[2147483647,0,0,1,1,2,2,3,3,4,4,5,5,6,6,8,8,9,9,10,10,11,11],"right_children":[2,4,6,8,10,12,14,-1,16,18,20,22,-1,-1,-1,-1,-1,-1,-1,-1,-1,-1,-1],"split_conditions":[1E0,6.91E-2,1.673E4,6.054E-1,-1.8603E0,6.232E-1,1.5E1,4.6221398E-2,1.6E1,-1.694E3,4.703E-1,1.259E-1,1.5704207E-2,-5.495775E-3,3.4776483E-2,2.657539E-2,-1.1265963E-2,-3.410992E-2,-1.04931705E-5,3.9762374E-2,-1.3014458E-2,-5.5761453E-2,-1.8370124E-2],"split_indices":[2,7,5,6,6,8,0,0,0,5,8,6,0,0,0,0,0,0,0,0,0,0,0],"split_type":[0,0,0,0,0,0,0,0,0,0,0,0,0,0,0,0,0,0,0,0,0,0,0],"sum_hessian":[2.6152014E1,1.6134338E1,1.0017676E1,9.580849E0,6.553489E0,7.829072E0,2.1886046E0,2.8869293E0,6.6939197E0,3.438272E0,3.1152172E0,6.634435E0,1.1946365E0,1.0961787E0,1.092426E0,2.8720155E0,3.8219042E0,2.130639E0,1.307633E0,1.7188773E0,1.39634E0,2.451832E0,4.1826034E0],"tree_param":{"num_deleted":"0","num_feature":"9","num_nodes":"23","size_leaf_vector":"1"}},{"base_weights":[5.5507044E-3,3.7353292E-1,-2.0335911E-1,6.2030885E-2,4.6378084E-2,-7.6671714E-1,1.6943963E-3,-1.5728728E-1,3.5180595E-2,-4.117837E-3,-4.6964314E-2,-5.49982E-1,2.6416814E-1,9.834829E-3,-4.7985684E-2,1.8745026E-2,-4.8676968E-2,-1.7196115E-2,3.723322E-2],"categories":[],"categories_nodes":[],"categories_segments":[],"categories_sizes":[],"default_left":[0,0,0,0,0,0,0,0,0,0,0,0,0,0,0,0,0,0,0],"id":21,"left_children":[1,3,5,7,-1,9,11,13,-1,-1,-1,15,17,-1,-1,-1,-1,-1,-1],"loss_changes":[2.1513464E0,1.6905142E0,2.0653815E0,1.1737628E0,0E0,4.8601842E-1,2.186633E0,2.0202346E0,0E0,0E0,0E0,2.272525E0,3.2446434E0,0E0,0E0,0E0,0E0,0E0,0E0],"parents":[2147483647,0,0,1,1,2,2,3,3,5,5,6,6,7,7,11,11,12,12],"right_children":[2,4,6,8,-1,10,12,14,-1,-1,-1,16,18,-1,-1,-1,-1,-1,-1],"split_conditions":[-3.186E3,-7.539E3,1.67E-2,2.69E3,4.6378084E-2,9.3E-3,9.63E2,2.325E3,3.5180595E-2,-4.117837E-3,-4.6964314E-2,2.84E2,1.259E-1,9.834829E-3,-4.7985684E-2,1.8745026E-2,-4.8676968E-2,-1.7196115E-2,3.723322E-2],"split_indices":[5,5,7,1,0,7,1,1,0,0,0,1,6,0,0,0,0,0,0],"split_type":[0,0,0,0,0,0,0,0,0,0,0,0,0,0,0,0,0,0,0],"sum_hessian":[2.599685E1,9.128872E0,1.6867977E1,6.555188E0,2.5736842E0,3.7703416E0,1.3097634E1,5.447767E0,1.1074213E0,1.0567617E0,2.71358E0,3.869405E0,9.2282295E0,4.3039756E0,1.1437912E0,1.2514994E0,2.6179056E0,4.1987505E0,5.029479E0],"tree_param":{"num_deleted":"0","num_feature":"9","num_nodes":"19","size_leaf_vector":"1"}},{"base_weights":[4.789277E-3,2.2159626E-1,-3.3061653E-1,4.004283E-2,1.07088074E-1,-5.3343095E-2,-8.1813365E-2,3.2556367E-1,-2.2505689E-1,-3.514774E-2,1.7797211E-1,-2.0740142E-2,2.4544593E-2,-4.94513E-2,1.1608567E-2,2.3642937E-2,-2.5890464E-2],"categories":[],"categories_nodes":[],"categories_segments":[],"categories_sizes":[],"default_left":[0,0,0,0,0,0,0,0,0,0,0,0,0,0,0,0,0],"id":22,"left_children":[1,3,5,-1,7,-1,9,11,13,-1,15,-1,-1,-1,-1,-1,-1],"loss_changes":[2.0245306E0,1.0350041E0,1.9160504E0,0E0,1.1807885E0,0E0,1.6188734E0,1.3805636E0,2.551495E0,0E0,1.7478082E0,0E0,0E0,0E0,0E0,0E0,0E0],"parents":[2147483647,0,0,1,1,2,2,4,4,6,6,7,7,8,8,10,10],"right_children":[2,4,6,-1,8,-1,10,12,14,-1,16,-1,-1,-1,-1,-1,-1],"split_conditions":[1E0,2.84E2,3.564E3,4.004283E-2,-3.315E3,-5.3343095E-2,2.26E-2,1.2E1,1.128E3,-3.514774E-2,2.739E3,-2.0740142E-2,2.4544593E-2,-4.94513E-2,1.1608567E-2,2.3642937E-2,-2.5890464E-2],"split_indices":[2,1,5,0,5,0,7,0,1,0,1,0,0,0,0,0,0],"split_type":[0,0,0,0,0,0,0,0,0,0,0,0,0,0,0,0,0],"sum_hessian":[2.583323E1,1.5896814E1,9.936414E0,1.6345038E0,1.4262311E1,1.6792601E0,8.2571535E0,8.615254E0,5.6470566E0,1.9319639E0,6.3251896E0,1.297203E0,7.3180513E0,1.678841E0,3.9682157E0,4.667428E0,1.6577613E0],"tree_param":{"num_deleted":"0","num_feature":"9","num_nodes":"17","size_leaf_vector":"1"}},{"base_weights":[1.4780806E-3,2.1260832E-1,-3.2338148E-1,4.080477E-1,-8.672537E-2,-5.3972757E-1,3.784375E-1,4.491493E-2,1.127706E-1,-4.6351168E-1,3.4929E-1,-5.2788686E-2,-1.7409699E-1,-5.2208253E-3,3.4140043E-2,-1.6957074E-2,2.0157244E-2,-3.2782692E-2,-9.921703E-5,3.8386326E-2,-1.2897802E-2,-4.138524E-2,1.2120691E-2],"categories":[],"categories_nodes":[],"categories_segments":[],"categories_sizes":[],"default_left":[0,0,0,0,0,0,0,0,0,0,0,0,0,0,0,0,0,0,0,0,0,0,0],"id":23,"left_children":[1,3,5,7,9,11,13,-1,15,17,19,-1,21,-1,-1,-1,-1,-1,-1,-1,-1,-1,-1],"loss_changes":[1.8980334E0,1.0163568E0,1.8596332E0,1.3926104E0,1.3855425E0,1.4663467E0,5.352229E-1,0E0,1.1319585E0,3.9112687E-1,1.2202691E0,0E0,1.9201666E0,0E0,0E0,0E0,0E0,0E0,0E0,0E0,0E0,0E0,0E0],"parents":[2147483647,0,0,1,1,2,2,3,3,4,4,5,5,6,6,8,8,9,9,10,10,12,12],"right_children":[2,4,6,8,10,12,14,-1,16,18,20,-1,22,-1,-1,-1,-1,-1,-1,-1,-1,-1,-1],"split_conditions":[1E0,6.91E-2,1.673E4,6.054E-1,-1.8603E0,1.259E-1,1.5E1,4.491493E-2,3.4334E0,-1.694E3,4.703E-1,-5.2788686E-2,7.5E2,-5.2208253E-3,3.4140043E-2,-1.6957074E-2,2.0157244E-2,-3.2782692E-2,-9.921703E-5,3.8386326E-2,-1.2897802E-2,-4.138524E-2,1.2120691E-2],"split_indices":[2,7,5,6,6,6,0,0,6,5,8,0,1,0,0,0,0,0,0,0,0,0,0],"split_type":[0,0,0,0,0,0,0,0,0,0,0,0,0,0,0,0,0,0,0,0,0,0,0],"sum_hessian":[2.5670677E1,1.5768241E1,9.902436E0,9.319932E0,6.448308E0,7.745676E0,2.1567602E0,2.7356646E0,6.5842676E0,3.42527E0,3.0230381E0,2.429363E0,5.3163133E0,1.0878642E0,1.0688959E0,2.5099945E0,4.074273E0,2.1214533E0,1.3038168E0,1.6333001E0,1.389738E0,1.6849608E0,3.6313522E0],"tree_param":{"num_deleted":"0","num_feature":"9","num_nodes":"23","size_leaf_vector":"1"}},{"base_weights":[1.0607465E-3,3.4413785E-1,-1.9086224E-1,4.055506E-2,4.4975203E-2,-7.287154E-1,6.244418E-3,-1.7379619E-1,3.4028005E-2,-3.6561675E-3,-4.4641025E-2,2.0835318E-1,-6.555622E-1,8.729848E-3,-4.6924334E-2,4.615472E-2,-5.426197E-3,-5.519585E-3,-4.185683E-2],"categories":[],"categories_nodes":[],"categories_segments":[],"categories_sizes":[],"default_left":[0,0,0,0,0,0,0,0,0,0,0,0,0,0,0,0,0,0,0],"id":24,"left_children":[1,3,5,7,-1,9,11,13,-1,-1,-1,15,17,-1,-1,-1,-1,-1,-1],"loss_changes":[1.8107073E0,1.6265914E0,1.8744576E0,1.1368767E0,0E0,4.4454646E-1,1.995728E0,1.8578869E0,0E0,0E0,0E0,2.6835856E0,2.5334227E-1,0E0,0E0,0E0,0E0,0E0,0E0],"parents":[2147483647,0,0,1,1,2,2,3,3,5,5,6,6,7,7,11,11,12,12],"right_children":[2,4,6,8,-1,10,12,14,-1,-1,-1,16,18,-1,-1,-1,-1,-1,-1],"split_conditions":[-3.186E3,-7.539E3,1.67E-2,2.69E3,4.4975203E-2,9.3E-3,1.073E-1,2.325E3,3.4028005E-2,-3.6561675E-3,-4.4641025E-2,3E0,4.703E-1,8.729848E-3,-4.6924334E-2,4.615472E-2,-5.426197E-3,-5.519585E-3,-4.185683E-2],"split_indices":[5,5,7,1,0,7,7,1,0,0,0,3,8,0,0,0,0,0,0],"split_type":[0,0,0,0,0,0,0,0,0,0,0,0,0,0,0,0,0,0,0],"sum_hessian":[2.5502254E1,8.864025E0,1.663823E1,6.4249463E0,2.4390783E0,3.7388396E0,1.2899389E1,5.3586626E0,1.066284E0,1.0379331E0,2.7009065E0,1.0406523E1,2.4928668E0,4.211554E0,1.1471086E0,2.608883E0,7.79764E0,1.0245779E0,1.468289E0],"tree_param":{"num_deleted":"0","num_feature":"9","num_nodes":"19","size_leaf_vector":"1"}},{"base_weights":[6.1367726E-4,2.0368049E-1,-3.0964273E-1,3.8459186E-2,9.419293E-2,-5.201207E-1,3.7366715E-1,2.9888234E-1,-2.1118654E-1,-7.189168E-1,1.0096594E-2,-4.4835727E-3,3.3281248E-2,1.9092495E-3,4.221985E-2,-4.6872992E-2,1.126625E-2,-5.7711083E-2,-1.6467528E-2],"categories":[],"categories_nodes":[],"categories_segments":[],"categories_sizes":[],"default_left":[0,0,0,0,0,0,0,0,0,0,0,0,0,0,0,0,0,0,0],"id":25,"left_children":[1,3,5,-1,7,9,11,13,15,17,-1,-1,-1,-1,-1,-1,-1,-1,-1],"loss_changes":[1.7230738E0,9.509025E-1,1.7504896E0,0E0,9.9991345E-1,1.3925464E0,4.830868E-1,1.3026737E0,2.30365E0,8.1255746E-1,0E0,0E0,0E0,0E0,0E0,0E0,0E0,0E0,0E0],"parents":[2147483647,0,0,1,1,2,2,4,4,5,5,6,6,7,7,8,8,9,9],"right_children":[2,4,6,-1,8,10,12,14,16,18,-1,-1,-1,-1,-1,-1,-1,-1,-1],"split_conditions":[1E0,2.84E2,1.673E4,3.8459186E-2,-3.315E3,6.134E-1,1.5E1,-7.539E3,1.128E3,1.259E-1,1.0096594E-2,-4.4835727E-3,3.3281248E-2,1.9092495E-3,4.221985E-2,-4.6872992E-2,1.126625E-2,-5.7711083E-2,-1.6467528E-2],"split_indices":[2,1,5,0,5,8,0,5,1,6,0,0,0,0,0,0,0,0,0],"split_type":[0,0,0,0,0,0,0,0,0,0,0,0,0,0,0,0,0,0,0],"sum_hessian":[2.5348133E1,1.5528222E1,9.819912E0,1.5414298E0,1.3986793E1,7.690004E0,2.1299076E0,8.386664E0,5.600128E0,6.0332637E0,1.6567404E0,1.0911337E0,1.0387738E0,6.398749E0,1.9879156E0,1.6714807E0,3.9286475E0,1.9223613E0,4.1109023E0],"tree_param":{"num_deleted":"0","num_feature":"9","num_nodes":"19","size_leaf_vector":"1"}},{"base_weights":[1.0938781E-3,1.976975E-1,-2.9849514E-1,3.7822332E-2,9.0547495E-2,-4.970796E-2,-6.660316E-2,2.9042697E-1,-2.0650992E-1,-3.2562766E-2,1.7813429E-1,-2.0934667E-2,2.2787638E-2,-4.5435693E-2,1.0849177E-2,2.3459122E-2,-2.5258848E-2],"categories":[],"categories_nodes":[],"categories_segments":[],"categories_sizes":[],"default_left":[0,0,0,0,0,0,0,0,0,0,0,0,0,0,0,0,0],"id":26,"left_children":[1,3,5,-1,7,-1,9,11,13,-1,15,-1,-1,-1,-1,-1,-1],"loss_changes":[1.602495E0,9.147815E-1,1.6730447E0,0E0,9.456705E-1,0E0,1.4263796E0,1.2849216E0,2.15521E0,0E0,1.6770433E0,0E0,0E0,0E0,0E0,0E0,0E0],"parents":[2147483647,0,0,1,1,2,2,4,4,6,6,7,7,8,8,10,10],"right_children":[2,4,6,-1,8,-1,10,12,14,-1,16,-1,-1,-1,-1,-1,-1],"split_conditions":[1E0,2.84E2,3.564E3,3.7822332E-2,-3.315E3,-4.970796E-2,2.26E-2,1.2E1,1.128E3,-3.2562766E-2,2.739E3,-2.0934667E-2,2.2787638E-2,-4.5435693E-2,1.0849177E-2,2.3459122E-2,-2.5258848E-2],"split_indices":[2,1,5,0,5,0,7,0,1,0,1,0,0,0,0,0,0],"split_type":[0,0,0,0,0,0,0,0,0,0,0,0,0,0,0,0,0],"sum_hessian":[2.5205019E1,1.5423523E1,9.781496E0,1.5067356E0,1.3916787E1,1.6236037E0,8.157892E0,8.332477E0,5.58431E0,1.9171014E0,6.240791E0,1.2856203E0,7.0468564E0,1.6698079E0,3.9145024E0,4.5963855E0,1.6444054E0],"tree_param":{"num_deleted":"0","num_feature":"9","num_nodes":"17","size_leaf_vector":"1"}},{"base_weights":[-1.9272268E-3,1.8963692E-1,-2.9247364E-1,3.778304E-1,-9.323491E-2,-4.9631742E-1,3.6798248E-1,4.3427832E-2,9.211692E-2,-4.5581996E-1,3.350465E-1,-4.9235735E-2,-1.5274814E-1,-4.3630134E-3,3.2786172E-2,2.3818593E-2,-1.1482987E-2,-3.149401E-2,-9.879577E-4,3.701426E-2,-1.188391E-2,-3.9382584E-2,1.2437648E-2],"categories":[],"categories_nodes":[],"categories_segments":[],"categories_sizes":[],"default_left":[0,0,0,0,0,0,0,0,0,0,0,0,0,0,0,0,0,0,0,0,0,0,0],"id":27,"left_children":[1,3,5,7,9,11,13,-1,15,17,19,-1,21,-1,-1,-1,-1,-1,-1,-1,-1,-1,-1],"loss_changes":[1.5049158E0,9.030041E-1,1.6286948E0,1.3201789E0,1.288566E0,1.2982745E0,4.6427456E-1,0E0,1.028125E0,3.203531E-1,1.0880098E0,0E0,1.7896072E0,0E0,0E0,0E0,0E0,0E0,0E0,0E0,0E0,0E0,0E0],"parents":[2147483647,0,0,1,1,2,2,3,3,4,4,5,5,6,6,8,8,9,9,10,10,12,12],"right_children":[2,4,6,8,10,12,14,-1,16,18,20,-1,22,-1,-1,-1,-1,-1,-1,-1,-1,-1,-1],"split_conditions":[1E0,6.91E-2,1.673E4,6.054E-1,-1.8603E0,1.259E-1,1.5E1,4.3427832E-2,1.6E1,-1.694E3,4.703E-1,-4.9235735E-2,7.5E2,-4.3630134E-3,3.2786172E-2,2.3818593E-2,-1.1482987E-2,-3.149401E-2,-9.879577E-4,3.701426E-2,-1.188391E-2,-3.9382584E-2,1.2437648E-2],"split_indices":[2,7,5,6,6,6,0,0,0,5,8,0,1,0,0,0,0,0,0,0,0,0,0],"split_type":[0,0,0,0,0,0,0,0,0,0,0,0,0,0,0,0,0,0,0,0,0,0,0],"sum_hessian":[2.5041985E1,1.5300989E1,9.740995E0,8.9865675E0,6.314421E0,7.6335063E0,2.1074886E0,2.5562065E0,6.4303613E0,3.3846557E0,2.9297657E0,2.3816977E0,5.2518086E0,1.0860149E0,1.0214738E0,2.7116988E0,3.7186625E0,2.1013803E0,1.2832754E0,1.5444224E0,1.3853433E0,1.6619537E0,3.589855E0],"tree_param":{"num_deleted":"0","num_feature":"9","num_nodes":"23","size_leaf_vector":"1"}},{"base_weights":[-1.7158563E-3,3.0868322E-1,-1.7295405E-1,1.8534131E-2,4.3117948E-2,-6.78718E-1,1.3494844E-2,-1.907716E-1,3.2878276E-2,-2.689054E-3,-4.179492E-2,2.072422E-1,-6.170388E-1,7.6242546E-3,-4.599988E-2,4.4758715E-2,-4.5359107E-3,-3.7839416E-2,-1.0980452E-2],"categories":[],"categories_nodes":[],"categories_segments":[],"categories_sizes":[],"default_left":[0,0,0,0,0,0,0,0,0,0,0,0,0,0,0,0,0,0,0],"id":28,"left_children":[1,3,5,7,-1,9,11,13,-1,-1,-1,15,17,-1,-1,-1,-1,-1,-1],"loss_changes":[1.4285656E0,1.5194347E0,1.6419332E0,1.1009315E0,0E0,4.1507268E-1,1.7931651E0,1.7094672E0,0E0,0E0,0E0,2.3720336E0,2.5724173E-2,0E0,0E0,0E0,0E0,0E0,0E0],"parents":[2147483647,0,0,1,1,2,2,3,3,5,5,6,6,7,7,11,11,12,12],"right_children":[2,4,6,8,-1,10,12,14,-1,-1,-1,16,18,-1,-1,-1,-1,-1,-1],"split_conditions":[-3.186E3,-7.539E3,1.67E-2,2.69E3,4.3117948E-2,9.3E-3,1.073E-1,2.325E3,3.2878276E-2,-2.689054E-3,-4.179492E-2,3E0,-8.63E-2,7.6242546E-3,-4.599988E-2,4.4758715E-2,-4.5359107E-3,-3.7839416E-2,-1.0980452E-2],"split_indices":[5,5,7,1,0,7,7,1,0,0,0,3,6,0,0,0,0,0,0],"split_type":[0,0,0,0,0,0,0,0,0,0,0,0,0,0,0,0,0,0,0],"sum_hessian":[2.487246E1,8.557623E0,1.6314837E1,6.293199E0,2.2644234E0,3.683281E0,1.2631556E1,5.2689095E0,1.0242896E0,1.0099522E0,2.6733289E0,1.0176034E1,2.4555209E0,4.1203156E0,1.1485943E0,2.4696827E0,7.7063518E0,1.1477331E0,1.3077877E0],"tree_param":{"num_deleted":"0","num_feature":"9","num_nodes":"19","size_leaf_vector":"1"}},{"base_weights":[-2.1167428E-3,1.818476E-1,-2.7957502E-1,3.65865E-2,7.82538E-2,-4.7828498E-1,1.819242E-2,2.664581E-1,-1.969627E-1,-6.674066E-1,9.90077E-3,-2.1116031E-2,2.1612171E-2,-4.3272678E-2,1.0393615E-2,-5.4014947E-2,-1.5070127E-2],"categories":[],"categories_nodes":[],"categories_segments":[],"categories_sizes":[],"default_left":[0,0,0,0,0,0,0,0,0,0,0,0,0,0,0,0,0],"id":29,"left_children":[1,3,5,-1,7,9,-1,11,13,15,-1,-1,-1,-1,-1,-1,-1],"loss_changes":[1.3637496E0,8.5831475E-1,1.535568E0,0E0,8.110244E-1,1.2280859E0,0E0,1.224195E0,1.9450554E0,7.208693E-1,0E0,0E0,0E0,0E0,0E0,0E0,0E0],"parents":[2147483647,0,0,1,1,2,2,4,4,5,5,7,7,8,8,9,9],"right_children":[2,4,6,-1,8,10,-1,12,14,16,-1,-1,-1,-1,-1,-1,-1],"split_conditions":[1E0,2.84E2,1.673E4,3.65865E-2,-3.315E3,6.134E-1,1.819242E-2,1.2E1,1.128E3,1.259E-1,9.90077E-3,-2.1116031E-2,2.1612171E-2,-4.3272678E-2,1.0393615E-2,-5.4014947E-2,-1.5070127E-2],"split_indices":[2,1,5,0,5,8,0,0,1,6,0,0,0,0,0,0,0],"split_type":[0,0,0,0,0,0,0,0,0,0,0,0,0,0,0,0,0],"sum_hessian":[2.4721924E1,1.5072761E1,9.649162E0,1.4282211E0,1.3644539E1,7.5684395E0,2.080723E0,8.122123E0,5.522416E0,5.924777E0,1.6436626E0,1.2754966E0,6.8466268E0,1.6537837E0,3.8686323E0,1.8669975E0,4.0577793E0],"tree_param":{"num_deleted":"0","num_feature":"9","num_nodes":"17","size_leaf_vector":"1"}},{"base_weights":[-3.4241122E-3,1.7437392E-1,-2.705534E-1,3.5999358E-2,7.260711E-2,-4.6579696E-2,-5.378176E-2,2.5514033E-1,-1.9270872E-1,-3.030704E-2,1.7750454E-1,2.5628877E-4,4.013073E-2,-4.2013023E-2,1.0008134E-2,2.3196675E-2,-2.4563437E-2],"categories":[],"categories_nodes":[],"categories_segments":[],"categories_sizes":[],"default_left":[0,0,0,0,0,0,0,0,0,0,0,0,0,0,0,0,0],"id":30,"left_children":[1,3,5,-1,7,-1,9,11,13,-1,15,-1,-1,-1,-1,-1,-1],"loss_changes":[1.2612938E0,8.3367574E-1,1.469852E0,0E0,7.5428134E-1,0E0,1.2636374E0,1.2354155E0,1.8228182E0,0E0,1.5978849E0,0E0,0E0,0E0,0E0,0E0,0E0],"parents":[2147483647,0,0,1,1,2,2,4,4,6,6,7,7,8,8,10,10],"right_children":[2,4,6,-1,8,-1,10,12,14,-1,16,-1,-1,-1,-1,-1,-1],"split_conditions":[1E0,2.84E2,3.564E3,3.5999358E-2,-3.315E3,-4.6579696E-2,2.26E-2,-7.539E3,1.128E3,-3.030704E-2,2.739E3,2.5628877E-4,4.013073E-2,-4.2013023E-2,1.0008134E-2,2.3196675E-2,-2.4563437E-2],"split_indices":[2,1,5,0,5,0,7,5,1,0,1,0,0,0,0,0,0],"split_type":[0,0,0,0,0,0,0,0,0,0,0,0,0,0,0,0,0],"sum_hessian":[2.4563E1,1.4955818E1,9.6071825E0,1.3960665E0,1.35597515E1,1.5581264E0,8.049056E0,8.055821E0,5.5039296E0,1.8972635E0,6.151792E0,6.2232285E0,1.8325934E0,1.6483173E0,3.8556123E0,4.521549E0,1.630243E0],"tree_param":{"num_deleted":"0","num_feature":"9","num_nodes":"17","size_leaf_vector":"1"}},{"base_weights":[-4.554014E-3,3.506397E-2,-7.017904E-2,-4.8802456E-1,5.251227E-2,6.7182765E-3,-7.1716386E-1,-3.0858836E-1,3.026226E-1,-5.071039E-2,-1.372373E-3,1.3648515E-2,-2.8813735E-2,4.6217587E-2,-6.960947E-3],"categories":[],"categories_nodes":[],"categories_segments":[],"categories_sizes":[],"default_left":[0,0,0,0,0,0,0,0,0,0,0,0,0,0,0],"id":31,"left_children":[1,-1,3,5,7,-1,9,11,13,-1,-1,-1,-1,-1,-1],"loss_changes":[1.226743E0,0E0,1.2646209E0,8.9254737E-1,1.8622172E0,0E0,8.404906E-1,1.4820166E0,3.4459486E0,0E0,0E0,0E0,0E0,0E0,0E0],"parents":[2147483647,0,0,2,2,3,3,4,4,6,6,7,7,8,8],"right_children":[2,-1,4,6,8,-1,10,12,14,-1,-1,-1,-1,-1,-1],"split_conditions":[-1.4E1,3.506397E-2,1.67E-2,-2.055E0,1.545E3,6.7182765E-3,1.7E1,2.932E-1,2.325E3,-5.071039E-2,-1.372373E-3,1.3648515E-2,-2.8813735E-2,4.6217587E-2,-6.960947E-3],"split_indices":[2,0,7,6,1,0,0,8,1,0,0,0,0,0,0],"split_type":[0,0,0,0,0,0,0,0,0,0,0,0,0,0,0],"sum_hessian":[2.4421406E1,1.253471E0,2.3167934E1,4.5827975E0,1.8585136E1,1.3444902E0,3.2383075E0,7.5094476E0,1.1075689E1,1.9346361E0,1.3036712E0,2.3607943E0,5.148653E0,4.147528E0,6.928161E0],"tree_param":{"num_deleted":"0","num_feature":"9","num_nodes":"15","size_leaf_vector":"1"}},{"base_weights":[-3.6870528E-3,1.6862099E-1,-2.6208642E-1,3.534219E-1,-1.039802E-1,-4.5293462E-1,1.7690202E-2,4.1985E-2,7.8428E-2,-4.5034105E-1,3.1590778E-1,-4.5938287E-2,-1.2869094E-1,-1.6117327E-2,1.754698E-2,-2.807697E-4,-3.0053994E-2,3.5668578E-2,-1.14232665E-2,-3.710439E-2,1.285912E-2],"categories":[],"categories_nodes":[],"categories_segments":[],"categories_sizes":[],"default_left":[0,0,0,0,0,0,0,0,0,0,0,0,0,0,0,0,0,0,0,0,0],"id":32,"left_children":[1,3,5,7,9,11,-1,-1,13,15,17,-1,19,-1,-1,-1,-1,-1,-1,-1,-1],"loss_changes":[1.1713977E0,8.325535E-1,1.3967428E0,1.2235031E0,1.1828407E0,1.1610323E0,0E0,0E0,9.0625226E-1,2.8710306E-1,9.8992944E-1,0E0,1.6480744E0,0E0,0E0,0E0,0E0,0E0,0E0,0E0,0E0],"parents":[2147483647,0,0,1,1,2,2,3,3,4,4,5,5,8,8,9,9,10,10,12,12],"right_children":[2,4,6,8,10,12,-1,-1,14,16,18,-1,20,-1,-1,-1,-1,-1,-1,-1,-1],"split_conditions":[1E0,6.91E-2,1.673E4,6.054E-1,-1.8603E0,1.259E-1,1.7690202E-2,4.1985E-2,3.4334E0,-5.2136E0,4.703E-1,-4.5938287E-2,7.5E2,-1.6117327E-2,1.754698E-2,-2.807697E-4,-3.0053994E-2,3.5668578E-2,-1.14232665E-2,-3.710439E-2,1.285912E-2],"split_indices":[2,7,5,6,6,6,0,0,6,6,8,0,1,0,0,0,0,0,0,0,0],"split_type":[0,0,0,0,0,0,0,0,0,0,0,0,0,0,0,0,0,0,0,0,0],"sum_hessian":[2.4316618E1,1.4797E1,9.519619E0,8.641978E0,6.1550217E0,7.469579E0,2.0500395E0,2.3799448E0,6.2620335E0,3.3330772E0,2.8219442E0,2.3129985E0,5.156581E0,2.4605317E0,3.8015015E0,1.106327E0,2.2267501E0,1.451623E0,1.3703213E0,1.6347657E0,3.521815E0],"tree_param":{"num_deleted":"0","num_feature":"9","num_nodes":"21","size_leaf_vector":"1"}},{"base_weights":[-4.043237E-3,3.4171797E-2,-6.7203686E-2,-4.8230356E-1,5.4862723E-2,-3.8459387E-2,1.5725254E-3,-2.85603E-1,2.916812E-1,1.33852465E-2,-2.699685E-2,4.5105882E-2,-6.670009E-3],"categories":[],"categories_nodes":[],"categories_segments":[],"categories_sizes":[],"default_left":[0,0,0,0,0,0,0,0,0,0,0,0,0],"id":33,"left_children":[1,-1,3,5,7,-1,-1,9,11,-1,-1,-1,-1],"loss_changes":[1.1384027E0,0E0,1.2401638E0,8.4150064E-1,1.6481376E0,0E0,0E0,1.3360548E0,3.2188463E0,0E0,0E0,0E0,0E0],"parents":[2147483647,0,0,2,2,3,3,4,4,7,7,8,8],"right_children":[2,-1,4,6,8,-1,-1,10,12,-1,-1,-1,-1],"split_conditions":[-1.4E1,3.4171797E-2,1.67E-2,1.7E1,1.545E3,-3.8459387E-2,1.5725254E-3,2.932E-1,2.325E3,1.33852465E-2,-2.699685E-2,4.5105882E-2,-6.670009E-3],"split_indices":[2,0,7,0,1,0,0,8,1,0,0,0,0],"split_type":[0,0,0,0,0,0,0,0,0,0,0,0,0],"sum_hessian":[2.4159735E1,1.2065235E0,2.295321E1,4.5452943E0,1.8407917E1,2.59759E0,1.9477044E0,7.4669466E0,1.0940969E1,2.3348556E0,5.132091E0,4.030608E0,6.910362E0],"tree_param":{"num_deleted":"0","num_feature":"9","num_nodes":"13","size_leaf_vector":"1"}},{"base_weights":[-2.8615633E-3,3.363445E-2,-6.443514E-2,-4.6438208E-1,5.3722154E-2,6.8123974E-3,-6.843694E-1,-1.9719814E-1,3.7043345E-1,-4.826162E-2,-1.4662358E-3,-1.9093497E-2,3.768966E-2,-8.691217E-3,3.7916016E-2],"categories":[],"categories_nodes":[],"categories_segments":[],"categories_sizes":[],"default_left":[0,0,0,0,0,0,0,0,0,0,0,0,0,0,0],"id":34,"left_children":[1,-1,3,5,7,-1,9,11,13,-1,-1,-1,-1,-1,-1],"loss_changes":[1.0859413E0,0E0,1.1536094E0,8.2664025E-1,1.6094394E0,0E0,7.49663E-1,2.2968807E0,2.0093412E0,0E0,0E0,0E0,0E0,0E0,0E0],"parents":[2147483647,0,0,2,2,3,3,4,4,6,6,7,7,8,8],"right_children":[2,-1,4,6,8,-1,10,12,14,-1,-1,-1,-1,-1,-1],"split_conditions":[-1.4E1,3.363445E-2,1.67E-2,-2.055E0,2.4251E0,6.8123974E-3,1.7E1,2E1,1.451E3,-4.826162E-2,-1.4662358E-3,-1.9093497E-2,3.768966E-2,-8.691217E-3,3.7916016E-2],"split_indices":[2,0,7,6,6,0,0,0,1,0,0,0,0,0,0],"split_type":[0,0,0,0,0,0,0,0,0,0,0,0,0,0,0],"sum_hessian":[2.4064793E1,1.1811306E0,2.2883661E1,4.5505257E0,1.8333136E1,1.3219284E0,3.2285974E0,1.0439561E1,7.893575E0,1.9282756E0,1.3003219E0,9.243105E0,1.1964557E0,3.5143435E0,4.379232E0],"tree_param":{"num_deleted":"0","num_feature":"9","num_nodes":"15","size_leaf_vector":"1"}},{"base_weights":[-1.083262E-3,1.6355826E-1,-2.4832058E-1,3.446284E-1,-1.02501E-1,-4.393192E-2,-4.3700185E-2,4.1416846E-2,7.400792E-2,-4.2693624E-1,3.0016968E-1,4.8545775E-1,-2.9900777E-1,2.1746906E-2,-1.0975394E-2,-2.9275388E-2,-1.2115116E-3,3.4830276E-2,-1.1505599E-2,3.309227E-2,3.203405E-3,-4.344957E-2,8.016649E-3],"categories":[],"categories_nodes":[],"categories_segments":[],"categories_sizes":[],"default_left":[0,0,0,0,0,0,0,0,0,0,0,0,0,0,0,0,0,0,0,0,0,0,0],"id":35,"left_children":[1,3,5,7,9,-1,11,-1,13,15,17,19,21,-1,-1,-1,-1,-1,-1,-1,-1,-1,-1],"loss_changes":[1.0573213E0,7.8665996E-1,1.3005375E0,1.1834862E0,1.0539334E0,0E0,1.3461028E0,0E0,8.577999E-1,2.627837E-1,9.484555E-1,2.0096654E-1,1.8712924E0,0E0,0E0,0E0,0E0,0E0,0E0,0E0,0E0,0E0,0E0],"parents":[2147483647,0,0,1,1,2,2,3,3,4,4,6,6,8,8,9,9,10,10,11,11,12,12],"right_children":[2,4,6,8,10,-1,12,-1,14,16,18,20,22,-1,-1,-1,-1,-1,-1,-1,-1,-1,-1],"split_conditions":[1E0,6.91E-2,3.564E3,6.054E-1,-1.8603E0,-4.393192E-2,7.11E3,4.1416846E-2,1.6E1,-1.694E3,4.703E-1,1.224E3,8.799E3,2.1746906E-2,-1.0975394E-2,-2.9275388E-2,-1.2115116E-3,3.4830276E-2,-1.1505599E-2,3.309227E-2,3.203405E-3,-4.344957E-2,8.016649E-3],"split_indices":[2,7,5,6,6,0,5,0,0,5,8,1,5,0,0,0,0,0,0,0,0,0,0],"split_type":[0,0,0,0,0,0,0,0,0,0,0,0,0,0,0,0,0,0,0,0,0,0,0],"sum_hessian":[2.397711E1,1.4595834E1,9.381275E0,8.509366E0,6.086468E0,1.4918257E0,7.889449E0,2.3134365E0,6.1959295E0,3.3373084E0,2.7491598E0,2.2742696E0,5.6151795E0,2.5627494E0,3.6331804E0,2.0687668E0,1.2685416E0,1.3936341E0,1.3555256E0,1.2009454E0,1.0733243E0,2.1078198E0,3.5073597E0],"tree_param":{"num_deleted":"0","num_feature":"9","num_nodes":"23","size_leaf_vector":"1"}},{"base_weights":[-8.789471E-4,3.3027492E-2,-6.0702447E-2,-4.5249093E-1,5.5096902E-2,-3.629755E-2,1.8472826E-3,-1.8591462E-1,3.602745E-1,-1.8098107E-2,3.6650773E-2,-8.367547E-3,3.7053704E-2],"categories":[],"categories_nodes":[],"categories_segments":[],"categories_sizes":[],"default_left":[0,0,0,0,0,0,0,0,0,0,0,0,0],"id":36,"left_children":[1,-1,3,5,7,-1,-1,9,11,-1,-1,-1,-1],"loss_changes":[1.022843E0,0E0,1.0998137E0,7.647655E-1,1.477585E0,0E0,0E0,2.1055849E0,1.8927343E0,0E0,0E0,0E0,0E0],"parents":[2147483647,0,0,2,2,3,3,4,4,7,7,8,8],"right_children":[2,-1,4,6,8,-1,-1,10,12,-1,-1,-1,-1],"split_conditions":[-1.4E1,3.3027492E-2,1.67E-2,1.7E1,2.4251E0,-3.629755E-2,1.8472826E-3,2E1,1.451E3,-1.8098107E-2,3.6650773E-2,-8.367547E-3,3.7053704E-2],"split_indices":[2,0,7,0,6,0,0,0,1,0,0,0,0],"split_type":[0,0,0,0,0,0,0,0,0,0,0,0,0],"sum_hessian":[2.3836271E1,1.1441805E0,2.2692091E1,4.513579E0,1.8178513E1,2.5856667E0,1.9279122E0,1.0375413E1,7.8030996E0,9.2159395E0,1.1594733E0,3.5059206E0,4.2971787E0],"tree_param":{"num_deleted":"0","num_feature":"9","num_nodes":"13","size_leaf_vector":"1"}},{"base_weights":[1.1159362E-3,1.6010752E-1,-2.3730415E-1,3.4669265E-2,6.1738536E-2,-4.283154E-2,-3.8197376E-2,2.4298322E-1,-1.8018281E-1,4.8219708E-1,-2.904642E-1,3.8521525E-2,-8.891565E-4,-3.589708E-2,5.644594E-3,3.2633554E-2,3.4183727E-3,-4.2108048E-2,7.8004114E-3],"categories":[],"categories_nodes":[],"categories_segments":[],"categories_sizes":[],"default_left":[0,0,0,0,0,0,0,0,0,0,0,0,0,0,0,0,0,0,0],"id":37,"left_children":[1,3,5,-1,7,-1,9,11,13,15,17,-1,-1,-1,-1,-1,-1,-1,-1],"loss_changes":[9.7649497E-1,7.676841E-1,1.2383556E0,0E0,6.638616E-1,0E0,1.3014549E0,1.1842587E0,1.126162E0,1.8566793E-1,1.7527637E0,0E0,0E0,0E0,0E0,0E0,0E0,0E0,0E0],"parents":[2147483647,0,0,1,1,2,2,4,4,6,6,7,7,8,8,9,9,10,10],"right_children":[2,4,6,-1,8,-1,10,12,14,16,18,-1,-1,-1,-1,-1,-1,-1,-1],"split_conditions":[1E0,2.84E2,3.564E3,3.4669265E-2,6.91E-2,-4.283154E-2,7.11E3,6.054E-1,1.141E3,1.224E3,8.799E3,3.8521525E-2,-8.891565E-4,-3.589708E-2,5.644594E-3,3.2633554E-2,3.4183727E-3,-4.2108048E-2,7.8004114E-3],"split_indices":[2,1,5,0,7,0,5,6,1,1,5,0,0,0,0,0,0,0,0],"split_type":[0,0,0,0,0,0,0,0,0,0,0,0,0,0,0,0,0,0,0],"sum_hessian":[2.375812E1,1.4450318E1,9.3078E0,1.3084006E0,1.3141918E1,1.4609889E0,7.846812E0,7.510642E0,5.631276E0,2.2643297E0,5.582482E0,1.8381548E0,5.6724873E0,1.475046E0,4.15623E0,1.1949357E0,1.0693941E0,2.1005814E0,3.4819005E0],"tree_param":{"num_deleted":"0","num_feature":"9","num_nodes":"19","size_leaf_vector":"1"}},{"base_weights":[1.1454507E-3,3.2449346E-2,-5.697785E-2,-4.4200203E-1,5.6853916E-2,-1.0644617E-1,-4.5654114E-2,-1.335146E-1,4.2457408E-1,1.6158579E-2,-2.1581862E-2,1.7613852E-2,-1.7252807E-2,-7.464783E-3,3.706978E-2],"categories":[],"categories_nodes":[],"categories_segments":[],"categories_sizes":[],"default_left":[0,0,0,0,0,0,0,0,0,0,0,0,0,0,0],"id":38,"left_children":[1,-1,3,5,7,9,-1,11,13,-1,-1,-1,-1,-1,-1],"loss_changes":[9.648201E-1,0E0,1.0564626E0,7.6960206E-1,1.3900839E0,7.450363E-1,0E0,1.4894891E0,1.3355016E0,0E0,0E0,0E0,0E0,0E0,0E0],"parents":[2147483647,0,0,2,2,3,3,4,4,5,5,7,7,8,8],"right_children":[2,-1,4,6,8,10,-1,12,14,-1,-1,-1,-1,-1,-1],"split_conditions":[-1.4E1,3.2449346E-2,1.67E-2,1.13E-2,2.8007E0,1.024E3,-4.5654114E-2,3E0,1.4E1,1.6158579E-2,-2.1581862E-2,1.7613852E-2,-1.7252807E-2,-7.464783E-3,3.706978E-2],"split_indices":[2,0,7,7,6,1,0,3,0,0,0,0,0,0,0],"split_type":[0,0,0,0,0,0,0,0,0,0,0,0,0,0,0],"sum_hessian":[2.3640816E1,1.1094304E0,2.2531385E1,4.4834933E0,1.8047894E1,3.3343554E0,1.1491377E0,1.2311269E1,5.7366242E0,1.4392016E0,1.8951538E0,3.5329008E0,8.778368E0,2.2286193E0,3.508005E0],"tree_param":{"num_deleted":"0","num_feature":"9","num_nodes":"15","size_leaf_vector":"1"}},{"base_weights":[1.6233351E-3,3.1952366E-2,-5.5107698E-2,-4.3008405E-1,5.5805176E-2,-1.0235968E-1,-4.4658314E-2,-1.7026117E-1,3.4444728E-1,1.5710881E-2,-2.0844137E-2,-1.7024005E-2,3.6021806E-2,-8.237277E-3,3.592775E-2],"categories":[],"categories_nodes":[],"categories_segments":[],"categories_sizes":[],"default_left":[0,0,0,0,0,0,0,0,0,0,0,0,0,0,0],"id":39,"left_children":[1,-1,3,5,7,9,-1,11,13,-1,-1,-1,-1,-1,-1],"loss_changes":[9.2330027E-1,0E0,1.0002021E0,7.3914564E-1,1.2983992E0,6.988736E-1,0E0,1.9621398E0,1.7710112E0,0E0,0E0,0E0,0E0,0E0,0E0],"parents":[2147483647,0,0,2,2,3,3,4,4,5,5,7,7,8,8],"right_children":[2,-1,4,6,8,10,-1,12,14,-1,-1,-1,-1,-1,-1],"split_conditions":[-1.4E1,3.1952366E-2,1.67E-2,1.13E-2,2.4251E0,1.024E3,-4.4658314E-2,2E1,1.451E3,1.5710881E-2,-2.0844137E-2,-1.7024005E-2,3.6021806E-2,-8.237277E-3,3.592775E-2],"split_indices":[2,0,7,7,6,1,0,0,1,0,0,0,0,0,0],"split_type":[0,0,0,0,0,0,0,0,0,0,0,0,0,0,0],"sum_hessian":[2.3558672E1,1.0864887E0,2.2472183E1,4.472796E0,1.7999388E1,3.3342087E0,1.138587E0,1.0323829E1,7.6755586E0,1.4348111E0,1.8993976E0,9.186045E0,1.1377844E0,3.4878817E0,4.187677E0],"tree_param":{"num_deleted":"0","num_feature":"9","num_nodes":"15","size_leaf_vector":"1"}},{"base_weights":[2.8147898E-3,1.5671048E-1,-2.2808878E-1,3.3921022E-2,6.1150506E-2,-4.0733084E-1,1.712177E-2,2.366699E-1,-1.7162766E-1,-5.8444166E-1,9.771059E-3,3.8108245E-2,-1.0676866E-3,-3.44586E-2,5.53668E-3,-4.8183184E-2,-1.2601144E-2],"categories":[],"categories_nodes":[],"categories_segments":[],"categories_sizes":[],"default_left":[0,0,0,0,0,0,0,0,0,0,0,0,0,0,0,0,0],"id":40,"left_children":[1,3,5,-1,7,9,-1,11,13,15,-1,-1,-1,-1,-1,-1,-1],"loss_changes":[9.0517473E-1,7.200123E-1,1.1817855E0,0E0,6.129782E-1,9.909326E-1,0E0,1.1561863E0,1.041061E0,5.8888316E-1,0E0,0E0,0E0,0E0,0E0,0E0,0E0],"parents":[2147483647,0,0,1,1,2,2,4,4,5,5,7,7,8,8,9,9],"right_children":[2,4,6,-1,8,10,-1,12,14,16,-1,-1,-1,-1,-1,-1,-1],"split_conditions":[1E0,2.84E2,1.673E4,3.3921022E-2,6.91E-2,6.134E-1,1.712177E-2,6.054E-1,1.141E3,1.259E-1,9.771059E-3,3.8108245E-2,-1.0676866E-3,-3.44586E-2,5.53668E-3,-4.8183184E-2,-1.2601144E-2],"split_indices":[2,1,5,0,7,8,0,6,1,6,0,0,0,0,0,0,0],"split_type":[0,0,0,0,0,0,0,0,0,0,0,0,0,0,0,0,0],"sum_hessian":[2.3466845E1,1.4274382E1,9.192463E0,1.265571E0,1.300881E1,7.212536E0,1.9799275E0,7.4070373E0,5.6017733E0,5.5980115E0,1.6145244E0,1.7958084E0,5.611229E0,1.4688146E0,4.1329584E0,1.727893E0,3.8701184E0],"tree_param":{"num_deleted":"0","num_feature":"9","num_nodes":"17","size_leaf_vector":"1"}},{"base_weights":[3.0583972E-3,3.1408463E-2,-5.2218102E-2,-4.2122903E-1,5.6678876E-2,-3.4378786E-2,2.757347E-3,-1.20663226E-1,4.0227714E-1,1.7252123E-2,-1.6124628E-2,-7.651469E-3,3.577247E-2],"categories":[],"categories_nodes":[],"categories_segments":[],"categories_sizes":[],"default_left":[0,0,0,0,0,0,0,0,0,0,0,0,0],"id":41,"left_children":[1,-1,3,5,7,-1,-1,9,11,-1,-1,-1,-1],"loss_changes":[8.7381464E-1,0E0,9.595636E-1,7.26167E-1,1.2044924E0,0E0,0E0,1.3551582E0,1.2619385E0,0E0,0E0,0E0,0E0],"parents":[2147483647,0,0,2,2,3,3,4,4,7,7,8,8],"right_children":[2,-1,4,6,8,-1,-1,10,12,-1,-1,-1,-1],"split_conditions":[-1.4E1,3.1408463E-2,1.67E-2,1.7E1,2.8007E0,-3.4378786E-2,2.757347E-3,3E0,1.4E1,1.7252123E-2,-1.6124628E-2,-7.651469E-3,3.577247E-2],"split_indices":[2,0,7,0,6,0,0,3,0,0,0,0,0],"split_type":[0,0,0,0,0,0,0,0,0,0,0,0,0],"sum_hessian":[2.3339132E1,1.0541244E0,2.228501E1,4.424363E0,1.7860645E1,2.55339E0,1.870973E0,1.2233791E1,5.626855E0,3.484349E0,8.749442E0,2.213431E0,3.413424E0],"tree_param":{"num_deleted":"0","num_feature":"9","num_nodes":"13","size_leaf_vector":"1"}},{"base_weights":[4.18115E-3,1.544185E-1,-2.2150397E-1,3.3306614E-2,6.1396953E-2,-4.1233517E-2,-2.9571665E-2,2.3222312E-1,-1.6412152E-1,4.955279E-1,-2.8700185E-1,3.765067E-2,-1.0460431E-3,-3.3257063E-2,5.4454175E-3,3.2795552E-2,4.1601714E-3,-3.143437E-2,1.6586697E-2],"categories":[],"categories_nodes":[],"categories_segments":[],"categories_sizes":[],"default_left":[0,0,0,0,0,0,0,0,0,0,0,0,0,0,0,0,0,0,0],"id":42,"left_children":[1,3,5,-1,7,-1,9,11,13,15,17,-1,-1,-1,-1,-1,-1,-1,-1],"loss_changes":[8.5704124E-1,6.806518E-1,1.145955E0,0E0,5.7469344E-1,0E0,1.3191015E0,1.1151567E0,9.7378063E-1,1.5908378E-1,1.5775409E0,0E0,0E0,0E0,0E0,0E0,0E0,0E0,0E0],"parents":[2147483647,0,0,1,1,2,2,4,4,6,6,7,7,8,8,9,9,10,10],"right_children":[2,4,6,-1,8,-1,10,12,14,16,18,-1,-1,-1,-1,-1,-1,-1,-1],"split_conditions":[1E0,2.84E2,3.564E3,3.3306614E-2,6.91E-2,-4.1233517E-2,7.11E3,6.054E-1,1.141E3,1.224E3,1.673E4,3.765067E-2,-1.0460431E-3,-3.3257063E-2,5.4454175E-3,3.2795552E-2,4.1601714E-3,-3.143437E-2,1.6586697E-2],"split_indices":[2,1,5,0,7,0,5,6,1,1,5,0,0,0,0,0,0,0,0],"split_type":[0,0,0,0,0,0,0,0,0,0,0,0,0,0,0,0,0,0,0],"sum_hessian":[2.3267942E1,1.4158491E1,9.10945E0,1.2301811E0,1.292831E1,1.4031717E0,7.706279E0,7.339239E0,5.589071E0,2.2308815E0,5.4753976E0,1.7546903E0,5.584549E0,1.4648571E0,4.1242137E0,1.1808128E0,1.0500685E0,3.5170739E0,1.9583236E0],"tree_param":{"num_deleted":"0","num_feature":"9","num_nodes":"19","size_leaf_vector":"1"}},{"base_weights":[4.9860766E-3,3.0884638E-2,-4.8809685E-2,-4.1311806E-1,5.8630057E-2,-9.232306E-2,-4.3291476E-2,2.6571405E-1,-2.2697061E-1,1.5463807E-2,-1.9797137E-2,2.0452065E-2,-1.7021531E-2,-2.517339E-2,8.738384E-3],"categories":[],"categories_nodes":[],"categories_segments":[],"categories_sizes":[],"default_left":[0,0,0,0,0,0,0,0,0,0,0,0,0,0,0],"id":43,"left_children":[1,-1,3,5,7,9,-1,11,13,-1,-1,-1,-1,-1,-1],"loss_changes":[8.264568E-1,0E0,9.2978674E-1,7.033391E-1,1.1687994E0,6.438406E-1,0E0,1.1231625E0,1.0229564E0,0E0,0E0,0E0,0E0,0E0,0E0],"parents":[2147483647,0,0,2,2,3,3,4,4,5,5,7,7,8,8],"right_children":[2,-1,4,6,8,10,-1,12,14,-1,-1,-1,-1,-1,-1],"split_conditions":[-1.4E1,3.0884638E-2,1.67E-2,1.13E-2,7E-2,1.024E3,-4.3291476E-2,1.1E1,-1.8603E0,1.5463807E-2,-1.9797137E-2,2.0452065E-2,-1.7021531E-2,-2.517339E-2,8.738384E-3],"split_indices":[2,0,7,7,7,1,0,2,6,0,0,0,0,0,0],"split_type":[0,0,0,0,0,0,0,0,0,0,0,0,0,0,0],"sum_hessian":[2.3159065E1,1.0231957E0,2.2135868E1,4.3934326E0,1.7742435E1,3.27598E0,1.1174525E0,1.0325343E1,7.4170933E0,1.4023954E0,1.8735847E0,8.613738E0,1.7116044E0,4.2433653E0,3.1737278E0],"tree_param":{"num_deleted":"0","num_feature":"9","num_nodes":"15","size_leaf_vector":"1"}},{"base_weights":[3.565017E-3,3.04227E-2,-4.914505E-2,-4.023034E-1,5.527475E-2,-3.3100046E-2,3.1238252E-3,-2.3112741E-1,2.5580168E-1,9.301696E-3,-2.4822105E-2,4.3269623E-2,-7.852185E-3],"categories":[],"categories_nodes":[],"categories_segments":[],"categories_sizes":[],"default_left":[0,0,0,0,0,0,0,0,0,0,0,0,0],"id":44,"left_children":[1,-1,3,5,7,-1,-1,9,11,-1,-1,-1,-1],"loss_changes":[7.9672045E-1,0E0,8.721697E-1,6.9078076E-1,1.1312269E0,0E0,0E0,1.0013629E0,3.0186374E0,0E0,0E0,0E0,0E0],"parents":[2147483647,0,0,2,2,3,3,4,4,7,7,8,8],"right_children":[2,-1,4,6,8,-1,-1,10,12,-1,-1,-1,-1],"split_conditions":[-1.4E1,3.04227E-2,1.67E-2,1.7E1,1.545E3,-3.3100046E-2,3.1238252E-3,3.299E-1,2.325E3,9.301696E-3,-2.4822105E-2,4.3269623E-2,-7.852185E-3],"split_indices":[2,0,7,0,1,0,0,8,1,0,0,0,0],"split_type":[0,0,0,0,0,0,0,0,0,0,0,0,0],"sum_hessian":[2.305044E1,1.0025051E0,2.2047935E1,4.3803606E0,1.7667574E1,2.5379434E0,1.8424174E0,7.2130094E0,1.0454565E1,2.9202461E0,4.292763E0,3.7787905E0,6.6757746E0],"tree_param":{"num_deleted":"0","num_feature":"9","num_nodes":"13","size_leaf_vector":"1"}},{"base_weights":[4.3420275E-3,1.4853954E-1,-2.1174213E-1,3.2584824E-2,5.778263E-2,-4.037443E-2,-2.3164704E-2,2.2213328E-1,-1.5770003E-1,4.8956245E-1,-2.7586535E-1,3.7042573E-2,-1.3061367E-3,-3.1945854E-2,5.241788E-3,3.2590788E-2,3.762636E-3,-3.0248716E-2,1.617319E-2],"categories":[],"categories_nodes":[],"categories_segments":[],"categories_sizes":[],"default_left":[0,0,0,0,0,0,0,0,0,0,0,0,0,0,0,0,0,0,0],"id":45,"left_children":[1,3,5,-1,7,-1,9,11,13,15,17,-1,-1,-1,-1,-1,-1,-1,-1],"loss_changes":[7.7795625E-1,6.453498E-1,1.1048673E0,0E0,5.2264166E-1,0E0,1.252704E0,1.078685E0,8.935236E-1,1.666174E-1,1.4615699E0,0E0,0E0,0E0,0E0,0E0,0E0,0E0,0E0],"parents":[2147483647,0,0,1,1,2,2,4,4,6,6,7,7,8,8,9,9,10,10],"right_children":[2,4,6,-1,8,-1,10,12,14,16,18,-1,-1,-1,-1,-1,-1,-1,-1],"split_conditions":[1E0,2.84E2,3.564E3,3.2584824E-2,6.91E-2,-4.037443E-2,7.11E3,6.054E-1,1.141E3,1.224E3,1.673E4,3.7042573E-2,-1.3061367E-3,-3.1945854E-2,5.241788E-3,3.2590788E-2,3.762636E-3,-3.0248716E-2,1.617319E-2],"split_indices":[2,1,5,0,7,0,5,6,1,1,5,0,0,0,0,0,0,0,0],"split_type":[0,0,0,0,0,0,0,0,0,0,0,0,0,0,0,0,0,0,0],"sum_hessian":[2.2958055E1,1.3956903E1,9.001151E0,1.1882969E0,1.2768607E1,1.3750731E0,7.626078E0,7.2262297E0,5.5423775E0,2.2082462E0,5.417832E0,1.6967449E0,5.5294847E0,1.4503354E0,4.092042E0,1.174879E0,1.0333672E0,3.4912603E0,1.9265714E0],"tree_param":{"num_deleted":"0","num_feature":"9","num_nodes":"19","size_leaf_vector":"1"}},{"base_weights":[5.170515E-3,-3.1524324E-1,9.86576E-2,-3.2403734E-2,8.2770735E-3,-6.410026E-2,4.1377228E-1,1.9310093E-1,-4.2410603E-1,-1.135848E-2,6.5549004E-1,-7.457097E-3,3.5574656E-2,1.0638815E-2,-3.4943834E-2,-8.102926E-3,4.7671825E-2],"categories":[],"categories_nodes":[],"categories_segments":[],"categories_sizes":[],"default_left":[0,0,0,0,0,0,0,0,0,0,0,0,0,0,0,0,0],"id":46,"left_children":[1,3,5,-1,-1,7,9,11,13,-1,15,-1,-1,-1,-1,-1,-1],"loss_changes":[7.4553424E-1,1.0074689E0,1.0125294E0,0E0,0E0,1.3359069E0,1.1841283E0,1.6295145E0,1.1910762E0,0E0,1.3991106E0,0E0,0E0,0E0,0E0,0E0,0E0],"parents":[2147483647,0,0,1,1,2,2,5,5,6,6,7,7,8,8,10,10],"right_children":[2,4,6,-1,-1,8,10,12,14,-1,16,-1,-1,-1,-1,-1,-1],"split_conditions":[1.67E-2,1.7E1,2.8007E0,-3.2403734E-2,8.2770735E-3,2.325E3,1.3E1,1.545E3,3E0,-1.135848E-2,7.5E2,-7.457097E-3,3.5574656E-2,1.0638815E-2,-3.4943834E-2,-8.102926E-3,4.7671825E-2],"split_indices":[7,0,6,0,0,1,0,1,3,0,1,0,0,0,0,0,0],"split_type":[0,0,0,0,0,0,0,0,0,0,0,0,0,0,0,0,0],"sum_hessian":[2.285057E1,4.6254487E0,1.8225122E1,2.5276725E0,2.097776E0,1.2543132E1,5.6819906E0,7.586604E0,4.956528E0,1.5725043E0,4.1094866E0,4.9987345E0,2.5878694E0,1.5618913E0,3.3946369E0,1.2194542E0,2.8900323E0],"tree_param":{"num_deleted":"0","num_feature":"9","num_nodes":"17","size_leaf_vector":"1"}},{"base_weights":[5.3992043E-3,1.4696044E-1,-2.0729584E-1,3.214352E-2,5.769271E-2,-3.9565664E-2,-2.2774927E-2,2.1940944E-1,-1.541178E-1,4.8098898E-1,-2.71899E-1,3.6659304E-2,-1.2280997E-3,-3.0782094E-2,4.9822195E-3,3.223767E-2,3.3502725E-3,-3.768204E-2,6.571132E-3],"categories":[],"categories_nodes":[],"categories_segments":[],"categories_sizes":[],"default_left":[0,0,0,0,0,0,0,0,0,0,0,0,0,0,0,0,0,0,0],"id":47,"left_children":[1,3,5,-1,7,-1,9,11,13,15,17,-1,-1,-1,-1,-1,-1,-1,-1],"loss_changes":[7.4553245E-1,6.2003833E-1,1.0493727E0,0E0,5.0233847E-1,0E0,1.2046181E0,1.0419534E0,8.236983E-1,1.7322993E-1,1.3355671E0,0E0,0E0,0E0,0E0,0E0,0E0,0E0,0E0],"parents":[2147483647,0,0,1,1,2,2,4,4,6,6,7,7,8,8,9,9,10,10],"right_children":[2,4,6,-1,8,-1,10,12,14,16,18,-1,-1,-1,-1,-1,-1,-1,-1],"split_conditions":[1E0,2.84E2,3.564E3,3.214352E-2,6.91E-2,-3.9565664E-2,7.11E3,6.054E-1,1.141E3,1.224E3,8.799E3,3.6659304E-2,-1.2280997E-3,-3.0782094E-2,4.9822195E-3,3.223767E-2,3.3502725E-3,-3.768204E-2,6.571132E-3],"split_indices":[2,1,5,0,7,0,5,6,1,1,5,0,0,0,0,0,0,0,0],"split_type":[0,0,0,0,0,0,0,0,0,0,0,0,0,0,0,0,0,0,0],"sum_hessian":[2.2749023E1,1.3844043E1,8.90498E0,1.1658401E0,1.2678203E1,1.3484852E0,7.5564947E0,7.1688952E0,5.509308E0,2.192411E0,5.364084E0,1.6625459E0,5.506349E0,1.4486147E0,4.060693E0,1.1715354E0,1.0208757E0,2.0485897E0,3.315494E0],"tree_param":{"num_deleted":"0","num_feature":"9","num_nodes":"19","size_leaf_vector":"1"}},{"base_weights":[5.464791E-3,-3.099211E-1,9.7675666E-2,-3.1690657E-2,8.0871945E-3,-6.063394E-2,4.0557688E-1,1.8978034E-1,-4.069325E-1,-1.0714196E-2,6.429094E-1,-6.9976957E-3,3.4610864E-2,-3.4620974E-2,1.0049188E-2,-7.751898E-3,4.686814E-2],"categories":[],"categories_nodes":[],"categories_segments":[],"categories_sizes":[],"default_left":[0,0,0,0,0,0,0,0,0,0,0,0,0,0,0,0,0],"id":48,"left_children":[1,3,5,-1,-1,7,9,11,13,-1,15,-1,-1,-1,-1,-1,-1],"loss_changes":[7.176698E-1,9.560252E-1,9.5313966E-1,0E0,0E0,1.243667E0,1.1085147E0,1.503111E0,1.1740233E0,0E0,1.3252082E0,0E0,0E0,0E0,0E0,0E0,0E0],"parents":[2147483647,0,0,1,1,2,2,5,5,6,6,7,7,8,8,10,10],"right_children":[2,4,6,-1,-1,8,10,12,14,-1,16,-1,-1,-1,-1,-1,-1],"split_conditions":[1.67E-2,1.7E1,2.8007E0,-3.1690657E-2,8.0871945E-3,2.325E3,1.3E1,1.545E3,1.8E1,-1.0714196E-2,7.5E2,-6.9976957E-3,3.4610864E-2,-3.4620974E-2,1.0049188E-2,-7.751898E-3,4.686814E-2],"split_indices":[7,0,6,0,0,1,0,1,0,0,1,0,0,0,0,0,0],"split_type":[0,0,0,0,0,0,0,0,0,0,0,0,0,0,0,0,0],"sum_hessian":[2.2636538E1,4.586947E0,1.8049591E1,2.5156639E0,2.071283E0,1.245093E1,5.598661E0,7.4881196E0,4.9628096E0,1.576999E0,4.021662E0,4.9566617E0,2.5314581E0,3.2823584E0,1.6804513E0,1.2116501E0,2.8100119E0],"tree_param":{"num_deleted":"0","num_feature":"9","num_nodes":"17","size_leaf_vector":"1"}},{"base_weights":[5.673527E-3,1.4350179E-1,-2.0196584E-1,3.1708214E-2,5.550581E-2,-3.879141E-2,-2.102862E-2,2.1645701E-1,-1.5487182E-1,4.7263545E-1,-2.664242E-1,3.6271606E-2,-1.1638019E-3,-2.9674385E-2,4.475399E-3,3.1882502E-2,2.9593254E-3,-2.8328305E-2,1.4699518E-2],"categories":[],"categories_nodes":[],"categories_segments":[],"categories_sizes":[],"default_left":[0,0,0,0,0,0,0,0,0,0,0,0,0,0,0,0,0,0,0],"id":49,"left_children":[1,3,5,-1,7,-1,9,11,13,15,17,-1,-1,-1,-1,-1,-1,-1,-1],"loss_changes":[7.023887E-1,6.006704E-1,1.0015717E0,0E0,4.9347264E-1,0E0,1.153336E0,1.0068107E0,7.467099E-1,1.7897713E-1,1.2270069E0,0E0,0E0,0E0,0E0,0E0,0E0,0E0,0E0],"parents":[2147483647,0,0,1,1,2,2,4,4,6,6,7,7,8,8,9,9,10,10],"right_children":[2,4,6,-1,8,-1,10,12,14,16,18,-1,-1,-1,-1,-1,-1,-1,-1],"split_conditions":[1E0,2.84E2,3.564E3,3.1708214E-2,6.91E-2,-3.879141E-2,7.11E3,6.054E-1,1.141E3,1.224E3,1.673E4,3.6271606E-2,-1.1638019E-3,-2.9674385E-2,4.475399E-3,3.1882502E-2,2.9593254E-3,-2.8328305E-2,1.4699518E-2],"split_indices":[2,1,5,0,7,0,5,6,1,1,5,0,0,0,0,0,0,0,0],"split_type":[0,0,0,0,0,0,0,0,0,0,0,0,0,0,0,0,0,0,0],"sum_hessian":[2.2530392E1,1.3727288E1,8.803103E0,1.1436416E0,1.2583647E1,1.3220968E0,7.4810066E0,7.1129365E0,5.4707103E0,2.1765041E0,5.304503E0,1.6288148E0,5.484122E0,1.4463097E0,4.0244007E0,1.1680464E0,1.0084577E0,3.4472685E0,1.8572342E0],"tree_param":{"num_deleted":"0","num_feature":"9","num_nodes":"19","size_leaf_vector":"1"}},{"base_weights":[6.476063E-3,-3.0571955E-1,9.7935334E-2,-3.1051895E-2,7.870782E-3,-2.8226903E-1,2.2053514E-1,1.4095989E-1,-4.059421E-2,4.0517765E-1,-1.9728568E-1,-1.0038016E-2,2.0663986E-2,-7.2762705E-3,3.1836692E-2,-3.765494E-2,2.7046246E-2],"categories":[],"categories_nodes":[],"categories_segments":[],"categories_sizes":[],"default_left":[0,0,0,0,0,0,0,0,0,0,0,0,0,0,0,0,0],"id":50,"left_children":[1,3,5,-1,-1,7,9,11,-1,13,15,-1,-1,-1,-1,-1,-1],"loss_changes":[6.9876754E-1,9.082493E-1,9.420207E-1,0E0,0E0,1.2443042E0,1.224284E0,4.22983E-1,0E0,1.4462256E0,2.5486069E0,0E0,0E0,0E0,0E0,0E0,0E0],"parents":[2147483647,0,0,1,1,2,2,5,5,6,6,7,7,9,9,10,10],"right_children":[2,4,6,-1,-1,8,10,12,-1,14,16,-1,-1,-1,-1,-1,-1],"split_conditions":[1.67E-2,1.7E1,-3.2278E0,-3.1051895E-2,7.870782E-3,2.233E3,4.703E-1,-7.0749E0,-4.059421E-2,9.63E2,6.232E-1,-1.0038016E-2,2.0663986E-2,-7.2762705E-3,3.1836692E-2,-3.765494E-2,2.7046246E-2],"split_indices":[7,0,6,0,0,1,8,6,0,1,8,0,0,0,0,0,0],"split_type":[0,0,0,0,0,0,0,0,0,0,0,0,0,0,0,0,0],"sum_hessian":[2.2423897E1,4.5499587E0,1.7873938E1,2.504123E0,2.0458357E0,4.040683E0,1.3833255E1,2.6538048E0,1.3868781E0,9.614635E0,4.21862E0,1.2934713E0,1.3603336E0,2.956001E0,6.658634E0,2.3951194E0,1.8235002E0],"tree_param":{"num_deleted":"0","num_feature":"9","num_nodes":"17","size_leaf_vector":"1"}},{"base_weights":[4.5851083E-3,1.3916016E-1,-1.9825359E-1,4.4477394E-1,2.5856457E-4,-3.805282E-2,-2.0912232E-2,3.8050245E-2,-2.1630926E-3,-2.4070922E-1,2.5800034E-1,2.3169957E-2,-2.6214337E-1,-3.1008705E-2,5.2317173E-5,-1.4341052E-2,2.7824292E-2,-3.552435E-2,6.0044094E-3],"categories":[],"categories_nodes":[],"categories_segments":[],"categories_sizes":[],"default_left":[0,0,0,0,0,0,0,0,0,0,0,0,0,0,0,0,0,0,0],"id":51,"left_children":[1,3,5,7,9,-1,11,-1,-1,13,15,-1,17,-1,-1,-1,-1,-1,-1],"loss_changes":[6.634702E-1,6.1929595E-1,9.525666E-1,7.365125E-1,7.4730486E-1,0E0,1.1036408E0,0E0,0E0,5.7117826E-1,1.1049922E0,0E0,1.1564428E0,0E0,0E0,0E0,0E0,0E0,0E0],"parents":[2147483647,0,0,1,1,2,2,3,3,4,4,6,6,9,9,10,10,12,12],"right_children":[2,4,6,8,10,-1,12,-1,-1,14,16,-1,18,-1,-1,-1,-1,-1,-1],"split_conditions":[1E0,9E2,3.564E3,-8E0,1.7E1,-3.805282E-2,7.11E3,3.8050245E-2,-2.1630926E-3,3.81E-2,-3.2278E0,2.3169957E-2,8.799E3,-3.1008705E-2,5.2317173E-5,-1.4341052E-2,2.7824292E-2,-3.552435E-2,6.0044094E-3],"split_indices":[2,1,5,2,0,0,5,0,0,7,6,0,5,0,0,0,0,0,0],"split_type":[0,0,0,0,0,0,0,0,0,0,0,0,0,0,0,0,0,0,0],"sum_hessian":[2.2294888E1,1.3591457E1,8.703431E0,3.5589383E0,1.0032519E1,1.2967248E0,7.406706E0,1.8201923E0,1.7387458E0,5.219134E0,4.813386E0,2.1564004E0,5.2503057E0,1.4219365E0,3.797197E0,1.7175128E0,3.095873E0,2.0209813E0,3.229324E0],"tree_param":{"num_deleted":"0","num_feature":"9","num_nodes":"19","size_leaf_vector":"1"}},{"base_weights":[3.3085349E-3,-2.9304886E-1,9.092877E-2,-2.9719694E-2,7.6542026E-3,-6.340708E-2,3.9323276E-1,1.8084447E-1,-3.9544147E-1,-1.0321869E-2,6.2844825E-1,-6.7146756E-3,3.3238795E-2,1.1034193E-2,-3.3014994E-2,-7.2362437E-3,4.5750555E-2],"categories":[],"categories_nodes":[],"categories_segments":[],"categories_sizes":[],"default_left":[0,0,0,0,0,0,0,0,0,0,0,0,0,0,0,0,0],"id":52,"left_children":[1,3,5,-1,-1,7,9,11,13,-1,15,-1,-1,-1,-1,-1,-1],"loss_changes":[6.2849456E-1,8.3386743E-1,8.9515847E-1,0E0,0E0,1.1427604E0,1.0385058E0,1.3545661E0,1.1105173E0,0E0,1.2125263E0,0E0,0E0,0E0,0E0,0E0,0E0],"parents":[2147483647,0,0,1,1,2,2,5,5,6,6,7,7,8,8,10,10],"right_children":[2,4,6,-1,-1,8,10,12,14,-1,16,-1,-1,-1,-1,-1,-1],"split_conditions":[1.67E-2,1.7E1,2.8007E0,-2.9719694E-2,7.6542026E-3,2.325E3,1.3E1,1.545E3,3E0,-1.0321869E-2,7.5E2,-6.7146756E-3,3.3238795E-2,1.1034193E-2,-3.3014994E-2,-7.2362437E-3,4.5750555E-2],"split_indices":[7,0,6,0,0,1,0,1,3,0,1,0,0,0,0,0,0],"split_type":[0,0,0,0,0,0,0,0,0,0,0,0,0,0,0,0,0],"sum_hessian":[2.2177504E1,4.525705E0,1.7651798E1,2.502823E0,2.0228817E0,1.2208979E1,5.44282E0,7.296709E0,4.9122696E0,1.5678958E0,3.8749242E0,4.8565803E0,2.4401288E0,1.5269642E0,3.3853056E0,1.1816599E0,2.6932645E0],"tree_param":{"num_deleted":"0","num_feature":"9","num_nodes":"17","size_leaf_vector":"1"}},{"base_weights":[3.738788E-3,1.3670194E-1,-1.9714253E-1,4.3533033E-1,1.7094754E-3,-3.7333667E-2,-2.3668071E-2,3.747102E-2,-2.0986735E-3,-3.041911E-1,1.955211E-1,2.2608763E-2,-2.611361E-1,7.0609124E-3,-3.1638864E-2,3.3904016E-2,-5.9624336E-4,-2.7016807E-2,1.3523854E-2],"categories":[],"categories_nodes":[],"categories_segments":[],"categories_sizes":[],"default_left":[0,0,0,0,0,0,0,0,0,0,0,0,0,0,0,0,0,0,0],"id":53,"left_children":[1,3,5,7,9,-1,11,-1,-1,13,15,-1,17,-1,-1,-1,-1,-1,-1],"loss_changes":[6.4330137E-1,5.8281076E-1,8.975008E-1,7.0646465E-1,7.100438E-1,0E0,1.0592849E0,0E0,0E0,7.6949906E-1,7.4145544E-1,0E0,1.0649669E0,0E0,0E0,0E0,0E0,0E0,0E0],"parents":[2147483647,0,0,1,1,2,2,3,3,4,4,6,6,9,9,10,10,12,12],"right_children":[2,4,6,8,10,-1,12,-1,-1,14,16,-1,18,-1,-1,-1,-1,-1,-1],"split_conditions":[1E0,9E2,3.564E3,-8E0,-5E0,-3.7333667E-2,7.11E3,3.747102E-2,-2.0986735E-3,5.88E-2,3E0,2.2608763E-2,1.673E4,7.0609124E-3,-3.1638864E-2,3.3904016E-2,-5.9624336E-4,-2.7016807E-2,1.3523854E-2],"split_indices":[2,1,5,2,2,0,5,0,0,7,3,0,5,0,0,0,0,0,0],"split_type":[0,0,0,0,0,0,0,0,0,0,0,0,0,0,0,0,0,0,0],"sum_hessian":[2.207585E1,1.3475752E1,8.600099E0,3.5025692E0,9.973183E0,1.2706665E0,7.329432E0,1.7686177E0,1.7339516E0,3.6471777E0,6.326005E0,2.139036E0,5.1903963E0,1.790424E0,1.8567537E0,1.2198021E0,5.1062026E0,3.3923476E0,1.7980485E0],"tree_param":{"num_deleted":"0","num_feature":"9","num_nodes":"19","size_leaf_vector":"1"}},{"base_weights":[4.3138717E-3,1.3361377E-1,-1.9097805E-1,3.094667E-2,4.7052287E-2,-3.668654E-2,-2.14055E-2,2.7693927E-1,-9.091547E-2,2.1865806E-2,-2.5058448E-1,3.164979E-2,1.106447E-3,-2.5421957E-2,6.5550245E-3,-3.336766E-2,5.4593477E-3],"categories":[],"categories_nodes":[],"categories_segments":[],"categories_sizes":[],"default_left":[0,0,0,0,0,0,0,0,0,0,0,0,0,0,0,0,0],"id":54,"left_children":[1,3,5,-1,7,-1,9,11,13,-1,15,-1,-1,-1,-1,-1,-1],"loss_changes":[6.056786E-1,5.7631326E-1,8.645137E-1,0E0,4.474132E-1,0E0,9.839655E-1,4.6141717E-1,9.076411E-1,0E0,9.9980235E-1,0E0,0E0,0E0,0E0,0E0,0E0],"parents":[2147483647,0,0,1,1,2,2,4,4,6,6,7,7,8,8,10,10],"right_children":[2,4,6,-1,8,-1,10,12,14,-1,16,-1,-1,-1,-1,-1,-1],"split_conditions":[1E0,2.84E2,3.564E3,3.094667E-2,2.579E-1,-3.668654E-2,7.11E3,2.1234E0,1.141E3,2.1865806E-2,8.799E3,3.164979E-2,1.106447E-3,-2.5421957E-2,6.5550245E-3,-3.336766E-2,5.4593477E-3],"split_indices":[2,1,5,0,8,0,5,6,1,0,5,0,0,0,0,0,0],"split_type":[0,0,0,0,0,0,0,0,0,0,0,0,0,0,0,0,0],"sum_hessian":[2.197557E1,1.3411704E1,8.563866E0,1.0991184E0,1.2312586E1,1.2466753E0,7.3171906E0,4.240175E0,8.072411E0,2.1352055E0,5.181985E0,1.1496038E0,3.090571E0,2.3544765E0,5.7179346E0,2.0047235E0,3.1772614E0],"tree_param":{"num_deleted":"0","num_feature":"9","num_nodes":"17","size_leaf_vector":"1"}},{"base_weights":[4.2237844E-3,-2.9040667E-1,9.156805E-2,-2.9422864E-2,7.783675E-3,-2.7940023E-1,2.130685E-1,1.2724143E-1,-3.8955823E-2,3.92664E-1,-1.8631688E-1,-1.0726902E-2,2.0196933E-2,-7.020287E-3,3.0734736E-2,-3.5980813E-2,2.6318787E-2],"categories":[],"categories_nodes":[],"categories_segments":[],"categories_sizes":[],"default_left":[0,0,0,0,0,0,0,0,0,0,0,0,0,0,0,0,0],"id":55,"left_children":[1,3,5,-1,-1,7,9,11,-1,13,15,-1,-1,-1,-1,-1,-1],"loss_changes":[6.152431E-1,8.189019E-1,8.8904905E-1,0E0,0E0,1.1097218E0,1.1082444E0,4.2725915E-1,0E0,1.3025788E0,2.3379035E0,0E0,0E0,0E0,0E0,0E0,0E0],"parents":[2147483647,0,0,1,1,2,2,5,5,6,6,7,7,9,9,10,10],"right_children":[2,4,6,-1,-1,8,10,12,-1,14,16,-1,-1,-1,-1,-1,-1],"split_conditions":[1.67E-2,1.7E1,-3.2278E0,-2.9422864E-2,7.783675E-3,2.233E3,4.703E-1,-7.0749E0,-3.8955823E-2,9.63E2,6.232E-1,-1.0726902E-2,2.0196933E-2,-7.020287E-3,3.0734736E-2,-3.5980813E-2,2.6318787E-2],"split_indices":[7,0,6,0,0,1,8,6,0,1,8,0,0,0,0,0,0],"split_type":[0,0,0,0,0,0,0,0,0,0,0,0,0,0,0,0,0],"sum_hessian":[2.1874203E1,4.4702535E0,1.7403948E1,2.4884257E0,1.9818276E0,3.973222E0,1.3430726E1,2.6015754E0,1.3716468E0,9.276226E0,4.154501E0,1.2644097E0,1.3371657E0,2.8356917E0,6.4405336E0,2.3707685E0,1.7837324E0],"tree_param":{"num_deleted":"0","num_feature":"9","num_nodes":"17","size_leaf_vector":"1"}},{"base_weights":[2.4791018E-3,1.3004045E-1,-1.9045493E-1,4.3374783E-1,-5.888071E-3,-3.6026474E-2,-2.4351293E-2,3.692382E-2,-1.5944889E-3,-2.3630455E-1,2.4361038E-1,2.1309227E-2,-2.4943995E-1,1.4157462E-3,-2.7868453E-2,-1.9580616E-2,2.4099408E-2,-2.5695978E-2,1.2878837E-2],"categories":[],"categories_nodes":[],"categories_segments":[],"categories_sizes":[],"default_left":[0,0,0,0,0,0,0,0,0,0,0,0,0,0,0,0,0,0,0],"id":56,"left_children":[1,3,5,7,9,-1,11,-1,-1,13,15,-1,17,-1,-1,-1,-1,-1,-1],"loss_changes":[5.8458245E-1,5.923745E-1,8.1531155E-1,6.5225554E-1,6.8169564E-1,0E0,9.416539E-1,0E0,0E0,5.384332E-1,1.0525973E0,0E0,9.535447E-1,0E0,0E0,0E0,0E0,0E0,0E0],"parents":[2147483647,0,0,1,1,2,2,3,3,4,4,6,6,9,9,10,10,12,12],"right_children":[2,4,6,8,10,-1,12,-1,-1,14,16,-1,18,-1,-1,-1,-1,-1,-1],"split_conditions":[1E0,9E2,3.564E3,-8E0,1.7E1,-3.6026474E-2,7.11E3,3.692382E-2,-1.5944889E-3,7.03E-2,1.128E3,2.1309227E-2,1.673E4,1.4157462E-3,-2.7868453E-2,-1.9580616E-2,2.4099408E-2,-2.5695978E-2,1.2878837E-2],"split_indices":[2,1,5,2,0,0,5,0,0,7,1,0,5,0,0,0,0,0,0],"split_type":[0,0,0,0,0,0,0,0,0,0,0,0,0,0,0,0,0,0,0],"sum_hessian":[2.174663E1,1.3287426E1,8.459205E0,3.430841E0,9.8565855E0,1.2219269E0,7.2372775E0,1.7195587E0,1.7112823E0,5.151739E0,4.704846E0,2.1135013E0,5.1237764E0,3.32396E0,1.8277792E0,1.108397E0,3.596449E0,3.3583279E0,1.7654485E0],"tree_param":{"num_deleted":"0","num_feature":"9","num_nodes":"19","size_leaf_vector":"1"}},{"base_weights":[1.7922652E-3,-2.8233388E-1,8.686306E-2,-2.8698971E-2,7.742252E-3,-6.5362215E-2,3.8685203E-1,1.7494021E-1,-3.862969E-1,-9.716812E-3,6.1910444E-1,-6.351018E-3,3.1955425E-2,1.0339049E-2,-3.1682324E-2,-6.7278743E-3,4.4771682E-2],"categories":[],"categories_nodes":[],"categories_segments":[],"categories_sizes":[],"default_left":[0,0,0,0,0,0,0,0,0,0,0,0,0,0,0,0,0],"id":57,"left_children":[1,3,5,-1,-1,7,9,11,13,-1,15,-1,-1,-1,-1,-1,-1],"loss_changes":[5.7162106E-1,7.8385687E-1,8.5566574E-1,0E0,0E0,1.0638486E0,9.660614E-1,1.2130276E0,9.881557E-1,0E0,1.1025456E0,0E0,0E0,0E0,0E0,0E0,0E0],"parents":[2147483647,0,0,1,1,2,2,5,5,6,6,7,7,8,8,10,10],"right_children":[2,4,6,-1,-1,8,10,12,14,-1,16,-1,-1,-1,-1,-1,-1],"split_conditions":[1.67E-2,1.7E1,2.8007E0,-2.8698971E-2,7.742252E-3,2.325E3,1.3E1,1.545E3,3E0,-9.716812E-3,7.5E2,-6.351018E-3,3.1955425E-2,1.0339049E-2,-3.1682324E-2,-6.7278743E-3,4.4771682E-2],"split_indices":[7,0,6,0,0,1,0,1,3,0,1,0,0,0,0,0,0],"split_type":[0,0,0,0,0,0,0,0,0,0,0,0,0,0,0,0,0],"sum_hessian":[2.1634573E1,4.450761E0,1.7183813E1,2.4820495E0,1.9687116E0,1.1918202E1,5.26561E0,7.075368E0,4.8428345E0,1.5500414E0,3.7155688E0,4.7267623E0,2.3486054E0,1.4735856E0,3.3692489E0,1.1344678E0,2.581101E0],"tree_param":{"num_deleted":"0","num_feature":"9","num_nodes":"17","size_leaf_vector":"1"}},{"base_weights":[2.3381237E-3,1.2770334E-1,-1.877232E-1,4.2456752E-1,-4.502935E-3,-3.5377827E-2,-2.4848936E-2,3.6369387E-2,-1.5601685E-3,-3.017901E-1,1.863888E-1,2.0819375E-2,-2.4590315E-1,6.5620393E-3,-3.0924961E-2,3.2563936E-2,-5.017298E-4,-3.1676684E-2,4.7982475E-3],"categories":[],"categories_nodes":[],"categories_segments":[],"categories_sizes":[],"default_left":[0,0,0,0,0,0,0,0,0,0,0,0,0,0,0,0,0,0,0],"id":58,"left_children":[1,3,5,7,9,-1,11,-1,-1,13,15,-1,17,-1,-1,-1,-1,-1,-1],"loss_changes":[5.608911E-1,5.581658E-1,7.74982E-1,6.268691E-1,6.688924E-1,0E0,8.986903E-1,0E0,0E0,7.124716E-1,6.6330767E-1,0E0,8.64897E-1,0E0,0E0,0E0,0E0,0E0,0E0],"parents":[2147483647,0,0,1,1,2,2,3,3,4,4,6,6,9,9,10,10,12,12],"right_children":[2,4,6,8,10,-1,12,-1,-1,14,16,-1,18,-1,-1,-1,-1,-1,-1],"split_conditions":[1E0,9E2,3.564E3,-8E0,-5E0,-3.5377827E-2,7.11E3,3.6369387E-2,-1.5601685E-3,5.88E-2,3E0,2.0819375E-2,8.799E3,6.5620393E-3,-3.0924961E-2,3.2563936E-2,-5.017298E-4,-3.1676684E-2,4.7982475E-3],"split_indices":[2,1,5,2,2,0,5,0,0,7,3,0,5,0,0,0,0,0,0],"split_type":[0,0,0,0,0,0,0,0,0,0,0,0,0,0,0,0,0,0,0],"sum_hessian":[2.153395E1,1.317305E1,8.360902E0,3.3775306E0,9.795519E0,1.1968426E0,7.1640596E0,1.6712077E0,1.7063228E0,3.6031573E0,6.192362E0,2.096228E0,5.0678315E0,1.7694416E0,1.8337158E0,1.1514504E0,5.040911E0,1.9751432E0,3.0926883E0],"tree_param":{"num_deleted":"0","num_feature":"9","num_nodes":"19","size_leaf_vector":"1"}},{"base_weights":[2.320443E-3,-2.7431163E-1,8.553534E-2,-2.7977927E-2,7.717499E-3,-2.819947E-1,2.0737399E-1,1.13938615E-1,-3.798137E-2,-9.87352E-2,4.284725E-1,-1.0915087E-2,1.938158E-2,8.369665E-3,-2.8002173E-2,4.1686837E-2,6.979545E-3],"categories":[],"categories_nodes":[],"categories_segments":[],"categories_sizes":[],"default_left":[0,0,0,0,0,0,0,0,0,0,0,0,0,0,0,0,0],"id":59,"left_children":[1,3,5,-1,-1,7,9,11,-1,13,15,-1,-1,-1,-1,-1,-1],"loss_changes":[5.398542E-1,7.497307E-1,8.648275E-1,0E0,0E0,1.0145206E0,9.966066E-1,4.0765998E-1,0E0,9.194786E-1,8.6400807E-1,0E0,0E0,0E0,0E0,0E0,0E0],"parents":[2147483647,0,0,1,1,2,2,5,5,6,6,7,7,9,9,10,10],"right_children":[2,4,6,-1,-1,8,10,12,-1,14,16,-1,-1,-1,-1,-1,-1],"split_conditions":[1.67E-2,1.7E1,-3.2278E0,-2.7977927E-2,7.717499E-3,2.233E3,1.545E3,-7.0749E0,-3.798137E-2,4.703E-1,2.325E3,-1.0915087E-2,1.938158E-2,8.369665E-3,-2.8002173E-2,4.1686837E-2,6.979545E-3],"split_indices":[7,0,6,0,0,1,1,6,0,8,1,0,0,0,0,0,0],"split_type":[0,0,0,0,0,0,0,0,0,0,0,0,0,0,0,0,0],"sum_hessian":[2.1432358E1,4.425199E0,1.7007158E1,2.4737291E0,1.9514699E0,3.9070199E0,1.3100138E1,2.5525424E0,1.3544774E0,5.7259865E0,7.3741517E0,1.2443684E0,1.3081741E0,4.0352097E0,1.6907768E0,2.28396E0,5.0901914E0],"tree_param":{"num_deleted":"0","num_feature":"9","num_nodes":"17","size_leaf_vector":"1"}},{"base_weights":[1.3448827E-3,1.2374391E-1,-1.8417956E-1,3.0102119E-2,3.872421E-2,-3.4824934E-2,-2.3813318E-2,2.668787E-1,-9.733764E-2,2.0532852E-2,-2.421726E-1,3.120162E-2,5.685749E-4,-2.4507537E-2,5.754521E-3,-2.4433393E-2,1.19160935E-2],"categories":[],"categories_nodes":[],"categories_segments":[],"categories_sizes":[],"default_left":[0,0,0,0,0,0,0,0,0,0,0,0,0,0,0,0,0],"id":60,"left_children":[1,3,5,-1,7,-1,9,11,13,-1,15,-1,-1,-1,-1,-1,-1],"loss_changes":[5.2967817E-1,5.4791075E-1,7.454195E-1,0E0,4.294076E-1,0E0,8.6781806E-1,4.603274E-1,7.9686946E-1,0E0,8.2936656E-1,0E0,0E0,0E0,0E0,0E0,0E0],"parents":[2147483647,0,0,1,1,2,2,4,4,6,6,7,7,8,8,10,10],"right_children":[2,4,6,-1,8,-1,10,12,14,-1,16,-1,-1,-1,-1,-1,-1],"split_conditions":[1E0,2.84E2,3.564E3,3.0102119E-2,2.579E-1,-3.4824934E-2,7.11E3,2.1234E0,1.141E3,2.0532852E-2,1.673E4,3.120162E-2,5.685749E-4,-2.4507537E-2,5.754521E-3,-2.4433393E-2,1.19160935E-2],"split_indices":[2,1,5,0,8,0,5,6,1,0,5,0,0,0,0,0,0],"split_type":[0,0,0,0,0,0,0,0,0,0,0,0,0,0,0,0,0],"sum_hessian":[2.1321949E1,1.3047148E1,8.2748E0,1.0513452E0,1.1995803E1,1.175685E0,7.0991154E0,4.12215E0,7.8736534E0,2.0799606E0,5.0191545E0,1.1176065E0,3.0045433E0,2.3046386E0,5.5690145E0,3.3061025E0,1.7130519E0],"tree_param":{"num_deleted":"0","num_feature":"9","num_nodes":"17","size_leaf_vector":"1"}},{"base_weights":[2.0373634E-3,-2.7026328E-1,8.418545E-2,2.1277884E-2,-3.608715E-2,-2.739938E-1,2.0335239E-1,1.9715773E-2,-1.6017776E-2,1.1226456E-1,-3.6950264E-2,3.7282816E-1,-1.6737029E-1,-1.0702769E-2,1.9052384E-2,-6.9282698E-3,2.9283885E-2,-3.383017E-2,2.5619408E-2],"categories":[],"categories_nodes":[],"categories_segments":[],"categories_sizes":[],"default_left":[0,0,0,0,0,0,0,0,0,0,0,0,0,0,0,0,0,0,0],"id":61,"left_children":[1,3,5,7,-1,9,11,-1,-1,13,-1,15,17,-1,-1,-1,-1,-1,-1],"loss_changes":[5.1998794E-1,7.247269E-1,8.171622E-1,6.674484E-1,0E0,9.594003E-1,9.39483E-1,0E0,0E0,3.9149472E-1,0E0,1.1576952E0,2.1016243E0,0E0,0E0,0E0,0E0,0E0,0E0],"parents":[2147483647,0,0,1,1,2,2,3,3,5,5,6,6,9,9,11,11,12,12],"right_children":[2,4,6,8,-1,10,12,-1,-1,14,-1,16,18,-1,-1,-1,-1,-1,-1],"split_conditions":[1.67E-2,1.13E-2,-3.2278E0,1.062E3,-3.608715E-2,2.233E3,4.703E-1,1.9715773E-2,-1.6017776E-2,-7.0749E0,-3.6950264E-2,9.63E2,6.232E-1,-1.0702769E-2,1.9052384E-2,-6.9282698E-3,2.9283885E-2,-3.383017E-2,2.5619408E-2],"split_indices":[7,7,6,1,0,1,8,0,0,6,0,1,8,0,0,0,0,0,0],"split_type":[0,0,0,0,0,0,0,0,0,0,0,0,0,0,0,0,0,0,0],"sum_hessian":[2.122881E1,4.3893256E0,1.6839483E1,3.2460642E0,1.1432616E0,3.8795383E0,1.2959946E1,1.4779974E0,1.7680668E0,2.5335994E0,1.3459389E0,8.890141E0,4.0698047E0,1.2362841E0,1.2973152E0,2.7153125E0,6.1748285E0,2.329402E0,1.7404028E0],"tree_param":{"num_deleted":"0","num_feature":"9","num_nodes":"19","size_leaf_vector":"1"}},{"base_weights":[-1.1015702E-4,1.2018258E-1,-1.826313E-1,4.2484114E-1,-1.4204853E-2,-2.9865596E-2,2.9226374E-3,3.5734236E-2,-8.8782253E-4,-2.552214E-1,2.2426982E-1,3.0395446E-2,-2.3776852E-1,5.889687E-4,-3.15479E-2,-4.4529303E-3,2.0856721E-2,-3.042078E-2,4.6065594E-3],"categories":[],"categories_nodes":[],"categories_segments":[],"categories_sizes":[],"default_left":[0,0,0,0,0,0,0,0,0,0,0,0,0,0,0,0,0,0,0],"id":62,"left_children":[1,3,5,7,9,-1,11,-1,-1,13,15,-1,17,-1,-1,-1,-1,-1,-1],"loss_changes":[5.0710016E-1,5.760256E-1,7.077014E-1,5.635007E-1,6.681048E-1,0E0,1.2124265E0,0E0,0E0,5.8464694E-1,3.921462E-1,0E0,7.8545964E-1,0E0,0E0,0E0,0E0,0E0,0E0],"parents":[2147483647,0,0,1,1,2,2,3,3,4,4,6,6,9,9,10,10,12,12],"right_children":[2,4,6,8,10,-1,12,-1,-1,14,16,-1,18,-1,-1,-1,-1,-1,-1],"split_conditions":[1E0,9E2,4.873E3,-8E0,-7.539E3,-2.9865596E-2,7.11E3,3.5734236E-2,-8.8782253E-4,-1.05E4,1.7E1,3.0395446E-2,8.799E3,5.889687E-4,-3.15479E-2,-4.4529303E-3,2.0856721E-2,-3.042078E-2,4.6065594E-3],"split_indices":[2,1,5,2,5,0,5,0,0,5,0,0,5,0,0,0,0,0,0],"split_type":[0,0,0,0,0,0,0,0,0,0,0,0,0,0,0,0,0,0,0],"sum_hessian":[2.1096546E1,1.2921813E1,8.174734E0,3.2936769E0,9.628136E0,1.8411069E0,6.3336267E0,1.6188142E0,1.6748626E0,4.7536216E0,4.8745146E0,1.3684062E0,4.965221E0,3.3451717E0,1.40845E0,2.0623107E0,2.8122036E0,1.9406397E0,3.024581E0],"tree_param":{"num_deleted":"0","num_feature":"9","num_nodes":"19","size_leaf_vector":"1"}},{"base_weights":[-2.9537067E-4,-2.653086E-1,8.0123134E-2,-2.7241379E-2,7.882502E-3,-6.858406E-2,3.7595847E-1,1.6313146E-1,-3.7116367E-1,-9.05596E-3,6.0367787E-1,-3.5881826E-3,3.6342334E-2,1.018425E-2,-3.028725E-2,-6.3538314E-3,4.3590896E-2],"categories":[],"categories_nodes":[],"categories_segments":[],"categories_sizes":[],"default_left":[0,0,0,0,0,0,0,0,0,0,0,0,0,0,0,0,0],"id":63,"left_children":[1,3,5,-1,-1,7,9,11,13,-1,15,-1,-1,-1,-1,-1,-1],"loss_changes":[4.9007785E-1,7.1877533E-1,8.0202895E-1,0E0,0E0,9.4312435E-1,8.7768334E-1,1.0880972E0,9.0072346E-1,0E0,9.9843574E-1,0E0,0E0,0E0,0E0,0E0,0E0],"parents":[2147483647,0,0,1,1,2,2,5,5,6,6,7,7,8,8,10,10],"right_children":[2,4,6,-1,-1,8,10,12,14,-1,16,-1,-1,-1,-1,-1,-1],"split_conditions":[1.67E-2,1.7E1,2.8007E0,-2.7241379E-2,7.882502E-3,2.325E3,1.3E1,1.914E3,3E0,-9.05596E-3,7.5E2,-3.5881826E-3,3.6342334E-2,1.018425E-2,-3.028725E-2,-6.3538314E-3,4.3590896E-2],"split_indices":[7,0,6,0,0,1,0,1,3,0,1,0,0,0,0,0,0],"split_type":[0,0,0,0,0,0,0,0,0,0,0,0,0,0,0,0,0],"sum_hessian":[2.0997993E1,4.353211E0,1.6644781E1,2.4475641E0,1.9056468E0,1.1588016E1,5.056766E0,6.8234673E0,4.7645483E0,1.5266671E0,3.5300992E0,5.432492E0,1.3909757E0,1.4189869E0,3.3455615E0,1.088828E0,2.441271E0],"tree_param":{"num_deleted":"0","num_feature":"9","num_nodes":"17","size_leaf_vector":"1"}},{"base_weights":[8.008181E-4,1.1921956E-1,-1.7981042E-1,4.15091E-1,-1.0549529E-2,-3.370754E-2,-2.4704507E-2,3.5186954E-2,-9.2776073E-4,-2.1204336E-1,2.73123E-1,1.9769859E-2,-2.3642264E-1,-2.5359407E-2,1.8080736E-2,-5.60858E-3,3.878716E-2,-2.3389818E-2,1.10608E-2],"categories":[],"categories_nodes":[],"categories_segments":[],"categories_sizes":[],"default_left":[0,0,0,0,0,0,0,0,0,0,0,0,0,0,0,0,0,0,0],"id":64,"left_children":[1,3,5,7,9,-1,11,-1,-1,13,15,-1,17,-1,-1,-1,-1,-1,-1],"loss_changes":[4.89969E-1,5.3548366E-1,6.790873E-1,5.44044E-1,6.632531E-1,0E0,8.001194E-1,0E0,0E0,1.327139E0,1.0234275E0,0E0,7.290967E-1,0E0,0E0,0E0,0E0,0E0,0E0],"parents":[2147483647,0,0,1,1,2,2,3,3,4,4,6,6,9,9,10,10,12,12],"right_children":[2,4,6,8,10,-1,12,-1,-1,14,16,-1,18,-1,-1,-1,-1,-1,-1],"split_conditions":[1E0,9E2,3.564E3,-8E0,2.69E3,-3.370754E-2,7.11E3,3.5186954E-2,-9.2776073E-4,-7.539E3,1.8E1,1.9769859E-2,1.673E4,-2.5359407E-2,1.8080736E-2,-5.60858E-3,3.878716E-2,-2.3389818E-2,1.10608E-2],"split_indices":[2,1,5,2,1,0,5,0,0,5,0,0,5,0,0,0,0,0,0],"split_type":[0,0,0,0,0,0,0,0,0,0,0,0,0,0,0,0,0,0,0],"sum_hessian":[2.0906557E1,1.2832663E1,8.0738945E0,3.2420807E0,9.590582E0,1.12906E0,6.944834E0,1.5725214E0,1.6695592E0,5.7551675E0,3.8354144E0,2.0364482E0,4.9083858E0,3.876562E0,1.8786055E0,2.6108422E0,1.2245722E0,3.2453835E0,1.6630023E0],"tree_param":{"num_deleted":"0","num_feature":"9","num_nodes":"19","size_leaf_vector":"1"}}]},"name":"gbtree"},"learner_model_param":{"base_score":"6.67672E-1","boost_from_average":"1","num_class":"0","num_feature":"9","num_target":"1"},"objective":{"name":"binary:logistic","reg_loss_param":{"scale_pos_weight":"1"}}},"version":[2,1,4]}